{"neuronsPerLayer":[784,70,35,10],"learningRate":0.3,"neuronBiases":[[0.35928186967402775,0.03834090076458285,0.0285518197338257,0.32398374767600924,0.6709664884966811,0.1564029627960103,-0.32581816435392463,-0.44512292618206845,-0.33455925235050143,-0.15513874243681763,0.10123466225636746,-0.39293416206663173,-0.4565543148469221,-0.09045315302737039,-0.12470632565604156,0.3323702346003349,-0.3616653201841602,0.4066958085699246,-0.48911469070673297,0.3665480738081335,0.2091286290775598,0.5595187425718353,-0.4459116154662356,-0.4916459063987758,0.2586848518185437,-0.3962613717238354,-0.033991649902061605,-0.09673038747910451,0.5983059597250024,0.5950438891113949,0.6102778992185518,-0.1423771588580528,0.10316099641776211,-0.2686746162279328,0.23954246296149506,0.24749164936760937,0.26343811838340037,0.1999877856345338,0.4051860374752918,-0.23704689657329026,0.3341957533361327,-0.0444523235805247,0.38134944512580293,0.04191542641989998,-0.1775756092585956,-0.43484733713766943,-0.10140964599964003,-0.10106001307411433,-0.47711980566408835,0.5295779448519817,0.22433092231191598,-0.2568668402609896,0.42479659188914265,0.6946778399296689,-0.2934641320055561,-0.29464064161740344,-0.4403722403764064,-0.08680726524727561,0.5138608210348088,-0.44130134097896623,-0.3544747767690331,-7.673235991882965E-4,-0.2401922535057791,0.41724409324992306,0.007294285303994341,-0.16231824805988027,-0.309779542470479,-0.162994062020144,-0.2888746190640823,0.068188545912647,0.542751040967939,0.5188617258527688,0.5514415557366086,0.05832997671095008,0.05372428175614141,-0.4728371692157429,-0.1372501748081888,-0.2870419138338569,0.592124132069517,-0.21121923977518992,0.3024320873383085,-0.3633393238162368,0.14222338958895342,0.626046991963839,0.16095703527123917,-0.3263111420709002,-0.3643257414701114,-0.3967863975843421,-0.19595778888336868,0.29462660153269926,-0.34932536397885544,0.42973241268731777,-0.06315845655367502,0.48149888993011725,0.25012193707205344,0.6648232748710059,-0.09671861600486265,0.4829370012186751,0.3224624893124921,0.5064733033267392,-0.4057860653336083,0.46844193074052165,0.01824233640417683,-0.3758187074643986,0.3361049839697182,0.3057077460487413,-0.25783855002926814,0.4084330192356259,0.3675183861806691,-0.18261046416300747,0.06473051052485967,-0.4389351820636394,-0.016291793767046814,0.5436222061112375,0.459426308604469,-0.3606540921652637,0.5401747138074509,0.044017623187002086,-0.24946140090159158,0.3927797685804266,-0.1459115148213701,-0.2822094043696942,-0.42630201392792655,0.4952989939742206,0.12803304043064023,0.6030851530509176,0.40537201636328335,0.3766980386289748,0.5435639074316829,0.6364947552351361,-0.1905879220274303,-0.10417860939344414,-0.067371991278387,0.6111922166557042,0.4780324591699543,0.5741960178012768,0.632935317977265,-0.23299365303229352,0.6113980167762028,0.6224688255959663,0.3689204301499147,-0.42179489103219087,-0.4157050029898445,-0.35681799379406776,0.3729794146609664,0.27466579809295866,0.09015603622556878,0.6820907693673599,-0.22778625174374295,-0.26046403473684104,0.4320068511163512,0.2263999315712013,-0.28603969038352006,-0.12859061211011613,0.5466997529573241,0.21196772409372788,0.5889327522757966,-0.31853572255835916,0.303095384773607,0.5026969765120419,0.4338473267496544,-0.2840678557067594,-0.1933486377792642,-0.35599399286680966,-0.24404791104160217,0.45168796813166745,0.07217283145640807,-0.031557379346551784,-0.38007383485194196,0.5076740071492518,0.09327762921164717,0.34517784869484147,-0.12683789297847214,0.047291544168220456,0.24142497000823604,-0.383713589795298,0.4584912780112682,0.21681670143759013,0.4691535030248877,0.05139394868994507,0.0739595373790013,0.4723185157516505,0.5714718546217303,-0.22155774515287274,0.5873066595558871,-0.207521178073521,0.37614134698906887,-0.2880038750069949,0.198350427352167,0.2571360946089516,-0.21211262925689228,0.40168650194508315,0.16552284478701196,0.6912966888422758,0.10337305048093237,0.2620577792145463,0.5733529124730208,-0.36822091969681403,0.543065626311001,0.4212574180695431,0.115737341412253,-0.031421550801721654,-0.08707749363651757,0.5396793025904172,0.4053872172637518,0.24546101059765646,-0.08687845151992912,0.40084339042887707,-0.30711394260878333,-0.2257810255765823,-0.14714386064218737,0.6654660676231816,0.489340602712654,-0.37556038086904614,0.009513149857055203,-0.2941521373538567,0.4346536318301919,0.3955628232995597,0.18734871021265398,-0.09862321924873146,0.638994446194884,0.060424399147875674,0.3850728791030874,0.17711762904385664,-0.15191072393959137,0.2894032410608224,0.2735522508547936,-0.09387088251498366,0.5435013235498471,0.32171355794115675,0.2141356898031893,-0.22767700638614002,0.48711666739907633,0.4453039898067038,0.014905203392545419,0.6043507997352358,-0.14540080140258432,0.0792480624013443,0.12645146597419066,-0.45782362687021455,0.37562461866062613,-0.07756761658621791,-0.07943031925970123,0.18666304571412684,-0.3907494906615051,0.4397701407960275,-0.12543116091470508,-0.3913223908190835,0.6308263417209306,-0.2979097404870961,-0.29931597991600734,0.25788418556560877,0.19239367633488624,-0.12172628234166233,0.314378365768326,-0.28742710060928306,0.4415748954495069,-0.10186928366587622,0.4271183413195144,0.650541097301331,-0.2555058838010804,-0.43806561169526226,0.4785023782534724,-0.2027847360883312,0.256322019404405,-0.33255178576610767,-0.010579476917317476,-0.07912455740397512,-0.3814171689296914,-0.042293509671708585,0.022218913443671107,-0.003986229615933534,-0.46459188652197914,-0.13727071143853148,0.6756401386295763,-0.1554672227687937,-0.20853022676024746,-0.2842255595067117,-0.3783925292424139,-0.3093408615925802,-0.2776292294754355,0.36965175084065216,0.007717665838205878,0.529121614088558,-0.16618065051829606,-0.27895373905401855,0.6036037990182985,0.40731331328067877,0.5889593271144296,-0.0292808668145057,-0.1388731198411472,0.6608302184390051,-0.25622413671749783,-0.0951235100105936,0.587651435695576,-0.38204970074584776,0.00854300931943186,-0.32208100499609316,-0.40154256814031164,-0.2977115451723722,0.048826268466986567,-0.4907938400617775,0.2186374938218264,0.014035833108638318,0.31260012973346607,-0.02360844813516305,0.446625578979876,0.3588622060202171,-0.31941238780294934,-0.2046928285880007,0.37079996391407366,0.3197335906359905,0.6849757069965259,-0.47870338920653577,0.6474001220402517,0.3305680856429706,0.02720696105799003,0.08931879128637266,-0.49770566085355616,0.011825104505286066,-0.25140452635365224,-0.4699336463056139,-0.38906858642387815,-0.13320447311300282,-0.13193903531130963,-0.043236494687173166,-0.05989312419101489,0.21353104138533407,0.39932302665754915,0.4122313899033555,-0.3980291448891613,0.3410242281893294,-0.2045571940319753,0.19822990792304596,-0.22499799774568302,0.1294215085460123,-0.35835170787145,0.27900727088036725,-0.2115319337989538,0.5627240472028112,0.22792395149371003,0.4584102089157631,0.14619141188534757,0.688602563952244,0.48089453233306934,0.4748297016480565,0.5822337729617226,0.24362502892356663,0.22007813844160928,-0.05932052372184515,0.3954124159704373,-0.23663333734202185,0.4266312887558741,-0.4269749570384745,0.5013555023542493,-0.06445484897326259,-0.22674463977110187,-0.3805953134219678,0.6701028683218244,-0.36950556296859527,0.26198092742371115,-0.4221957058899208,0.48405362002591934,0.25696310571062975,0.25209284897494566,-0.15782955710133123,0.6553603359713578,-0.3576046083730766,0.23350636790573132,0.37476785665202705,-0.31633451358223763,-0.07447627207795104,0.21145120163328557,-0.4858905771881802,0.21437297987119475,0.1752749907013692,0.31636715267462057,-0.42789159826455164,0.6744448665977452,-0.38633656603355615,-0.16153752208470928,-0.24347521707065795,-0.3829905825778427,-0.1784845579715883,-0.09056828463565264,-0.4253004921253551,0.29786437747692474,-0.2554564782255472,-0.08562160994316248,-0.36800814166747053,-0.26374442376009216,0.4934580931027738,-0.18496687915519955,0.033257633233990114,0.2791083313830297,-0.15452165185870004,-0.4990943102898312,0.6281271970229783,0.4921854980372451,0.6057744841079815,0.058056019420165694,-0.28923524151688007,0.04344348248744645,0.17604624315133233,0.45571620145999114,-0.30778824192561627,-0.27684615724751516,0.0036139290358049303,0.5990419003166856,-0.2916607267841317,0.462155294340294,0.6480704900285292,-0.41818056026919126,0.1088563046883847,-0.23610225976413185,-0.19628521443983832,0.2960005924026775,0.29274254034456126,-0.44226302427064296,-0.44534202865492967,-0.08451516162821737,0.21289618740242378,0.5102350869531014,-0.18433268812426845,0.5696153029424744,0.667708970742275,-0.10198083760223331,-0.2745171275863275,-0.2425985686615446,0.6297031820841741,0.050047176416786576,0.11051517275639122,0.12652866847024147,0.5312863719924155,-0.2910727495626132,0.025503087499262445,-0.04823795942027981,0.23510185512209836,0.2402329664408661,0.40388353774719943,-0.20460273942282475,0.1613751098332713,0.03555451817300104,-0.3857033786719649,0.6179602476435115,0.527077700233946,0.5093225411230624,-0.379179210958441,-0.3695975769706086,-0.32834757405585413,0.581237783074052,0.6832057835213052,-0.36041334027289984,0.0014650646852530924,0.665437240523677,-0.4904581733392292,-0.4630956444910989,-0.41992948675439756,0.354323828856693,0.48747624491478636,-0.48458713708547807,0.023801939466413846,0.1892839175980645,-0.3287399489275197,0.5739274187426446,0.33211498740341616,0.3523135191861412,-0.20942098732909104,0.6770500293025608,-0.4104608783993246,-0.2081289811314394,0.47329594828035715,-0.4118360034752679,-0.07898822543651807,-0.1869285334264737,-0.06209772308424516,0.4779697571544127,-0.13520843479054823,0.5166336533501936,0.6126492770552376,0.1341843976585354,-0.1529304006102284,0.662788682496938,0.6770009801721955,0.558574852860275,0.09981911658292453,-0.4343444839108074,0.3972227743993725,0.5355402316714486,-0.04165404067786199,0.290385442551398,0.3415915361777354,0.392007374563788,0.40742429789048074,0.32967487553210406,0.5118847812453629,0.6414489290835907,0.21482350984585608,-0.12195771560422047,0.3164790397389371,-0.4846185951652413,-0.4015454953478059,0.4015622675671172,-0.46344196607082633,-0.4662532046202162,0.1182850059699011,0.6175463812420978,0.40060479654228087,0.051128274578448374,0.5665962190210216,-0.34704252797602975,-0.2164774848228731,-0.06120188252576203,0.0500737336465531,0.04214082420523524,-0.4145987625882613,0.22314144628164556,0.014648845395736743,-0.04624707726427918,0.1211196012055652,0.5990478459277253,0.6589273706933012,-0.1964356665798785,0.265642090636396,-0.12759128379906776,-0.3855346676798733,-0.3858883991943217,0.351045049985918,0.15890525547761936,0.34107254175541757,0.5239688328967707,-0.2000247744544253,-0.32318061831249667,0.3927473928245028,0.3287064280723304,0.006418398079639953,0.4196462054882404,-0.4452325742751137,0.4524026861817917,0.4383253525211447,0.07983355939701953,0.03488271068247073,0.3028687723214232,-0.062183769370518394,-0.4819784451262653,0.6114804937574578,0.5555465539398508,0.5333547347023035,0.23270125587537183,-0.10098824301562609,0.3403338590786401,-0.24554324219888835,0.6832589507695728,0.2858921015140502,-0.22761003443330818,-0.14683135940302128,-0.04508100682308869,0.032511237931796444,-0.4277298617318523,0.08772331425339541,0.12714575114091586,0.4869070405903546,0.46253552124370834,0.5124535945074686,-0.38238907954623264,0.3830824866881828,-0.19271944743770436,-0.25578581189073946,-0.47811938647167496,0.13186528238058115,-0.022181174513625057,-0.26076421122605475,0.35452252709719345,0.29663161455393694,0.5820627288856506,-0.2844935771724609,0.020380928973775636,0.06613843819391596,-0.21306877941162894,-0.20555293792742896,0.10531389731026153,0.6941289922232317,-0.30758400480483283,-0.0881792071883003,-0.12626605374816607,0.3702995175567947,0.2827328041056325,0.6614858524753393,0.4958405054637862,0.4196361549105202,-0.11571731790618583,-0.013224198208121485,4.7898896637654786E-4,-0.3029466434722754,0.10194366602974769,0.22296098548392218,0.26010864410664225,0.15168676333082565,-0.11548909491558063,0.3204180031637873,0.5624080116110339,0.5801153605426326,-0.1130997155875696,0.5418054822272178,0.40859326046494127,-0.029790133686355247,-0.14897343581735112,-0.47228376795929444,-0.4984274501754069,-0.2427740932046189,-0.08093490444323953,-0.0360519576011451,-0.15239453682553245,-0.2288175363968925,0.022102159027237445,-0.4402929249757804,0.6931838907267978,0.4494880774935255,0.5539762401217982,0.2597294675906201,0.05439757342850282,0.02119912288590875,0.44440957506109746,-0.23552068055823389,0.06909449174369386,-0.1607839220653567,0.2873254565527815,-0.47874806112173246,0.5126927051238417,0.6441461771007599,0.35954482337138327,-0.024815247239877714,-0.0334521238606964,0.08848194815843702,-0.2181487069432516,0.6328482444424388,0.5133268286533965,-0.2678322356674421,-0.2712883337552794,0.5922628661682692,0.25688472073839796,0.3405478774164573,0.08473524296723034,0.6318586833265263,0.42469059797119013,0.0731114598624365,-0.3247478621522326,-0.07293324742749646,0.30889219418391145,0.6463720431390299,0.36518835916781744,-0.22309687443584075,0.6376584753653829,0.5866408431431684,0.1247110977253395,0.17407813744717837,0.5414847529520836,-0.1416251723342945,-0.39808419957360663,-0.15916437602762623,0.28969262131976603,0.461202633042026,0.42212258512745804,0.07889851985956631,-0.17959687733689883,-0.16634645994516556,-0.24985323303781887,-0.15443086169058678,0.5728091643656432,-0.3159642748201277,0.606205281730789,0.6692043710529236,-0.3463804264373477,-0.2111671193114501,-0.18208265931772577,0.15595795484785102,-0.2699057621617474,0.35640973788649866,0.12015469877398577,0.3158536093050536,0.040136673687706126,-0.2512615554960354,0.5812938751644237,-0.2500748793368266,-0.45454271778939936,0.2862806777625798,0.638719458757284,0.09133089611510303,-0.27313291679057106,-0.06891882888088413,0.3682241915425505,0.5820225919175692,0.23130922343627747,0.6505509111555197,-0.40875068545204846,-0.10728053582579344,-0.4717181314904651,0.009339921455411182,-0.15929576568754716,-0.3423885398574519,0.5188529633892436,0.6191212045313979,-0.33959750044064463,-0.3036133443958554,0.46351499783065475,0.09602982984490172,0.40494768461298736,0.13484973228271746,-0.34432644856664785,0.13292227933049794,-0.1638006723511815,0.21157085409754406,-0.43438870857900597,-0.4114560579700853,0.3792460687711372,-0.1283246228084891,-0.4846842496288088,-0.07188654346600332,-0.09488946058760223,-0.09994259034346958,-0.28239461033380475,-0.08024441759265116,0.5492066003860401,0.13497176565402602,0.5235365177968536,0.1986354341979425,0.15386685754621854,0.029130658418074495,-0.2298806034213592,-0.44443120894807675,-0.15994439333522392,0.6891035116707562,-0.19408046504306353,-0.4106944310958912,-0.032321993446309594,-0.27500978259177067,-0.10483351502448951,-0.11839516286541907,0.5356949113954381,0.5810097079669247,0.2615397601199062,0.11164221264553253,0.5025481512065568,0.49381816497518005,-0.16915188822486943,0.12121165753201602,-0.4258014664680351,0.23904230418099848,-0.032634780975596356,-0.12539372953969963,0.11137591069143937,0.3776855996676899,0.37163219232781175,0.5269841646586473,0.34943731517507226,-0.3972627445134409,0.01808346402412553,0.22244723664642996,0.3035256614510189,0.2124850184356234,-0.4410999657974489,-0.21201705713073615,0.5485191687295385,0.5007055553116411,-0.39395932554092417,0.17184102550522284,-0.482441902103118,0.35507710526679725,0.5264489948958391,0.49483830292772146,0.6547319758768968,0.19383214647827907,0.2459801414371805,0.5405076501679449,0.2868078458274793,0.14683843372171712,0.2556391198594812,-0.39507191886250187,0.045677123186778745,0.5009697081973175,0.5492684224804383,-0.34050439052232356,0.47749458675047807,0.6807983973188485],[0.30377310106635885,0.28046112926365213,0.16046220831863348,-0.39254809263272733,0.4787426040827345,0.014411762699460038,-0.02782326977888225,-0.2691824523867131,-0.3813702209151898,-0.09332289097819901,0.884379788096045,0.059863569917564974,0.4919900434214695,0.26993023201304267,-0.277103098167154,1.1697567182692472,-0.4506162628422726,-0.13186714734356958,0.1476245937225648,1.0812060540464152,-0.24733765955871342,0.6136076087351207,0.6377005977113804,1.009728883787954,-0.041488913570952496,-0.03725646721828821,-0.36593931206072056,0.07975184168626097,-0.20161210017232092,0.3477613713251912,-0.23416901433744583,-0.14872000179337372,-0.07635526395826679,0.40230658871640407,0.7741095508053608,-0.10234097042807916,0.5451121467014455,0.7889711729521383,-0.1967567087941487,0.3603900155210589,0.2648216156132901,-0.35542736398372393,0.7442264303051503,-0.10544177466065284,0.42483938753918965,-1.1468368863814318,-0.5440577611788909,0.5238128987555427,-0.5961297813680961,0.6820557551834592,-0.42413771493540847,-0.3133911975676361,-0.29078610374893193,-0.4140695039455623,0.14432250454815698,0.4933554835445835,-0.8401920179827329,-0.18265421529054593,-0.7917305501600121,0.30491437433416196,-0.14340021134088807,-0.2656652929146344,0.26957379590936476,-0.3011359731250677,-1.4736335699086616,-0.6222126669159153,0.21965790342833416,0.20452768464858656,0.10520526877814894,0.6209801659804253],[-0.1087030214381588,-0.872261770573637,-0.2713900251326233,-0.7634923215174316,-0.05832539952985976,-0.13257015688485066,-0.9427492867805392,-0.8919862835970412,-0.0087172507324391,0.9251789672295319,0.7348510504680044,-0.8608526835379506,-0.3898240328778827,-0.5364578448110048,-0.001236375881216293,-0.6754735983150435,0.12495098286766486,-0.8997297768940521,0.5806403010212822,0.16461487208720443,-0.36619177766544453,-0.26164143250642624,-1.5825741203558348,-1.3336304378876707,-0.6809886099115134,-0.4356635688997834,-0.48014628218040145,-0.4620792902514155,-0.04235552636721079,-1.1217986537206024,0.10735226165521995,-0.02746886877235926,-1.2287445918690014,-0.2661692767842928,-0.182365097778482],[-4.411408190138067,-2.3152653778699905,-4.075445063903601,-2.7373494327047294,-2.4507080154308167,-0.8141371918282049,-3.3894381548468013,-2.8457925253657534,-0.8398302892942593,-1.5712906847611743]],"networkWeights":[null,[[0.7236039395552606,0.7498975145026067,0.7516811726158926,0.2014883465303304,1.0847341275727211,-0.329320196975694,0.9577285899826881,-0.3965958593510798,0.35857077356127637,0.24539420309469573,0.04925781752784719,0.7390166724695376,1.3240699103906368,1.2935534463103366,1.0139107070669562,0.3033088062715605,-0.45905561689148294,0.9612828156522216,0.7794779580124108,1.2726506392098766,0.23732077355858625,0.4100633993104446,1.1995495187209908,1.0272497527162434,-0.04691158506021306,0.008921643980473104,-0.4958851827087184,-0.41290148638207685,0.782113042529026,1.0627874174445842,1.3032830451080795,-0.6046448916785635,-0.5780389228403953,0.5352160265366803,-0.2859493333734558,-0.013270698395286983,0.5590257747856657,0.12582405769729926,0.8569905311440794,1.3338572806643056,0.6037609888415209,0.670719316590157,0.7783026080071522,0.8744227783794567,1.188621712162185,-0.4215888303630404,1.1648921499526557,0.050748965970103324,0.21032533379086563,0.1947126178798599,1.122368794791322,0.27340020502468226,0.8644916978510538,-0.3360119189713399,-0.46571720086346297,-0.15755981118702175,-0.40759921999718923,-0.24421150836758537,1.1772595028446822,-0.004129430033810383,0.28467196577319476,0.6491081586418883,-0.4059302875229852,-0.3648146613199017,0.7501454409074438,0.1923929127988573,-0.7146491954857658,-0.13156375135467727,0.5783684160120459,0.19260650537701335,-0.7140528859111515,0.5651857942555826,-0.331469992301432,-0.06831442569010154,-0.4583893594678619,0.6111401974564288,-0.8328378775773387,-0.4258234273592421,-0.2744035080605621,-0.6518714676740615,-0.13818587236778443,-0.35237500021523976,0.8527511851191646,0.03880215630445309,1.08458749249734,-0.07916997764023931,0.6273148639541067,0.42924336358536164,-0.3109819737223659,1.1701337175647808,-0.2892132611255564,0.6664920525822734,0.8352182654595015,0.6817248225952587,1.3635640136467968,0.9091102177983736,1.2952141678393099,0.8527945473704494,0.945501157265054,1.4458657328127045,-0.6057613823303306,-0.18520238531612448,-0.3282818326121844,-0.6860764901520608,0.6567456665729167,-0.4547688755837022,-0.0853989307316222,-0.006800340098746052,0.4742830111842921,6.01892446945225E-4,-0.419221614493494,0.006408837504890753,-0.5725673262358838,-0.4591181628497682,0.014699999735743211,0.9784951240609854,0.6509507948731734,0.43129749031944314,0.48027250681597666,0.7751478686909024,0.7620947047499006,1.1115448515064552,1.3595054940673406,2.2922884755423274,3.0053752228813027,2.209967406490174,1.6094379392264286,1.9318017839584065,0.5268663531022562,0.8158846722728665,0.1998781188166196,0.6830354741458486,0.01636325285514456,0.014959223985389946,0.42262443408564276,0.4970036108516448,-0.5957804741028987,-0.31807205863919297,0.5292120606720774,-0.567730969464426,0.9103511300854493,-0.3124994910493078,0.39785717548120453,-0.31282363606433894,-0.13066354348057094,1.0328139027407857,0.3469881959947773,1.84000918992682,2.46256390957325,2.818098118269734,1.9078440491497772,3.89070395426276,3.669248301217771,2.582182452892971,2.400054022089868,1.039794424859448,-0.10973197352551603,-0.7700635629505933,-0.5384746728056039,-0.5209426406084551,0.6065158817082851,0.24669912700328087,0.7181597679680393,0.09078525113616223,1.2184751367809608,0.14313713048560664,0.014732861421929908,-0.44254205639077554,0.12387851702644305,0.08893559046008362,0.9453360457002208,-0.06178656081899962,0.17409757264270007,0.42856735365528353,1.4723060040378944,2.522865173110606,1.8095321026460887,2.084098782055572,2.190415098589443,2.581612396533858,3.0126227845367124,3.280203611823334,2.2431112155346256,0.1684245933538314,-1.3006242535222565,-0.9200742255163309,-0.07727594722824536,0.8209790627318028,0.6287039543104723,-0.004399326818119748,-0.9679610853110475,-0.4965243271861626,-0.05708319138948261,0.26508109587117484,1.3706376999800678,0.8183978099127744,0.26225191827512523,0.15075832219589194,-0.058756650059264934,1.3862748614782847,0.9345192982369309,1.1833653189723643,1.8946992192735888,1.4378340613922103,1.2839207670940789,0.693964228142675,-0.40225545623097647,-0.5526389686684475,0.12131101895673002,1.5390104754433842,0.9014890794131046,0.40554384895573786,-0.36266801710924246,1.1882123783258802,0.536663248585951,1.0674633803027254,2.1890035623711603,-0.028479828619101644,-1.6722804018396824,-0.44596075673096325,0.937824120523088,1.4723586738525662,-0.31925325391584136,0.16174292758427894,-0.45438400329393264,0.67726487344127,0.1400927780131126,0.4799351334828163,0.958368868396694,1.9367578803915835,0.4626743187682781,0.5726492962679544,-1.1850309731565394,-0.6747399404345119,-3.2515056874380743,-3.851612341897204,-1.4918976543080114,-1.7863627390511272,0.2630617779452502,1.9245731004662263,1.47179743232701,1.5221465956277973,1.5842978860962713,1.4689315064939106,-0.14174837177090469,0.17544965975164892,-2.297004631198282,-1.0541758848850529,0.3312250481665307,0.8157971322885437,0.4263524796123352,0.07853114146879328,-0.6298153005869038,0.05308921271659217,0.9938042554945937,0.29470468772567193,1.2773690262449937,-0.19509193851514262,-0.010255732326493506,-1.5243834141125852,-3.378717661434573,-4.946617763968559,-5.552744407705533,-6.933614614070775,-5.574453643520664,-3.4016625918769803,1.4374778860917334,4.297821626977401,3.682823517147804,1.0207813537434542,0.37909045696271,-0.08697368607190896,-1.7227337558730518,-1.5748470473024088,-1.3242788933769098,-1.5803032490330524,0.8492317835619525,-0.33087094898977654,0.1219822772690083,1.1154904362791143,0.8470507590637439,1.2010117785952663,0.5890697856977373,0.5932050889686931,-0.2919753114279362,0.17398799706798113,-0.6156232712874361,-3.8663502946563812,-4.067594199963741,-7.241733393128161,-6.378426109972524,-8.865819465189109,-7.098293904553644,-1.303908240112265,4.670714762754977,5.957485751630051,5.264567826012442,1.0972120318803338,0.6593496217446894,-0.49280703373926,-2.50242910606228,-3.580171572881437,-2.4489847186980263,-2.096894975110254,0.1220747202225159,0.35632562510242827,0.8759634002739292,0.20700424732615255,0.8656403793267721,0.2770988230082355,0.49673671432655636,0.3523818219321469,0.18951456251613413,-0.670321674105393,-1.9959483157441285,-4.739057400450195,-6.531652144844073,-6.720436319313028,-7.39692008851944,-6.821504150329198,-5.207386787828697,1.501005965170015,6.800645463767202,8.730810764747202,3.1354573108542887,0.7330175888713419,-0.30698066065125945,-1.5512939304100302,-3.139949908211146,-3.255243564882425,-3.4029591087610203,-1.1503457188893753,0.22378942664036305,0.4790204247439731,0.48361873497744456,0.538070120730248,0.7606309028878238,0.7153981551414871,1.1152787310674444,1.1700001165281309,-0.41726228240631,-0.1316260492992336,-2.803320345529114,-3.420121341127194,-4.989458158483135,-4.5724246991659205,-2.8245385474666618,-2.979994730727871,-1.4924632644148668,2.820562222209137,9.267681486188472,7.4226141918356845,2.5755560967386533,-1.3262040866413187,-1.814366625278627,-1.4823279116777899,-3.3248327993866793,-2.995769298457678,-2.538082772142058,-1.62686637397741,0.46470142852608526,0.2996856416371988,0.8870479600287351,1.1129693915127967,0.003378113371921981,0.29755648197151574,1.1166480876107694,1.2419806386458718,-0.2802192170929394,-1.0527586624515697,-2.2553854490027994,-3.0990039678192636,-1.0473669135736883,-1.50454022876526,-1.3879902366806347,-1.9414463247085507,-0.4095163830948097,5.8154538561003175,8.305543864371744,4.870290838272704,0.022444303000320284,-1.6792134254248412,-1.0935203029151364,-0.22743411336309446,-2.2949390366119222,-2.874696454263582,-2.9469139673607803,-1.194996041325407,-0.7722381742128792,0.5657120613741823,0.6470750134139741,-0.35837789287048344,0.14763654861120742,-0.23353229312046145,0.022000678815870634,0.37221461273217843,0.08924536437696362,-0.619249961344482,-2.370024034113859,-3.100226687502349,-1.7586402847988698,0.20452485199027035,-0.666275050321731,-1.193411550864123,1.716938228809461,6.210157131871878,6.848994424140128,2.1020835948895207,-2.286907950256969,-1.6357758822321433,1.2180732548075635,-0.2521913518358133,-0.2611131014704273,-0.7282860569464785,-2.956664276789704,-2.8096084044369776,-0.690351345752952,0.3540782591697579,0.07940848539778929,0.34323416261521017,0.4996926960152159,-0.6405895220819317,0.7703086522551652,0.49680181191462736,-0.5372703619044387,-1.1678533088959597,-1.3531087689757042,-2.94375578804567,-2.042984069211738,-2.4796823692761243,-1.862794979309339,-2.704542696234098,-0.4472473337589646,3.412142810592088,4.262225148784527,-0.4332775873509246,-2.935726838807199,-0.8240823958863294,0.5517403406839101,0.5955079424902994,1.6281141956758125,0.21924609169272377,-1.0955935669542982,-2.1310464419801294,-0.14741398103215222,0.3559404350315925,0.31082150933247293,-0.06555088976392451,0.6337536968683303,0.3411696668602488,0.34096561643509643,1.5835272375183012,0.7943945531039468,0.2260530632484805,-1.7924469851483555,-2.1904922346233926,-4.32657783319851,-4.568582306254033,-5.0615867886091,-5.430092688711958,-3.069651975335198,1.8201021322393092,2.2335159592914526,-2.428614321949614,-3.53201319252894,-1.760886969673563,1.1395584811788844,1.753848116050426,0.30693576803213424,0.6079277684748138,-0.9544001230298573,-1.3335981251392242,-0.4481130151414184,1.2220507607105195,1.075734583820836,0.7310722684135972,0.03068466687008464,0.24629814655493076,1.4904665313521683,1.4189406303478205,0.07405674790540633,0.24547106640927108,-0.9781115587316267,-2.773368474055685,-4.539520083708894,-6.458725634201826,-7.734843217783292,-6.867073644233418,-3.5715747836232907,0.6883466833218636,-0.2527926388343868,-3.088197094138561,-3.192000675840061,-0.9546621014899664,0.7385235532097268,2.6249991446883145,1.9013422677002279,0.9383423946661262,0.7290253776288417,0.31796784531831224,-0.7143835801044208,0.7982141323953618,-0.12431257573747224,1.3334840794448763,-0.3941107110120216,-0.587782979737559,-0.3938434749816007,0.5334828846815101,2.2904777350519625,0.4442842038318904,-0.17099945982857498,-2.480464821935962,-3.8021243043994444,-5.869772831894125,-6.965298318511529,-5.12006099313671,-3.498664042974426,-0.34207189425198314,-0.35707156097347476,-1.0106902305518597,-2.191215331813559,1.0214738789747113,1.056974564230187,0.8320773414348115,1.672695745127401,0.8251935972489962,1.5902106612359157,0.9773136782542591,0.3488810741926779,0.9925301798982162,0.7308444116739039,1.1293354975010426,-0.05607117948208906,-0.380956632930802,1.0355474179360633,1.1459706992039271,1.6787562661407063,0.3520599575795376,0.27894868931054556,-0.1856652432142076,-2.5663399947362704,-3.642272639426167,-3.766632828084725,-2.369400570506954,-1.9337289604155772,-1.4050886651832064,0.01124329132381882,-0.9949925550890134,-0.184316116188919,0.1400940630338685,0.44403817326214906,2.7099074011020097,1.3047461441585797,0.5057821732931126,1.355364553330323,0.16906633628548598,-0.3637501666758049,-0.5032563234394533,0.5387157636158466,-0.19706658509604777,0.40966195431619573,0.3849323791605109,0.0936642075495823,0.8350178788322441,1.7234819692873424,2.2731764890578994,0.9485723014288704,0.6751237102492168,-0.03499509009610698,0.04239608264818165,-0.8371021129114128,-2.0923749747659595,-1.0068333132554355,-0.8432925653345285,-0.20366590038098625,0.1891824379768282,1.6694621715086657,0.9183845714324178,1.2400711058932639,1.524117654090736,2.0615771816756823,-0.04791777999618597,0.9767591851638512,0.42298483283922284,1.1802718346720824,1.2686931569802615,0.928005019210356,1.2468495728763545,0.25047446672743295,-0.18237794549476724,1.507110900373096,2.0474492285007297,2.079403075757641,3.3428451826135093,1.8857054324068607,1.7036460797242248,2.1468639826204217,1.971495649608247,1.3503687045578359,-0.3942505343707321,-1.67504543850873,-0.3701416604823732,-0.40742661236784555,0.7598083151395825,2.0539162713525374,1.6306060212693814,-0.15749794483735152,0.5747731306549552,0.5751299268325879,0.5137308153941076,0.2519714871626842,0.1896560271031119,-0.3851994434822876,0.7344191653198858,-0.09618739499574752,-0.2959801153043206,1.0180636847111069,-0.5737782580674325,1.4653781348493973,1.798150012240808,1.4284486170015718,1.8939783024899526,4.129759865702316,4.031684466743497,2.593621452441079,3.0028154879534648,1.1816522668640872,0.40722453512729045,-0.9642916243686026,-1.5015416465413205,0.19051334315393997,0.5504087661411827,0.8201998969753767,1.1990100742512058,0.27997922557595406,0.3412918601665063,-1.0578848140671964,0.023440631919747577,-0.7319364678828802,0.2995577299080758,0.29625625843127557,0.8216660937012519,0.6512618642733965,-0.014258317445220188,-0.5604968919527923,1.3092751247747598,-0.35871999963720375,1.692391999666172,2.22688723889822,1.6988741778075627,3.7839796165023767,3.7354008117180104,3.3804247942037833,2.322879884879626,1.693181314097747,0.24060008673092498,0.5605799221139548,-0.7005616254006717,-0.060156737095652314,1.704293380918423,1.5716743627953471,0.9640714079271971,0.33614633808802863,-0.3561120944165592,-0.7843864144501651,0.2397360941292005,0.19954242992617766,-0.3101843851076152,0.1508655352781822,0.8026303316118054,0.6307987808739531,0.4843180500229191,1.0065524413240314,0.6470527298757981,0.8331946224361256,1.0623432333481357,0.6713306131067583,0.635168537971165,1.5829234845797036,1.6627230064787173,1.5099080117045207,2.284460460504837,1.603148388043974,1.4247653552994335,-0.6192796552847106,-0.9945752290594065,-0.5026371486422717,-0.5598049351100495,-0.9352130738318252,-0.3277067826104918,-0.06940131709166396,0.39258823852716634,-0.8034217812217945,0.9490394874123596,-0.15435011718348893,0.6212115259082968,1.1528863842756807,0.23293544675170516,1.1367236795854567,0.8887797120414319,1.175223145982348,-0.3016005975627674,0.7282120750341375,0.3805663047645687,1.0194393456538506,0.2425921961165102,0.7678828160968038,1.0842464423616596,-0.28404398425802696,0.17358843080534567,0.17456816995303345,0.7822397757575835,0.9447187391783723,0.15094439594573214,-0.8131230789643755,-0.9078995746065669,-1.2047078131886981,-0.8777986018620101,-0.5712727650026851,-0.8089835583312174,0.7094944982886804,0.6216954094233282,0.7618061240640984,1.122018550216319,1.3206361282798604,-0.010294496776528973,0.7148304583693835,-0.3291867358357589,1.1148476007053902,1.2931205742890461,1.0337794955528672,0.8635522605753553,-0.3646775605241511,0.6071270343737712,-0.5603327309826107,0.41393204688342766,-0.24674541074646103,0.02107691870255763,0.36443087830390863,-0.07954809129062905,0.7174423352309551,-0.6198563370030808,0.10876622446197699,0.515024959451756,0.08332046622648867,-0.33328938018079013,0.12629322472829813,0.4640063200591357,0.2085792629210582,0.44401108333052935,0.8786086772395615,0.564490793437647,0.46057742518433503,0.0563715262619454,1.2746011911052335,-0.5925068804425598,0.4313789173935247,1.148471558551989,0.24841813308723182,0.579535285500352,0.6726099389860289,-0.10400284286287162,-0.5984066428326912,0.958572920770337,0.5355293610697506,0.019731846119605823,-0.5501484963722483,0.5219816439976531,1.0927899670265657,0.7271582360503511,-0.447999957821331,-0.535052160594787,1.0419790409572236,1.0758662219245227,0.3919921255914259,1.112091140715693,1.0475455705160892,0.9524433963756579,0.22865023215441835,0.7218123556042771,-0.5668857014518053,1.184624289029633,0.4817864184778186,0.983692553495857],[0.025071991736347846,0.05264941090689323,0.17958641785557844,0.5262488425855107,0.5004364363777816,0.04383945696317306,0.37314910998563067,0.7405081893411476,0.9355422384331289,-0.5864932387461559,-0.35616481892081087,0.43817875111594684,-0.5826118601305379,-0.5841087728255558,0.7595818395378803,-0.0792090451627224,-0.544832440481017,0.2474061891599771,0.6561912421702081,-0.6556249502354716,-0.7494987340266996,0.5906250637545849,0.501735777403662,0.6995403517711183,-0.0189470315965315,-0.17375715693906044,-0.015931761783335448,0.4361468518828969,-0.07233111692082896,-0.7660796978228364,0.9182235147070066,-0.4534016932539168,-0.1759929868953213,1.1297807686736192,0.09898064393990004,0.07661361303964732,0.40691706808267847,1.0685653212123696,0.21391908994386055,-0.23578372721969978,-0.09925305767243155,0.05350695285949816,0.6563620128148273,-0.17991021554067296,0.6763798841805784,0.8307964872688236,0.8048869423119971,0.4682526791992632,-0.5241545754984304,-0.4913116790026961,0.061242244904741554,-0.0871541995978267,1.1192922511414445,-0.11169814745039118,1.1393028468918753,0.37075530405791834,0.7913751756520682,0.139914767249308,-0.6858096284885382,-0.5930424966305493,-0.23072737107458605,0.8128979573158285,0.7626997810346006,0.04141510134588107,0.6454697929398928,0.39659698391425596,0.9076503899997712,0.2925505628772376,0.21349545590586183,-0.5832761944906812,-0.6901930317217466,0.06429970766620252,-0.3911502562261464,0.6811296160372939,0.4429405913209615,0.5083647033865574,0.40284864457043,0.8995228025768512,0.712051370922892,1.020130345025094,-0.20317825315772672,-0.041738288514360296,0.1648892732737837,0.696209867597418,-0.44225537282968236,-0.7144204650418653,1.0389645998045738,0.9419134823252211,-0.8044263345334385,1.028347912231514,-0.6007901322832822,0.9686880583864272,-0.6873793298341753,-0.6886124191004673,-0.6442145164484434,0.05161017297865114,0.003081662741936449,-0.5359916350436222,-1.4017335930619057,-0.13025024451644246,-0.8826167897263718,-0.29469563865631104,-0.07036769597472596,-1.2358133071714894,0.6575483314104107,0.2388713185680285,-0.5689739704378872,-0.20715832718830665,-0.04417780439463412,-0.5075412581891684,0.16951025113367416,0.757243447298777,-0.11108469202583908,-0.03927497303041209,0.6618236059317092,0.8491762519493491,-0.7527110451285888,0.3550655703898576,-0.6714924424454327,0.62555478399339,0.7114718080190472,-0.6004097317723437,-1.3101334940959841,-0.20879499466180082,-1.9280798425763934,-0.13128814172380918,-1.3297959521493765,-0.17870108600728007,-1.8829490783774754,-1.4600100370744704,0.3398174478925598,0.44895940899665915,0.10194311757977562,-0.23172265481899645,0.9090321586915572,0.18307540895752894,0.48970931389907657,-0.029286848525335717,0.23450029246553178,0.9894871158256074,0.026669147603432725,-0.7507383003492816,-0.46564754038559,-0.07918617629668356,0.45390450339347077,0.964227067665854,-0.5656378753645032,0.7874862995168139,0.1506829545964342,-0.5399527147493955,-1.7374556865642348,-0.4514775046692647,-1.497286740175492,-0.4269793260069006,-0.5271965253486443,-0.990307393021097,-0.6548445930074703,-1.3989867164167358,-0.697372067936283,-0.2963185649973843,0.47212550981213874,1.1371984902529528,0.19395587146576498,0.9057892205301352,1.043348576726043,1.0462965183731063,-0.5229221708576715,0.7854363443880957,0.9697157805125234,1.1152720553526279,-0.18349198698604957,-0.6444008354558756,0.9280085137358224,0.8360384031344646,-0.9049604547508768,-0.888077304535952,0.013974222982024753,-0.30236203766345615,-0.035458978063514654,-0.6520397656410652,-0.15269206073089275,-0.5290237497532557,-0.8340037885807244,0.3685232636839521,-0.44884541803877637,0.30118510912428526,0.9549623987164109,0.25198221754359623,-0.1172920288836884,0.8032408459412285,0.7206449477564447,0.5661492870515679,1.0743872583848,-0.6249004056759814,0.836415776476794,0.4701819993448577,1.0350570408026563,1.0646445628578454,-0.6615546159068004,1.0622675564434225,0.4695692180203346,0.31421376982498356,-0.08504198040855032,0.14164468653008,-0.1328180823020096,-0.4786789091543095,0.4613489805879401,0.27755375167646446,0.723835568740676,0.40536077616069455,-0.2158677965180448,-0.35679091299212684,-0.7271471797867811,1.189009447723187,1.170425101072323,-0.13150672972833474,0.586557422321681,-0.004739913898083983,0.5979829953891717,0.7688372132357736,1.5544064740251022,-0.06936994886286649,0.21451551063588378,-0.05597324775029043,-0.7068824316328137,-0.6040174796074267,0.8397069684835121,0.8968163954278298,1.000772562409061,1.19522761327339,0.16566259926112453,-0.8687516393169809,-0.6580178953565321,0.5205033037162355,0.5894322274542313,-0.7903186108917761,1.2564545547895505,0.6734881385449234,-0.2929551544933695,0.35036857836350827,0.8128646636806881,0.8507139400687898,-0.18230039599611128,0.6567619008847664,0.3389837495775858,-0.516453328959324,0.7550774560857217,-0.2033547976934802,1.4230546530710462,0.7132055851713408,-0.17262931227396325,0.9669269505329074,0.22766167374114474,0.4786874803659982,0.12558374977023407,0.7096880702920226,0.30757513783933316,0.3746209991784155,1.0377681016100795,-0.5852623807898252,0.8905174325117751,1.211424686908414,0.02936661462924161,1.005182155090228,0.3698356294152229,-0.32201336799159685,0.18828090056006686,1.232426609465697,0.44783237682158705,0.5990884941104093,1.106476952235811,0.5251710181441727,0.5033665948809295,1.0933406513177264,-0.16465274695238044,-0.10209400256011186,0.3730243856204289,-0.5927374634715955,-0.27535846183062684,0.3659358265534111,-0.7295278412167178,0.8936342214666906,-0.6122719536244892,0.14980280305693694,0.9004219186983506,1.0927908565865836,0.13474374749335347,0.6715659643564397,0.5093782240582618,1.4510841394804181,1.1204613686104927,0.08993656372959176,0.18025171169736656,-0.6510684074744517,0.8693983157019426,0.9158607052738196,0.5214180659280826,-0.12947343091410243,1.2525328535735978,-0.22082452791102083,0.485241782806107,-0.7671202545704668,0.19846577573536692,-0.1801739703159717,-0.011232068756477427,0.6738502378159453,-0.14978720969974668,-0.16394187976844207,-0.4037933961405315,-0.3909091052792397,-0.11753781788263237,-0.26201796629522656,1.315852536093567,0.8030422316106466,1.2224747685649995,0.1323488963509799,-0.3636722052311654,1.573550365951389,-0.1469800335549199,0.1146067093023831,-0.34970006538127896,1.2853193809934087,2.217396840267821,2.4212938336120686,1.7438481534511574,-0.007593878998164438,0.05353142078293174,0.9377184387497377,-0.9122122103926688,0.23086900425340845,-0.49094798173426757,-0.011616805727463464,0.4857114241862945,-0.016362354305796595,1.1354366323819223,0.04525109824282745,0.7383684421576024,0.5307278741286089,0.5589883358532592,-0.15072669305595693,0.45906279066545713,-0.5422275896322722,0.5627067093518066,0.1600477912569863,1.2640286757875823,0.6869347135406263,0.7541454708882661,0.4208936967483629,1.649050497287314,2.61135711055677,3.0184805295089836,2.197391685655706,1.6673428456985542,1.5024519546249762,0.9173463724397904,0.6936325121787501,0.15290383046930367,-1.0760675115510219,-0.8072468846051258,-0.9623754741543796,-0.14925737935368966,0.5622571779706076,1.0441457799657912,1.1018461273029287,-0.800545318192061,-0.0018190849042931641,0.29815663814821686,0.5623686014451756,0.1992730067987377,-0.476360807172827,0.4906824139308441,0.13104269953850328,0.3560757592974853,0.4635632860529871,0.17545022035372645,0.33771139036501857,1.3347088163250826,2.645369832134648,3.556381590368995,2.3839895340395936,1.3374682729015432,1.4040568795459927,0.5859739937811379,0.291943049988473,-0.0808010543730383,-1.1782563644861321,-1.7396881802861581,-1.0651810738781105,-0.23943272746313382,-0.354804156603896,0.1923138874971493,-0.5823027446039402,0.2687152195315349,1.0364363942724841,0.5486142840248854,0.39150587543584275,-0.22805716792586872,0.17972376586949726,-0.17197190517174835,-0.4974324007898908,0.274301556379028,0.3290969498648864,-1.321514658884519,-0.5611878211445287,1.811880562239632,2.0816318068966972,1.5987538979639948,2.320843608213549,1.7408290945993312,0.13581920221435756,0.9033100096039902,1.0129953922991535,-0.993170287303195,-0.9264748459606144,-0.7865815729695261,-1.3281817718931102,0.6133965841102833,0.9981052540081833,0.543267796442647,1.1016078903264108,0.7630823874090332,0.056615951158910924,1.083975803247022,0.22219268835010345,0.9617397819095712,-0.8019394223977496,0.27329835705019995,-1.2552818638235852,-0.3039632914137269,-2.1003489398331543,-1.9319400027823466,-0.7997292288649419,1.4911741885332446,0.5043575790590438,1.0812961151047342,0.43130077512934656,1.3121642820830848,0.4812922106448472,0.09715577489155873,0.11835404438195583,-1.3120849807030042,-0.6878430922195568,-0.989704301676574,-1.2864607129984627,-0.5431200337818682,-0.8946217300341872,-0.4625249411958466,-0.10839039373967042,0.31482553879573194,0.7700913322170921,-0.3048656484214955,-0.4892875760868779,-0.2645521046505849,-0.8899619394072737,-1.8120978009557025,-2.1974644381829833,-1.111927484413195,-1.985948781090152,-2.3813141986699553,-0.34693059459324055,0.9811524685246591,0.6059631577380931,1.0136218472849934,0.06300762252014941,0.9909575995361279,0.977924821383792,0.07038978951500484,-1.0804639950186568,-1.1501334617175376,-1.6911498695352505,-0.04915316743617629,-0.45909988197392415,-0.9197175812766083,0.3772486456887332,-0.6955338191569845,-0.31321747916478654,0.20083108805782202,0.07498635783481608,-0.6761107453741867,0.010868751211596611,-0.9707327935687281,-0.5688930451230249,-1.0904233142753106,-0.7547486336330572,-2.6056573709582063,-1.4581782548004885,-0.5544891902588147,0.09914109274074567,-0.6279927620663466,-0.10459112067790449,0.8820751042916496,1.1165911852348618,-0.7053110951709396,0.8151016915239511,-0.8543033634778281,-1.592763628317698,-1.0091888075553845,-1.2589470683434971,-1.2703010631636265,-0.2462031754841459,-0.22118802265394644,0.3127577236375427,1.1426573245112426,-0.5398412937927975,-0.49711437770291284,-0.49572514103061366,-0.7757909320477878,1.205484202566013,0.5953860041520996,-0.5611667720557297,-1.474661477842657,-2.050907677992336,-1.6575500614593885,-1.921933043524639,-2.245638703741434,-0.6417723882537881,-0.6318676572801988,-0.5583595376135898,0.5570565018340862,0.06277739359215635,0.42680696201776197,-1.81268993795416,-0.3812709315008534,-1.0939924480383016,-0.3157474179846683,0.02635994266443069,-1.5828924086551677,0.1286559313522055,-1.0353200485792777,-0.595641160024521,0.6988619538127119,0.1765491869875711,0.6249307085177955,-0.3752946525333947,0.2780768835393486,1.1142027709492865,-0.2107696286066924,-0.9337018499179774,-0.8374644759567742,-0.9542462013017736,-1.3214505190151016,-2.6144682481703594,-2.0809892311421105,-2.566725062668478,-2.0076530287679977,-0.050822930164176716,-0.6879390907317909,-1.57944522348074,-1.774301422667249,-1.7750907027105134,-0.4843357099514867,-2.1082016735984266,-0.2580439812591405,-1.6689773250864681,-0.2000537857413675,-1.0002683884623054,0.23587772827782713,0.4654950968732134,-0.5901494926457223,1.0394923784807166,-0.12920656989909376,-0.45618229732709625,0.3803250799829956,-0.45904590465196254,-0.5096067176518184,-0.050904448501548724,-0.050344267167838415,-0.7475937247517865,-0.9754304504901485,-1.1819739191656242,-2.539928692285653,-2.20979880617481,-1.2601122781469434,-1.583697314935089,-0.9162524315635526,-1.044319088625554,-0.9509406025200362,-2.1775739562457272,-1.5979646537441634,-1.7541647317132711,-1.605948501577925,-0.3596635010623477,0.321765563569503,-1.3842594936934092,-0.5799591092070242,-0.7428867838815633,0.05002600117775538,0.07115397974245377,-0.10854725258421351,-0.5990310282675549,0.5864845015033696,-0.1515699843989922,0.9767316718089838,0.07169116565377828,-0.832341224124086,-1.0052666617206745,-0.9668168981100804,0.3195629141508893,-0.35992100379791625,-0.8855480404527252,-0.33424993049358254,-1.7581309082716048,-0.02330648764212818,-0.3159317919507826,-0.9973805574150953,-0.41094102781243275,-0.12460598011961026,-0.970234169994315,-0.9501856328084758,-0.7555635320616709,-1.0972936303166152,0.3712747047935563,0.442148706677573,0.2230920489381835,0.6262358889624625,-0.3996611694042962,-0.6375125426122596,0.2745906322034306,1.0311221124947805,0.7171302008822762,0.7259247579660378,0.9208013506287991,-0.4276186311027307,0.357993426862865,0.05675646388751308,0.007732914660080571,0.33371220255387574,-0.4294246951837803,0.5052022399895248,0.5839921647708918,1.2614988694999565,0.2751980505758583,0.05945082125924289,0.5573180073198917,0.7641438750402598,0.9267213156658259,0.4313819438512129,-0.8703138287101563,-0.9938011358572052,0.5888031433028461,-0.29811314142551215,0.5538135269686028,0.8990890697763325,0.7839780015729794,-0.7581117728686386,-0.4059676667977933,-0.6957034487312929,0.3233519749297125,-0.30824210123647783,0.46624460948738145,0.09901638928270713,0.6062428481980562,-0.34032432836912,0.30258625435710595,0.1647504647603096,2.181352078467211,1.1695969334307927,0.41360044719208394,0.43911247240297624,1.722273634735054,0.03369043109317077,1.6027465218573844,1.3256471144972126,0.4569646545080951,-0.0040623162900358814,-0.743030116400591,0.6585230723733329,0.47261669889412256,0.8060551731464621,1.0081661210534434,0.43421491313608285,0.7453639666149605,0.3761482556285819,0.5581026788089886,-0.46313278093115623,0.14621882731037575,0.7910121561012172,0.24480457424778107,0.8695081739159313,-0.5382356648930781,1.2838253735245397,1.2163123379941008,1.745907755051269,0.8035563785155592,1.3794394781544623,0.8976728474766257,0.5094428066415865,0.9791680233007769,0.13728731099847186,0.09152163636211762,0.9395042847537073,0.7562144918632402,1.2231014246459804,0.7750193978859033,1.0681151431569207,0.043310819192037206,0.27322245908098053,-0.12586196347637876,0.013665274853836404,-0.6669796488252626,0.08817601240494967,-0.43448687804522607,0.5187732470467614,-0.5904857828506186,-0.07353785977899724,-0.0660732045163751,0.8488746189740444,0.05458974671802196,-0.5096816636582726,0.40421999923368557,1.4575747555400882,0.41804142649825604,0.06713258509287097,1.019175809245174,0.45126566204950347,0.03021869905204976,-0.08371626720685484,0.5772546948237083,0.8390568302817073,-0.4658187755776358,0.5739510643898772,-0.09033701586202246,-0.07444798085896635,0.6793512018553668,-0.8050282839994531,0.8240267619213598,0.19661997315777785,-0.15892778582947828,-0.3220747913744205,0.005293791459163857,-0.1272219545526748,0.9224608888750161,-0.18941483772648626,-0.21310595042928687,0.5407220647889286,1.1496497315712573,-0.7527319815445401,1.0604245666728456,0.41427485106571876,0.9131873496320043,0.5661025814998244,0.9268266629694151,-0.4338382928011483,0.42079485417187484,0.06511213093859596,1.1683297874757372,1.2625866988522716,-0.135177358949004,0.2966731798432878,0.9227699118496464,-0.26315260678943747,-0.2419342012962126,1.0750720140479064,-0.2536435482580908,0.10774840565165843,-0.6813896731363589,0.5031444770239424,0.08289348641845266,0.23727696714573857,0.9467769527100294,-0.3771714005894345,0.20949613296968342,0.6550919580326207,1.0720281779500902,0.9538067656886007,0.30357087767729407,0.002347244300160666,-0.5881369805112467,-0.4540930209931884,0.1074815334259246,0.765809176683408,0.7496934431876169,-0.26652554765563463,-0.054118764006095756,-0.04049543680879123,1.1501186902117435,1.1330714252946523,0.025309834815411283,0.21863676671474153,-0.32321705344713403,0.39741344850681726,-0.013292621651483061,0.7594656849206796,-0.684388767297792],[-0.3617303943197967,0.7630735302299558,1.0769005033203751,-0.07777820749508352,1.2856893140304886,0.23609247248618728,1.1230998494663214,0.40941290969781147,0.12112901415376252,0.5140620366522899,0.26413329186117007,0.2915048990265313,-0.3224668983927121,0.4151342593804027,0.19770655404366388,0.5896122243572983,0.08431256048381827,0.8469211615032814,-0.4196190644355312,-0.1892435866509878,0.8238134643010555,-0.36252658911389257,-0.5055650325200064,0.12087122337052751,-0.477757531397637,1.2590929937515287,1.2505360608670844,1.2279796099630984,-0.3765750304598443,0.0031828731812328665,0.5033505327620031,1.1640041892781106,0.4759221895073799,0.07404606757538798,1.042483578890796,-0.42017561449843605,1.293305656924349,0.5084486020799681,0.6409634848596109,0.1418462265153636,1.325880442936076,0.7381927240170327,0.3400281054283123,-0.05820771266205926,0.44059123676369233,0.37299826348070053,0.6261844044239053,0.7435018001244617,0.28746027824424986,-0.09515177821323151,-0.09610350133267402,-0.02153422975901495,-0.17131758110361353,1.0061973419055878,-0.6519531082305348,0.4026064352591182,0.1564574227207123,0.869482934375486,1.127526830981299,-0.18576051085863396,-0.38284612555563896,1.1782438779591413,0.46386255604866933,1.3239323669647882,0.5975574497664492,0.8923393579371666,-0.2585297762966441,1.062501753032722,-0.02435403580025823,0.006527566876222083,0.08251270531932589,0.0712563438337636,1.3282309231863645,1.0204947361870138,0.6137552596472585,0.4800110592839767,1.4735376949398529,-0.07779619340318648,-0.22152956882489286,0.8529713085606735,0.6254635429578549,-0.25241683560524325,-0.0426081482114179,-0.5113331600967229,-0.4196245026642248,0.7067668064200912,1.2392084645778922,0.3617151879674653,0.9052225313512252,-0.05486527153924501,-0.19566039254770498,0.44162860376840407,-0.6998538629484823,-0.1550057874212243,-0.6259996669113548,-0.5651850238373878,0.14681882175102218,0.5619155623768589,-0.4998303916042906,1.2869164293532127,0.6646004631018255,0.22930798226388163,0.2625832803256931,1.4411020907138878,1.5797403949323576,-0.10913340204670789,0.5751660262482087,1.2611238505514737,-0.28992949314247524,0.9291199920788531,0.6455346758942079,1.005206667244846,0.4292729853915708,0.020346318945781983,1.3010142241624683,0.052866565148338304,0.9248565150070182,0.30069911133665533,-0.1964824465075305,-0.7510827936838597,0.4655436087752081,-1.0047102243667692,-1.838299833423383,-0.9146805684114407,-2.905908432370303,-1.4897672899501688,-1.2763938082496074,-1.665082615193195,0.09820075863959908,0.4479849200783939,1.0643928210296996,0.9392776422275644,1.0194686597996807,1.0561780204467053,2.2463775293044317,0.9130662419082455,0.5509122257228265,0.6611267416504163,0.4105929606951479,-0.509990695416818,0.3650180554597897,-0.6231810063514243,0.09435393008091687,-0.20285669944243015,0.6932163021898222,-0.1337301977611604,-0.38456525853887014,0.2763991554248577,-2.1537248804803704,-2.61208269201145,-2.8213790933736127,-2.332045923861249,-3.3691987449315244,-3.709911018713952,-3.4019140770861096,-4.4933557128025905,-3.4267688806148,-1.5937909559672672,-0.06916729648656891,1.1164450173864058,2.3380623438862007,1.3196269707934682,2.52500792662309,2.3697966638291725,1.1907811816092193,-0.37496397323043335,0.7774549360343004,1.1492266946462513,0.7331911678342431,-0.3957295169126416,0.05727843528975161,0.42292519203966,0.5505506542609154,0.5354644310903374,-1.2600939442899906,-1.4012224762675562,-2.110196392151833,-1.8177108018144734,-2.8178187972856565,-3.5228021695731284,-3.5761740077130586,-3.444971672517577,-3.5490833674295903,-5.501873299846186,-3.5934936619826465,-3.7212648750850987,-2.048497476323954,-0.794287839381321,0.7440498799168588,1.440479765813954,2.669224425098234,1.2339402611070396,1.4464482865581807,-0.06933122474320787,-0.5705752598662364,0.8168120434397016,0.0463258463651645,1.2273429676568894,-0.38936420773930003,-0.15605414951042448,-0.024011360009926895,0.20061108627361054,-0.6336936247047373,-1.339713579194374,0.02162932290971373,-0.06107707806101124,-1.858356088222837,-0.8879196277758215,-1.5186283305033303,-2.6741174658831985,-2.7201431475308238,-2.926923298372186,-4.391394482343206,-3.627426093398476,-1.380162828145232,-2.1985960453215214,-1.2627213774606985,-0.9910535523111978,1.21095689102393,0.7506836247550138,1.35441177232537,1.7449241643299507,-0.024952284635321804,0.5158097126755302,0.3762705985303419,0.846637093634467,-0.5051592053946516,1.111899452966042,-0.34710045789258787,-0.6391345130041329,0.2398562188391132,0.022632942375556176,0.5103052740315298,0.03819354185271319,0.6052553562263546,-0.05886098506907428,-0.6471652451375361,-1.2958437319687826,-0.25945386600732795,-1.848115389949933,-1.9337378317148957,-1.9208951049915608,-3.152862982026872,-2.691802379464446,-1.2639067251723428,-2.1598731005316214,-0.6848919456548478,1.6016673898809497,0.41038086808005975,-0.01880976655052234,0.2289662126977301,0.8329725709683448,0.7492956103695343,0.7999325952042258,1.0031069020351107,-0.43587728011522264,0.4620878086422922,0.1543316907687163,0.2147034067679532,1.739120633164338,1.9777251725125387,2.08598739118286,1.0070799232191459,1.1502085639178468,2.0745658045778352,1.0592111413948326,1.3524545838337236,-0.917421530697417,-1.8579767149362398,-2.1383928170580058,-2.0710746647044966,-3.5886854123473126,-3.7171261701791436,-3.1502746735057188,-1.7337360923565623,0.1456420462256909,0.6278269631385056,0.04960759705832417,-0.5084010764984331,0.4657620286722108,1.1845277220294035,0.14154454037048558,0.5845624151641665,-0.3332477330875904,0.9355365437184435,0.6319371054266265,1.5878346373107746,1.1124958713359527,2.265940551128644,2.3553377896718812,3.2436438578718203,2.132414241547331,2.694247547555828,1.1948375967605438,0.8256327661918416,0.2414703928050214,-1.9189967900303302,-3.3330219989707595,-3.382851622733538,-3.0656487737966125,-3.272574196186293,-3.3786686756508275,-2.8654871711004875,-1.1690562422847743,0.1699929311739759,0.5803741358193755,0.9822358224458777,0.272478577117649,0.005462666417714871,-0.4592074424164515,0.8514543921249363,-0.09993109051597712,0.9441756866918297,0.31301930705869063,0.7619602159283757,2.977064935210272,1.826258911435797,3.2818062266594827,3.725280476190471,2.071420179724675,1.9211683707305682,1.1612378339558478,2.719263102004978,1.5202381165389318,-0.9247979800896988,-2.132522921724346,-1.1851923074161215,-1.8540641003679863,-3.6859058652742167,-2.030030238427854,-2.3515977535338166,-1.1422651985186154,-0.6101082935328651,-0.658967736175661,0.9721865109477882,0.4033746619591569,-0.5207697711304695,0.11566791723671092,1.0565633466937954,-0.04331309813740744,1.1054132844117608,1.807912088701474,1.2422479399180373,1.4944381175854435,2.7349440445125164,2.999574088228494,2.045341539260191,3.2964956219065167,0.7880329640766773,0.7634672079346263,2.2071712812923088,1.8536175976022822,1.067817642148631,-0.6114053625923892,-0.9336776888376248,-1.368256929276824,-1.771117067334981,-1.8769004108972867,-1.2976548144762992,-0.5084257117452169,-0.24484638248491425,0.26092540182909874,0.9736681286894406,-0.49131715943139215,0.6901373428173219,0.7274903218466509,1.3147012359315957,1.0885630912956885,1.2787421033248414,-0.07246367705747124,1.322673896442124,2.33267364350007,2.5846925777891303,2.1774774045169973,2.7399307558093193,0.9235791357448279,0.12425479682687934,0.9258193550903386,2.400404606558101,1.573653743191503,0.30779633367740183,-0.4711426700341938,-0.24032315656573022,0.22956692870439888,-1.044808047130496,-0.8982463397990316,0.3854460468492435,0.19110526776054026,0.3380293018430286,-0.2247843536551105,0.39834137126089736,-0.5445136426118484,-0.1346170809692213,-0.3542418254538821,0.20627537233573134,-0.04620124794330795,1.3775357022625854,0.42033672284028806,0.45537045473993265,1.2494838728295223,0.08846013676487331,1.3329464212920337,-0.05937659416912322,0.18725888854011935,-1.540051079995665,0.16797398448730624,2.3838145402028172,2.07231912138247,-0.1599313154530616,0.8469762985693101,0.8523724008522635,-0.12602042405547556,0.2649322246305687,-0.39014652664038413,0.5613482832180218,0.7563577366323447,0.6281682413249264,0.26507241190353964,-0.31325857476165214,1.1564098512407208,1.100227635005217,0.7977347400112447,-0.39396465926332164,-0.2940039951048355,0.7036235658805302,0.20572044618141713,0.3445228475554597,-0.31596350601633577,-0.725990260373917,-0.8718297101717035,-1.241478926375059,-0.3679674411557324,-1.3710485386544566,1.5612659041003794,2.750781085185923,2.2539111480551206,-0.029779742250172575,0.012937796684863905,-0.7896012287719797,0.2110635109600694,-0.07049180409908222,1.0625099873331534,0.40210161311195863,0.21307902903066778,-0.5920534458521086,0.6589634111871674,0.06339873357364836,-0.5949146236573601,0.6082159116706999,0.012780852031660881,0.9490260818074118,-0.7826659702219663,-0.9386812768591863,-1.5514877971779462,-1.1884908948857948,-2.1763618074012987,-2.595673459965336,-2.4951169052029782,-1.092053105091829,-0.5206049890916669,-0.6900065140793302,1.6200770369259487,1.3206157208760774,1.3725913471551618,-0.7876465371629712,0.019851754516512592,-0.997934251618471,-0.7761899593053444,0.4658999463594268,-0.5644767691904651,-0.28453224540897487,-0.8258555392581225,-0.6427213832048555,0.7726169035707703,0.5273633758546199,0.7992276156129888,1.2214716061454787,0.944724745629922,0.03476486620430724,-0.6289407352352179,-0.7343938687709081,-2.224887402894771,-2.5953894504237605,-2.1128493688154557,-1.5886406916319873,-1.6251566659801544,-1.0569687011019204,-1.3191852274506086,0.4185183098107915,2.508789576698159,2.030663810535499,0.10231097636081267,-1.8946244262697396,-2.1613427851632854,-1.320625180742061,-1.7454195448125944,-1.0612249350130791,-0.3503644663950895,-0.8197420232331561,0.29069701530608244,0.2917599166354369,0.18368474795697579,0.8132783530333417,0.7850443704728788,0.9334941923287777,-0.5614439295795257,0.800483125239402,0.43908464139924797,-0.8288486651663085,-1.8255259664239873,-2.4912500763046888,-2.2457305492346213,-1.5210889923034685,-1.2275387018499362,-0.3021929137360713,-1.2036337979302427,1.349576038350486,1.3344920893900423,1.328902848456685,0.17757560833657152,-1.2882797896991234,-2.385570758530381,-0.5582921830904692,-1.207890773783877,-1.5500783123234976,-0.9770359814906887,-1.4798281730181742,-0.46939223040807093,0.08141049328207513,-0.35326934441881075,-0.03734875362681323,0.12646391514376273,-0.2482590708396285,1.1694987953873088,0.2769257875238775,0.7042927678355616,-1.3651399657173426,-1.9639622505219119,-2.1470896092175056,-3.172461508427714,-1.8414410646667496,-1.5388698632212983,-2.205908108097097,0.9527369412462003,0.9002624277286763,1.4469260058998588,1.1926699209611844,-0.10902534428561435,-1.5846742721319027,-2.0519135286618626,-2.1443367422763733,-1.49100592061342,-0.1259520939172512,-1.687662245928794,-0.7914963509899066,-0.9401551008909927,-0.9152586363323386,-0.6543622164466958,0.4251914262473298,0.8080729800445272,1.0381406458292537,0.38661366994407154,1.1433227934630303,-0.20708678740580463,-1.9024315150654652,-2.848904391531457,-3.0345168141167753,-2.892794113207675,-2.0971278531866955,-1.8999040708170936,-0.4582954929033229,-0.2589708232264602,1.572799841965774,1.417254501993343,1.2457540024715101,0.8066959952710113,0.42855108651034635,-0.9250911176878784,-0.8164737834976058,-1.86198535663797,-1.4629219685734394,-1.981800272247791,-1.9484340581720152,-1.6613171456055513,-0.5436853410725594,-0.784289152063712,0.8768824299642329,-0.5286048921302183,0.9225550866087452,-0.43165474288851446,1.11107305633995,0.2653915463798276,0.03633311131880199,-1.4434409122821013,-1.7196740913072452,-1.1561102967276808,-2.4362579675388547,-1.0176696459206942,-0.30424027606852905,-0.17387071796008277,1.6775116141175228,1.4825255393894086,1.9654734257903836,0.04389353846366049,-0.003842941873672506,-1.2911402866526451,-2.1255712022085245,-2.347183190728899,-2.1003758297608095,-1.7957461961521755,-1.7112992118140913,-0.5501976056216721,-0.04530729116000481,0.43406726902173653,0.8007821649429235,0.2927264777782299,0.10860156664523721,0.6241441268543676,0.8888190489323872,0.8136837245294176,0.38526621254337323,-1.7955800587047495,-1.2605705701481584,-1.694392405096825,-0.8661811757538556,-1.606167328685444,-0.9490974058950586,-0.6341756796168481,-1.825347395826575,-0.5297820730561066,0.10640266302603377,-0.17719154739910864,-1.0901301268350305,-0.1148044245054963,-0.33051239272524463,-0.2964252106304866,0.13558238988610008,-1.4025113618534217,0.3616995232295191,-0.5757102626320181,0.4242216667430276,0.5080377805614953,0.46207058127167977,0.9610536841999665,0.6826596314367273,0.0825063773829101,0.8400117605520259,-0.1639454369742611,0.9853988489105241,-0.17725082152500815,-1.267347465059749,-1.2223609982247448,-0.907110625592054,-1.1961747650631134,0.08899051221278342,-2.2217148910728137,-1.1746999683380643,-1.501398115331677,-0.4559083352687537,-0.3687156521321006,0.6132557560135885,1.0153347383985696,-0.014485847234500328,0.33430919559691014,0.9401166463512285,-0.5115419103465549,0.6524494051437009,0.5564183018953117,-0.6602896062552819,1.1804665525188986,0.9859052545560211,1.117881454794097,0.18128498029718684,-0.43173304935456447,-0.4612107909657276,-0.19032316455341963,1.1767562639309332,-0.05935129848725686,-0.3095081533314806,0.15083789976185302,0.7886490819413028,0.1936851323243196,0.21625710399068668,-1.2353861711890686,0.012256897925157792,-1.4035776910285926,0.634169180348445,0.480744106619271,0.6053210176095956,-0.5416350719194147,0.7240908192355238,-0.3953907985820676,0.7636987230369523,1.2436513926654496,0.15516218716686045,0.4715927548278845,0.49117756844191185,0.7795381054399647,0.05253028741061496,0.35940076268087684,0.29284170791841435,0.3961418836086643,0.6437571541267583,1.1469522478768546,0.9409294737142533,-0.6510884062968535,-0.012683242469614178,-0.38298677962958405,1.1137151793380418,1.4540935467497977,-0.5621472478773333,0.6708948195191913,1.2816571237091323,0.14502294491990575,0.5246486075566517,0.9910283184550812,0.9394898215599079,0.4352330756735764,0.03993341428166349,0.4605457061068009,-0.40310234524798744,1.2795441116165147,1.054946530777769,-0.6116499075140847,-0.45436581551164407,1.077198783469769,1.3062977279271277,0.4245670197302907,0.11670449755820632,-0.13521202856760176,0.5051414391159039,0.21083199376328746,1.2190702823337414,-0.4097229280601119,-0.05150192434686273,0.19156525994459447,-0.009330714712489654,0.0917481032352844,-0.5063842314213033,1.3281191543641182,0.44130934053849713,0.7804770359522893,0.9038712811506401,0.399859209586961,0.11402805825126178,1.1224568052636132,0.9557828172574421,0.6718770912691554,-0.21041677221169888,-0.5002900356301087,0.13252143357760576,-0.29851136931873234,-0.2360150293874462,-0.5212166750206122,0.64861708810963,-0.24426416738847398,-0.11050067561996882,0.3410336350287878,0.9248474348476678,0.9906422936156527,0.2988735102994765,1.3022666888543708,1.1983230226675645,0.9452007497945515,0.1455184860277469,0.2628838632737753,-0.007331292100980123,-0.30865658026031406,1.0235472555381253,-0.5851483815336992,1.06472613217922,0.8688098142583388,0.6967354884230597,0.46871058563841117,1.334033447392916,-0.32403438921526106,-0.5309112240843954,-0.5152575994348498,0.8670224076380798,-0.32534859159969176,0.1637611798313108,0.03929888947789862,0.6358001097439903,0.08399248279278514],[0.18135626098527868,0.40926188723946694,0.37939174345457755,0.7201987917697361,0.9457630676114122,0.6758911385737736,0.35335311754282134,-0.648504589489058,0.38101926233933053,0.2391269611221113,0.3392964950205715,-0.023129051540991548,-0.9156690841641429,-0.59992370065343,0.10049140806316839,0.3023855513483072,0.23062512048085726,-0.12203004923527233,0.9716529194820878,-0.5701975854447223,-0.006690971392484848,0.5111426669502683,0.3221648003117879,0.6892210190876429,-0.114846724055845,0.08351631153326206,-0.46803948321554295,-0.23086474818838465,0.7400602926191251,-0.8868964534138812,-0.28252990498417757,0.7235697586370597,-0.8946887115909364,-0.4340461607049488,0.775051209963138,-0.9058535662643767,0.925209956563832,0.14843793659349042,0.7019308006100344,0.6056370406786239,0.5708820418394503,-0.9172680112332977,-0.39021797367479955,-0.32321781972231106,-0.4926991746290555,0.08476777100907516,0.3635482951303778,0.33378250692097333,0.18740820685241313,0.6409351119590752,-0.6416389114152051,-0.97779170870556,-0.8753607735904985,0.6192162454883154,0.5898160656294442,0.28363542883813136,0.5188576934019646,-0.24755566644017135,-0.12194712226990569,0.2966161352921796,0.29709876122842427,0.5957600745867135,-0.12638022465146073,-0.12276835247156018,-0.020663688642030806,-0.8126551142261728,0.30317662168819703,-0.30729188952212677,0.3908046313201071,0.8309167918216096,-0.1943008219569805,0.16234526973192137,0.9163854249691487,-0.8292965996600801,-0.3349581703680947,0.8030222216859931,0.7284477167420478,-0.9567464921378314,-0.23809666616893932,0.6227579142142078,0.21921390483561035,-0.5314261212956433,-0.8516744253798936,0.5721319619798484,-0.2717173051575181,0.5814820221824575,-0.20801958536826543,-0.9613855855472726,0.583320282036015,-0.6929705287541892,0.23961062855781248,-0.10443311970657612,0.45323754321761284,-0.8531085238930395,0.21922934444147485,-0.28108267455747904,-0.933585786093507,-0.4280269683530025,-0.4706319648697188,0.4401305592645971,-0.5440859395722093,0.20564082429768854,0.9574039758320337,-0.07505952714361638,0.06672751894431546,0.23296983143700026,-0.5775434389732625,-0.247822540646538,0.29964101028434226,0.2866125789664928,0.05527014333849319,0.8070016963145998,0.35791838517916236,0.43724278518086884,0.5145095488715796,-0.7759089170325026,-0.36227623345398097,-0.14361375482126576,-0.5305022781483877,-0.33130503517925153,0.3092691639657534,-0.7821900594894369,-0.10520429663290101,-0.007396357353303769,0.23754142146757629,-0.026223856435175878,0.5856938898397998,0.8905655743890709,-0.06687159271510755,-0.734445938235016,0.1325553348561031,0.3379886093281567,-0.16945847879973183,-0.5851280867755112,0.48626010256176677,-0.6769914878644128,0.8825179084932194,0.7046525040052999,0.20200023740122133,0.6504697273056484,-0.8336996671233652,-0.541612551092993,0.46885884183741644,0.4676034527640212,0.03367265404355436,0.3167496856225509,0.10333641195022063,0.5367290733168497,-0.841109586028135,0.03900656043337612,0.8394530186502518,0.28055335382488256,0.7937419474449268,0.16779286784580494,-0.5530430934285897,-0.8555905313991623,-0.48753713637208623,-0.5423505052792638,0.47546033939197563,-0.0909179287388347,0.7643526270731321,0.07969241258982607,0.752134973700656,0.2662825379827856,-0.299615990683822,0.3409090053936869,0.1637182961157724,-0.8296068776148865,0.8723453505653087,0.8674350848658688,0.6972031954012372,0.2786311138598161,-0.3296704622454574,-0.9600378262615671,-0.773614662256099,-0.8850494650855874,-0.3611313664900322,-0.1623992121907817,-0.8698552517334026,-0.46867133519561865,0.1968914843887804,0.19158089116024377,-0.5449099182251095,0.48759985980586984,0.6945065870996823,0.45058298476201886,0.04961809523324051,0.21383659290206267,-0.7728542112167947,0.6092162225464268,0.8453804723115381,-0.5966013043336497,0.17927817777370977,0.6079836346863803,-0.6700477768383507,0.2764106291244237,-0.9014632257316559,-0.8154924710608152,0.1137238229015635,0.030013231654017505,-0.8647484361728666,0.49320225515494,0.44548508843443213,-0.5052149150034059,0.05143179845066512,0.05588624641897308,-0.41585303640712495,0.6763189056536674,0.5942332140801181,-0.5399535348935885,-0.023073940865343524,0.2438467393778942,-0.1123947494599189,0.6786147145496711,0.36746395824197864,0.02130750693539994,-0.5842477122507566,-0.1436637923848727,-0.8789094094490049,0.03848471384483727,0.16423109941938643,-0.9817821711486252,0.3832188915989238,0.8443200295650011,-0.4600733007532623,0.2426488631789934,-0.04067607071901742,-0.6036643038546183,-0.21207188613701414,0.5471980943361098,0.2198535673765043,-0.9268757877567693,-0.20101387807005663,0.9874099853938262,-0.1991997878620679,-0.8394774124743823,-0.5498391460630839,0.27906895761620787,0.364202949070941,0.48260535042816605,-0.08593390833401342,-0.35628785121821444,-0.7111434150921621,-0.22844764404274995,0.7177885443202275,-0.5140793980150735,-0.22812731715663334,-0.16548186123726655,0.7929430294652647,0.06290201994822382,0.5636437744234599,-0.3950918861958583,0.1943418293813992,-0.6857685953687837,0.30022079363330106,-0.21023556728054157,-0.2272946393311663,-0.30514949747642917,0.2295469760271913,-0.07371216754954005,-0.36351859460707625,0.01142322998037788,0.03539116673876436,-0.5578139158111712,-0.04059889969805347,0.02991598472470882,0.4018642760945984,0.5624747915126687,-0.5896494253901837,0.9368627810068006,0.9870638863085822,0.7516454154218379,-0.7352994942465271,-0.3949276186171983,-0.4389335980087204,0.8176931848502947,-0.8467174238730858,-0.9425417490070706,-0.8249469600790824,-0.28111217508984376,-0.7119874399989032,-0.46508603651163666,-0.507201045868028,0.7285777471799847,0.030862610674124026,0.12046805691083731,-0.3908293983885873,-0.38363033351453657,0.6800722276007115,0.011397727258090929,-0.9279914756382861,0.23739907398105778,-0.5080626122848129,-0.7820535243235857,-0.8114025167782997,0.11055570724517345,0.11940261546289192,0.7167685660421562,0.14199310953617267,0.335054971124635,-0.12316756944494857,-0.08788077053280302,-0.9954839211104403,0.578115492152395,0.5358981802481175,0.5964798457230565,-0.7566079485797229,0.7430911555345003,0.7671661597794184,-0.3739353078407018,0.05449096356676089,0.41994114548575273,0.680780188421032,0.914323521944318,-0.5475196884438518,-0.7768698951255987,-0.5205058554893258,-0.4920425476890535,0.9070834761318317,-0.2462505269340916,0.7515271792962841,0.08942670394869719,-0.8948079540423339,0.0717425481313598,0.5609827054975228,-0.5532328817211823,0.29226245284923413,0.2469348416023334,-0.8658177457490943,-0.7887978604253275,0.648324463128606,-0.11001913500430022,-0.2982739660213162,-0.5490154072651506,0.13021944150616344,0.4135653557285214,-0.1000387108393592,-0.33150456398317535,-0.664265654470218,-0.879143845243094,-0.1295402440336291,-0.956811298332759,-0.9866764647973821,0.2429587844845433,-0.7458350350721799,0.910472694246163,0.13359315975664082,0.5703605281081373,0.18595593989453568,0.9492920063665731,0.6621549714252827,0.4286645320352272,-0.5133560312007442,0.7002644752528147,-0.5152513124702618,0.34781173300135876,0.29519012579635895,-0.2913459458442383,0.3581484940112099,0.07149110791961753,-0.3648084307047367,0.8676378269709357,-0.7651882427761892,-0.6704731611693585,-0.35554532371732184,0.3698823301336368,0.7804691679042222,-0.9371933933219423,0.3817022554082033,-0.06085082112076608,0.48075829923610813,-0.22144561341391947,-0.3658340981542691,-0.8938246951418629,-0.5640065690740421,0.16086599547580066,-0.5199737102959586,0.6932258492573573,-0.39783776966137785,0.10828294193750475,0.9027821816008972,-0.2163219346366246,6.875625391299761E-4,-0.0993383065792776,0.20870596072524072,-0.9924640392784763,-0.7578252199454794,-0.5611201237683688,0.739775679867274,-0.7050063353987674,0.6855780163834334,0.21782534128154937,-0.012857339114337106,0.8950953398305648,-0.607099845077013,-0.11687495084215338,-0.12419966603666892,0.7583377009103348,-0.8985233349709321,-0.8366508190558277,0.9191885693197157,-0.6405408346193158,0.5576790437060946,-0.6558089290667524,0.7131036570357427,0.38848072731626965,-0.34615039528065883,-0.5580746469966266,0.22826282249639687,0.7986282027995765,-0.9785177750835965,-0.30538491471704654,-0.7725967248285945,0.15771915610133988,-0.026886321848533356,0.17820572220505218,-0.6438520743735633,-0.4374926563800852,-0.8732959966008281,-0.009370238863994306,-0.5570777693294243,0.8931961989169147,-0.7044260483737497,-0.397854953564551,0.7195064245589704,-0.5118123411263538,-0.24911935193026438,0.823673158888949,-0.021546888888789296,-0.816366179940751,0.5012465003534132,-0.8319511493309109,-0.076635856750942,-0.020693587991724726,0.7840531915328186,0.3106947397571555,0.3928679980155281,-0.41438515186581415,-0.39463060577395076,-0.2558458133631833,-0.571415933333354,0.4942178814483248,-0.1486599959516304,0.8668757528320225,-0.15575731294328854,0.4783168200591118,-0.6514508325657324,-0.7199439183066316,0.3311669532223176,-0.14324469443869078,-0.030860001702629977,0.2184397633323457,0.8168092406875395,0.14649451443601252,-0.17710179472430787,-0.2225152974795275,-0.5329138815460611,-0.5284584438641298,-0.4561307339177377,0.8867277682128626,-0.5578379312516645,0.39348846016773414,-0.31117765150073484,-0.15211278213730525,-0.6361688354980247,-0.2675869140967834,0.3131478943877634,0.566259267666544,0.18457734344087642,-0.6891226176756253,-0.02801470809225876,-0.27623795412433466,-0.7298746656785824,-0.3116177763273046,-0.4097686482548315,0.5412958091351617,-0.6960795892730745,-0.6113326922289728,0.9066747425746763,-0.03501836191330662,-0.20459792042642316,0.3169386582848146,-0.4877173103500601,-0.299349120001785,0.01727711078858326,-0.2622562261001782,0.9240587696760677,-0.21036474501681254,0.401805143387099,0.44071928178630304,0.5927125444942,0.21293506819568253,0.6875739773608375,-0.46451427919134325,-0.7946465061800219,-0.7435204263132111,-0.7006958021195354,0.6702018103321001,-0.6869632950312148,-0.5513863141854723,-0.025866162430071015,0.4542503502280172,-0.13936258974300156,0.1617837319379788,-0.09894433230918918,-0.6714931435840497,-0.00468427741813652,-0.8228555408685644,-0.7417766110745474,0.20621274454806637,0.20806955197479887,0.9634331050491262,0.4872818380003475,0.8265509986795879,-0.24365672255851137,-0.32736274948415756,-0.6853671319893273,-0.02930743198163382,0.19735841971853282,-0.44078011453665505,0.1938711849879416,-0.5864220354246026,-0.23438998320439883,0.7460201229911263,0.5374693146977589,0.8388443535620992,0.4529942278684128,0.23265515337653836,0.9709671342311288,-0.2415300398856311,0.5790205927028487,0.2970282449940045,0.6435743302081116,-0.9950050641731736,0.955933757845743,-0.4301119945851898,-0.3905097275080355,0.2837797062478151,-0.2053510551948552,-0.5527546863368727,0.21432274624168662,-0.11927725446617886,0.8784715331348613,0.711992787249809,0.534377760771652,-0.25164163462342737,0.8185513903488896,-0.1559347101572356,0.9857869277407459,-0.1503716421153236,0.574294755900691,-0.2846514744458465,0.4245505927368231,-0.03703886580403131,-0.04165531645159936,-0.8193582627708474,0.2436308912120741,0.8362370278634624,-0.7709520511287383,0.3744309827576557,0.350020495736088,0.13305100571559123,-0.3737117316158147,-0.49653313629355544,-0.7996892122495766,-0.619991156305049,0.17398105255312823,0.29787394442569315,-0.4872144346220485,0.7391769445117692,-0.09043497605938185,-0.5874321246673001,-0.21213650001072423,0.4549463918112486,0.4016786000833548,-0.4005920611627714,-0.7283936778211112,-0.5676704475576845,-0.7415900993651522,-0.32419619104551384,0.6784870021326602,0.6661930638625814,-0.7519401358865822,-0.018400829687025978,0.5429297995384341,-0.14080622122169495,-0.45004552074754106,0.36466248284807357,-0.027626161985257483,0.06340447681359107,-0.23409595083460805,0.5389411310045571,0.21364836543602664,0.8707555303379823,-0.7185070462129127,0.05486289189165818,0.39950816388776184,0.25285218017500843,0.8218547693396989,-0.8523402141476695,0.7494813891053197,0.09252831257677561,-0.8198983168897525,0.197954609934238,-0.5489318195558412,-0.9908141722831555,0.3905074093290702,0.6973251004566043,-0.4383006059832668,0.25218374513953296,0.9464659062186216,0.19446651856671304,-0.7122690244060157,0.06040237758761705,-0.9434741717734468,0.015836114899944548,-0.70346454003433,-0.7803804115404513,0.39084068627330554,-0.7578822334109548,-0.18062198700014837,-0.7338118533623583,-0.7429507448237949,-0.18247549301697394,0.700546483511109,-0.7463793835874627,0.780449881412494,-0.4134048177755437,0.8758321621074338,0.8889237027455357,0.25982601314001924,0.48438745841770425,0.16650889736312993,-0.6572892450976855,0.5843616727915149,0.17272827798099902,-0.20042287056076696,0.1329883674812077,-0.6202357455313728,0.9912878254817221,0.5887096933524548,-0.9064663364287812,0.3842143485449581,0.27893618485413596,-0.661085437156733,0.6219306999895182,0.41419476018184714,0.7906298037497512,0.6787061061589312,-0.8527802372664672,0.26224926783548735,-0.7355153348620871,-0.6977489073540701,0.10290530828369299,0.8934964297776258,-0.9710521329031209,0.38307846730167056,-0.45666955325502895,-0.6313800240671464,0.9321540349966345,-0.23021286025596088,-0.026871156022896022,0.058508266178551586,-0.14766774652138412,0.5130378208820271,-0.01699463652865189,-0.049074420700594715,-0.3957748185838785,0.2768837689310947,0.8568382921314097,0.09859922453119928,-0.8763370207795234,-0.8055840490540007,0.3991848374325844,0.5732565523308901,-0.5279980707228143,-0.13602053995965332,0.959183299079194,-0.293068332357865,0.4424759358867046,0.3616307670754822,0.87325818311195,-0.1484766048375433,-0.6783107231781237,-0.6292641380389368,0.35635296165679853,-0.5991416415224436,0.7053882765629991,-0.17172526222564186,0.24262927224470854,0.3879614681456063,-0.8344850851225862,-0.15296280941192247,0.9310203733995035,0.6449834081015191,0.07040391273002743,-0.8816550433878891,-0.6092949374512581,-0.8116716316724917,-0.14794480358175133,-0.5475316369884937,0.12962681563540424,-0.7331924592719617,-0.3688068676898933,-0.31661720183230063,-0.3273874376764919,-0.652098334633777,-0.7297196304181717,-0.2240777233021146,-0.717854583474369,0.2050102857068021,0.6387683429689734,0.6402799133252353,-0.5971708168286244,0.2236177621453147,-0.8371818030362943,0.9005387268667101,-0.3725383314289463,-0.9397127779584797,-0.4314924714888176,-0.3465396466077593,-0.1432632137032771,-0.12738678547845442,-0.8481458039391937,-0.8675466860139055,-0.22863351295922077,0.4783047616117216,-0.1370625645469462,-0.9034398408922577,0.7282652055870777,0.006027796865666952,-0.9656553761503179,-0.23829466017674325,0.761889398425637,-0.1308161709269392,-0.3228965453303535,0.1378627921350637,-0.5012703631995209,0.22451602974102802,0.9258399063536966,-0.2534849225032766,-0.5186015447250315,-0.5308911295067823,-0.564382330884491,-0.13296384149826282,-0.3497786237216383,0.7840367477512898,-0.6849742208892082,-0.3038469676306925,-0.4536186068684541,0.2520642585712324,-0.4718887865080181,-0.8948811175945365,-0.8243722345079696,-0.34505294273302417,-0.39651383332292317,-0.960923585447349,-0.5870260074119242,-0.2997553948122417,0.9612741026381952,-0.9727235687043743,-0.6710800969701279,0.13112509705852257,0.2009273835894059,0.7595447006398148,-0.11641404616001412,-0.0586818598502785,0.28915443164517607,-0.7670786905352821,0.06143450444404153,-0.2530956254542279,-0.25494074484278006,0.5837340883437275,-0.29117763326700347,-0.7406310516357146,0.6405586693468409,0.39423511247857834,-0.9113575031292139,-0.2407043189488931,-0.4830397941056396,-7.673471380367302E-4,0.4806939961104944,0.4879445838974062,-0.8351351404980263],[-0.8612846401564394,0.05510516495487244,0.975302901295449,-0.3561664637483879,1.0120793688017913,0.5339224573667187,0.3145145690405007,-0.2622466859814503,-0.8317506205247633,-0.38725953925413514,0.052243556961281246,0.029644960005447366,0.8900224555348172,-0.08816209858098616,-0.12572474390651547,0.11746794075791935,-0.42759832904430994,0.18254280202129136,-0.6464842297049456,-0.09140383531390645,0.12984554873347104,-0.5205954753723785,-0.03421729213598121,-0.30339480873812885,-0.9643869458622643,0.9119844433393551,-0.8153574344437651,-0.34123593458181634,0.5075044715073448,0.7582539187847215,-0.036526795494584346,-0.2632830733633552,-0.10403032187227958,0.5981940913784215,0.4904055776169754,-0.23351790062049502,-0.4353575368172862,0.8059472132017864,0.7385599606695958,-0.8053880928591474,-0.0028088054830479087,0.345479974253951,0.1230659586742446,-0.11847585948105745,-0.34858493006491165,-0.04763011729041864,0.1018141933896929,-0.42100532343905045,-0.5899686779380706,0.7509168583506363,-0.3641542532182079,-0.3159783437321496,0.5521927097399346,-0.8354199612844069,-0.5707986467361195,-0.04420833318664873,-0.08197958550744502,-0.4094737818013352,0.28855184296775793,-0.8803946793807441,0.7903305373752154,0.2861301166948795,-0.4928044162346411,-0.42871732767843784,0.8747038968570207,-1.0037940211287744,0.9080283914771506,-0.6412128154279196,-0.1806631249433316,0.6423542235430586,-1.0844924481934344,-0.37937768598274574,-0.3987321700457756,0.699865749541775,0.38042321015316155,-0.389990066488493,0.4417950795514393,-0.21633660162187351,-0.47807499999103087,-0.259980981274396,-0.8709142994860063,0.8817032333423044,-0.6815023738747497,-0.6453821079387887,0.34981913658609454,0.2021873685015002,0.4794794948006971,-0.33052373474745095,0.05019402625216321,-0.8550766719982215,-0.3985488672166206,0.8297033418813496,0.40894886147183346,0.8652621869962372,-0.8059815995293146,-0.8980203639876398,-0.6743423040861595,-0.2638604406025434,0.20540455792957504,-0.7711568172197901,0.5238050465440466,0.45823195701127406,-1.1555080104440354,0.3653694565722688,-0.2956059609706938,-1.0003929093357353,-0.7428251584614669,0.0827919250495559,0.05511668300444608,0.5464653649972053,0.2904795020683964,-0.5364421627264666,-0.1041628130359323,0.32044719054861515,0.508939992700334,-0.5689272271193472,0.6462871481728901,-0.3854496497674615,0.8143322817128121,-0.630732014298337,-0.6711928108927405,-0.11212534115793525,-0.5001394651189786,-0.2691120116573558,0.49779968976456457,0.9022841491427459,-0.5946440714625433,0.7076104229709849,0.0826218535228687,-0.994386516389612,-0.5576085909337947,-0.3455173775182099,-0.8273796323833892,-0.120062246782374,-0.733920103327771,0.2080587958793223,0.819687669821877,0.49586865079211834,0.9801252461377149,0.7421083419633224,-0.34390360185642277,-0.9021638022664904,0.8414776407502471,-0.8789487199396872,-0.9063221191947124,0.6010912150193483,0.7623355138767608,-0.24334717065065908,0.4261154135946898,1.3799680347896537,-0.5010667504279024,-0.4188178624640975,0.3855605395295052,0.5613906510199113,0.11952538755768445,0.9158381956534933,-0.8909503240715368,0.4520391157400195,0.3826188858500589,-0.10776628046448995,-0.4933900521629351,0.4701380198928934,0.0028310878660756755,-0.7212783357777321,0.0403284980340693,0.1455664418578523,-0.9897386526349905,0.04322928160213014,-0.30354114687314926,-0.1808522005683477,0.10202911850706974,-0.010428166800956876,-0.0617527327671043,0.24146936399984678,0.27164346191832583,1.2810657432586943,0.42802763228290547,0.49738510687104026,0.8456995243220662,-0.3794896723070342,0.23742489313523343,0.13985894709443977,0.5046510659766251,0.48573191772405927,0.5358518102943675,0.4858604743407903,-0.38029989255293883,1.0024852679638436,-0.7775309576977589,-0.5966778819967639,0.25615321635397226,0.6269325012832342,-1.050859650101325,0.2349803991438015,0.7820803109880244,0.918079288409774,-0.1354386153649285,-0.2372923809164117,0.4954371327403095,-0.1698627268274548,0.5663120616516074,0.6201350932971651,0.8662577335004168,0.4507712832866776,-0.640102062983129,-0.28430164189848905,-0.9347008067036803,-0.6417129893176611,0.03856968492992571,0.6703499336212302,-0.6531997689166108,-1.044910681966739,-0.7190178715516353,-0.03912351933712481,0.1318367133953379,-0.6658959831250763,0.3351532860573211,0.27776908519324367,0.35710225276185786,-0.5696322588318317,-0.8147323342411901,0.04156954938053955,0.8216557797479885,-0.2988858942269353,-0.5689137709075018,-0.7208186098346034,-0.4999829621442467,-0.16969032961911162,-0.3852814563867655,0.8437248811628765,-0.8668064394625992,-0.637955651889283,0.26031522952401936,-0.7342942121056104,0.36351070610480585,0.012608231168750192,-1.1983652060607788,-0.7545329993122507,-0.19297099216474561,-1.633730304337076,0.07709791992397128,0.6257687192634751,-0.4333689950785781,-0.1571999918088615,1.2401083163178293,0.7156020443575439,1.0385996230574754,-0.07600917275218418,-0.6902099758565031,0.5744262522116432,-0.06095227498541025,-0.592999418028478,0.1272799601554778,-0.7120837712843976,0.36875593595368217,0.4888821706037194,-0.7802447845492707,-0.8362514394391081,-0.13532991556186225,-0.11206204877934976,-0.8087998685014098,-0.45354641900038006,-1.1105340923647122,-0.29810466214971615,-0.7776547349055287,-1.3334712787573801,-1.4438437170283196,-1.359561952461661,-0.39053301795091383,-0.1616176695715169,0.8020890142328295,1.1905320524938485,1.1247817557072033,0.11010400148934747,0.3997963589473773,-0.3328010895500769,0.08455837447163687,-0.6465801055643458,-0.35755243342001325,0.7916548804990868,-0.7787314319250417,0.6239942670942493,0.14876598998364052,0.6561590895622939,-0.7438135091236966,-0.4740445037072053,-0.7805285200694033,-1.0532900568551398,-1.0662408614318146,0.15768701035232777,-0.1399131767383287,-1.061928921408993,-1.2000818452323998,-0.5615929493948718,-0.8053729856745652,-0.20533661268548056,-1.0446697391294644,0.9076440128755618,0.6918168482840076,0.5722223024202115,1.2405752492539657,0.9402804849490356,1.0522588385273823,0.18315783762950255,0.6094845638124728,0.4835393894767832,-0.6796703172295779,0.7506053577095401,0.7197604221931813,-0.4042552800251664,0.797752527419757,-0.7781229592633114,-0.2754317997446517,-0.18858525251771102,0.8881446260843877,0.3743639802582971,0.06696367460275285,-0.563945829109226,-0.8214452982701062,-0.09423269254162478,-1.5941082118870031,-2.144344556427186,-0.5807149794779841,-1.3645197486191423,1.0189126869637894,1.1523398423118207,1.0711120254688669,0.4469434780881295,1.8279716716741001,0.5364698886669553,-0.48901831310322097,-0.5704092325613758,0.34086916872003536,-0.04484284228075113,-0.4501937301441465,-0.7066673198053189,-0.24462779021904527,0.2213955663878361,0.22497153552540955,0.6748870341653518,0.14241066550944806,-0.950362144280614,-0.772162550369079,-0.6035567522846695,0.6135173713501542,-0.6019652332144532,-0.5843544672211926,0.17568479285251468,-1.0570336254169266,-1.843517508442652,-1.1070005336227196,-0.09299820219635133,1.8617364974803285,2.341518215369565,2.4060987959377123,0.9370097108360398,-0.39204841454137723,-0.2839763092139372,-0.220675651844117,0.39253469006285485,-0.45692684203613093,0.7593141384744501,0.4294323931409124,-0.7081264483459275,-0.44709583667049885,0.5325376912435611,-0.4705077306025221,-0.9067677565638673,0.742436274537802,0.5433668950735578,0.9514438939294335,1.2349894605188922,0.5894639633322274,0.5176399871672823,-0.03301432477043542,0.2545490943497797,-0.5783571821823956,-0.3872251720800384,-0.8869152749013488,-0.5284404156582705,1.9363687221453392,2.073731832937693,1.0699945713845558,0.28028412290812443,-0.32028873370122357,-1.069581122010497,0.02742713942657502,-0.4978293460065264,0.5678898877098136,-0.4486279186085641,-0.013693878512365299,-0.1003421846662764,0.1580643034332199,0.14811295424318294,-0.9006729006942046,0.4566886662794398,-0.7937100499791097,0.6211461349052481,-0.09806355513242328,1.7150544552806737,0.2369198746237825,1.4340085578116666,1.447874384328023,1.2611082903532667,1.1656899000364642,0.3441931954088564,1.2498334011401242,0.7020113970208194,1.9009828244313618,0.9662223541999685,1.7220189019059442,1.0630235711683216,-0.5920056275700598,-0.9701034975581196,-1.0401403921381709,-0.7173261782977849,0.544211504401105,-0.48349393937925084,0.16031425324043602,-0.5197249684244113,-0.6238008221270187,-0.7679179103750202,0.4024965421719209,0.7409945194767087,0.9788329252851992,-0.20632441654415684,1.6209877287273817,0.623825840267713,0.8803305172246568,1.9996356477492754,1.5809758046012683,2.0579259085626953,3.0191647938526347,1.9266173408078233,1.8176860704238924,1.2981624664534819,2.9427818488583535,2.828623783955473,0.9413172901367585,0.003441336320403856,-0.24712184237925747,-1.431535622448991,0.2901794478080782,0.06583024429761722,-0.9273593644308258,0.42596712439390727,0.7420296840462742,0.4986812325279575,-0.9793386421507314,0.5917431865053078,-0.48907161577160246,0.3099986427218402,0.414499331461149,1.4260357427376655,0.7565097320680997,0.7180639552715137,2.2838914966753827,1.0774630164301011,2.012712365369899,2.7479993941283705,2.3779374830700872,2.444987823202118,0.9917377424885746,1.296210676517455,2.189381020152176,2.813687644050332,0.37325477985868094,0.1337349043901628,-0.779792394770729,-0.10120768405648997,-0.8365472466052397,0.4323964342533278,0.5860952758334121,-0.15746854711797184,0.9834780641398568,-0.4693577142228892,-0.3076734864485451,-0.5059542556939515,-0.2872529939434847,0.7212181347022587,0.25746219086271155,0.4943823341333914,0.9962052219830941,0.21730702252072215,1.1576649917997535,0.1561793326672463,2.2343841366022836,0.8248301867671693,2.0911731493295487,1.5908630301000581,0.7840209183307308,2.928464435643401,1.9675417936788617,0.9810356281982604,1.051104515145512,-0.3836378001592678,-1.2097592287284245,-1.4726542167424472,-0.6089077073485637,-0.3677911312152195,0.3807596557453835,-0.5269451723045678,0.2513713832534802,0.13487995074986603,0.8539534884887053,-0.7346351835851038,0.34630791478746525,0.48870293895668593,0.1260648839468306,0.9791670525705207,1.0531386040667123,0.15872865250825477,1.1019970043209169,1.1965253640546785,1.210078269497911,0.86787539394186,0.7401618716017707,-0.38960901108126744,1.568337683575229,0.680234376015892,1.0199752774635893,0.2945168235723966,-0.3520668331065131,0.09792374614847897,-0.5975118732666898,0.6349867829641179,0.6657208274694935,1.0237917429310466,-0.17256872855742145,-0.10382190454770188,-0.5987333385117337,0.8575783999296102,-0.04393816845998456,-0.592191041187217,-0.6204601294021441,0.4024285048674004,0.24759372174062844,-0.5452304179910609,-0.2765974047973759,0.7609690169103136,-0.08182939335283916,-1.171509711751377,0.2507350682940787,-1.077339116781016,-0.6979669461625257,0.21524638331992432,0.6665274529219829,0.22675558292433026,0.3699950893819094,0.08969676813779336,0.3074025478283518,-0.33173234333804447,-0.968487360436206,0.8531042415099698,1.1061319062749606,-0.11054891088212515,0.0361193424143756,0.9014372772482806,-0.5692992473734151,-0.887805689674392,0.7908446388549966,0.4239832573909033,-0.21586291583727857,-0.8151800118610933,0.7318081172036335,0.8304608651185662,0.7792109230514278,-0.6617974480173753,0.054055974464777654,-1.4382666418951469,-1.0063066346901959,-0.9501911448507228,-0.739951924807679,-2.2607419133086806,-0.28106389376929125,-1.6058189232564501,-1.5084764036404557,-1.155766911941623,-1.1184691789116412,0.23104066944477977,-0.35152057320453856,-0.4197235720288941,0.12994415382782434,0.2184769026883868,0.8298144674380642,0.5743817191801617,0.3078859765775129,0.11183694107601976,-0.8908987560281486,-0.019842748964336368,-0.9007798364981808,-0.3171459205924629,0.9941935711430328,1.1198276254833346,-0.32601109707675596,0.36856270400260494,-0.4195304036864933,-1.1311737951856446,-1.7924422136664446,-1.2452829874381066,-2.0323125255626007,-1.4261170964137415,-1.0485411265660534,-1.0526270178468071,-1.3902813775980747,-0.22079750746421106,0.9800330266878216,-0.6457811930644038,0.6454511466868392,-0.49187807057121397,-0.1337488381176675,0.805034340934177,-0.6117080233290558,-0.108022476853984,-0.600600210214887,0.3239489431208048,0.8428902198657426,0.4239749702748779,-0.9760027539155415,0.7676745161580993,1.073986555765201,-0.261611972378996,-0.7847789061482378,0.01698116818871973,-1.1667378811312068,-0.40253809246382144,-0.14983297085457592,-0.43837089297319265,-1.6679946558652805,-1.502821127859127,-0.714168914505736,-0.9826961279602193,-0.8181165821486633,-0.29964087746962237,-0.6243849616435927,-0.006744170588739385,-0.5327517969494805,0.8849814001727365,0.2830975409591972,-0.5726679961206449,-0.1022386621546917,0.29784397070864727,0.06992765138755017,-0.7652730336942175,1.0038430110402208,-0.004378605568541112,-0.135595515552942,0.5927739497670061,-0.7883590260475253,-0.2906223006468979,-0.498427678777592,-0.6451302633659729,-1.4163831665214595,-0.33164240022218405,-0.35686365098169015,-0.445386000984582,0.36488341666575713,-1.1475651915789735,-0.9333475910682151,-0.5968658816244334,0.08301204275312599,0.9024395904127028,0.6573481222294405,-0.31448696822721384,-0.5193243624914656,0.9012988712484655,0.5120890884834387,0.24724857940011621,0.7338566473057178,-0.7823112825631641,-0.26366664671036677,-0.5409139760191022,-0.49399904691968827,-0.6920719651458185,-0.6751935990354508,-0.06682729498403486,0.7930097269076491,0.08866216906981539,-0.25282843772495456,-0.40508640068797436,-0.18846400275935732,0.7564101191304089,-0.1438624926073884,0.16038984278289897,0.11698398793087227,-1.012614165197379,-0.4577180279764206,0.40017130682402363,-0.5371071816581503,0.18353621986167598,-0.4940272778121372,0.25746539459140827,0.02619864213231365,0.7608608038422393,-0.3130265776699124,1.004995714909548,0.6191355608402836,-0.18893221453241846,-0.4509484559655916,-0.6825584956104132,-0.2281942152118679,0.8562046406118979,-0.26440337177676615,0.926799443550645,0.6370625425289961,-0.7770118079964358,0.6936499728051153,-0.8985733465489952,0.8163169169183468,-0.983951200700837,-0.4080953782776947,-0.879094635410433,-0.5055906497067413,-0.5437058134895958,-0.6249485304707408,-0.5143230772208135,-0.3380771065691144,0.34117894329460213,-0.3306907157257308,-0.11034246102361951,-0.17711434342824525,0.45924382650607226,0.06092825795468178,-0.9515006089251966,0.7386845156227525,-0.4378083755460045,-0.985636451893103,0.1605612632937135,-0.9711789022593547,0.4692348759070444,-0.6024542002225028,-0.6307006456309188,0.9365279040318646,-0.6917670780300094,0.6721465693499872,-0.15899696150199813,0.6742772691323712,-0.37683724601717716,-0.39086824938936665,0.36718282102681254,-0.05610513567345036,0.6199700497786658,-0.4779045864887589,0.6075424183723557,0.8411758357414337,-1.0327799516873293,0.04824347258640199,0.40351473738277643,0.9917838895073092,-0.8875337909338954,0.4731408010398089,-0.6482030144983678,-0.4886781216083488,0.4527455975995077,0.5868913389618471,0.7266811885937265,-0.3087524596957254,-0.3435413618995047,-0.6789721161930573,-0.9386761190605328,0.6180864000806324,0.2940717225857231,0.9928090211881938,0.19718921606344658,-0.5571403293059428,0.08486781229623286,-0.8214071423038974,0.8989004567751603,0.628723781695997,0.026481954605660357,-0.28482737544630665,-0.8281132867354537,0.13317945693673564,0.4360044495688882,-0.8597765061104597,0.6423880736878086,0.7479022951327722,0.9566069390994395,0.5137303442207258,0.5645878306047647,-0.7482276530447776,-0.9850604286016214,-0.5297187552411138,0.7933512603039099],[-0.8926711473048368,0.779577483693729,0.8902018669185976,-0.671034661190216,-0.06883612895959362,0.6730962513996455,-0.029297646398409094,0.19008149753173728,0.5172348858964719,-0.025896032844336996,0.4346748650912874,-0.07158289550059602,-1.0174009133675388,-0.44649949869744565,-0.7441541666381128,0.873958281063363,-0.14432369735864023,0.0635751535959056,-0.39145597769637297,0.8054322887827932,-0.9766479468159923,0.5750681594572145,0.17147744582821953,-1.016834408095751,0.6361237350763078,0.9343997113399554,0.35806189503479835,0.25717050339105263,0.5718593491515083,-0.8280445640553715,0.8524836998293508,-0.40421195186787784,0.6248779697706103,0.9532210620391095,0.658561197266254,0.5374263687387836,0.18774000703003182,-0.7645601259688277,-0.23785638962618832,0.794766351671491,-0.1158980805027688,-0.9392243870719394,0.47103345765522997,0.5069776683708852,0.302884755186735,0.6962813289608458,0.4753997758319749,-0.4931006693812593,0.8460698342050722,0.2611495913901243,0.8349229077197619,-0.6452638692135206,0.5443162991039414,0.38861510724452486,0.13570026746325217,-0.12295376712643073,0.5315929486913156,0.43586035897313147,0.3497347671008877,0.470196430278915,-0.9709019258004621,0.4312988969206023,0.15413756370167733,-0.47121137949785386,-0.4357227936365232,0.9316719298708124,-0.1892927403488551,-0.9659655096151484,0.3833914446583048,0.7679054760823839,0.0915253163412042,-0.49065929738578556,-0.8752139504209439,-0.099774021562201,0.25900507028244685,-0.5881650302590239,0.03660011688342117,-0.8033554656831612,0.38240908821170677,0.294823502740124,-0.541294724878721,-0.1845579111376929,0.24786902348749315,0.9295774862177535,0.4314031137915585,0.24576751686483556,-0.4915230269587626,0.45732745230454125,-0.02100218210521161,-1.0211072886694148,0.31913968229591844,0.8976085909873194,-0.2098027523375594,-0.40605138617366654,0.7830943643148747,-0.24814041406931697,-0.12231485870644286,-0.19946810815775237,-0.004343681461335338,-1.0574074813331833,0.16256202189401564,0.24801499151899462,-0.9634139921158218,-0.12087190885789774,-2.596037637868737E-4,0.4543947287528752,0.06075913580201033,0.3081396540223002,0.38255864260750705,0.26639170961683767,-0.3885555719950212,0.029588521431285365,0.03915031977375786,-0.545823285397625,-0.2223823931651129,0.403616641856369,-1.0158885004689728,0.5011218398893523,0.0555306834190049,0.6327198823313422,0.5337915825517159,-0.803421094503328,0.09446709031674674,0.8001464762465004,-0.9809555090257109,0.510083785568248,-0.6100301529271296,0.6091895111839013,-0.8166075201305117,0.7520747200408785,0.461140068554118,0.6734265941112624,-0.1898854092408698,-0.6789693149095175,-0.17512890045807983,0.29651412809727357,0.06323355080958376,-0.6436721507571872,7.796438667603406E-4,-0.2567028520722147,0.9687735477752561,-0.24391762270877507,-0.6347835683810664,0.7726499532177508,-1.0067424465154375,0.719162685259235,0.5243133716024271,0.48361629952778173,0.2374654545873912,0.8791717488676136,-0.46109355837124777,-0.7871970831426827,0.412274728199014,0.13282758100084766,0.5450387824752064,-0.05876641661013364,-0.07229249656772511,-0.5324931642121875,-0.21808164471181668,0.03205527705359426,0.7161604616639352,0.6853483474703121,0.40751977479127344,0.1835016660425787,-0.4952233403068047,-0.36567486832082025,-0.629560829845202,-0.01212728745687051,-0.586792290829159,-0.4615592668618387,-0.3016683889683126,0.7539532251003789,-0.5558588851035277,-0.07177539941565654,-0.5026440373451154,0.38424570318007345,0.922996413043439,-0.1841840948827951,-0.5867085203639273,-0.7900420671892124,-0.5398906292849102,0.08237675967537367,0.6031338233003137,0.2671167858874246,-0.47462479069401187,-0.8879021390994242,-0.5788797793226625,0.49585851007323006,-0.15756574282212082,-0.7136624996135121,-0.9544998075246114,0.06629670874293207,-0.5193589412092507,-0.028129120947300256,-0.4700017495891797,0.48562699058870984,-0.8782682270000972,-0.8581265125014228,0.13559192693689845,0.33501709090581405,0.3824251642112148,0.44808982467336533,0.18360337628103202,0.7568321423973292,0.5237182696000507,-0.2910818799241774,-0.9508319297652228,-0.6044905095584744,0.9044144742500884,-0.5102961247559603,-0.03366402925043217,-0.08962680941510415,-0.6575791164456819,0.33891377905530784,0.7448985475084777,0.6011646734349949,-0.4700386419240836,0.41474306322814947,-0.26734486139575164,-0.7531742887111311,-0.8400261698672888,-0.4777308903699454,0.25159571771399314,0.05442150214626027,-0.9198059472813923,-0.7350213478328712,-0.13916753478804575,0.5050302683880816,0.9184307982377844,0.6552515624563006,-0.19027984536899006,0.0029575732313011113,-0.6268070929766824,0.6905815467257292,0.3666388473751695,-0.19376801652247913,-0.811635319337062,-0.9463222764061248,-0.988075723010973,0.4859544731488865,-0.10186102005699031,0.40459679446849706,0.43432521337831465,0.05154998579535,0.805986535657947,0.40839167325379216,0.6061518266319079,-0.7028582583643802,-0.30109506691065346,-0.3058324824368049,0.011383785996967367,-0.0853658817198406,-0.786180075360909,-0.32088405515167606,0.07482165672547095,0.7343027088133981,