{"neuronsPerLayer":[784,70,35,10],"learningRate":0.3,"neuronBiases":[[0.35928186967402775,0.03834090076458285,0.0285518197338257,0.32398374767600924,0.6709664884966811,0.1564029627960103,-0.32581816435392463,-0.44512292618206845,-0.33455925235050143,-0.15513874243681763,0.10123466225636746,-0.39293416206663173,-0.4565543148469221,-0.09045315302737039,-0.12470632565604156,0.3323702346003349,-0.3616653201841602,0.4066958085699246,-0.48911469070673297,0.3665480738081335,0.2091286290775598,0.5595187425718353,-0.4459116154662356,-0.4916459063987758,0.2586848518185437,-0.3962613717238354,-0.033991649902061605,-0.09673038747910451,0.5983059597250024,0.5950438891113949,0.6102778992185518,-0.1423771588580528,0.10316099641776211,-0.2686746162279328,0.23954246296149506,0.24749164936760937,0.26343811838340037,0.1999877856345338,0.4051860374752918,-0.23704689657329026,0.3341957533361327,-0.0444523235805247,0.38134944512580293,0.04191542641989998,-0.1775756092585956,-0.43484733713766943,-0.10140964599964003,-0.10106001307411433,-0.47711980566408835,0.5295779448519817,0.22433092231191598,-0.2568668402609896,0.42479659188914265,0.6946778399296689,-0.2934641320055561,-0.29464064161740344,-0.4403722403764064,-0.08680726524727561,0.5138608210348088,-0.44130134097896623,-0.3544747767690331,-7.673235991882965E-4,-0.2401922535057791,0.41724409324992306,0.007294285303994341,-0.16231824805988027,-0.309779542470479,-0.162994062020144,-0.2888746190640823,0.068188545912647,0.542751040967939,0.5188617258527688,0.5514415557366086,0.05832997671095008,0.05372428175614141,-0.4728371692157429,-0.1372501748081888,-0.2870419138338569,0.592124132069517,-0.21121923977518992,0.3024320873383085,-0.3633393238162368,0.14222338958895342,0.626046991963839,0.16095703527123917,-0.3263111420709002,-0.3643257414701114,-0.3967863975843421,-0.19595778888336868,0.29462660153269926,-0.34932536397885544,0.42973241268731777,-0.06315845655367502,0.48149888993011725,0.25012193707205344,0.6648232748710059,-0.09671861600486265,0.4829370012186751,0.3224624893124921,0.5064733033267392,-0.4057860653336083,0.46844193074052165,0.01824233640417683,-0.3758187074643986,0.3361049839697182,0.3057077460487413,-0.25783855002926814,0.4084330192356259,0.3675183861806691,-0.18261046416300747,0.06473051052485967,-0.4389351820636394,-0.016291793767046814,0.5436222061112375,0.459426308604469,-0.3606540921652637,0.5401747138074509,0.044017623187002086,-0.24946140090159158,0.3927797685804266,-0.1459115148213701,-0.2822094043696942,-0.42630201392792655,0.4952989939742206,0.12803304043064023,0.6030851530509176,0.40537201636328335,0.3766980386289748,0.5435639074316829,0.6364947552351361,-0.1905879220274303,-0.10417860939344414,-0.067371991278387,0.6111922166557042,0.4780324591699543,0.5741960178012768,0.632935317977265,-0.23299365303229352,0.6113980167762028,0.6224688255959663,0.3689204301499147,-0.42179489103219087,-0.4157050029898445,-0.35681799379406776,0.3729794146609664,0.27466579809295866,0.09015603622556878,0.6820907693673599,-0.22778625174374295,-0.26046403473684104,0.4320068511163512,0.2263999315712013,-0.28603969038352006,-0.12859061211011613,0.5466997529573241,0.21196772409372788,0.5889327522757966,-0.31853572255835916,0.303095384773607,0.5026969765120419,0.4338473267496544,-0.2840678557067594,-0.1933486377792642,-0.35599399286680966,-0.24404791104160217,0.45168796813166745,0.07217283145640807,-0.031557379346551784,-0.38007383485194196,0.5076740071492518,0.09327762921164717,0.34517784869484147,-0.12683789297847214,0.047291544168220456,0.24142497000823604,-0.383713589795298,0.4584912780112682,0.21681670143759013,0.4691535030248877,0.05139394868994507,0.0739595373790013,0.4723185157516505,0.5714718546217303,-0.22155774515287274,0.5873066595558871,-0.207521178073521,0.37614134698906887,-0.2880038750069949,0.198350427352167,0.2571360946089516,-0.21211262925689228,0.40168650194508315,0.16552284478701196,0.6912966888422758,0.10337305048093237,0.2620577792145463,0.5733529124730208,-0.36822091969681403,0.543065626311001,0.4212574180695431,0.115737341412253,-0.031421550801721654,-0.08707749363651757,0.5396793025904172,0.4053872172637518,0.24546101059765646,-0.08687845151992912,0.40084339042887707,-0.30711394260878333,-0.2257810255765823,-0.14714386064218737,0.6654660676231816,0.489340602712654,-0.37556038086904614,0.009513149857055203,-0.2941521373538567,0.4346536318301919,0.3955628232995597,0.18734871021265398,-0.09862321924873146,0.638994446194884,0.060424399147875674,0.3850728791030874,0.17711762904385664,-0.15191072393959137,0.2894032410608224,0.2735522508547936,-0.09387088251498366,0.5435013235498471,0.32171355794115675,0.2141356898031893,-0.22767700638614002,0.48711666739907633,0.4453039898067038,0.014905203392545419,0.6043507997352358,-0.14540080140258432,0.0792480624013443,0.12645146597419066,-0.45782362687021455,0.37562461866062613,-0.07756761658621791,-0.07943031925970123,0.18666304571412684,-0.3907494906615051,0.4397701407960275,-0.12543116091470508,-0.3913223908190835,0.6308263417209306,-0.2979097404870961,-0.29931597991600734,0.25788418556560877,0.19239367633488624,-0.12172628234166233,0.314378365768326,-0.28742710060928306,0.4415748954495069,-0.10186928366587622,0.4271183413195144,0.650541097301331,-0.2555058838010804,-0.43806561169526226,0.4785023782534724,-0.2027847360883312,0.256322019404405,-0.33255178576610767,-0.010579476917317476,-0.07912455740397512,-0.3814171689296914,-0.042293509671708585,0.022218913443671107,-0.003986229615933534,-0.46459188652197914,-0.13727071143853148,0.6756401386295763,-0.1554672227687937,-0.20853022676024746,-0.2842255595067117,-0.3783925292424139,-0.3093408615925802,-0.2776292294754355,0.36965175084065216,0.007717665838205878,0.529121614088558,-0.16618065051829606,-0.27895373905401855,0.6036037990182985,0.40731331328067877,0.5889593271144296,-0.0292808668145057,-0.1388731198411472,0.6608302184390051,-0.25622413671749783,-0.0951235100105936,0.587651435695576,-0.38204970074584776,0.00854300931943186,-0.32208100499609316,-0.40154256814031164,-0.2977115451723722,0.048826268466986567,-0.4907938400617775,0.2186374938218264,0.014035833108638318,0.31260012973346607,-0.02360844813516305,0.446625578979876,0.3588622060202171,-0.31941238780294934,-0.2046928285880007,0.37079996391407366,0.3197335906359905,0.6849757069965259,-0.47870338920653577,0.6474001220402517,0.3305680856429706,0.02720696105799003,0.08931879128637266,-0.49770566085355616,0.011825104505286066,-0.25140452635365224,-0.4699336463056139,-0.38906858642387815,-0.13320447311300282,-0.13193903531130963,-0.043236494687173166,-0.05989312419101489,0.21353104138533407,0.39932302665754915,0.4122313899033555,-0.3980291448891613,0.3410242281893294,-0.2045571940319753,0.19822990792304596,-0.22499799774568302,0.1294215085460123,-0.35835170787145,0.27900727088036725,-0.2115319337989538,0.5627240472028112,0.22792395149371003,0.4584102089157631,0.14619141188534757,0.688602563952244,0.48089453233306934,0.4748297016480565,0.5822337729617226,0.24362502892356663,0.22007813844160928,-0.05932052372184515,0.3954124159704373,-0.23663333734202185,0.4266312887558741,-0.4269749570384745,0.5013555023542493,-0.06445484897326259,-0.22674463977110187,-0.3805953134219678,0.6701028683218244,-0.36950556296859527,0.26198092742371115,-0.4221957058899208,0.48405362002591934,0.25696310571062975,0.25209284897494566,-0.15782955710133123,0.6553603359713578,-0.3576046083730766,0.23350636790573132,0.37476785665202705,-0.31633451358223763,-0.07447627207795104,0.21145120163328557,-0.4858905771881802,0.21437297987119475,0.1752749907013692,0.31636715267462057,-0.42789159826455164,0.6744448665977452,-0.38633656603355615,-0.16153752208470928,-0.24347521707065795,-0.3829905825778427,-0.1784845579715883,-0.09056828463565264,-0.4253004921253551,0.29786437747692474,-0.2554564782255472,-0.08562160994316248,-0.36800814166747053,-0.26374442376009216,0.4934580931027738,-0.18496687915519955,0.033257633233990114,0.2791083313830297,-0.15452165185870004,-0.4990943102898312,0.6281271970229783,0.4921854980372451,0.6057744841079815,0.058056019420165694,-0.28923524151688007,0.04344348248744645,0.17604624315133233,0.45571620145999114,-0.30778824192561627,-0.27684615724751516,0.0036139290358049303,0.5990419003166856,-0.2916607267841317,0.462155294340294,0.6480704900285292,-0.41818056026919126,0.1088563046883847,-0.23610225976413185,-0.19628521443983832,0.2960005924026775,0.29274254034456126,-0.44226302427064296,-0.44534202865492967,-0.08451516162821737,0.21289618740242378,0.5102350869531014,-0.18433268812426845,0.5696153029424744,0.667708970742275,-0.10198083760223331,-0.2745171275863275,-0.2425985686615446,0.6297031820841741,0.050047176416786576,0.11051517275639122,0.12652866847024147,0.5312863719924155,-0.2910727495626132,0.025503087499262445,-0.04823795942027981,0.23510185512209836,0.2402329664408661,0.40388353774719943,-0.20460273942282475,0.1613751098332713,0.03555451817300104,-0.3857033786719649,0.6179602476435115,0.527077700233946,0.5093225411230624,-0.379179210958441,-0.3695975769706086,-0.32834757405585413,0.581237783074052,0.6832057835213052,-0.36041334027289984,0.0014650646852530924,0.665437240523677,-0.4904581733392292,-0.4630956444910989,-0.41992948675439756,0.354323828856693,0.48747624491478636,-0.48458713708547807,0.023801939466413846,0.1892839175980645,-0.3287399489275197,0.5739274187426446,0.33211498740341616,0.3523135191861412,-0.20942098732909104,0.6770500293025608,-0.4104608783993246,-0.2081289811314394,0.47329594828035715,-0.4118360034752679,-0.07898822543651807,-0.1869285334264737,-0.06209772308424516,0.4779697571544127,-0.13520843479054823,0.5166336533501936,0.6126492770552376,0.1341843976585354,-0.1529304006102284,0.662788682496938,0.6770009801721955,0.558574852860275,0.09981911658292453,-0.4343444839108074,0.3972227743993725,0.5355402316714486,-0.04165404067786199,0.290385442551398,0.3415915361777354,0.392007374563788,0.40742429789048074,0.32967487553210406,0.5118847812453629,0.6414489290835907,0.21482350984585608,-0.12195771560422047,0.3164790397389371,-0.4846185951652413,-0.4015454953478059,0.4015622675671172,-0.46344196607082633,-0.4662532046202162,0.1182850059699011,0.6175463812420978,0.40060479654228087,0.051128274578448374,0.5665962190210216,-0.34704252797602975,-0.2164774848228731,-0.06120188252576203,0.0500737336465531,0.04214082420523524,-0.4145987625882613,0.22314144628164556,0.014648845395736743,-0.04624707726427918,0.1211196012055652,0.5990478459277253,0.6589273706933012,-0.1964356665798785,0.265642090636396,-0.12759128379906776,-0.3855346676798733,-0.3858883991943217,0.351045049985918,0.15890525547761936,0.34107254175541757,0.5239688328967707,-0.2000247744544253,-0.32318061831249667,0.3927473928245028,0.3287064280723304,0.006418398079639953,0.4196462054882404,-0.4452325742751137,0.4524026861817917,0.4383253525211447,0.07983355939701953,0.03488271068247073,0.3028687723214232,-0.062183769370518394,-0.4819784451262653,0.6114804937574578,0.5555465539398508,0.5333547347023035,0.23270125587537183,-0.10098824301562609,0.3403338590786401,-0.24554324219888835,0.6832589507695728,0.2858921015140502,-0.22761003443330818,-0.14683135940302128,-0.04508100682308869,0.032511237931796444,-0.4277298617318523,0.08772331425339541,0.12714575114091586,0.4869070405903546,0.46253552124370834,0.5124535945074686,-0.38238907954623264,0.3830824866881828,-0.19271944743770436,-0.25578581189073946,-0.47811938647167496,0.13186528238058115,-0.022181174513625057,-0.26076421122605475,0.35452252709719345,0.29663161455393694,0.5820627288856506,-0.2844935771724609,0.020380928973775636,0.06613843819391596,-0.21306877941162894,-0.20555293792742896,0.10531389731026153,0.6941289922232317,-0.30758400480483283,-0.0881792071883003,-0.12626605374816607,0.3702995175567947,0.2827328041056325,0.6614858524753393,0.4958405054637862,0.4196361549105202,-0.11571731790618583,-0.013224198208121485,4.7898896637654786E-4,-0.3029466434722754,0.10194366602974769,0.22296098548392218,0.26010864410664225,0.15168676333082565,-0.11548909491558063,0.3204180031637873,0.5624080116110339,0.5801153605426326,-0.1130997155875696,0.5418054822272178,0.40859326046494127,-0.029790133686355247,-0.14897343581735112,-0.47228376795929444,-0.4984274501754069,-0.2427740932046189,-0.08093490444323953,-0.0360519576011451,-0.15239453682553245,-0.2288175363968925,0.022102159027237445,-0.4402929249757804,0.6931838907267978,0.4494880774935255,0.5539762401217982,0.2597294675906201,0.05439757342850282,0.02119912288590875,0.44440957506109746,-0.23552068055823389,0.06909449174369386,-0.1607839220653567,0.2873254565527815,-0.47874806112173246,0.5126927051238417,0.6441461771007599,0.35954482337138327,-0.024815247239877714,-0.0334521238606964,0.08848194815843702,-0.2181487069432516,0.6328482444424388,0.5133268286533965,-0.2678322356674421,-0.2712883337552794,0.5922628661682692,0.25688472073839796,0.3405478774164573,0.08473524296723034,0.6318586833265263,0.42469059797119013,0.0731114598624365,-0.3247478621522326,-0.07293324742749646,0.30889219418391145,0.6463720431390299,0.36518835916781744,-0.22309687443584075,0.6376584753653829,0.5866408431431684,0.1247110977253395,0.17407813744717837,0.5414847529520836,-0.1416251723342945,-0.39808419957360663,-0.15916437602762623,0.28969262131976603,0.461202633042026,0.42212258512745804,0.07889851985956631,-0.17959687733689883,-0.16634645994516556,-0.24985323303781887,-0.15443086169058678,0.5728091643656432,-0.3159642748201277,0.606205281730789,0.6692043710529236,-0.3463804264373477,-0.2111671193114501,-0.18208265931772577,0.15595795484785102,-0.2699057621617474,0.35640973788649866,0.12015469877398577,0.3158536093050536,0.040136673687706126,-0.2512615554960354,0.5812938751644237,-0.2500748793368266,-0.45454271778939936,0.2862806777625798,0.638719458757284,0.09133089611510303,-0.27313291679057106,-0.06891882888088413,0.3682241915425505,0.5820225919175692,0.23130922343627747,0.6505509111555197,-0.40875068545204846,-0.10728053582579344,-0.4717181314904651,0.009339921455411182,-0.15929576568754716,-0.3423885398574519,0.5188529633892436,0.6191212045313979,-0.33959750044064463,-0.3036133443958554,0.46351499783065475,0.09602982984490172,0.40494768461298736,0.13484973228271746,-0.34432644856664785,0.13292227933049794,-0.1638006723511815,0.21157085409754406,-0.43438870857900597,-0.4114560579700853,0.3792460687711372,-0.1283246228084891,-0.4846842496288088,-0.07188654346600332,-0.09488946058760223,-0.09994259034346958,-0.28239461033380475,-0.08024441759265116,0.5492066003860401,0.13497176565402602,0.5235365177968536,0.1986354341979425,0.15386685754621854,0.029130658418074495,-0.2298806034213592,-0.44443120894807675,-0.15994439333522392,0.6891035116707562,-0.19408046504306353,-0.4106944310958912,-0.032321993446309594,-0.27500978259177067,-0.10483351502448951,-0.11839516286541907,0.5356949113954381,0.5810097079669247,0.2615397601199062,0.11164221264553253,0.5025481512065568,0.49381816497518005,-0.16915188822486943,0.12121165753201602,-0.4258014664680351,0.23904230418099848,-0.032634780975596356,-0.12539372953969963,0.11137591069143937,0.3776855996676899,0.37163219232781175,0.5269841646586473,0.34943731517507226,-0.3972627445134409,0.01808346402412553,0.22244723664642996,0.3035256614510189,0.2124850184356234,-0.4410999657974489,-0.21201705713073615,0.5485191687295385,0.5007055553116411,-0.39395932554092417,0.17184102550522284,-0.482441902103118,0.35507710526679725,0.5264489948958391,0.49483830292772146,0.6547319758768968,0.19383214647827907,0.2459801414371805,0.5405076501679449,0.2868078458274793,0.14683843372171712,0.2556391198594812,-0.39507191886250187,0.045677123186778745,0.5009697081973175,0.5492684224804383,-0.34050439052232356,0.47749458675047807,0.6807983973188485],[0.24926788052116144,0.28035457091182703,0.16046086696113845,-0.3925535511297564,0.4787336069713948,0.018629425503973382,-0.027823316290046547,-0.269179208440669,-0.2889250185536611,-0.09332770634041952,0.892057564540258,0.059844358342004675,0.4919846629938339,0.2699341447933833,-0.2770904298072085,1.169739810912349,-0.4506162619275331,-0.06547047323206105,0.14762504430772716,1.0847695459083557,-0.2473367512770004,0.6136076102954728,0.6377069252138436,1.0097308198201864,-0.04187900434472711,-0.001114662386153901,-0.36593929013185617,0.07975816987963269,-0.2166992952538521,0.3477607726208643,-0.234061238908576,-0.1491308615146441,-0.07635529727845322,0.4022861035281826,0.7107820296091959,-0.10234362713818618,0.5451122686459335,0.8720828472650515,-0.19675670738655743,0.3603890194445488,0.26374677834148447,-0.3529445703134088,0.7442617294813445,-0.10544650082421644,0.42483100047353806,-1.1333710414367397,-0.5440668651482004,0.5238019784797052,-0.5994468864573202,0.7698320670713648,-0.42413771482372686,-0.31339778204080726,-0.2907823070854498,-0.41406948511808883,0.14432246908779076,0.49305940352183614,-0.8401897067717713,-0.18266364148810893,-0.7917292614682597,0.3048218784124739,-0.14350006480204874,-0.2656705158130989,0.22749107427701673,-0.3011359630095733,-1.5302889828010133,-0.6223019546680894,0.2196536076623684,0.2045300200129702,0.15198238685835214,0.6209801571641109],[-0.10870288349153538,-0.8516676873385346,-0.2721070486082986,-0.8063644857329555,0.034998890630386234,-0.1995229339343922,-1.07651621771159,-0.8422191460275313,0.00971946665491144,0.812229769045876,0.799036943812584,-0.8058195538312979,-0.44705918595668265,-0.5364325908326191,0.019086955932941425,-0.6348903188885572,0.12763962504389076,-0.8680296227586101,0.5071787172364778,0.3587092128225866,-0.2350594829992788,-0.3340386489518144,-1.5709702065887092,-1.2086649067240651,-0.7305706191937008,-0.35768238194217206,-0.5051919994036415,-0.28503404158631634,-0.040150291000459346,-1.1411194281555532,0.20779592892860946,-0.004583657123015322,-1.2162333504058542,-0.2865791535162167,-0.19759220098769956],[-4.395635327077251,-2.2973425060172334,-4.3044378617935095,-2.3774815899475494,-2.577700861071442,-0.8787029727397344,-3.197240063140146,-2.6554128157493344,-0.6368427032177338,-1.7115473934494227]],"networkWeights":[null,[[0.696351329282663,0.722644904230009,0.724428562343295,0.17423573625773253,1.0574815173001242,-0.3565728072482941,0.9304759797100904,-0.4238484696236795,0.33131816328867614,0.21814159282209777,0.022005207255248477,0.71176406219694,1.2968169154030948,1.2662929854495306,0.9866502462061498,0.27605584974714736,-0.48630822716408173,0.934030205379624,0.7522253477398132,1.2453980289372784,0.21006816328598826,0.3828107890378445,1.1722969084483925,0.9999971424436446,-0.07416419533281204,-0.018330966292125318,-0.5231377929813162,-0.4401540966546761,0.7548604322564284,1.0355348071719859,1.2760304348354812,-0.6318975019511611,-0.6052915331129928,0.5079634162640807,-0.3132019436460559,-0.040523316244592704,0.5317731645130509,0.09857144742468801,0.8297379252562082,1.3066046826922402,0.5765080693832062,0.6434610825422139,0.7510437035874302,0.8471682374688061,1.1613697424359033,-0.44884116830098775,1.1376396943761247,0.023496763309680837,0.18307678833527574,0.16746033371192837,1.0951161845187236,0.24614759475208442,0.8372390875784562,-0.36326452924394004,-0.49296981113606153,-0.1848124214596198,-0.4348518302697888,-0.27146411864018516,1.1500068925720839,-0.0313820403064088,0.2574193555005959,0.6218555320944524,-0.43318409381870215,-0.3921145925152019,0.7228397643548526,0.16726610052990276,-0.7363833539112484,-0.1500284376225601,0.5591139426997972,0.1696792471943719,-0.7398549237910822,0.5364858347290715,-0.35940488326866105,-0.0960266379279342,-0.4858536063894087,0.5836613448046566,-0.8601118162224619,-0.45304733593117297,-0.30165716773075174,-0.6791234848496085,-0.16543844491202186,-0.3796276104878399,0.825498574846567,0.011549546031854485,1.0573348822247426,-0.10642258791283785,0.6000622536815091,0.40200076556695624,-0.3381060093505035,1.142878575231522,-0.31566350810632904,0.6407588958696092,0.8094640589281814,0.6688337704369649,1.352224213762971,0.8930045741551177,1.2783391936995177,0.8343604349123848,0.9255951861320812,1.4157344327603,-0.6368731208246234,-0.21675729069025185,-0.3589232456763412,-0.716277809339931,0.6278238619412165,-0.48025844828542785,-0.11151295980385897,-0.03211725301986368,0.44705347249312133,-0.026650717825653213,-0.44647422476609333,-0.020843772767707717,-0.5998199365084814,-0.486370773122367,-0.012552610536855215,0.9512589515074149,0.6236988134642515,0.4043275251870278,0.45724998880934914,0.7538953678276777,0.7401451147076913,1.101919876453079,1.3488211258598655,2.2719922449866163,2.976962385986814,2.1693307754098723,1.5834510369778676,1.9080331501577004,0.48987835725119,0.7732250415177917,0.15751658661959256,0.6415629225249896,-0.025358249888391454,-0.01812766042926169,0.39631082525892364,0.47143911332308913,-0.6229613745955443,-0.34532466948561313,0.5019594503994789,-0.5949835797370236,0.8830985198128517,-0.3397521013219079,0.3706045652086044,-0.3399550004565598,-0.15791934732818147,1.0058342118924515,0.3228674843978226,1.8170385524752435,2.438602099422109,2.8114145900541936,1.9026122088637103,3.8694854459363763,3.6251800694062104,2.5310689670385735,2.3537241313205266,1.001874266070161,-0.1485090160596246,-0.8188109395010088,-0.5726874889448486,-0.5600981546694773,0.5679555901033783,0.21185946203658076,0.6909625269808998,0.06838968467790661,1.1919656210735488,0.1151484469900368,-0.01251930214701787,-0.4697946666633749,0.0966259067538443,0.0616829801874852,0.9180834354276232,-0.08909376496682475,0.14678846156826103,0.4011672344388925,1.4426375832184126,2.4948783168711772,1.7827978228516959,2.0620589082858136,2.164894957914999,2.535043213888576,2.9588829984353477,3.2295111335392237,2.2113513298222114,0.13581930125036035,-1.322445431375686,-0.9637611394566666,-0.12496583816590252,0.7769349312500207,0.5957880315472096,-0.0278874259655343,-0.9890268804496589,-0.5127319268520661,-0.07667837681258696,0.238695235114408,1.3436208219420727,0.7911516365851756,0.23499930800252705,0.12350571192788115,-0.08600925778792518,1.3589789792461402,0.9065431849360802,1.1527502810207115,1.8619889403056917,1.4079706181222493,1.2506428785171342,0.6521846853757226,-0.4484697090470946,-0.6031059861233863,0.08859203689323436,1.5108079226881597,0.8735720929886471,0.38240339203151885,-0.390785219528646,1.147871932583737,0.5030660012039828,1.0371673489560669,2.161962215546963,-0.03700577335970207,-1.6826068592497294,-0.46013853835558616,0.9243160001096988,1.4437824186928787,-0.3462276192949777,0.1344885104961442,-0.481636613566532,0.6500122632783764,0.11268920520447964,0.4517768794914718,0.9271836633235648,1.8998215445512363,0.4287998427009873,0.5376537049670788,-1.2349644443084655,-0.7289479748640477,-3.2986475781015727,-3.8856674316785735,-1.5219342160639648,-1.807615694387815,0.23780239414618698,1.9098194061314893,1.4565851752464207,1.4958980896250056,1.5406468596601262,1.4322901333899107,-0.17202968319974252,0.15311692642036953,-2.322909265747561,-1.0728460524493633,0.3159289612046763,0.7879916600228121,0.3990697653386242,0.05127853119619471,-0.657067910881302,0.02583660253649722,0.9656551982705037,0.26637139560640455,1.243932020166271,-0.23102326411402246,-0.041719785502682384,-1.5727420772732794,-3.4416956508042715,-5.001428394995823,-5.6062601866278685,-6.956085654004062,-5.594120101216094,-3.4211740485990365,1.4290811488559405,4.30571689560278,3.689977259728883,0.9943688054971977,0.31271176185383376,-0.14594839249806366,-1.7774990759411697,-1.6238800267460445,-1.3706676599543235,-1.6071900020358325,0.8318430306042687,-0.3506074515731034,0.09567034926746759,1.088237826006516,0.8197981487405567,1.1737591682936026,0.5617406832312132,0.5657486741732957,-0.3278326229973224,0.13684966278476565,-0.6576808571207318,-3.9264288584124745,-4.1276710267871355,-7.282503537687155,-6.411624048338867,-8.884807474720132,-7.105937596218378,-1.3089586725825775,4.670663583501626,5.96459316335563,5.265543237240049,1.0712201090856361,0.5757699968411776,-0.5693224778790719,-2.5525444365006558,-3.6372176450442026,-2.4974213532915277,-2.122616937842801,0.10609759703219891,0.34310976562308526,0.8597858706238434,0.17975163705355485,0.8383877690385454,0.25050818286396326,0.4701729987177188,0.324951443002461,0.15761528661415947,-0.7114337645823888,-2.049625731153464,-4.804291837433972,-6.5906608605835295,-6.753143272120801,-7.4178757092128205,-6.840741548841161,-5.217249554104236,1.489776866900915,6.793214287394672,8.722014696069843,3.1389662554021722,0.7060867486345811,-0.37936112998119004,-1.630178043798213,-3.186744622318159,-3.30420043411749,-3.4553736280481164,-1.1852571687909095,0.19956559916330333,0.45793835986435544,0.4595674269699591,0.5107865110106211,0.7333782926152262,0.6883221031201453,1.0888840728213953,1.1428148684852044,-0.44531349477094584,-0.17295216458128393,-2.849526336781497,-3.475719256780806,-5.031349909619631,-4.59332434732241,-2.8364444969546105,-2.9945985525866443,-1.4997864545124868,2.8192949961764935,9.276072027486967,7.4190024919006055,2.572128940544823,-1.3534211888005003,-1.8692564056997296,-1.5542599451858468,-3.389790284493014,-3.045730370121976,-2.5929682174815487,-1.665872061841161,0.43458399502150535,0.2728070940399195,0.859592106072201,1.0856116209050568,-0.023874496900676414,0.270303871698916,1.0893174279268645,1.2141153362497892,-0.3093334638854762,-1.092277918061449,-2.300625010992445,-3.1462196650547156,-1.0751698197069364,-1.5192850282499222,-1.398370582015625,-1.952913296985791,-0.4121513727231152,5.82665495243736,8.303436933643512,4.868041860567485,0.006893386496578061,-1.7272382028917643,-1.1482473989189799,-0.2780723575896688,-2.3481827318302293,-2.926618382303086,-3.0035770490883618,-1.2311280687938138,-0.8035307968870732,0.5379569511909329,0.6198400668636076,-0.38563050357811557,0.12038393833860891,-0.26078490339306154,-0.005261728644850068,0.3449206473186562,0.060093000378724504,-0.6545748677938704,-2.4179468010197933,-3.136680306704379,-1.7592548078571388,0.20390186838772154,-0.6697084704211047,-1.1945192136154676,1.743530894459473,6.222255843600376,6.857851446477157,2.1044455502930055,-2.319405351466204,-1.6948883707403262,1.1606402932698998,-0.2936142034431725,-0.3068910713925379,-0.78591655637417,-3.011521755908268,-2.849001762298299,-0.7214851476197897,0.32687995998508923,0.05223639242600261,0.3159815523369225,0.47244008574261576,-0.6678421323545293,0.7430562537920867,0.46923195803563134,-0.5666019286132086,-1.2050522908774273,-1.3866055565461077,-2.9689163871124253,-2.0285032833779044,-2.463769102123678,-1.8483625063219702,-2.67814566158116,-0.41999048189064825,3.4305558336151383,4.2645788963244575,-0.4450278449797476,-2.979158165919426,-0.8737317663965692,0.5078965292448455,0.5542900305477234,1.57161620336221,0.16317598247523754,-1.146898075112396,-2.172205340383573,-0.18117251187176162,0.3287829034371932,0.2836894784087721,-0.0927882516528527,0.6065010865957327,0.31391705658764857,0.3137134998371258,1.555372324648592,0.7651639378126969,0.18339040790369424,-1.826637505244576,-2.2300359708919943,-4.341525861082434,-4.587618319396072,-5.0738872044761765,-5.4280708306596095,-3.073848073801607,1.8029325257871005,2.210353425067162,-2.455661604457304,-3.558877070821994,-1.7833828705910901,1.119783139385497,1.7168998505344661,0.2613232798571531,0.5658291863083958,-0.990340293524174,-1.3632487610992543,-0.4756841272591488,1.2011035260893559,1.0485911025539676,0.7038596382551098,0.003432056597486123,0.2190455362823328,1.463214441837234,1.390867910106446,0.044817290621350474,0.20107724840131289,-1.016226708046663,-2.816337181823186,-4.573082191666096,-6.507188492178956,-7.776073400038373,-6.904751781936494,-3.6089221389866535,0.6379241635745151,-0.28541744654670465,-3.110359137760489,-3.2060744906797694,-0.9605592159455838,0.7216697138601432,2.599890951108606,1.871888233921642,0.9058924075350009,0.7005442702359368,0.2947442331226861,-0.7331926230225358,0.7836756831513149,-0.15155395818610723,1.306231469172278,-0.4213633212846216,-0.6150355900101566,-0.4211932814766806,0.5092149573410462,2.271528960186758,0.4085155560180748,-0.20795066397146758,-2.5200530133624013,-3.8339379038299737,-5.9146409160845606,-7.017879488758463,-5.18441149364985,-3.5583816192756617,-0.4033738723733613,-0.3951353493845054,-1.0380397765622758,-2.206952021229247,1.0212756739571602,1.0453146638122757,0.795961448573215,1.646622424793528,0.7917131410220629,1.5625563328931502,0.9531795225994283,0.3289119067418694,0.9704464058811874,0.703810603075995,1.1022907444579502,-0.08332378975468771,-0.40820924320340213,1.0081450567407098,1.1250523783682325,1.661499040982045,0.337419946637004,0.2578768146350377,-0.21143608449005843,-2.595753369381301,-3.6805362640477433,-3.8160800048580428,-2.429763350344752,-1.981973456720269,-1.4496412284916795,-0.021092640414089106,-1.0157353942341212,-0.19665716366212688,0.15299510039181863,0.43515874816234196,2.6635830960069637,1.270898702922699,0.4732900782257115,1.3308481277929098,0.1443354523495818,-0.3891472108603948,-0.5300572412108218,0.5117634801136215,-0.22411133813914036,0.3824093440435956,0.35767976888791075,0.06633555774908854,0.8122515077506693,1.700587436187524,2.2612803528206915,0.9400822925852764,0.6575503167678057,-0.04100607166992709,0.029404070011231243,-0.8639039428776943,-2.1237448878772636,-1.0389604438975677,-0.8636417942049018,-0.21816190011146033,0.17131750038415863,1.6771653046273334,0.9354343315430759,1.2157015258155377,1.485957153801538,2.028290378586678,-0.0737927319963503,0.9487508117601556,0.39804581358437,1.1556272035906379,1.241471942564284,0.9007495019601297,1.2195969626037562,0.22322185645483494,-0.2096305557673655,1.4798582952824848,2.0214058210040453,2.053261443904751,3.3149270311143737,1.8732155778346757,1.6868046138825887,2.12724994464079,1.9587949382273278,1.3184354357488477,-0.42062741611063836,-1.6917996698532778,-0.3962908904732735,-0.43933037952444715,0.7368926674540267,2.04877739047304,1.6188465552102034,-0.20435198187325496,0.5298850831391939,0.5348451906108395,0.4842788652841927,0.228153682242932,0.16565814614112576,-0.4107390711941029,0.7073068756852599,-0.12344000526834566,-0.32323272557692073,0.9908110744385071,-0.6010308683400302,1.4381255367194419,1.7713132320572742,1.4011961131298374,1.8612372463631743,4.094585358179274,3.9908700294447983,2.5473133194427056,2.9504416505127358,1.131011039062375,0.35988979653907344,-1.0098872390305302,-1.5548358132000042,0.12648383457598525,0.5031867954314818,0.7821179341539377,1.1528238172682677,0.23341753387994504,0.30738562743350417,-1.0910790966705193,-0.006237691581728811,-0.7552436977956437,0.27272691207171484,0.26925436256244856,0.7946000064466574,0.624009254000799,-0.04151092771781867,-0.5877495022253899,1.2820225145021615,-0.38597260990106563,1.6651396756737402,2.1997952986590548,1.6696419448756123,3.753777725642592,3.6994011411325856,3.3406943437896586,2.268340956614423,1.6202901589356515,0.173212549748034,0.4988493272956141,-0.7649934791579353,-0.1069963694656596,1.665882726333985,1.5266214347951386,0.9308614241520573,0.3130595300374813,-0.3878417152820648,-0.8206889275224583,0.20695667355555744,0.17151673142125823,-0.3380915190601961,0.12359193508991119,0.7753777213391659,0.6035461706013555,0.457065439750319,0.9792998310514328,0.6198001196032005,0.805942012163528,1.035090371461431,0.6440319087894544,0.6073637301366813,1.552733646039668,1.6345674603715723,1.483444626176125,2.256115548930058,1.5721772390022442,1.390950841240535,-0.6449208023916402,-1.0157024561912262,-0.5276574267643432,-0.5918591711148345,-0.9614818992107355,-0.3525940836783253,-0.09599333432815588,0.356656982737234,-0.8373892506378001,0.9197771383631971,-0.18207034880685585,0.593772293706976,1.1256687841888393,0.20571082589170214,1.1094710693128584,0.8615271017688343,1.1479705357097496,-0.32885320783536753,0.7009594647615399,0.35331360049224236,0.9918692806637701,0.21496272124235297,0.737740140615775,1.0554553617334066,-0.3097399285848755,0.15120632585624902,0.15024930922167817,0.7503437497033804,0.9212330820753386,0.1277401287158662,-0.8481816149533091,-0.9356051491793855,-1.233266704765088,-0.9043941390075991,-0.6024741033388162,-0.8435820466880571,0.6770169491036497,0.5918873825408101,0.7345544560702174,1.094765063709778,1.293383142013726,-0.03754710704912742,0.6875778480967859,-0.35643934610835903,1.087594990432792,1.2658679640164479,1.0065268852802685,0.8362996503027577,-0.3923167135989516,0.5796004041817573,-0.5888720175178815,0.3855347722767078,-0.27245059409094957,-0.00451573076176022,0.3353460519972731,-0.11564905285588203,0.6794286875309152,-0.6555852211002475,0.07910784932686334,0.49291758483508696,0.06185515357011807,-0.35878523153749864,0.09705263519649973,0.43509587823494783,0.17969526708167277,0.41656838926746415,0.8513562557358225,0.5372381826778911,0.4333248149117349,0.029118915989346652,1.2473485808326352,-0.6197594907151575,0.40412630712092457,1.1212189482793906,0.22116552281463386,0.5522826752277534,0.6453573287134314,-0.1312554531354697,-0.6256592632554955,0.9312774571462626,0.5081977712945257,-0.007587237915648165,-0.5774664560136252,0.49472080890371384,1.060368141080671,0.6958447001164205,-0.47527166861792436,-0.5623534902011497,1.0146558305332418,1.0485767475562306,0.36472710829358407,1.0848252523124329,1.019992450162254,0.9251451962345808,0.2013976217283775,0.6945597452899858,-0.5941383117244029,1.1573716787570347,0.4545338082052185,0.9564399432232594],[0.025018712560436026,0.05259613173098125,0.1795331386796659,0.5261955634096003,0.5003831572018711,0.043786177787261085,0.37309583080971837,0.7404549101652371,0.9354889592572184,-0.5865465179220664,-0.35621809809672317,0.43812547194003454,-0.5826651393064567,-0.5841620520016355,0.7595285603618006,-0.07926232433864212,-0.5448857196569274,0.24735290998406456,0.6561379629942976,-0.6556782294113821,-0.7495520132026101,0.5905717845786744,0.5016824982277516,0.6994870725952078,-0.01900031077244332,-0.173810436114973,-0.015985040959247267,0.4360935727069846,-0.07238439609674123,-0.7661329769987468,0.9181702355310961,-0.45345497242982913,-0.17604626607123386,1.1297274894977076,0.09892736476398777,0.07656033386373426,0.40686378890673636,1.0685120420095244,0.21386581073450628,-0.23583700640268193,-0.09930633685645898,0.05345367368222105,0.6563087336381688,-0.17996349473471393,0.6763266043236855,0.8307432075347662,0.8048336630562652,0.4681994000233508,-0.5242078546743415,-0.4913649581786085,0.06118896572882958,-0.08720747877373898,1.119238971965533,-0.11175142662630345,1.1392495677159638,0.37070202488200604,0.7913218964761577,0.13986148807339543,-0.6858629076644487,-0.5930957758064598,-0.2307806502504986,0.8128446781395102,0.7626465018287282,0.04136182211460952,0.6454165137552423,0.3965436800718364,0.9075970442512122,0.2924971445138416,0.21344199348160345,-0.583329577183736,-0.6902463331949341,0.06424642104992905,-0.3912035442006688,0.6810763343946459,0.44288731115395336,0.5083114244960897,0.4027953667349308,0.8994695239010558,0.711998091745997,1.0200770658487328,-0.20323153233363864,-0.04179156769027227,0.16483599409787114,0.6961565884215075,-0.44230865200559466,-0.7144737442177758,1.0389113206286622,0.9418602031493157,-0.8044796137094009,1.028294633064371,-0.6008434228608711,0.9686347544864893,-0.6874326386139802,-0.6886789356442813,-0.6442903869721028,0.05153840187243127,0.0030253629708282053,-0.5360451904222135,-1.4017871658516678,-0.13030382656565132,-0.8826704461745547,-0.2947492855279118,-0.07042128379471319,-1.2358666607707718,0.6574950523361057,0.23881804149504493,-0.5690272494880769,-0.20721160668632216,-0.044231083290538833,-0.5075945373650789,0.1694569719577616,0.7571901681228665,-0.11113797120175135,-0.03932825220632406,0.6617703267557987,0.8491229725799477,-0.7527643243522353,0.3550122911596538,-0.6715457655654198,0.625501410977444,0.7114075661618566,-0.6004859378079168,-1.3102095031493135,-0.20887127034100197,-1.9281414147278426,-0.13134186839661194,-1.3298497800282594,-0.17877059434448145,-1.8830185455425381,-1.4600638337363847,0.33976374228526834,0.4489058168816527,0.10188982736017796,-0.23177593020018805,0.9089788835874807,0.18302213350074775,0.489656039639845,-0.029340127700225146,0.23444701328961923,0.989433836649697,0.026615868427520905,-0.750791579525192,-0.4657008195615023,-0.0792394557903347,0.4538512241894868,0.9641737884063483,-0.5656915661916831,0.7874295762835463,0.15061107914545524,-0.5400295742461705,-1.737532497263649,-0.4515544579017165,-1.4973491137409907,-0.4270335530550366,-0.5272611932486326,-0.9903793395047032,-0.654921044704411,-1.39906308632964,-0.6974389463576635,-0.2963722661405026,0.4720721001614158,1.1371452091095466,0.19390259822840475,0.905735946954201,1.043295303492086,1.046243239197068,-0.5229754500335817,0.7853830652121853,0.9696625013366129,1.1152187761767163,-0.18354526616196212,-0.6444541146282755,0.9279552345456846,0.8359851021354429,-0.9050142825425489,-0.8881392443983056,0.013897952835974938,-0.30243895438954005,-0.03553609475167052,-0.6521171222981074,-0.15275480792720916,-0.5290787709525453,-0.8340586493578708,0.36846585815287436,-0.4489178063609208,0.3011086590585651,0.9548862399013616,0.25191275571399185,-0.11735093649561688,0.803187488008429,0.7205916599638394,0.5660960110303777,1.0743339806070864,-0.6249536848523471,0.8363624973008337,0.47012872016857793,1.0350037616267447,1.0645912836819338,-0.6616078950827116,1.0622142772691068,0.4695159387112505,0.3141603937030815,-0.08510128690991127,0.14156809341524385,-0.13289496024796507,-0.4787562932888945,0.4612717268999729,0.2774833232272101,0.7237754564355509,0.40530589856167215,-0.21592266962902115,-0.35684571457249525,-0.7272019776546044,1.1889367691729262,1.1703482889577461,-0.13158327339557113,0.586490561561277,-0.004798932775303108,0.5979296568312482,0.7687839336932599,1.5543531946870448,-0.06942322803922585,0.2144622314599338,-0.05602652692697966,-0.7069357108087242,-0.6040707587833372,0.839653689307599,0.8967631162519261,1.0007192830931428,1.195173967908693,0.1655930061603918,-0.8688285570282716,-0.6580948731326319,0.5204260431761969,0.5893645422782502,-0.7903731984101035,1.2563998972986663,0.6734335724181857,-0.2930097947937635,0.35031393403180555,0.8128100801803233,0.8506513415159459,-0.1823773438248974,0.6566848614260412,0.3389072298578097,-0.5165275398418121,0.7550186710151772,-0.20340807833713084,1.4230013737362601,0.7131523059956112,-0.17268259144974182,0.966873671356997,0.22760839456523219,0.4786342011900859,0.12553047059432437,0.7096347911161329,0.3075218585171003,0.3745672687333992,1.03769808221065,-0.5853396100295308,0.8904402787021398,1.2113473562691095,0.02930424785568079,1.0051282345006098,0.3697817303867078,-0.32206699192825583,0.18822718507762137,1.2323725971661281,0.4477779988368283,0.5990340480682806,1.106411740690281,0.5250938068800269,0.5032894030306935,1.093263693912746,-0.16471970982081469,-0.10214736017365995,0.37297110633404973,-0.5927907426489244,-0.2754117410065124,0.3658825473774988,-0.7295811203926282,0.8935809422907801,-0.6123252328003986,0.14974952388104518,0.9003685704321865,1.0927366825591915,0.13467356573978523,0.6714888580508683,0.5093014771754236,1.451007723874599,1.1203999328751728,0.08988296400861294,0.18019804945758114,-0.6511219679298288,0.8693448174593927,0.9158072963042279,0.521364511274866,-0.129527700541078,1.252478366071191,-0.22088728645349726,0.48516907293084066,-0.7671975413565958,0.19838918255817525,-0.18023840523842652,-0.011285347963358252,0.673796958632805,-0.1498404888747019,-0.16399515894435462,-0.4038466753164438,-0.39096238445515197,-0.1175910970585445,-0.26207124547113525,1.315798847307685,0.8029797211538268,1.2223977716066943,0.1322717102537401,-0.36374866118577354,1.5734968645570253,-0.14703353852762194,0.11455309060285965,-0.3497536453942637,1.2852658368614291,2.217343379710333,2.4212405192205337,1.7437948319252603,-0.007647321607202101,0.05347760138436814,0.9376640140415321,-0.9122777536399221,0.23079166334474255,-0.49102506192924167,-0.011693346535986408,0.48565023641544314,-0.016415633499915653,1.135383353213399,0.04519781906691547,0.738315162981692,0.5306745949526984,0.5589350566773487,-0.15077997223186704,0.45900903213412886,-0.5422901085807219,0.5626298122503182,0.15997074985527773,1.2639525831097855,0.6868811705839547,0.7540918398513937,0.42084010381088033,1.6489969446002568,2.6113036287714553,3.0184270777377953,2.197338386353335,1.6672895659383171,1.5023986692318474,0.9172930461304152,0.6935788434314923,0.1528492123435797,-1.0761354152300284,-0.807323989291795,-0.9624524240908584,-0.1493186924848003,0.5622038987435175,1.0440925007977304,1.101792848127017,-0.8005985973679715,-0.0018723640802049888,0.29810335897230444,0.5623153222692643,0.1992192497236472,-0.4764235136589297,0.4906053389868792,0.1309655776510178,0.35600416768556997,0.4635096712853497,0.17539658064273328,0.33765782663136434,1.334655329150409,2.6453163757490223,3.5563282616335203,2.3839362539581197,1.3374149944230722,1.4040035912217432,0.5859207245790171,0.2918897538981904,-0.08085524675032894,-1.1783193830295482,-1.7397654722286213,-1.0652583233895208,-0.23949422091445952,-0.35485744130248476,0.1922606059515141,-0.5823560237798527,0.2686619403556226,1.0363831150965725,0.5485610048489749,0.391452596259928,-0.22811092558092938,0.17966142044412603,-0.17204891597667873,-0.49750948628586966,0.27423970097099787,0.3290431621209311,-1.3215684010943722,-0.5612414068759359,1.8118270238986687,2.0815784365636834,1.598700611400573,2.320790325818416,1.7407758068311907,0.13576591765484772,0.9032566838893048,1.0129419740924295,-0.9932348578719916,-0.9265475558241955,-0.7866586946810147,-1.3282590178465177,0.6133345986455755,0.9980519475909579,0.5432145054765349,1.1015546111504992,0.7630291082331228,0.05656267198299895,1.0839225240711108,0.22213940916446523,0.9616860201791022,-0.8020018383657735,0.27322107019336905,-1.2553592448870359,-0.30402577408585896,-2.1004028291496515,-1.9319937869280324,-0.79978290442585,1.4911205225829003,0.5043040375009744,1.0812427037991321,0.43124739023397113,1.312110941948764,0.48123886751039113,0.09710235215956883,0.11829249627595928,-1.3121568033509299,-0.6879202958693686,-0.9897815551928448,-1.2865380508860633,-0.5431822611349755,-0.8946750685751262,-0.4625782340723563,-0.10844367291456014,0.31477225961981964,0.7700380530411817,-0.3049189275974026,-0.48934085540332595,-0.26460562308884755,-0.8900241189646111,-1.812175062430102,-2.1975420046169076,-1.1119903356946745,-1.9860028434861472,-2.3813679138258395,-0.3469842793162879,0.9810988551043932,0.6059096159396444,1.013568324862481,0.06295411120908924,0.9909040946660161,0.9778713221679739,0.07032555767692775,-1.0805400941528438,-1.150209973940137,-1.6912271630082338,-0.04923035150301752,-0.45917264885214054,-0.9197744861899352,0.377195221644735,-0.6955871063497681,-0.3132707583374519,0.20077780888190946,0.0749330786589038,-0.6761640245500844,0.010815471228528509,-0.9707861610606562,-0.5689550837620123,-1.0905007824159652,-0.7548262903827453,-2.6057349224628443,-1.4582508258449622,-0.554551038078527,0.09908216940389264,-0.6280516670630457,-0.10465265738663804,0.8820135582036964,1.1165296243452665,-0.7053825848732327,0.815025566629295,-0.8543799457280637,-1.5928406812084333,-1.009266117993798,-1.2590245487731315,-1.270378486932686,-0.2462685554224988,-0.22124225530772396,0.31270425623378495,1.1426040429845195,-0.5398945729687121,-0.49716765687882514,-0.49577842020652596,-0.7758442112236862,1.2054309200433244,0.5953326734470695,-0.5612284664823112,-1.4747381895727596,-2.050985274285616,-1.6576274962627553,-1.9220105439471311,-2.2457158911565513,-0.6418469464771648,-0.6319417807907693,-0.5584358824351185,0.5569801698970687,0.06270085077896782,0.42673038255326523,-1.812766937026458,-0.3813480521188739,-1.0940699950166959,-0.3158248655954966,0.026282454729156617,-1.5829601966439255,0.12860151320226806,-1.035374109179552,-0.5956945078097022,0.6988086750078649,0.17649590818499167,0.6248774293418851,-0.375347931709307,0.2780236043634142,1.114149487376095,-0.21082297413470874,-0.933760747084082,-0.8375387170310461,-0.9543236421920955,-1.3215281291817234,-2.6145459114072778,-2.0810667807366308,-2.5668026153858516,-2.007730573351515,-0.05090059675658755,-0.688016652290057,-1.579522884489197,-1.774379000265445,-1.775168339710697,-0.4844132762627816,-2.108279342655105,-0.25812150087387553,-1.6690429181832356,-0.20010818642031936,-1.0003226065709387,0.23582432062627467,0.4654418144573529,-0.5902027712792184,1.0394390996781382,-0.12925984907500632,-0.45623557650300856,0.38027180080701495,-0.4590991858571022,-0.5096600546676312,-0.05095781574225967,-0.05041340707394832,-0.747670480458398,-0.9755076258830531,-1.1820515553930928,-2.540006198833524,-2.2098764413771423,-1.2601897411881682,-1.5837749183787937,-0.9163299003470589,-1.044396687225401,-0.9510180191049519,-2.177651523375098,-1.5980420638110815,-1.7542422188951372,-1.6060160950344076,-0.3597178570097662,0.32171157617516977,-1.3843131451148227,-0.5800124002746694,-0.742940066926325,0.04997272200100346,0.0711007005665415,-0.10860053176012578,-0.5990843074434654,0.58643122232727,-0.151623263741463,0.9766783820459135,0.07163782754933667,-0.8323946211657,-1.0053256280385994,-0.9668910556586661,0.319485750469087,-0.3599983849284305,-0.88562571899406,-0.33432749364322056,-1.758208530477883,-0.02338401397838447,-0.3160093902789424,-0.997458011295542,-0.411018353893812,-0.12467849248177358,-0.9702886080168055,-0.950239819256816,-0.7556175121869392,-1.0973472805266136,0.37122136874382,0.44209542442308036,0.2230387670534496,0.626182609786552,-0.3997144485802085,-0.6375658217881701,0.2745373530275183,1.0310688333188676,0.7170769216625018,0.7258714785826643,0.9207480704266885,-0.4276719286442704,0.3579400788795415,0.05669778905710469,0.007671464534334887,0.33364040596782457,-0.42950131263789376,0.505125625791239,0.583915255911184,1.2614222019459513,0.2751259851714659,0.05938866645261291,0.5572559432941248,0.7640871795149322,0.9266675943781694,0.4313281927400058,-0.8703672750014487,-0.9938544873557589,0.5887498365094662,-0.29816642102262936,0.5537602477917377,0.899035790600422,0.7839247223970689,-0.7581650520445491,-0.4060209459737056,-0.6957567279072032,0.3232986957537387,-0.308295380409209,0.4661913304702606,0.09896311091191595,0.6061895731121252,-0.3403776020774981,0.3025329805715453,0.16469719107667255,2.1812988036197702,1.169543642740457,0.4135471392261037,0.4390591623139206,1.722220323782417,0.0336371130714407,1.6026931967550802,1.3255937943222045,0.4569113585090047,-0.004115609341983227,-0.7430833958299697,0.6584697931941667,0.4725634197140046,0.8060018939702505,1.0081128418775205,0.43416163396017055,0.74531068743905,0.3760949764526696,0.5580493996330781,-0.46318606010706853,0.14616554813446322,0.7909588769253069,0.24475129507202176,0.8694548947393769,-0.5382889440708599,1.283772094345708,1.2162590588167779,1.7458544758751757,0.8035030993251342,1.379386198951005,0.8976195682714645,0.5093895274368353,0.9791147441116841,0.1372340318205886,0.091468357187295,0.9394510055779177,0.7561612126864358,1.2230481454685391,0.7749661187092202,1.0680618639801034,0.04325754001594626,0.27316917990507933,-0.1259152426522913,0.013611995677924548,-0.6670329280011731,0.0881227332290374,-0.43454015722113837,0.518719967870851,-0.5905390620265291,-0.07359113895490936,-0.06612648369219858,0.8488213397981343,0.054536467542113276,-0.509734942834178,0.404166720057796,1.4575214763641988,0.41798814732236,0.06707930591728765,1.0191225300701652,0.4512123828746142,0.03016541987610456,-0.08376954638378005,0.5772014156480405,0.8390035511063227,-0.46587205475314947,0.57389778521417,-0.09039029503793086,-0.07450126003490905,0.6792979226794721,-0.8050815631753602,0.8239734827454493,0.1965666939818653,-0.15898106500539083,-0.3221280705503328,0.005240512283252042,-0.12727523372858734,0.9224076096991056,-0.18946811690239873,-0.21315922960519915,0.5406687856130183,1.149596452395346,-0.7527852607204464,1.060371287496936,0.4142215718898071,0.9131340704560944,0.5660493023239144,0.9267733837935056,-0.43389157197705897,0.42074157499596493,0.06505885176268586,1.1682765082998268,1.2625334196763607,-0.135230638124921,0.29661990066736443,0.9227166326737289,-0.26320588596535577,-0.24198748047212493,1.0750187348719948,-0.2536968274340031,0.10769512647574615,-0.6814429523122694,0.5030911978480319,0.08284020724254039,0.237223687969826,0.9467236735341189,-0.3772246797653468,0.20944285379377087,0.6550386788567102,1.0719748987741786,0.9537534865126902,0.30351759850138177,0.002293965124248841,-0.5881902596871572,-0.454146300169101,0.10742825425001254,0.7657558975074985,0.7496401640117075,-0.2665788268315455,-0.05417204318200711,-0.04054871598470286,1.150065411035832,1.1330181461187403,0.025256555639499415,0.218583487538829,-0.32327033262304633,0.39736016933090496,-0.013345900827394917,0.7594124057447691,-0.6844420464737024],[-0.3617310649985455,0.7630728595512108,1.0768998326416237,-0.07777887817383103,1.2856886433517372,0.23609180180743988,1.12309917878757,0.40941223901906265,0.12112834347501501,0.5140613659735449,0.26413262118242126,0.2915042283477825,-0.3224675690714609,0.4151335887016539,0.19770588336491648,0.5896115536785533,0.08431188980507076,0.8469204908245365,-0.41961973511428,-0.1892442573297352,0.8238127936223105,-0.3625272597926414,-0.5055657031987514,0.12087055269178,-0.4777582020763858,1.2590923230727773,1.250535390188333,1.227978939284347,-0.3765757011385931,0.0031822025024852607,0.5033498620832582,1.1640035185993591,0.4759215188286311,0.07404539689664047,1.0424829082120446,-0.42017628517714556,1.293304986245597,0.5084479314012228,0.6409628141808668,0.14184555583662592,1.3258797722573388,0.7381920533383615,0.34002743474963476,-0.05820838334079251,0.4405905660850205,0.37299759280212264,0.6261837337451857,0.7435011294457167,0.28745960756550104,-0.09515244889197902,-0.09610417201142153,-0.021534900437762565,-0.17131825178236093,1.0061966712268364,-0.6519537789092797,0.4026057645803694,0.1564567520419649,0.869482263696741,1.1275261603025475,-0.18576118153738136,-0.3828467962343878,1.17824320728039,0.4638618853699205,1.323931696286135,0.5975567790879148,0.8923386872590775,-0.2585304470103115,1.0625010823323058,-0.024354706261102345,0.006526896436617451,0.08251203470807135,0.07125567334588208,1.328230252637689,1.0204940656378059,0.6137545891619579,0.4800103886161732,1.4735370242614494,-0.07779686408174888,-0.22153023950359432,0.8529706378819002,0.6254628722791099,-0.25241750628399207,-0.04260881889016535,-0.5113338307754679,-0.4196251733429736,0.7067661357413462,1.2392077938991437,0.3617145172887173,0.9052218606724802,-0.05486594221799242,-0.1956610632264502,0.4416279330898059,-0.699854533627333,-0.15500645810017577,-0.6260003376252529,-0.5651856944776812,0.1468181513656473,0.5619148919332269,-0.49983106210353734,1.2869157589458688,0.6645997926002044,0.22930731163211557,0.26258260981226933,1.4411014201150136,1.5797397242540094,-0.10913407272546108,0.5751653555700299,1.2611231798731644,-0.2899301638212181,0.9291193214001081,0.6455340052154629,1.0052059965660947,0.429272314712822,0.020345648267034368,1.3010135534837268,0.052865894469593354,0.9248558443282732,0.3006984406574799,-0.19648311718852005,-0.7510834643648672,0.465542938101209,-1.004710895053148,-1.8383005041346616,-0.9146812388991087,-2.9059091026538737,-1.489767960303076,-1.2763944783969985,-1.6650832854420818,0.09820008818630548,0.447984249613381,1.064392150664696,0.939276971611234,1.019467988824416,1.0561773495721805,2.2463768584340227,0.9130655711694671,0.5509115550445145,0.6611260709716752,0.4105922900163991,-0.509991366095563,0.3650173847810409,-0.6231816770301692,0.09435325940217079,-0.20285737012120297,0.6932156315107271,-0.13373086844167664,-0.384565929220012,0.2763984847326301,-2.1537255511583306,-2.612083362668128,-2.821379764038094,-2.3320465941763615,-3.369199414901553,-3.7099116885869745,-3.4019147474868943,-4.493356383344413,-3.426769550918903,-1.5937916261531817,-0.06916796659735411,1.1164443466199865,2.3380616733313917,1.3196263010272709,2.525007256068987,2.3697959930512345,1.1907805109998268,-0.37496464406416513,0.7774542652003008,1.1492260239674998,0.7331904971554981,-0.3957301875913904,0.05727776461100421,0.42292452136041964,0.5505499835787583,0.5354637603569408,-1.2600946150429413,-1.4012231470329077,-2.110196941167303,-1.8177112951670737,-2.817819413549677,-3.5228028335305575,-3.5761746720303207,-3.4449723391315765,-3.549084021047983,-5.5018738525377,-3.5934942888297696,-3.721265526948476,-2.048498145838227,-0.7942885034764716,0.7440492178003945,1.4404790985088876,2.6692237570496213,1.2339395916396705,1.4464476160210307,-0.06933189554730732,-0.5705759304713416,0.816811372760477,0.04632517568641705,1.227342296978138,-0.38936487841783474,-0.15605482018954928,-0.024012030712686355,0.20061041522758638,-0.6336942964684759,-1.3397142556169648,0.021628761944699235,-0.0610775840806413,-1.8583567486739403,-0.8879202947960971,-1.518628995792984,-2.6741181279542876,-2.7201437217791615,-2.9269237671151633,-4.391395097424748,-3.6274267534007985,-1.3801634905674964,-2.1985967057168394,-1.2627220373354602,-0.9910542183442868,1.2109562224140316,0.7506829547527368,1.3544111016328553,1.74492349388733,-0.0249529549307635,0.5158090419966317,0.3762699278515931,0.8466364229557221,-0.5051598760730343,1.1118987822840296,-0.3471011285700626,-0.6391351846940303,0.23985546416821493,0.022632159901563833,0.5103046290128475,0.038192926827560154,0.6052541549331651,-0.058862240183713575,-0.6471665012196391,-1.2958449819855506,-0.25945501343573163,-1.8481162741275878,-1.9337384922006529,-1.9208957660031765,-3.1528636378016777,-2.6918030372634463,-1.2639073862976877,-2.1598737683843843,-0.6848926160981184,1.6016667183289108,0.41038019504836426,-0.018810438686918236,0.2289655420881962,0.8329719002895998,0.7492949396907895,0.7999319245254812,1.003106231357387,-0.43587794121797313,0.46208716441596753,0.1543310333681742,0.2147022670841401,1.7391193199046084,1.977724020099108,2.0859862594705727,1.0070786769635505,1.1502073095974825,2.0745645487201454,1.0592099097529646,1.3524535185243292,-0.9174226283360212,-1.857977542186285,-2.1383934756583813,-2.071075318744482,-3.5886860702279573,-3.7171268348406072,-3.1502753439510385,-1.7337367642096262,0.14564136301670194,0.6278262699679058,0.049606900210507274,-0.5084017471733924,0.46576135799346197,1.1845270513506527,0.1415438696917391,0.5845617444865518,-0.33324835385136115,0.9355358132485139,0.6319360528506118,1.5878334306814026,1.1124946145166772,2.265939444355622,2.3553367174148123,3.2436426717041784,2.1324130374819084,2.694246379394758,1.1948364775403717,0.8256317754182074,0.2414694213340878,-1.9189975132657535,-3.3330226384940067,-3.3828522709309716,-3.0656494240902132,-3.2725748624472373,-3.3786693475696197,-2.8654878577378824,-1.1690569418042782,0.16999223089671323,0.5803734389021017,0.9822351517702956,0.2724779064389002,0.0054619957389674565,-0.45920811309545473,0.8514537214460518,-0.09993175408760702,0.9441744147626185,0.31301796726748427,0.7619589466500106,2.977063750490325,1.8262578915435759,3.2818052257181094,3.7252794697184446,2.0714189956373827,1.9211671535155608,1.1612366954712137,2.7192620723586645,1.5202371354258226,-0.9247987027830314,-2.132523523491743,-1.1851928924565887,-1.8540646331100348,-3.685906523321048,-2.030030930050488,-2.3515984543860946,-1.1422658985081926,-0.6101089877983653,-0.65896841136354,0.9721858402718409,0.4033739912804081,-0.5207704418092145,0.11566724655789555,1.0565626760121294,-0.043313768941821366,1.1054121588880428,1.8079109309348176,1.242246835545899,1.494437073823726,2.734943155032431,2.9995732751900164,2.0453407271843638,3.296494681378676,0.7880317424828477,0.7634659548184222,2.207170256377953,1.8536165787128718,1.0678164536437311,-0.6114059841558823,-0.9336781607088295,-1.3682574105680199,-1.7711177331594101,-1.8769011096846737,-1.2976555135656185,-0.5084263975274361,-0.24484705417012986,0.2609247311553136,0.9736674580030719,-0.49131783011668745,0.6901366721385769,0.7274896511679059,1.3147005652520622,1.0885624205815727,1.278741520589009,-0.07246441440885369,1.3226731947386037,2.332673026134761,2.5846919969569635,2.177476948716171,2.7399303383655798,0.9235784687622255,0.1242536668846596,0.9258182704655908,2.400403587429895,1.5736527085358514,0.30779536741643615,-0.4711431410836652,-0.24032359498532846,0.2295664150185736,-1.0448087205435566,-0.8982470374976568,0.3854453616915376,0.19110459716893224,0.3380286312092891,-0.22478502428629027,0.39834070054551635,-0.5445143133462825,-0.1346177516479687,-0.3542424961326309,0.206274701656984,-0.046201919822156136,1.37753503222699,0.4203360833865602,0.4553697843324052,1.2494831747866844,0.08845943674469546,1.3329457442770256,-0.05937720806121813,0.1872578070780778,-1.5400522409986988,0.16797291704254838,2.3838135003756324,2.0723180481815904,-0.15993200736056712,0.8469758612903391,0.8523719396418041,-0.12602102889198216,0.2649315392754006,-0.3901472057049395,0.5613476117017153,0.7563570655003905,0.6281675702241074,0.26507174125632743,-0.3132592453849776,1.1564091805612413,1.1002269643264655,0.7977340693324997,-0.39396532994207045,-0.29400467485182397,0.7036228844240651,0.20571976633082936,0.34452215097736794,-0.31596420485205995,-0.7259909602331828,-0.8718304100004699,-1.2414796780096546,-0.3679687589343436,-1.3710496863930801,1.5612648889228227,2.7507800785761374,2.2539100820151274,-0.029780507481945814,0.01293714779852454,-0.789601974902757,0.2110626724203817,-0.07049264445526524,1.0625091490229455,0.4021008659903394,0.2130783589493074,-0.5920541158978437,0.6589627415955034,0.06339806290101423,-0.5949152943361055,0.6082152409919549,0.01278018135290948,0.9490254111286668,-0.7826666486379583,-0.938681958315584,-1.5514884732142595,-1.1884915670601588,-2.1763624904099066,-2.59567414417974,-2.495117586784588,-1.0920538385686018,-0.5206062383074079,-0.6900076892616734,1.6200758822238592,1.3206147075984132,1.3725903596431588,-0.7876475883354035,0.019850568408012925,-0.9979354433337901,-0.7761911381689264,0.46589874530948244,-0.5644780134178459,-0.284533347443034,-0.8258562708739744,-0.6427220532945671,0.7726162337468678,0.5273627051762901,0.7992269449341681,1.2214709354667272,0.9447240749511747,0.034764195525559885,-0.6289414059139627,-0.734394539449691,-2.224888073573601,-2.5953901211357793,-2.112850039542619,-1.5886413632811154,-1.625157338210638,-1.0569693961108888,-1.3191864330471321,0.41851714398815515,2.5087884244784817,2.0306627255817173,0.10230992423965155,-1.894625558776277,-2.1613440000220523,-1.3206263423696365,-1.7454207210794077,-1.0612261176489872,-0.35036565252155527,-0.8197432585722788,0.2906959003793995,0.2917592451844819,0.1836840771789764,0.8132776823516839,0.7850436997940253,0.9334935216500327,-0.5614446002582707,0.800482454560657,0.43908397072081673,-0.8288493358450373,-1.8255266371008996,-2.4912507469791665,-2.2457312198663333,-1.521089663143698,-1.2275393732333906,-0.30219363054382287,-1.2036350058554444,1.3495748767644073,1.3344908586305646,1.3289016986785949,0.1775744972229777,-1.2882809561375215,-2.385571993429705,-0.5582934158975537,-1.2078920477194532,-1.550079598247349,-0.9770372077730491,-1.479829050874972,-0.46939285572473105,0.08140982253029334,-0.3532700153081465,-0.03734942430647807,0.12646324446501533,-0.2482597415183759,1.1694981247085574,0.27692511684512966,0.7042920971568889,-1.3651406363950833,-1.9639629211961853,-2.147090279819878,-3.1724621789913994,-1.8414417353787096,-1.5388705339843174,-2.205908812543474,0.9527359709558827,0.9002615528042478,1.4469247677991348,1.1926687443342747,-0.109026459668815,-1.584675439103003,-2.051914821894841,-2.1443380441573128,-1.4910072577379552,-0.1259534371259872,-1.6876635652047858,-0.7914972488286048,-0.9401556830515941,-0.9152593070412908,-0.6543628871515983,0.42519075555926505,0.8080723093657822,1.0381399751505023,0.3866129992653227,1.1433221227842794,-0.20708745808457268,-1.9024321857419972,-2.848905062206036,-3.034517484702555,-2.8927947837729313,-2.097128523743607,-1.8999047413959003,-0.45829616210002505,-0.2589715047194573,1.5727991695984898,1.417253633236624,1.2457530664821117,0.8066948562845917,0.42854990000959003,-0.9250924494717088,-0.8164751185474193,-1.861986692946388,-1.4629233103880053,-1.9818016139876968,-1.9484350566481343,-1.6613178162868365,-0.5436860117513411,-0.7842898227497378,0.8768817592792136,-0.5286055628089633,0.9225544159300002,-0.4316554135672633,1.1110723856611993,0.2653908757010574,0.036332440641863466,-1.4434415829579752,-1.719674761933141,-1.1561109674872132,-2.4362586381084212,-1.0176703163433616,-0.3042409431983604,-0.17387138312935196,1.6775109518763616,1.4825249138478422,1.9654727849820075,0.043892965669300815,-0.0038435314423786756,-1.2911410570043347,-2.1255719808729476,-2.3471839741391727,-2.1003770198572953,-1.7957469814488416,-1.7112999307765075,-0.5501982762924206,-0.04530796183089718,0.43406659834298766,0.8007814942641786,0.2927258070994811,0.1086008959664897,0.6241434561756226,0.8888183782536424,0.8136830538506726,0.3852655418656518,-1.7955807293812738,-1.2605712409638599,-1.694393076055148,-0.86618184627585,-1.6061679989357638,-0.9490980727684816,-0.6341763416001137,-1.825348039752345,-0.5297826953295978,0.10640204580479472,-0.17719202154453828,-1.0901306127263226,-0.11480508565011838,-0.33051307244231937,-0.2964258924816393,0.135581708419993,-1.4025120363713202,0.36169885254775325,-0.5757109333069735,0.4242209960678129,0.5080371098827503,0.46206991059293095,0.9610530135212215,0.6826589607579823,0.08250570670416259,0.8400110898732809,-0.1639461076530085,0.9853981782318634,-0.17725149220250436,-1.267348135747392,-1.222361668994789,-0.9071112961192617,-1.1961754353738445,0.08898984730930784,-2.2217155519237135,-1.174700620259194,-1.5013987377161742,-0.45590895559727274,-0.3687161349961356,0.6132552683189044,1.0153341557733035,-0.014486532676108098,0.33430851322204264,0.9401159668809776,-0.5115425814787232,0.6524487344638707,0.5564176312171268,-0.6602902769324841,1.1804658818401472,0.9859045838772761,1.1178807841153455,0.18128430961843944,-0.4317337200333133,-0.4612114616444764,-0.19032383523216703,1.1767555932521898,-0.05935196916561103,-0.30950882409899105,0.1508372290008458,0.7886484112957685,0.1936844630686351,0.2162564454329413,-1.2353868246236241,0.012256251084196909,-1.4035783146759642,0.6341685608844528,0.48074361701571383,0.6053205288510153,-0.5416356597653911,0.7240901340718653,-0.39539148017629583,0.7636980489580625,1.2436507218501254,0.1551615163569534,0.4715920841492185,0.4911768977631625,0.7795374347898765,0.0525296167368933,0.359400092002128,0.29284103723966554,0.3961412129299155,0.6437564834480133,1.1469515771981031,0.9409288030355157,-0.6510890769753404,-0.012683913210631956,-0.3829874504172017,1.113714509270249,1.4540928771474946,-0.5621479064209389,0.6708941687856704,1.2816564735281684,0.1450223010008791,0.5246479919750744,0.9910278300328718,0.9394893061600741,0.43523245047465076,0.03993272933477697,0.4605450273109709,-0.4031030158844153,1.279543440915391,1.054945860022555,-0.611650578192716,-0.4543664861903928,1.0771981127910175,1.3062970572483763,0.4245663490515419,0.11670382687945881,-0.13521269924634916,0.5051407684371589,0.21083132308454006,1.21906961165499,-0.40972359873885533,-0.051502595152091615,0.1915645891207726,-0.009331385449658688,0.091747434301039,-0.5063848920060856,1.3281184964683121,0.4413086808173605,0.7804763708922418,0.9038706163253788,0.3998585407490295,0.11402738729724053,1.1224561314961035,0.9557821381435788,0.6718764183662073,-0.21041744288958625,-0.5002907063108817,0.13252076289827858,-0.2985120399974787,-0.2360157000661936,-0.5212173456993572,0.648616417430885,-0.24426483806722138,-0.11050134629871633,0.341032964350039,0.9248467641689229,0.9906416229369077,0.2988728396207277,1.3022660181756194,1.1983223519888135,0.9452000791160797,0.1455178153508786,0.26288319672346894,-0.007331949616699827,-0.30865723783256094,1.0235465927032426,-0.5851490521377902,1.0647254614999524,0.8688091433239424,0.6967348176690328,0.4687099149872231,1.33403277674851,-0.3240350598928567,-0.5309118947631053,-0.515258270113595,0.867021736959336,-0.32534926227844024,0.1637605091525634,0.03929821879915117,0.6357994390652453,0.08399181211403763],[0.18135353173676416,0.4092591579909513,0.3793890142060619,0.7201960625212217,0.9457603383628977,0.6758884093252592,0.3533503882943057,-0.6485073187375724,0.3810165330908149,0.23912423187359677,0.3392937657720559,-0.02313178078950687,-0.9156718134055888,-0.5999264297577016,0.10048867895889632,0.3023828221061534,0.23062239123234274,-0.12203277848378717,0.9716501902335734,-0.5702003146932367,-0.006693700641000191,0.5111399377017539,0.32216207106327227,0.6892182898391285,-0.11484945330435985,0.08351358228474721,-0.4680422124640586,-0.23086747743689917,0.7400575633706107,-0.8868991826623956,-0.2825326342326932,0.7235670293885453,-0.8946914408394508,-0.4340488899534644,0.7750484807146236,-0.9058562955780435,0.9252072244412562,0.14843520507487082,0.7019280702144901,0.6056343105655484,0.5708793111579478,-0.9172707401412613,-0.3902207025547112,-0.32322054904603076,-0.4927019071779746,0.08476503885300955,0.3635455654122765,0.3337797776639659,0.18740547751921577,0.640932382703767,-0.6416416406637195,-0.9777944379540744,-0.8753635028390129,0.619213516239801,0.5898133363809298,0.28363269958961573,0.5188549641534502,-0.24755839568868587,-0.12194985151842053,0.296613406043664,0.29709603197990864,0.5957573453386569,-0.12638295386633805,-0.12277108222512866,-0.020666421038888636,-0.8126578532607215,0.3031738665101907,-0.3072946603666898,0.39080187751158735,0.830914040699907,-0.1943036055678766,0.1623425375190422,0.9163827163235811,-0.8292993141565644,-0.33496091603125006,0.803019465093378,0.7284449655483561,-0.9567492298076113,-0.2380994023091711,0.6227551776624276,0.21921117557791536,-0.5314288505441577,-0.851677154628408,0.572129232731334,-0.2717200344060337,0.5814792929339431,-0.20802231461285134,-0.9613883151009165,0.5833175485507816,-0.692973257433969,0.2396078959050565,-0.10443586066605896,0.45323478460685507,-0.8531113547916666,0.21922649334130362,-0.2810854415352426,-0.9335885478939555,-0.4280295808010304,-0.47063452175092907,0.4401279438605882,-0.5440884480667473,0.2056382443256327,0.9574014232134336,-0.0750621008459775,0.0667248338643907,0.23296719715599748,-0.5775460939969157,-0.24782527857054032,0.2996382816864964,0.28660984971797715,0.05526741408997773,0.8069989670660854,0.3579156559306467,0.4372400559323532,0.5145068196362198,-0.7759116466101983,-0.3622789540694141,-0.14361648327329204,-0.5305050583237367,-0.3313077944557336,0.3092663398721426,-0.7821930207691008,-0.10520707892302818,-0.007399223029851221,0.23753853898667818,-0.02622643621701426,0.5856915701811031,0.8905634578083956,-0.06687381168006465,-0.7344484132160229,0.132552564555303,0.3379856591079455,-0.16946154260257973,-0.5851309428414413,0.4862575487906813,-0.6769941169008573,0.8825152587233043,0.7046497761341978,0.2019975081527068,0.650466998057134,-0.8337023963718796,-0.5416152803415074,0.4688561125907748,0.4676007241619156,0.033669923829794675,0.31674689053078764,0.1033334956792458,0.5367262389491918,-0.8411125216072238,0.03900344062724296,0.8394498695408085,0.28055008636306644,0.7937388259253934,0.16778982582286567,-0.5530460253022865,-0.8555930411592686,-0.4875396033749841,-0.5423534537137146,0.4754572709341765,-0.09092169512691105,0.7643489865839375,0.0796891260612023,0.7521319258480579,0.2662797584071015,-0.29961859172741306,0.34090636348783443,0.16371560527283993,-0.8296096068634009,0.8723426213167943,0.8674323556173544,0.6972004664002833,0.2786283868646532,-0.3296732255579346,-0.9600406793375489,-0.7736177049305759,-0.8850523782378761,-0.36113458100464496,-0.16240258635113153,-0.869858638659427,-0.4686746532749468,0.19688805705626275,0.19157734805175408,-0.5449133289896487,0.48759662450338515,0.6945034328809987,0.45058016242723165,0.049614332581172454,0.2138325327532911,-0.7728581513534335,0.6092128334562248,0.8453774281448097,-0.5966040351006706,0.17927554144997518,0.60798095600289,-0.6700504754905914,0.276407896907693,-0.9014659549801703,-0.8154952002969315,0.11372109915132336,0.030010514858528556,-0.8647512313121032,0.4931993895435213,0.4454820968341687,-0.5052178583391091,0.05142866006545374,0.055883077800283905,-0.415856218053729,0.6763154057366626,0.5942293905075275,-0.5399574608904607,-0.02307778311198512,0.243842685040334,-0.11239805865044282,0.6786113261260468,0.3674598777438449,0.02130297115670228,-0.5842519308322064,-0.14366724444677437,-0.8789122601043433,0.03848210907896554,0.16422831985503633,-0.9817850129542524,0.3832161686491774,0.8443172998104507,-0.46007603000177794,0.24264613394961723,-0.04067877852395249,-0.6036670133674343,-0.21207472285858467,0.5471953064760304,0.2198506717397271,-0.9268788300805756,-0.2010168490029956,0.9874070268910372,-0.19920266485318733,-0.8394806790996735,-0.5498428306857013,0.2790652465172163,0.3641990778927157,0.4826015639706091,-0.0859373999291586,-0.35629158174513725,-0.7111474592735639,-0.2284518501597713,0.7177846471400208,-0.514082454781268,-0.22813004866284545,-0.16548445738301862,0.7929402447437583,0.0628992431595529,0.5636410265048067,-0.3950946154443739,0.1943391001358535,-0.6857713245903249,0.3002180694460676,-0.2102383009794572,-0.22729746723343758,-0.3051523209519151,0.22954407202383062,-0.07371531157614618,-0.363521564340032,0.01142048220107231,0.0353885895892854,-0.5578168842738577,-0.040602191189097275,0.02991263382402207,0.4018607446818324,0.5624710610250729,-0.589653164591981,0.9368591684561194,0.9870599323477457,0.7516414159035704,-0.7353027182576445,-0.3949304536816591,-0.4389362458716309,0.8176906274699555,-0.8467199973427253,-0.9425443883596232,-0.8249496570279096,-0.2811149043383594,-0.7119901692405283,-0.46508876573905306,-0.5072037685507197,0.728574997983629,0.03085980136425972,0.12046524357994617,-0.39083229026719285,-0.383633282110914,0.6800693034002403,0.011395123426105888,-0.9279939786949631,0.23739602859570455,-0.5080653830435989,-0.7820562213319846,-0.8114059502121318,0.11055208944122079,0.11939905978640841,0.7167649608988617,0.14198910871530876,0.33505150020204594,-0.12317074291388447,-0.08788331359493565,-0.9954865303279645,0.578112873884775,0.5358954938833886,0.5964771059898517,-0.756610661769856,0.7430884262859859,0.7671634305330323,-0.37393803853383456,0.054488229758207815,0.41993838498745045,0.6807773703219437,0.9143207495872914,-0.5475225364482962,-0.7768726570808865,-0.5205085041521301,-0.4920451234758435,0.9070804776216438,-0.24625358100352582,0.7515247080151882,0.08942387625325383,-0.8948116248750061,0.07173834404685071,0.5609784966572571,-0.5532371762040834,0.29225821893786863,0.24693118884791046,-0.865820982116163,-0.7888005943948067,0.648321804354448,-0.11002188300810371,-0.29827675555103267,-0.5490182631707478,0.1302166010859378,0.4135626265841514,-0.10004144008787404,-0.3315072936192767,-0.6642683896115753,-0.8791466333092313,-0.12954304095196825,-0.9568140224141742,-0.9866793174677095,0.24295608565176358,-0.7458377988879896,0.9104698852290815,0.1335899172290771,0.5703573597157321,0.18595294606672552,0.9492887214568052,0.6621509172389258,0.4286599297928638,-0.5133605649443292,0.7002596861727215,-0.515255779891593,0.34780810965434555,0.29518711467183734,-0.29134871194068024,0.3581457015552733,0.071488271256191,-0.3648112422987576,0.8676349834017756,-0.7651910077414206,-0.6704758904000121,-0.35554805296583747,0.3698796008851212,0.7804664372147824,-0.9371961769177352,0.3816994847672144,-0.06085353764274474,0.48075553841512636,-0.22144829802530014,-0.36583662522762006,-0.89382748390307,-0.5640091586861181,0.16086269661144725,-0.5199775188005187,0.6932220516799239,-0.39784197150370043,0.10827908600263297,0.902777868920536,-0.21632652063226307,6.834832380410728E-4,-0.09934154067238861,0.20870309938797377,-0.9924669852315796,-0.7578280209709686,-0.5611228905259152,0.7397729322260725,-0.7050091075854631,0.6855752842962929,0.21782260917957916,-0.012860068362852464,0.8950926105820504,-0.6071025744033147,-0.11687773099089446,-0.12420245022610067,0.7583349634440244,-0.8985261059748383,-0.8366535824787579,0.9191861164693982,-0.6405433092365858,0.5576762735425969,-0.6558127378038382,0.7130993880498225,0.3884765204701974,-0.3461542708233002,-0.5580782935624422,0.22825885174747446,0.7986246085340342,-0.978521056005829,-0.3053878715332075,-0.7725996038288042,0.15771619518807273,-0.026889184212142404,0.17820300859503213,-0.6438547610341875,-0.43749539427836226,-0.8732987341184008,-0.009372968149814394,-0.5570804985779387,0.8931934696684003,-0.7044287723829373,-0.3978577197627197,0.7195036462137467,-0.5118150998285182,-0.24912212199287462,0.8236705778584079,-0.02154926633616256,-0.8163687452810362,0.5012428098237981,-0.8319554950768178,-0.07664032525904228,-0.020697709285087382,0.7840496100779321,0.31069090087142737,0.3928642645514002,-0.41438836496489895,-0.39463385159457864,-0.25584873794407964,-0.5714189938462557,0.4942150169930542,-0.14866288181140536,0.8668730589737061,-0.1557599695651539,0.4783140909380158,-0.6514535682927328,-0.7199466474775016,0.33116422397380196,-0.14324742359844253,-0.030862718570045366,0.21843702842354487,0.81680645984338,0.14649173184280173,-0.1771045069067771,-0.22251783455201035,-0.5329163812978317,-0.5284615176413505,-0.45613468449942207,0.8867235094414616,-0.5578420760039493,0.3934847228735991,-0.31118118695088065,-0.15211612838715555,-0.636171970242984,-0.26759013530656983,0.31314487072909547,0.5662563876768066,0.18457436025399296,-0.6891254901244661,-0.02801750314115542,-0.2762406643664617,-0.7298773712603889,-0.311620519946803,-0.4097713992003881,0.5412930787199064,-0.6960823185215889,-0.6113354202688241,0.9066720263223464,-0.0350211010653867,-0.20460066595118764,0.3169360109852984,-0.4877200064395602,-0.2993516077530954,0.017274242280346953,-0.2622595013406409,0.9240552691916157,-0.21036815221910046,0.4018018358047977,0.44071621038467573,0.5927094331130166,0.21293193935645044,0.6875707773586502,-0.46451789276831196,-0.7946494381800184,-0.7435233253216251,-0.7006987566621792,0.6701989770956871,-0.6869660627137102,-0.551389054595499,-0.02586894740387051,0.45424754416978086,-0.1393653467374749,0.16178100070378737,-0.09894706155770402,-0.6714958726944266,-0.004687038786470951,-0.8228583079771359,-0.7417793683964665,0.20621013326970516,0.20806672311244193,0.9634301931375124,0.4872787581751395,0.8265475201411656,-0.24366002729991193,-0.32736594370402333,-0.6853702489460292,-0.02931064730375751,0.1973550168997705,-0.44078319201248406,0.19386747992113798,-0.586425580425284,-0.23439301661874207,0.7460171379977718,0.5374662357199758,0.8388415118070719,0.4529914849037184,0.23265244768525692,0.9709643894589238,-0.24153274855505974,0.5790178566500797,0.29702551646145914,0.6435716009595972,-0.995007793421688,0.9559309461177357,-0.430114798785948,-0.39051249790864045,0.2837771036609673,-0.2053538874327175,-0.55275778553524,0.21431938259757666,-0.11928061636289099,0.878468222244084,0.7119890318910662,0.5343741959167614,-0.25164517021089344,0.8185482136177958,-0.15593800866751803,0.9857829928702571,-0.15037503785730327,0.5742919572670686,-0.2846542342351222,0.42454781865824553,-0.037041511020238796,-0.04165781238665401,-0.819360882331121,0.24362817401767112,0.8362342754026262,-0.7709547870725211,0.37442825422511034,0.3500177664875724,0.1330482764670767,-0.37371451851180676,-0.49653595386833393,-0.7996919373870637,-0.6199937219687087,0.17397825031073907,0.29787048905482594,-0.48721814968481714,0.7391730279988418,-0.09043882223012727,-0.5874363303758261,-0.2121398750715758,0.4549434938287225,0.4016758156768166,-0.4005954186930736,-0.7283973417168651,-0.5676736124190256,-0.7415926111505443,-0.32419846077652187,0.678484576125029,0.6661904584016559,-0.7519427051702736,-0.01840337725859742,0.5429269781111791,-0.14080904764353594,-0.4500482637673923,0.36465975359955793,-0.027628891233772806,0.06340174756507623,-0.2340986888605308,0.5389383694518556,0.21364562727514927,0.8707528420900241,-0.7185100167413607,0.05485924692629257,0.39950412453272227,0.2528478462971699,0.821850268902528,-0.8523442935421104,0.7494781067629666,0.09252519747017766,-0.8199013413141754,0.19795117114717253,-0.54893508386746,-0.9908168033391762,0.3905049271569943,0.6973225068287209,-0.43830344585891184,0.2521807941755466,0.9464630152496556,0.19446361396993167,-0.7122718321839204,0.06039963256051947,-0.9434769029004719,0.015833385651429225,-0.7034672692828444,-0.7803831407889658,0.3908379394796,-0.7578850050808715,-0.18062474244199467,-0.7338146522006725,-0.7429536494577306,-0.18247899210713853,0.7005429017968845,-0.7463833288137365,0.7804456403421106,-0.41340867206169085,0.8758289473035253,0.8889208804232346,0.2598228750450538,0.4843839974686447,0.16650565853383212,-0.6572921271227444,0.5843590703383006,0.17272556722595253,-0.20042585463168908,0.13298540104783058,-0.6202387063304942,0.9912849646099638,0.5887069586984607,-0.9064690888139907,0.3842116192964425,0.27893345560562033,-0.6610881664052474,0.6219279707410038,0.41419202308418723,0.7906270466722776,0.6787033376004625,-0.8527830407947355,0.26224629880489214,-0.7355189092469382,-0.6977527213752776,0.10290145860355132,0.8934924947741174,-0.9710556115140448,0.3830756727374639,-0.45667218525417674,-0.6313832816559758,0.932150286042575,-0.23021644141297035,-0.02687454480110357,0.0585051543204192,-0.14767090529809712,0.5130347474726058,-0.016997613744807395,-0.049077285293348566,-0.3957775738755708,0.27688104155436205,0.8568355612484795,0.09859649528268444,-0.8763397500280378,-0.8055867783025151,0.3991821081840688,0.5732538230823757,-0.5280007981705961,-0.13602327755251786,0.9591805348730922,-0.2930712623384181,0.4424727038133199,0.36162746948680763,0.8732548203200382,-0.1484799140651925,-0.6783138217597695,-0.6292667700781844,0.35635022016773366,-0.5991448723254675,0.7053846907495795,-0.17172841059828553,0.24262623038061729,0.38795854907748617,-0.8344879542813178,-0.15296556695499952,0.9310176373259837,0.6449807016919078,0.07040117809296957,-0.8816577724697514,-0.6092976644470851,-0.8116743604774455,-0.14794753283026585,-0.5475343662370081,0.12962408638688971,-0.7331951885204762,-0.3688095960392259,-0.31661993331138727,-0.32739014448625425,-0.6521010724304396,-0.7297224065918295,-0.22408050919107553,-0.7178575510642513,0.20500724490496447,0.6387656410759581,0.6402774217111765,-0.5971736374853069,0.22361484906259313,-0.837184671153185,0.9005359695320184,-0.3725411258683056,-0.9397155946056174,-0.43149526850825676,-0.34654243307759564,-0.1432659596827106,-0.12738950769550078,-0.848148535007943,-0.8675494151049126,-0.2286362422077353,0.47830203236320595,-0.13706529379546073,-0.9034425701407721,0.7282624763385633,0.00602506761715161,-0.9656581053988323,-0.2382973902959988,0.761886667323649,-0.13081890101879076,-0.32289927432686594,0.13786004726930953,-0.5012732422729156,0.22451298723680502,0.9258369774317194,-0.25348770221547623,-0.5186042732976329,-0.5308938334184413,-0.5643850563497156,-0.13296657653499655,-0.3497813649263158,0.78403397679057,-0.6849769947608946,-0.3038497083586192,-0.45362133607198757,0.25206153050477553,-0.4718915187617194,-0.8948838468430509,-0.824374963756484,-0.3450556719815398,-0.3965165625714388,-0.9609263146958634,-0.5870287366604386,-0.29975812406075736,0.9612713733896808,-0.9727262979528887,-0.6710828262186423,0.1311223678166578,0.20092465428563155,0.7595419713492298,-0.11641677331752975,-0.058684587530941024,0.28915169659877926,-0.7670814245306088,0.06143177553130488,-0.25309835554656457,-0.2549434773886058,0.5837313564036578,-0.2911803643212155,-0.7406337803572115,0.6405559408806222,0.39423238078843376,-0.91136023275257,-0.24070704816439173,-0.48304252334518405,-7.700763865520656E-4,0.48069126686197877,0.48794185464889056,-0.8351378697465407],[-0.861289138712111,0.05510066639920248,0.9752984027397774,-0.35617096230405954,1.0120748702461162,0.5339179588110471,0.31451007048482904,-0.26225118453712193,-0.831755119080435,-0.3872640378098068,0.052239058405611286,0.02964046144977726,0.8900179569791455,-0.08816659713665606,-0.12572924246218534,0.11746344220224944,-0.4276028275999816,0.1825383034656215,-0.6464887282606172,-0.09140833386957635,0.12984105017780118,-0.5205999739280501,-0.03422179069165117,-0.3033993072938005,-0.9643914444179359,0.9119799447836835,-0.8153619329994367,-0.341240433137488,0.5074999729516732,0.7582494202290498,-0.03653129405025431,-0.26328757191902685,-0.10403482042794948,0.5981895928227499,0.49040107906130376,-0.2335223991761813,-0.43536203537373547,0.8059427146455054,0.738555462113623,-0.8053925914148319,-0.0028133040387351184,0.34547547569822623,0.1230614601185361,-0.11848035803705807,-0.3485894286358181,-0.04763461585780519,0.10180969483252701,-0.4210098219947221,-0.5899731764937423,0.7509123597949646,-0.3641587517738795,-0.31598284228782125,0.552188211184263,-0.8354244598400785,-0.5708031452917911,-0.04421283174231869,-0.08198408406311493,-0.40947828035700684,0.2885473444120863,-0.8803991779364158,0.7903260388195438,0.2861256181392079,-0.4928089147903074,-0.42872182623446187,0.8746993983001236,-1.003798519473522,0.9080238934870634,-0.6412173129636349,-0.1806676220681948,0.6423497261140898,-1.084496945780498,-0.37938218371615,-0.3987366680588251,0.6998612517424834,0.38041871412417205,-0.3899945640033447,0.441790582810945,-0.2163410968291787,-0.47807949600231436,-0.2599854798302131,-0.8709187980416745,0.8816987347866327,-0.6815068724304213,-0.6453866064944603,0.3498146380304229,0.20218286994583035,0.47947499624637047,-0.33052823330280523,0.05018952769646492,-0.8550811708736188,-0.3985532736096523,0.8296991369909836,0.4089445847420188,0.865257931405691,-0.8059858000185808,-0.8980243695833645,-0.6743462528788468,-0.26386457576323213,0.20540040656601238,-0.7711612383380622,0.5238007265242068,0.45822773205236983,-1.1555124187398682,0.36536482968282136,-0.29561062803446914,-1.0003975600509167,-0.7428298082352982,0.08278732078011276,0.0551121638661014,0.5464608664415337,0.29047500351272476,-0.5364466612821382,-0.10416731159160221,0.3204426919929435,0.508935494149166,-0.568931725812183,0.6462826492304781,-0.38545409822863524,0.8143281221953915,-0.630736197770193,-0.6711987881524941,-0.11213239366948832,-0.5001437699622566,-0.26911565707557855,0.49779582876191086,0.9022802331065207,-0.5946480828106886,0.7076063438966173,0.08261742318773957,-0.994390669818782,-0.557612409608182,-0.3455215444335272,-0.8273845631458471,-0.12006699968351629,-0.7339248213354791,0.2080540915243759,0.819683079337695,0.4958641522051969,0.9801207475820433,0.7421038434076508,-0.3439081004120944,-0.902168300822162,0.8414731421952171,-0.8789532252301637,-0.9063266906446356,0.6010866133246711,0.7623311811947728,-0.24335161645298983,0.4261091672735825,1.3799593473260536,-0.5010748700595143,-0.41882425999486333,0.3855568970525085,0.5613873532759143,0.11952192422290413,0.915834524783822,-0.8909544087697283,0.452034526544444,0.3826143950035413,-0.10777054003348062,-0.4933947539612801,0.4701327423306224,0.0028261357846585773,-0.7212831937683564,0.040323678983600696,0.14556184235272493,-0.9897432116534732,0.04322478304646018,-0.3035456454288209,-0.18085669912401756,0.10202461995190326,-0.010432774519327217,-0.06175737080636897,0.24146477625308763,0.27163890671409385,1.281061209029132,0.42802267953238204,0.4973783607800905,0.8456913713908418,-0.3794968378299828,0.2374182804425741,0.13985364022225216,0.5046458305936031,0.4857255886781218,0.5358449245996564,0.48585491757983107,-0.38030449382525805,1.0024807044884174,-0.7775357707494449,-0.5966830757969376,0.25614815894191195,0.6269277632329616,-1.0508642668646664,0.2349758606804779,0.7820757916931013,0.9180747898284871,-0.13544311392059835,-0.23729687947208666,0.4954326345397345,-0.16986726631738858,0.5663093786798014,0.6201323640726093,0.8662548318592914,0.4507683297919194,-0.6401054081521915,-0.28430464092379876,-0.9347050283597155,-0.6417190699435241,0.03856338144868113,0.6703425102432969,-0.6532077780311679,-1.0449191486672949,-0.719026307256531,-0.03913171118328852,0.13183141930949127,-0.6659009098591441,0.3351481309611358,0.2777639821213991,0.35709686781669847,-0.569637554209437,-0.8147368402149536,0.041565055380298505,0.821651280789136,-0.29889039283006885,-0.5689182694631735,-0.7208231083902849,-0.49998745891690516,-0.16969482281958248,-0.3852839265128506,0.8437225641949625,-0.8668091161394997,-0.6379587684135268,0.26031201118478253,-0.7342966865135988,0.3635083384860082,0.012604944152609486,-1.1983722655502813,-0.7545405645144883,-0.1929786588500306,-1.6337378030258547,0.07709073699256833,0.6257612107287616,-0.433374569698246,-0.15720486368320727,1.2401031612340552,0.715596943922638,1.0385944595906504,-0.0760145080773283,-0.6902144754053976,0.5744217551592167,-0.06095677418785173,-0.5930039165841496,0.12727546159978395,-0.7120882698401224,0.36875143888497763,0.4888776796870086,-0.78024714589007,-0.8362537644637791,-0.13533259672404427,-0.11206528074905509,-0.8088028601956896,-0.4535488701358547,-1.110536805204154,-0.2981104018380937,-0.7776621602559016,-1.3334785055005096,-1.443850606613455,-1.3595679239761427,-0.39053780087468315,-0.16162166763988808,0.8020845587886748,1.1905273942193646,1.1247771282678753,0.11009939110071236,0.3997916759342523,-0.3328060613728216,0.08455383815030877,-0.6465846042239166,-0.3575569319942997,0.7916503819434152,-0.778735930480769,0.6239897685388912,0.14876149165294883,0.6561545986116304,-0.7438174895685568,-0.4740485652209582,-0.7805317744573511,-1.0532930893415338,-1.0662435529217618,0.1576833352507561,-0.13991764104045873,-1.061935221135694,-1.200088595521312,-0.5615989393284225,-0.8053759647935008,-0.20533810362515287,-1.0446710915708461,0.907642351539557,0.6918134031770661,0.5722182702613435,1.240570619894882,0.9402759316048553,1.0522541962974759,0.18315291486239044,0.6094798438435377,0.48353489163769037,-0.6796748157829785,0.7506008591538684,0.7197559236374924,-0.40425977858979006,0.7977480289926207,-0.7781274533053646,-0.2754362407598286,-0.18858973586775984,0.8881406262214913,0.37436179555930205,0.06696102015384213,-0.5639514321119781,-0.8214517769336366,-0.09423918321452719,-1.5941147244736769,-2.144350628085543,-0.5807198496427862,-1.3645223828223303,1.0189105449800506,1.152337642591658,1.0711090647920383,0.44694013178237346,1.827967565463338,0.5364651821202668,-0.48902295260198053,-0.5704141583165306,0.3408644184395587,-0.044847339415598646,-0.45019822868251785,-0.7066718183609909,-0.24463228877471513,0.22139106782968332,0.22496703704456342,0.674882535939228,0.14240615304539886,-0.9503667623421318,-0.7721671269977081,-0.6035589985177293,0.6135147745138259,-0.6019709360636913,-0.5843611173249303,0.17567823692316958,-1.0570404557655757,-1.8435241734940624,-1.1070068967574858,-0.09300475179771442,1.8617296413402837,2.341513082600987,2.4060956316076414,0.9370073362879239,-0.392050808331435,-0.2839801371083913,-0.22068028878184992,0.39252978422039825,-0.4569315589256573,0.7593096407544585,0.4294278946045471,-0.70813094686813,-0.4471003352261705,0.5325331926878895,-0.47051222915798524,-0.9067722551172651,0.7424317567754433,0.5433622783324005,0.9514389576868328,1.2349857162998505,0.5894611010571696,0.5176346783452125,-0.0330206398784922,0.2545423619966631,-0.5783631693477446,-0.38723026476076955,-0.886920055889135,-0.5284457069035551,1.9363616687872947,2.073724578302822,1.0699885681830206,0.28028112088733903,-0.3202909144826363,-1.069583307956897,0.027423750329370954,-0.49783438849344724,0.5678853439914046,-0.4486324171701384,-0.013698376733373893,-0.10034668293722628,0.15805980487755003,0.14810845568751307,-0.9006773992498076,0.45668416770583303,-0.7937145735193554,0.6211415576690483,-0.0980683667975301,1.7150495526695932,0.2369151336308223,1.4340042647761473,1.4478693809473284,1.2611040354494236,1.165685241768507,0.344188306007456,1.249828688764318,0.7020066882527439,1.900978189057745,0.9662161849122398,1.7220111625889427,1.0630181575332824,-0.5920080632127527,-0.9701055364084508,-1.0401428500874772,-0.7173303273204723,0.5442069832349693,-0.4834984372235906,0.16030975498153333,-0.5197294669763606,-0.6238053206826903,-0.7679224089306919,0.4024920436153123,0.7409900205600982,0.9788283763256989,-0.20632907292763325,1.620982709210181,0.6238207290401575,0.8803252890897827,1.9996312061528878,1.5809715783251856,2.057921432890131,3.0191602675949487,1.926612857159041,1.8176815530121269,1.2981579269738421,2.9427771660517,2.828619003775051,0.9413102402827398,0.0034339765653686807,-0.2471252718480523,-1.4315381154544766,0.29017717672740184,0.06582692100832768,-0.9273639215309437,0.4259626283443709,0.7420251856435032,0.49867673398249035,-0.979343140706403,0.5917386879496321,-0.4890761143303144,0.3099941436415719,0.41449478758271924,1.4260311048822392,0.756504732710733,0.7180589888998045,2.2838866215862383,1.0774583723175266,2.012707868243182,2.7479949021510404,2.377932986939051,2.4449833880907406,0.9917332651951397,1.2962061963229925,2.1893764176998247,2.8136829173638898,0.37324888315293514,0.13372665042179024,-0.7797990481422139,-0.10121053407389712,-0.836549973172824,0.43239332167266775,0.5860906791049616,-0.15747304185094269,0.9834735658406869,-0.4693622127529088,-0.3076779850042167,-0.5059587542495705,-0.2872574926700099,0.7212136351487485,0.25745767695705296,0.49437774787861993,0.9962003522352276,0.2173024429046629,1.157660230413428,0.1561746617727897,2.234379722826111,0.8248257131735306,2.091168618071833,1.5908585820871128,0.7840164943374727,2.928460029890182,1.9675372465104939,0.981031323442886,1.051098917820748,-0.38364628841338766,-1.2097670009500847,-1.4726575172160608,-0.6089106621083075,-0.3677940746874327,0.3807550695947147,-0.5269496640396968,0.25136688476057,0.13487545219513522,0.8539489899330337,-0.7346396821407688,0.3463034158104345,0.488698455484395,0.12606053126808517,0.9791624415500594,1.053133536613179,0.15872376849017472,1.1019919651266277,1.1965203334666148,1.2100738287906034,0.8678708249436892,0.7401573240381891,-0.3896134063489924,1.5683333571717977,0.6802301074830589,1.0199709049964136,0.29451285192686033,-0.35207307757516276,0.09791605628716613,-0.5975190072469023,0.6349835022199546,0.6657182118541394,1.0237888252351914,-0.17257330584575833,-0.10382639531978832,-0.5987378358452582,0.857573902526159,-0.04394266701565452,-0.5921955397428886,-0.6204646283298658,0.40242402255012344,0.24758925311625019,-0.5452352345669468,-0.2766025967619575,0.7609646939741245,-0.08183401612370729,-1.1715140654466893,0.25073091541401726,-1.0773439211796778,-0.6979718221482553,0.21524176539180875,0.6665231836579596,0.22675147057800452,0.36999030755632334,0.0896911264817864,0.3073961219214549,-0.331738849605823,-0.9684931970847397,0.8531014742313259,1.1061298010362095,-0.11055201059286453,0.03611481833844173,0.9014327812375974,-0.5693037442048107,-0.8878101870778432,0.7908401402993249,0.4239787588352317,-0.21586741437889825,-0.8151845140543266,0.7318035662208848,0.8304561958493983,0.7792062166199059,-0.661803098476075,0.05405007945727766,-1.4382723879836885,-1.0063128147364957,-0.9501955365416447,-0.7399559683015409,-2.260745599130948,-0.2810690714291379,-1.6058246641676548,-1.508482621136478,-1.1557730892811002,-1.1184755624259068,0.23103401859459957,-0.35152416965678424,-0.4197259510011721,0.12994116925508772,0.21847289597092934,0.8298099736493278,0.5743772216571288,0.3078814780609674,0.11183244252034985,-0.8909032545838202,-0.019847247520006474,-0.9007843349585646,-0.31715042269051447,0.9941888629490033,1.1198226196352907,-0.32601608019281436,0.36855606733205515,-0.41953697055120426,-1.1311801104117898,-1.7924486761107163,-1.2452894188882362,-2.0323189449085772,-1.4261234723004723,-1.048547783111694,-1.0526337111209532,-1.390287683023631,-0.2208038214786802,0.9800262393572062,-0.645785317974949,0.645447955663708,-0.49188129402768827,-0.13375265432013014,0.8050300606488514,-0.61171246165335,-0.10802697532926361,-0.6006047087646362,0.32394444456513316,0.842885721310071,0.42397047171920627,-0.9760072523703069,0.7676700165383097,1.0739816775872253,-0.2616168883366922,-0.7847838729110738,0.016974252115870357,-1.1667453554253442,-0.40254527606459434,-0.14983990020504975,-0.43837734939810313,-1.6680012486457652,-1.5028277980036113,-0.7141755379742291,-0.9827025941389941,-0.8181231091022494,-0.2996459550829902,-0.6243890044409384,-0.006747813493151972,-0.5327561459150361,0.8849772843978216,0.28309327523319094,-0.5726724026786782,-0.10224306786916902,0.297839472164428,0.06992315283188026,-0.7652775322498891,1.0038385124845457,-0.004383104124211076,-0.1356000140279471,0.592769451073596,-0.788363793593553,-0.2906271722934486,-0.4984325748006141,-0.6451357042084417,-1.4163888135327867,-0.3316483213901626,-0.3568694009335578,-0.4453911716106369,0.36487557734164483,-1.1475728444373305,-0.933353775698196,-0.5968711784550277,0.08300674056207617,0.9024348035500812,0.6573435999695555,-0.31449138708436164,-0.5193286834566156,0.9012944105024413,0.5120845893437598,0.2472440807455855,0.7338521487502866,-0.7823157811188141,-0.2636711452660384,-0.5409184745747738,-0.4940035454753599,-0.6920764637014901,-0.6751980975911225,-0.06683179365286915,0.7930052281392698,0.08865766989741995,-0.25283293893281233,-0.40509098778465447,-0.18846874759159313,0.7564053440169255,-0.14386727327680315,0.1603851174324831,0.1169792120642538,-1.0126186637626615,-0.45772246687893214,0.4001669684295982,-0.5371116089396893,0.18353192401133733,-0.4940315968514772,0.25746097960772607,0.02619414310751928,0.7608563050915182,-0.3130310760950591,1.0049912163644747,0.6191310622853575,-0.1889367129865963,-0.45095295450352235,-0.6825629941660848,-0.22819871376753775,0.8562001420562263,-0.2644078703324378,0.9267949449949735,0.6370580438605493,-0.7770163065570866,0.6936454713232842,-0.8985778517710707,0.8163124096702884,-0.9839557137774974,-0.4080998938391056,-0.8790991420453744,-0.5055949282440998,-0.5437100867006665,-0.6249527467692755,-0.5143275017607349,-0.33808152960303217,0.3411745047226075,-0.3306952021955271,-0.11034695925266041,-0.17711884073901113,0.4592393290488613,0.06092375979160694,-0.9515051074796345,0.7386800170670809,-0.43781287410167613,-0.9856409504487746,0.16055676473804364,-0.9711834008150263,0.46923037735137274,-0.6024586987781745,-0.6307051441865904,0.9365234054820861,-0.6917715763895264,0.6721420712943025,-0.15900145950941483,0.6742727709789218,-0.37684174354306155,-0.39087274595218463,0.36717832896793023,-0.05610940410542284,0.6199657762208226,-0.4779088697292142,0.6075379974957825,0.8411713760360492,-1.0327844500708618,0.048238974500480244,0.4035102394375973,0.9917793910951896,-0.8875382895754562,0.47313630246376914,-0.6482075130532843,-0.4886826201640204,0.4527410990438361,0.5868868404061754,0.7266766900380549,-0.30875695825139704,-0.3435458604551763,-0.678976614748729,-0.9386806176162045,0.6180819015249608,0.2940672240300515,0.9928045226325292,0.1971847175013445,-0.5571448278732534,0.0848633134323843,-0.8214116416623425,0.898895957875788,0.628719502722775,0.026477627069722353,-0.28483187253758757,-0.8281177852087229,0.13317495842853533,0.43599995112577034,-0.859781004020395,0.6423835756934412,0.7478977966206781,0.9566024405442914,0.51372584566774,0.5645833320498229,-0.7482321516004492,-0.985064927157293,-0.5297232537967854,0.7933467617482383],[-0.8905623159025773,0.7816863150959885,0.8923106983208571,-0.6689258297879566,-0.06672729755733635,0.6752050828019049,-0.027188814996152347,0.19219032893399302,0.5193437172987314,-0.023787201442080276,0.43678369649354465,-0.0694740640983387,-1.015291987930467,-0.44438874839742193,-0.742043416338087,0.8760671970990046,-0.14221486595638394,0.06568398499816282,-0.3893471462941157,0.8075411201850526,-0.9745391154137328,0.5771769908594739,0.17358627723047526,-1.0147255766934997,0.6382325664785673,0.9365085427422148,0.3601707264370556,0.2592793347933099,0.5739681805537677,-0.825935732653112,0.8545925312316103,-0.4021031204656206,0.6269868011728698,0.955329893441369,0.6606700286685134,0.5395341714024513,0.18982432748386857,-0.762471863702515,-0.2357589287980431,0.7968687319572761,-0.11380009875334272,-0.9371178108259557,0.47314133690363397,0.5090799005266166,0.30480068385943765,0.6982011114078768,0.47747440971250776,-0.4909918641503478,0.8481784046197124,0.2632584018543466,0.8370317391220213,-0.6431550378112612,0.5464251305062009,0.3907239386467821,0.1378090988655079,-0.12084493572417364,0.533701780093575,0.43796919037538873,0.35184359850314495,0.47230526168117226,-0.9687930943982026,0.43340775235971196,0.1562481615504271,-0.467831969737509,-0.43094909898588435,0.93390605852511,-0.18717072348808317,-0.9648726222291559,0.3838947359159551,0.7684030882921737,0.09252621307457881,-0.48955998228523007,-0.873826837600157,-0.09807671721620474,0.2607173276789878,-0.5862787105843721,0.038567918642158035,-0.8013596696363116,0.384546034006915,0.2969641112811512,-0.5391858998501917,-0.18244907973543717,0.2499778548897502,0.931686317620013,0.43351194519381575,0.24787634826709276,-0.4894141726116442,0.45943396054287966,-0.0189268635080685,-1.0189978613254633,0.3212539783379805,0.9017788695576523,-0.20433555191304856,-0.399829387793252,0.7871359297747129,-0.24599632750344747,-0.12100839042320805,-0.197522133816723,-0.002198250057588815,-1.0553572133265303,0.1647156763382012,0.24916054985488734,-0.9631537471109173,-0.12021865252059398,2.946596189712747E-4,0.45587298713159724,0.06247754404017423,0.3102425538936237,0.3846972161060411,0.26850054101909493,-0.38644674059276396,0.0316973528335422,0.04125915117601467,-0.5437144539953656,-0.22027348493355497,0.4057032572750833,-1.0137830874570897,0.5032961165643178,0.05798317486584595,0.6369471260281635,0.5387181743907538,-0.7985527992282877,0.09768037890237606,0.8034406832657092,-0.9770323982155352,0.5144190782350698,-0.6077240243997231,0.6074892364194178,-0.8205830034603876,0.7500650204815388,0.45886207450825106,0.6714922635017171,-0.18783317650928488,-0.675929417320864,-0.1712464123977419,0.2996166585710973,0.06601457306950176,-0.6415410098712164,0.0028884752690170484,-0.2545940206699583,0.9708823791775156,-0.24180879130651933,-0.6326747260337523,0.7747558420257669,-1.0048912357269664,0.7208300242611124,0.5260758840068025,0.48749964879922403,0.24109760049781967,0.882647835121221,-0.4603593373052929,-0.785669615874361,0.4139229195627553,0.13380907652056395,0.5438856070275879,-0.0641705707501516,-0.08113883243100327,-0.5392654043179497,-0.22301890518852224,0.028404609315538995,0.7149788598324046,0.6882908411012066,0.4121689650167617,0.1876931527514711,-0.49210199122308396,-0.3634461765367999,-0.6273153151062286,-0.010018456054613722,-0.5846834594268995,-0.4594504354595814,-0.29956158761668866,0.7558825858190223,-0.5544237448615799,-0.07021195122137483,-0.5013969121957891,0.3889341779275524,0.9278033545343148,-0.18041676876005125,-0.5825345541347762,-0.7852337931005033,-0.53520943344093,0.08603503795659598,0.6006419653554342,0.2605011654598555,-0.485610195886899,-0.8993268378648768,-0.5877541904377354,0.4905449935683735,-0.16130632310126636,-0.7122633816657822,-0.947867947087887,0.07257550199034878,-0.5148711632124808,-0.025046574974593856,-0.46730704253554306,0.48779462707654403,-0.8761593955978377,-0.8560177405226259,0.13760855748665035,0.33669531073156367,0.38507854039883604,0.4515508795535476,0.18805834155245293,0.7648236746167545,0.5310150284075128,-0.28667916431196583,-0.9456580711927327,-0.5983707504277151,0.9086595763327621,-0.5094624172810924,-0.03850580171428985,-0.09633340911608636,-0.6633720602928301,0.33231140864032666,0.7392382967526745,0.594792425434914,-0.4733019377106717,0.41332650221113115,-0.26372924550329957,-0.7472452695070084,-0.8351929737772316,-0.4735267965192256,0.2554340203407966,0.05653830807937203,-0.9176971158791328,-0.7329126089727004,-0.13717711225895982,0.5082715452736908,0.9221472010512719,0.6596107086654092,-0.18504883220603924,0.00937372895581074,-0.6239272982933379,0.6942577163428734,0.3679428694782933,-0.1939863815292536,-0.813131728473322,-0.949251393276548,-0.995827635530917,0.47861099188461587,-0.10560782989483929,0.4016265633858102,0.43215208334158023,0.05272555602373613,0.8042064919052896,0.40477328688570635,0.6048819261790591,-0.7007706859938496,-0.29804366137797855,-0.30322927503107266,0.013759302344934471,-0.08325705031758333,-0.7840743191773352,-0.3187807131621602,0.07682164888395894,