{"neuronsPerLayer":[784,70,35,10],"learningRate":0.02,"neuronBiases":[[0.6316953297355377,-0.2918394678840166,-0.395977626486755,-0.042609179189560864,0.6448924127979463,0.09155421129232544,0.6025267884231544,-0.4337842903196555,0.064586603881027,-0.250500272951776,0.39407284937325116,0.47146912210814085,-0.019041156181690777,0.3132352550496925,-0.009175114768420867,0.01864346141371065,0.2878988042829299,-0.28898546043317397,-0.2538455028881139,0.2963550311555948,-0.38847379197402193,-0.09740779435176561,0.18265893581785897,-0.1695800575229916,-0.35251884884432216,0.38267969077590325,-0.472449339222374,0.4220168270111504,0.4896369106919821,0.6257722392241871,0.0011578525183418842,-0.17364017194581732,-0.28156376027198016,-0.4728319269058353,-0.241427704963745,0.06947683963803386,0.6400983377865197,0.31492418292300217,0.4762782592514393,0.03936041056678119,0.12849152156852917,-0.23508650052443952,0.3048929994356654,-0.43607017827996686,-0.38048798358565106,0.046071364027902795,-0.12405440478208701,-0.2980842013747156,-0.05664185770753111,-0.2446595135382662,-0.34508145350710123,0.023949863805622806,0.6531338625277847,0.0717451682165352,-0.22542658517882236,-0.1501863317950879,0.5187645315048715,0.06644852559445757,0.1618776344939633,-0.466026007610405,-0.4967469876450078,0.4505668262939424,0.48864805502746667,-0.044797640797030414,0.2238523062375728,0.22493835583075505,0.6303221918113242,0.16724936119545364,-0.17622322578559635,-0.1840349216098131,0.5090661140769608,-0.4937847075389531,0.5406219999641122,-0.2609322638076322,0.6267241513842348,-0.27356801248699314,0.25570899151692505,0.42621693992786036,0.45991254755519106,0.15034067028237375,0.14411620527233093,0.5864241687073941,0.39385654830988015,-0.030975671695625318,-0.38179042285582454,0.3379992988140773,0.4133665128114332,-0.4812762157851867,0.6680272041844395,0.5588021871048179,-0.25135379212232967,-0.21516091533104648,-0.3500774274106936,0.6456386665098524,0.09042283031828247,0.5485894550356596,0.1604172374682813,-0.4436275443162734,-0.35681443592972606,-0.3073228894741581,0.6552601791242563,-0.37175326803481046,-0.22288388750714744,0.42097202705638637,-0.26576153989252915,0.4233307497934694,-0.43140865027934905,-0.07659349882011929,0.1103305167113382,-0.053070771172585796,0.08593570573538745,0.3309404863869936,0.01734013524745548,0.6172134454384854,-0.11860279338964258,-0.1433694680062076,-0.21680371923857739,0.13425534469832967,0.1921180938743795,-0.39249368696726755,0.3066506949304665,0.10406779508007113,0.4321681802158017,-0.3218678066151769,-0.37684799224687604,-0.48182445058370504,0.4745052038169715,0.4004012162501078,0.4312221215887396,-0.4283358374686795,0.3760243709051381,0.6252823396975125,0.1737073790954623,0.422575115842289,0.1906552168902521,0.25091276536629314,-0.37117594490843997,0.5529377698210747,-0.45523885697141303,0.48759933228144603,-0.43603578833647083,0.1866508256760997,0.31589413891759477,0.5639649134970102,0.24077539223989297,0.15184719150798565,-0.33974639820099173,0.5296474536058204,0.23307417993967028,0.6452985718758402,0.37599513484699887,0.4986312743751665,0.32970034541001336,-0.23616218012720985,0.3688327483462094,-0.4965380540824145,0.04246553509779005,0.6126989836383678,0.003173281948902984,0.09426846264968758,0.4248972368596149,0.6830967407478892,-0.2236792006756005,-0.08231248681914727,0.3305254815133267,-0.3887110446129538,0.6450833643085048,-0.4505429550575498,-0.49999326388239773,0.5887876636250717,-0.1365867129077027,0.43061848849150997,0.1644263240446655,0.5883063577162655,-0.44349205758268984,-0.12906238234122053,-0.012332406546370134,0.4024523368597869,0.6610950423953412,0.1343278365105075,0.34378268135799983,-0.33790444754103777,-0.29657643801224365,-0.3902705037454599,-0.06415285988751385,0.10876692173956037,-0.23422177904798835,-0.0029275668494659346,0.210827029275222,0.4403610166486408,-0.49086786984038916,-0.49838040545983964,-0.08946593707311573,-0.3681600738918007,-0.32615071188091665,0.23116224803508256,0.62179164725747,-0.44744315046601907,-0.12785454266756252,-0.4707912447928013,-0.25051899884464246,-0.4407599627970678,0.5153127385878578,-0.14651915485746703,0.33418379390976793,-0.4614005236417654,0.1855101090218907,-0.37729663056199786,0.17168446421812456,0.4059406063879689,0.4662190106686921,0.20584492550191535,-0.23535782432130598,-0.06390893621871258,-0.21273983635722127,-0.08336046215663517,0.5472895734741385,0.6103687946358511,0.0195640949542788,0.10239003230998966,-0.02793818820988958,0.5082411126484332,-0.02831443400084721,0.3797273513085325,0.0326069747203398,-0.24525330529602946,0.5943482164527223,0.5711702228025759,0.6206749930303233,0.45467405590812404,-0.4088968729981343,-0.0649972146087262,-0.025070208875107247,0.6019120007634862,0.2624814029052479,0.2571590328857952,-0.22222410660676006,0.547309728356062,0.3778182796066032,0.2874746885046978,-0.2081623854117431,0.24080546096174815,0.4732229160482415,0.05383951203806503,-0.09922394166003362,-0.16649502589796555,0.01596445373819866,-0.42354552624240066,0.4296755393543177,0.5328131038882054,-0.4451572391341939,-0.16942965843587604,0.6682786416177957,0.44864305280083605,0.4929081533721448,-0.3302441394254432,-0.19410468366829708,-0.04884978485530361,0.673192026075113,0.4229160014665625,0.40985856968154855,-0.41964073746447794,-0.440093249469042,-0.38304782237909574,-0.26005355580712247,0.00547497452383594,-0.17312988110110483,0.3531282940591246,0.589236264265403,-0.47341064007193456,0.6317068558488903,-0.32112107815802926,-0.22259551865283428,-0.25608101072340317,0.15867603181731482,-0.15203332003245723,-0.3044675849274381,-0.11037088510060622,-0.045229442375757434,-0.1494310847315264,0.41202422498205804,0.12472235681120147,-0.43696853704525845,-0.1789550418404089,0.39729153147855933,-0.15160817794731202,0.17381698668142376,-0.10519266581528719,0.11040510385382707,-0.45033931994094145,-0.33093713479120057,0.5868919512861455,0.1139610946632974,0.35105163224499325,0.12636715163286583,-0.19650525196654206,-0.35604350639331195,0.5514517135533363,0.5790305050574209,0.5739133792877591,0.25951472750126436,-0.029739767363933967,-0.20502131174045773,-0.09599501332135346,-0.06714977916474385,-0.07267126734986623,0.04179140051524255,0.4034427524217816,0.11290612315875592,0.06312417551561211,-0.3531410048986946,0.12772569623818464,0.30664799149162913,-0.28903129373080755,0.44098410294602286,0.0020684756052290476,0.37004162222644277,0.3781304110199314,0.29054365825599127,0.6579690905416162,-0.41370898120745914,-0.12503776852634257,-0.3223774412290153,-0.48557492430529947,-0.2680410607046734,0.15120758331933004,0.27932759141699715,0.47444017727966514,0.29213952364303963,-0.043986966895763535,-0.07321318985626574,0.6836354127927715,0.5838992582521756,-0.3668892562650231,-0.2088630525018466,0.21145027882480105,-0.21725055468298637,-0.10494541418605902,0.14809767228399695,-0.33340786411066814,0.5199604743640787,-0.3096834692531467,0.21452875401866867,0.4470629747979913,0.42907416952146615,0.28447091964093196,-0.2703367551115106,-0.2487346934878258,-0.4319809382915842,-0.1783832703683203,-0.4294940200902003,0.04036036682705846,0.42877820925351406,0.11460972972955119,0.14518452942161153,-0.45677607680580323,0.4696078880423473,0.032597664023816364,-0.4001643614131153,0.6340167299869275,0.3653511194339354,0.011774842396358287,0.20390778618686722,0.08855874428844901,0.06943764342275571,0.31019260794159187,-0.15444283890853489,-0.2606324502851518,-0.2832916606725725,0.05988568429433094,-0.02688905231482308,0.3003942224046584,0.16924924937422436,0.13949512654758722,-0.039631042928481186,-0.478839089656787,-0.18203296190261803,-0.4020088265593841,-0.04718814372855917,-0.4438235079770684,0.5006848702124995,-0.39497940322979525,0.5685800665987539,-0.10082084642321565,0.08308422076922528,0.6858257414458622,0.382385615793431,0.23292539343150498,0.3718651526012313,0.31860350313066876,0.5123149904642221,0.08391819326969707,-0.20995526814400522,0.42959486100704103,-0.14122138041166,-0.35236210524301204,-0.1576403734842125,-0.08388219539373443,0.6116589506383707,0.5635118058023716,0.034286279809749076,-0.33982277526210725,-0.05399328560569383,-0.42996975743689153,-0.018761507281381595,0.5652084059681128,0.3684308549333941,0.2590885774566938,-0.4449503708278063,0.5559319775790255,-0.0443747496931266,0.5748066766433342,-0.33710710020679513,0.6262203946347986,-0.45672800460538077,0.6657491410139815,0.03934084218931,-0.29770255745323426,-0.02214208692618791,0.40064176232177706,-0.14468885988094327,0.1085145145743156,0.03573742365300203,0.2963507481846295,-0.39180654251683555,0.18036955430815527,0.5430727057663318,0.18306434576099606,0.25549857414983734,0.46435542206657876,0.19707788077362876,0.24528714089972925,0.28991787199564434,0.5766474327585303,-0.40670824739730416,-0.07156987699377465,-0.17327152902173,-0.03743890348871526,0.40539966292644114,-0.01054899052763314,0.3850256439240577,-0.4938669495491612,-0.2565770567249044,-0.30382907338769105,-0.10768845227218965,0.5841001209666381,0.6328898623199333,0.043566598327543615,0.5275159381598651,0.5409732575379262,-0.4880992567733452,0.45650738977708927,0.34057133316986254,0.6818249999676822,-0.1652054296399319,-0.41292015434391405,-0.2527879802948948,0.3368311270176467,0.10042364284692307,0.09081344051470364,0.19571343314952006,-0.45347142200307194,0.0898374735344657,0.2797936266321873,0.13783481094176242,0.6491743743223113,-0.3975241518056739,-0.4981805622156205,-0.2907245612313565,-0.4784888013450871,-0.4782335441938025,0.18343579947433242,0.6355012841181873,0.03166818061089727,-0.3796794657779138,0.5008416421489601,0.22684574266389124,0.007846177523097686,0.3317155575509715,0.4063471501323207,0.3123354470056412,0.5088600396950842,0.37015241510792896,0.23922568224494511,-0.41526173639127945,-0.3974691378018325,-0.22893012200004842,0.5884770511091966,0.6898786470275653,0.015344163593558169,0.25509701524896367,0.45119134306970465,0.2913106205805377,0.11171120117731415,0.5845209589766245,0.44387424312518997,0.476987640248292,0.4935927894840545,0.5857438322581578,-0.32473385038697455,0.047613570125419336,0.48116678214918485,-0.24700000450884918,-0.32213977567330654,0.4369072131086704,0.6426420571580338,-0.3720984466355849,0.5214953847630319,0.46205888159301634,0.18624425242937648,-0.13382336550197177,-0.3039272459049537,0.38820506121750253,0.209819755043975,0.05726227515385851,-0.4483840118084506,0.5137932584380376,-0.4765734798107033,0.15421046598169275,0.02256700086163277,0.6442567949105642,-0.18229729774815662,0.20066230690904308,-0.36061821260567806,0.4194658467294926,0.14572496078362818,0.10844320907469807,0.6441616532294356,0.09596778346876611,-0.18150890847318973,-0.2563725895059278,-0.22177237617979023,-0.14192315928357607,-0.11591717745277719,-0.27928129368620636,0.19821796190169105,0.24242027097112984,-0.4320127523596038,0.4838894401342644,0.40345979844268776,0.008594503073891202,0.1969762964074412,-0.12898178088116757,0.6210385578608586,-0.4258676405549292,0.011366385387317157,-0.18943766661399114,0.19616037288568033,-0.04497159527906813,0.4904017744885436,0.6930989154404394,0.3740741484090061,0.21361724758618195,-0.42707297264776656,0.08866480109541797,0.23599300973725912,-0.08635391439480261,0.6504362180296785,-0.3521773954327655,0.6651251421488429,-0.18207063458650485,0.042008120232177704,-0.17132296714805495,0.4700974321877054,0.03702093240529947,-0.1694417968614706,-0.2661375955974823,0.1817260094735148,-0.3521144661477944,-0.15273901626420855,0.020819257473897457,0.1652604101428834,0.6495983761978985,0.23591719949163004,0.16547490582091873,-0.24610029319400945,0.008648460162094085,0.41146288944633114,0.5137393945657414,-0.08944940565176551,0.4694683580324114,-0.2532612332675336,-0.25297465045831335,0.26346980128291164,0.16635983095604756,-0.020939480101367203,0.017297359522530642,0.6376045960546297,0.47103129957082346,-0.47694725017854833,0.2739528883907999,0.2171174900132914,-0.25448903360222547,0.008630096316300406,0.40913371399688914,0.2257522327880681,-0.2567550186470162,0.2329324710132743,-0.010135700245241797,-0.2996284112989296,0.11173809168709148,0.32244205869073916,-0.4752903211786217,0.5591676672022028,-0.0018597993656673806,0.4464318656052586,-0.1705573779284395,-0.27028170068804636,-0.2552700340955404,0.30531797177727593,0.11050671102139187,-0.19676505927902527,-0.31570766580515963,0.23740869324268543,-0.12314096454175522,-0.4799811952485501,-0.494064673345502,-0.2550333444389896,0.5200724383939932,0.16731447695848578,-0.2400635454513052,0.13542072722122933,-0.2306249227714322,0.484421831040317,0.40575770282552215,0.4059874194036682,0.23260098341459956,0.5210986364106478,0.2804136524546178,0.26988277641086367,0.27582284184794637,-0.31604099856308787,-0.42507509808700633,0.12972772922987363,-0.42626514560311546,-0.06825639627921848,-0.34536433122615146,0.048671987623888135,-0.020349609810310643,0.14401023922171186,0.04472087621576826,0.3521829992094836,-0.28172396666354627,0.08896510786841194,0.3252558193814553,0.21336888072007676,0.4962204914965689,-0.24517341238203338,-0.1592326272993052,0.23212572106534457,-0.24550617718637618,-0.3147144126107839,-0.27276665699989905,-0.18667844466909317,0.3540493238850778,-0.026701500714238158,0.5950429546153957,0.08165166716659578,-0.11028324941992118,0.5186201311021295,-0.32052121090663943,0.1407207092504965,-0.03032646604197753,0.24315650788792031,0.5808267370599041,-0.10866941382709422,-0.22310377168481182,-0.21561114884494792,0.46426812107021387,0.368872898434513,-0.3541675845267537,-0.4492079429965837,-0.2247455485809235,0.6421488681095608,0.44182939728720805,-0.27565693643135647,0.14911255291113246,-0.0641405448627343,0.4226532053027835,0.43388596215063235,0.4541743149769091,-0.40356826825075615,0.5907285981249459,0.09929295991173859,-0.3942275886245411,0.21576878917123354,-0.08847326951283724,0.26003202191592145,0.3239902759111929,-0.1400676871672451,-0.022174879047467844,0.45292392177045426,-0.4188985034820055,-0.48031073469817587,-0.45863912288194786,0.4925431734835375,0.6951799937605756,-0.3927246241222443,0.012694485338239914,-0.16611050754970208,0.4744105813616677,-0.23134946624653974,0.3468997854062247,0.1606278963170279,-0.29782497278519365,-0.1370570702398799,0.4869909867762747,-0.05663204806267508,0.17603640722514335,0.280700354847944,-0.4712043215958634,0.05112400000794415,-0.32570890106005984,0.429989407232096,2.790184326769696E-4,-0.024729570908617382,0.021804699323183963,0.014304893098859628,0.31512130920636927,0.03897781296635017,0.4623953281439922,0.658673733265349,-0.4353516405082434,0.5162877742590886,0.4180738720630104,-0.0897404513949433,-0.0459898066225638,-0.12634422614146412,0.02599861351920585,0.44719593344239195,-0.4321986409530469,0.5729638848807681,0.39204761784869635,-0.3257017793992991,0.16711237003138935,-0.36132376316961123,-0.11454000531845432,-0.43327420496089664,-0.22570092723791269,-0.3070170870849762,0.022043218690077082,0.4425881872339944,0.6935530818301452,0.0014488947531822172,0.14399109427730994,-0.29708904513976075,0.3446542901875951,0.6478575906796298,0.2024037297247282,-0.12770170920397128,0.45408187592615623,0.27060921131749116,0.2841476208693168,-0.49394797518169076,-0.24804130228766108,0.04420691753582373,0.49774095441576227,0.09942781810789247,-0.03490042129877635,-0.221964331456656,0.6434959185435019,-0.35786796902994666,0.17573156965309067,0.13080963041128857,-0.2588028629834189,0.10608361329565763,0.13225081620031198,0.002736961252115644,-0.2258584298295258,0.33688821509502975,0.052677795726173704,-0.23137800436811057,-0.46858734136610103,-0.46060694593982326,0.053269309594747516,0.3537968646020022,-0.009191932915047274,0.6051129470294472,0.5640425748184781,-0.3690532347297984,0.2828873137930008,0.5242401336283207,0.3597638053282921,0.02956425491975334],[0.1123727870963258,0.25982767572913024,0.339649161117022,0.6014188986509073,0.18539255284511824,0.3100312275084706,-0.27077508978410714,0.6697487167723272,0.2980927132449383,0.07542678963545793,-0.24272184409178962,-0.1650715105868669,0.5213090552761124,0.3094706380490939,0.0867017108353708,0.019266630681014862,-0.2022888544009313,0.6533786664128561,0.5133546840098804,0.0485922696325663,-0.4879047529226542,-0.2880007379670338,0.35244491165971836,-0.47855643052370417,-0.10404228749440217,0.6866254447430068,-0.3356933262305027,-0.07056205074553361,0.315905571223073,-0.04296243536294707,-0.37118490267181004,-0.14803967372569413,0.6613697846831192,0.6147258219909149,0.3889758813807646,-0.2344846526151697,0.38206887387023925,0.6640422545958344,-0.11154211801863118,-0.4878351551277394,-0.3507731939911072,-0.2185623716640806,-0.3517199779978169,0.46627364526236087,0.3622555723489706,-0.3242138942979312,-0.33542584394275593,-0.09124043449750714,-0.31994983647359626,-0.33456479266288336,-0.2958106676999053,0.6326403596150091,0.35620156682974596,-0.05197711565477454,0.597499854099563,0.2503241632598402,-0.3270448176072769,-0.49438958111592546,0.5119945976323959,0.44549510812942733,-0.42925772688669916,0.482402934122462,-0.24015389091008382,0.587809066109396,0.2940440915626921,-0.16908517058515948,0.2841320243389088,-0.3844768010152794,0.11668068803665778,-0.07790349524813468],[0.31199054152317746,-0.003504162445522193,0.5740744253810288,0.15576737257424225,0.18722519208404764,-0.3003527557264699,0.4462377619569985,0.13845155124786654,-0.25176650480382917,-0.1650796357499396,0.21782241383871398,0.6828347724826868,0.44698485247063174,0.08249219305986025,0.6158734861018136,0.5076083196343437,-0.5085812900712213,-0.20940183083496164,0.3525055264562225,-0.2947570862100192,0.4049629147118093,-0.4060991776298308,-0.021381326673848594,0.22778115403094015,0.38122757837262516,0.36290143796208396,-0.006330486463693222,0.41496668706372863,-0.18021665119891309,0.4042212317389265,-0.5086765176914854,0.1594609407977668,-0.0766924561377944,0.16115461609422352,-0.4253221719667341],[-0.5386344975392876,-0.7809314833918383,-0.7122626528150413,-0.9920302779666498,-1.617864493808216,-0.7091750231483926,0.29325501595183195,-0.8594028490759664,-0.3167695439021109,-0.4120989315398565]],"networkWeights":[null,[[-0.49385176861266245,0.9670761277358253,0.11590625589430226,-0.6395749513324143,0.11060503843058145,-0.12062884749679159,0.4654333844474865,0.14298575702302485,-0.8709217915910124,0.39599216489303757,0.8201177653802192,0.25124598856908964,0.06063007591007752,-0.7002121767753733,-0.5211484624560334,-0.573586362166834,0.5029982755509401,0.261243603678303,-0.32072881976683276,0.7689458935333469,-0.9725671809023493,-0.3459631587202965,-0.5727535963826955,0.701238136981823,-0.8801657565152112,0.063678677956017,-0.59777776186463,-0.9205151366171951,0.6648168945637329,-0.30903646713722055,0.5253897196354091,0.7433475119469424,-0.8143512345811521,-0.83359920704221,-0.2047619350558834,-0.3622322152673844,-0.14815259549475537,0.1687532334185915,0.07511676473450929,-0.9505331404833884,-0.872459694115363,0.6802837108308195,0.6600399748014392,0.4713833609428233,-0.14247442681187672,-0.28682048598084176,0.6549508769558111,-0.8585277362815368,-0.42570321141094825,-0.09375061507282556,0.4644289636652459,0.3980589623889912,0.858124858029522,-0.48227567827988027,0.023666587536845585,-0.3479414779837773,0.693616814138432,0.02962111850471638,-0.20669289078208042,-0.002855870270036087,0.9400003569669406,-0.16900794083436965,-0.004278101173774321,-0.7378757727740293,0.2687248721355792,0.2611153838990889,-0.9134657541242379,0.6546981697012917,-0.7793168275900713,-0.3233838778444052,0.04624158407037567,0.06820939607675268,0.41233607067305184,0.12678642789799904,0.6649166712013093,0.48891813553856944,-0.7896927006130332,-0.2551656982011166,-0.09661673461185888,0.39363267736140023,-0.8056151279337775,0.07419691669088824,-0.3638192688806914,0.591871581156761,-0.8784285094376145,0.9445671070861648,-0.11340635160590717,0.7839385597986961,0.38592175053953826,-0.8467272052724072,0.39819938026138,-0.9597085188682685,0.034450193591574044,-0.5707004586200308,0.24468697924685037,0.9720266207794979,0.16899661979790992,0.8787827876364273,0.7772148371963475,-0.351633841724956,-0.05736031524115783,-0.21508689182241453,-0.7270368031423866,0.660081010195264,-0.7950969628205008,-0.9717614032541549,-0.8391120124097923,-0.5176316140069516,-0.6715404253170221,-0.031770587639918135,0.3824425442803441,-0.9051957902983996,0.28923784045071144,-0.32309930439627554,-0.13238157711935017,-0.6721542131177223,-0.558267150884875,0.9513642132835216,-0.9182061995503408,0.8033581147180086,0.07034754416714786,-0.30618772703850294,0.7894037646137183,-0.044497529444047605,-0.19878603797844724,-0.606397428493272,0.8556195314408174,0.0400215753432022,-0.8129822126554425,-0.10852884215202162,0.14598189486307755,-0.34719549573694886,-0.769188021671748,-0.7667583530812442,-0.196291775520302,-0.11265897930094025,-0.7960896058949299,0.8450360887393723,0.5335898219802315,0.18328222644783154,-0.26935155965792656,0.24829885557840115,0.6749371400568285,-0.25435100309173175,0.8109103718723257,0.0984296075683753,-0.7234789613156146,-0.9274215681344647,0.9079250422270222,-0.7040185162010686,0.10255356495782662,0.1435599001445255,-0.260653846185144,0.4724908139723129,-0.6784086081106004,-0.8197806961226052,-0.774819505423743,0.37286517606594904,-0.38852817238917015,-0.49374280755612043,-0.18208139716904148,0.8481437038123468,-0.10672712763390978,0.9560885127484071,0.9146001003524155,-0.8928193832635327,0.5835602300615943,0.7468121059024146,-0.17614384215425338,0.7873319800026888,-0.6200470129156488,0.6730413338239529,0.5410783656884214,0.6917158485375337,-0.5276648875490825,0.05479319994049076,-0.563415652350289,0.17677074811386315,0.8278442796095147,0.7979841713654254,-0.2997780092101036,-0.25360023000195975,-0.051798866149597396,-0.1419552546233951,0.24769983736723253,-0.469993348177033,1.0326518935323514,0.7520776185010778,-0.028610888704825494,-0.38564277119020285,-0.6180590485711265,0.028966339263997748,0.9857746128333691,-0.36266483465822014,0.024783809481094377,-0.6127642679524854,-0.9799214732004571,-0.17540727676865278,-0.6699308581957134,-0.6087589876442633,-0.3849148509588889,-0.6608600703247531,-0.8107424092535874,0.38033906580151994,-0.9246727753148257,-0.9546866991522049,1.0627320435187084,0.510862624219567,0.1784858500948561,-0.3120759400869846,-0.21533372652662697,-0.6363110405114009,-0.07152356806264405,0.6157781608941301,-0.5456830636520741,0.403331382758415,0.5940446663270796,0.13805992000222367,-0.9607914850387841,-0.042320886320151456,0.8069809546159872,-0.7245162485705164,-0.04590751277649763,-0.20674650108277293,0.5727679833692811,-0.11041554352606874,-0.5184695431291667,0.37376698528280156,-0.29351401092926765,-0.9558738261865641,-0.7655689637144807,0.559689959812623,-0.20458801657812642,0.21909124288035106,-0.17580143716038246,0.8241442994322775,-0.7081119902997691,0.5136679827707428,0.2965206886443257,0.8976998280289824,0.21734620565120666,0.9375201124381806,0.27678932791090827,-0.5073794385661584,-0.5471803791390922,0.5337911049184646,0.09812521750118582,0.2721677588293499,0.23488393505815708,0.8128629032303328,-0.07470973707293549,-0.5355327948484019,-0.2632385501366017,-0.13073060922830837,-0.4450546159188019,-0.1151600709469258,0.13713078023460498,-0.8463384983734377,0.8327028198466617,0.1768025203520838,0.08050978223149693,0.20078419998086466,0.4214017267012526,-0.12414671189058668,0.49471705925192083,0.19594221287151167,0.16060525038040016,0.4761547022333372,1.085749948031893,0.25175945048649784,-0.10896315522292199,0.21256219019790357,0.3189139421553277,0.046769526817695285,0.4606185006104318,0.13542881723781933,-0.6868490620971359,-0.8066469018279686,-0.8300956121486576,-0.3616027952895353,0.893991056995755,-0.34736966151124127,-0.5769400025735014,0.6798940459888397,0.6582059355581751,-0.6554932020725255,-0.44684327102383486,-0.98073686817552,0.6905006171415142,-0.13909688404851672,-0.46163789619371837,-0.546676692430702,0.9839989575329302,0.5264420452757455,0.4786052696055076,-0.07680050077004306,1.0626169105561656,0.5312258499206925,-0.13838227226727856,0.7854987926803865,0.5829823751148707,0.1563811002126549,0.44398564667974033,-0.06902243235042448,-0.2733161759757631,0.7492483031530499,0.4502169693571043,0.2446315470599727,-0.01393329441986646,-0.4124141244752471,-0.6959117161371475,-0.33143713337596964,0.09831799953778121,-0.239295978844578,0.8351195044722386,-0.29160763639356607,-0.6540969631251361,-0.05429982392067928,-0.5317208898923168,0.3719615813555951,0.5680979784290074,0.09473195112149893,0.7967942724293869,0.8840546358480461,0.5706703543289813,-0.8694256725995265,0.10452304918504851,-0.12751163174033173,-0.5149129820517139,-0.11860596607547491,0.34828412497905437,-0.466779289710207,0.9865764467998221,0.10022783525105167,-0.6112459739688128,-0.3815319902391947,0.9953678241584252,-0.7842388765284146,0.013799747578025155,-0.3294044586274632,0.7231896101696274,0.8429138136546858,-0.29019194315977115,-0.9150040539997925,-0.297464672040027,0.3641756315479173,0.026314788407057307,-0.27290068493242264,0.8856748813197977,0.04076541098425389,0.2033141596215313,-0.8547089741487927,-0.11311647732461745,-0.25328620553198444,0.6241251198360814,0.060888026199896576,0.6047800029944849,0.2516261644100676,0.040359650212635274,0.2098348123205827,-0.22911595934260715,0.25115984225896837,-0.8640122616157628,0.5521131136984532,0.015111146245854412,0.6286003212427997,-0.21518771317888064,0.8947057550475682,0.2615030510339302,0.7643864147355066,-0.7716965139392958,-1.0386914182662335,-0.2115888663118773,0.39200691632478996,-0.421872295925562,0.8125431295860263,0.7900505132989746,-0.5116421991285885,-0.932713227983837,0.18938440131194922,0.6236134063685019,0.21383295150523116,0.37342080640344744,-0.028832445921378284,-0.4876771487395109,0.49049750667352604,-0.7546037259948093,0.15549697106743537,0.9004083428800209,-0.04871353587446278,-0.30691492631226414,0.044704849958162374,0.6851889903608162,-0.3992670442132229,-0.9110994575247091,-0.10172324273375777,0.9367319198587952,0.23312070662532083,-0.5312972651928134,-0.8609814806892683,0.6911248465806838,0.9436385274063048,0.14856413831174956,-0.416423499532322,-0.09656426860610438,0.873020861163012,-0.43637994241986533,-0.22456332470522616,0.9854423840920045,-0.042739380696220804,-0.5209616731130642,-0.932147286128267,0.2077713921789113,-0.061260662742189415,0.5110387170384657,0.32172392476076095,-0.9766770469304139,0.5778320588836027,-0.900885653827058,-0.1668703339047961,0.44440040435193984,0.41089482410687594,-0.3298855130074745,0.4515522919563544,-0.45761180247225675,0.1972788237165968,0.49356056007251436,-0.15296949789472378,-0.8460261276675002,0.9939702461424847,0.3548490628299775,0.704235971981564,0.5337588207855553,0.41715649263709326,-0.33072383024691615,0.45513597592145055,0.5276500760381059,0.551876557424749,0.85948684680288,-0.5309920360687288,0.01590807891544344,0.8365269998499308,-0.5866480490825666,0.3723667379474363,0.6102469214520551,0.6211266849964945,0.02219986043022204,0.4438069933083153,0.16102560293851753,-0.05166448837357884,-0.19025193455613065,0.7343260197689848,0.7948079423504523,-0.475582757168671,0.3046763074852401,0.0873755356182455,-0.15880750132690552,0.25227124565736375,-0.15056987354514037,0.9808067273709947,0.9713333055367892,-0.5035737942715711,-0.8076375828280059,-0.8780317559792922,0.5183250369666378,0.4589892610489754,-0.3131822278151149,-0.46530421378014664,0.6467105083992254,-0.8594967801142024,0.37269141748772733,0.024983471018111665,-0.9396694538145642,0.950848285423827,0.06169202670198337,-0.8986824439072427,0.2525230096911997,-0.6695819391410363,0.8378981161940033,-0.6542421787957964,-0.48627632314029406,0.013793928021667163,0.35796145395239143,0.2408324405739137,0.2278784072113962,0.48384828822137943,0.22364694403159455,0.6645122218533285,0.6883058501412761,-0.44624347864195646,0.9270646664607836,0.6863630588901374,0.4171715656803721,-0.6047019524074351,0.023628449156595108,0.07530115338033448,-0.327454462114117,0.4947728826495199,0.8713808405729458,-0.3728201867877663,0.7342409037481548,0.046124073116077816,-0.7265006687007545,-0.6370446010311137,0.39145582573532267,0.8213600696079266,-0.7836191067003972,0.8629316119202485,0.9265239555759502,0.941286670054085,-0.7592486614955644,0.42985581732986583,-0.47659799601365027,-0.16889454679501084,-0.32609807704724236,0.4295223803565793,0.3337611136460026,0.17292324253399868,-0.6580834123854011,1.0853835321185195,-0.8793117962988914,0.03610048405933431,0.30769978234287737,0.24802445328812478,-0.6916746650164658,0.8614567108882127,-0.3957360683129296,0.8198641089279636,0.02890546731600709,-0.6881179202812852,0.07330609158719545,-0.1810140059031271,-0.6814174206477241,0.3440611139918599,0.1812362464454138,-0.20454889909151525,-0.10193367710101173,-0.5315734583730559,-0.7865863038900867,0.8436319227587046,-0.45921447492982354,0.8148912570527691,0.5963584391201022,0.27020700922009766,-0.11686236331155794,0.6686285849984809,-0.4228525014555471,-0.3884281658620548,-0.8143416108076201,-0.2885994882264799,0.1973763940276154,-0.7466093909249414,0.40909880574502433,0.5096235350592282,0.24361616680609607,-0.8661230981683417,-0.5758710752256084,0.47711634316606233,0.7524781511602987,0.6065965816025529,0.1453755005358801,-0.6836059635241938,-0.916081400847659,-0.5324822092152534,0.7153370751891253,0.3250076430594395,-0.7491111934476762,0.5659526774882109,-0.17250404263430774,-0.6816299696149491,-0.6318990562647436,-0.04538619587686217,0.45449200939629397,-0.4482166084589056,-0.3358972722277898,0.9728637138271812,-0.13439356458568968,-0.6566952764456503,0.08858139897395703,-0.2931177985893626,0.454510467758894,0.29403492468664094,-0.8135589053562629,-0.968732593124352,-0.2568757382373713,-0.1046012351322153,0.3590372530865069,-0.16877246214168062,0.8270576997103873,-0.07970154985069433,-0.8496488102657302,0.5348464491857594,-0.1146727859383097,0.39521177700895477,0.7127095326706905,0.13157770736718957,0.4477210367413153,0.595924131246098,0.3036617099905141,-0.4663665071079063,0.1139254511735327,-0.3578269147793676,0.5627547126075028,0.9834906597881112,0.9380902346779264,-0.8139506022709013,0.6736081299506388,0.12353239848025654,0.4701816963169714,0.37054446080170433,0.42457160723110776,0.42884785964917715,0.4126362735270041,0.30598914016348666,-0.3488378712358622,-0.7278232056788683,-0.77642129427766,-0.7735333264723785,-0.605399840015503,-0.46978325840956314,-0.5468417171587989,0.11071897102269562,-0.7637437522864358,0.7803844138751636,0.7143277371599184,-0.4256445691958495,0.8641886055704764,0.5441885453197308,-0.009009206104073568,0.39787083053557976,-0.18060680528339493,0.46502764680307107,0.7818403364675778,-0.9899469908568747,0.937634095649852,-0.3674127814713557,0.07724142531711974,-0.6148685120266556,-0.3502646650659064,0.9015990121493201,-0.22029609143277293,-0.6861356857464065,0.22325319231293794,-0.029927216800720524,-0.660224270491647,-0.15063339565906686,-0.12099895010265493,-0.3006824274739359,0.36179493496428344,-0.21991939981090264,0.6515486097008955,0.7904260362513774,0.5330913827260494,-0.44580733194608496,0.4397799973233307,1.015842333010657,-0.4449930099029656,-0.05469686152379231,-0.45103220755397494,-0.5283894548531017,0.9507510369140395,-0.250144044789916,0.07761823086865689,-0.01889994141229426,-0.3904430235070383,-0.03642587621687574,0.32120964804395447,-0.14908943029242444,0.917489324532071,-0.530070779108857,-0.26532441023391584,-0.5479860066831275,-0.05270338376438044,-0.0032027616831187267,-0.5948505857528712,0.1664998887322724,-0.6382308786865493,-0.4653492047610405,0.46489579234458295,0.7534034323567183,0.6048127926900296,0.04237735906770421,0.2374946572520265,-0.6892815864877192,-0.8175608852858616,-0.46222016476644734,-0.12659512558468922,0.5094003727103712,-0.7153827999749311,0.6294330183146042,-0.23647065145928206,0.13912768432735162,-0.662587706937567,-0.6517723073047144,-0.3134163361229423,-0.27784504392398457,-0.5337007402389622,-0.6025538395079311,-0.5611266236226142,-0.554123500011412,0.839688161281553,-0.09487241620399134,-0.9497537789096282,0.897491026212806,-0.3388456194192897,-0.36127269590744654,-0.5324509019104643,-0.14740383404678142,-0.2330657015129545,-0.2731786202429312,0.42985532968574125,0.7633080571494247,0.5152135074917126,-0.9477080948395328,-0.29848298763799036,-0.40762956417525675,-0.013719692953663593,0.3008354073735467,-0.7570411197655641,0.40993218759025934,1.0005421404201094,-0.05538573196677023,0.07932175908862385,-0.22512444693249956,0.4285962777390604,0.9129006207806978,0.9156258847685115,-0.03150521349301294,-0.5416183945343287,0.7158213433807223,-0.2691356762135093,0.7643032011659843,0.5738396372361401,0.020868772547139036,-0.10784661461172274,0.26691422271451515,0.4579083264878063,0.5415104020639954,-0.4552610833680228,-0.5555594745276863,-0.892552384009412,0.32106095169759086,-0.21520029617059055,-0.5896093133477042,-0.7373754522723089,0.03715189989552262,-0.8617808114489822,0.5867867758564776,0.25044194677822534,-0.7369665391554299,-0.5403824988956659,0.299153161749673,0.7063458647952192,-0.4710511883985853,0.05179542132374415,0.6431223747136354,-0.4488644267387296,-0.14919578200361694,-0.8187164423561897,-0.5662278348701713,0.9512152578875701,-0.2303084046903121,0.4735275064044022,-0.5996619418906408,-0.39823561193590007,0.048962231550788715,0.7199680307516063,0.5042707599377324,-0.24915772250807386,0.2941193123161991,0.9338482719461035,-0.08434989865168438,-0.2866834056898941,0.9471986818383772,0.749335636105747,0.04910133591687269,0.9820972226973732,-0.8951489359779682,0.9860978754580769,-0.4681362606343309,-0.5320058972055073,-0.8959649448460842,-0.10400681581696447,-0.9902156789739269],[-0.11417536016836327,-0.11631759590090063,-0.6238824846954132,-0.707187676356865,0.8532515465293105,-0.24234924764846677,0.2625267394645918,-0.5003062888078837,-0.11986127292061388,-0.5762686675480295,0.7115311501007404,-0.4176927779971431,0.10005101044924558,-0.21456607677465667,0.6305367503955384,0.8932771236822321,0.33184888398757795,0.47772201428331607,0.13798722809512243,0.3061991468225522,0.858158932806923,-0.1351734985622981,-0.8879622339172655,-0.19397705300298496,-0.8311731533835665,-0.282281252794665,0.0301698057406683,0.43783460133094954,0.8412892874694295,-0.21922480448088266,-0.4929651849349912,-0.9645129755895248,0.7161296256316956,-0.9983773376149936,-0.7946071315577319,0.2472297220534918,0.5749081622823686,-0.674898221562501,0.12508904580489988,-0.9663087247340918,-0.36131079424839313,0.6417436569379744,-0.33240940941550173,0.03427181948027008,-0.6204881256831339,-0.26689528561717835,0.32868493670021137,-0.018792833704297296,0.3733824115620459,-0.1292402957333756,0.3895152475920298,-0.3137365877498506,0.22219181519417175,-0.8972951754850427,0.5562122849339282,-0.9667638520203148,-0.06670704862025101,0.20037691841904715,0.1409551667753346,-0.11988372173609868,-0.43070310000763756,-0.25855277596413995,0.08237419417218392,-0.19200055360327037,0.46697855278921396,-0.13380208095840643,-0.12438815004220424,0.2604389901232911,0.899455737352584,-0.08041762513585007,-0.730157986773676,-0.41895658075703135,0.42944733830372656,0.058764410092611546,-0.30876791871568204,0.36646611032076004,0.8128362630924189,0.7334931916247313,-0.4011374903262786,-0.9972796138638979,-0.06958772456821692,0.15402503177662524,-0.3117890409647157,-0.34621677157645303,0.007457006179952375,0.29061699932803364,-0.8578218550328132,0.6683143277709371,-0.4056317731519897,-0.465781742718949,-0.5956687433031527,-0.3620261459528048,0.06262455005998513,-0.2221424124745906,-0.09069146465200763,-0.6599868033514552,0.1899131831783975,0.3774404470867369,-0.9386038721738739,0.9061755021827509,0.20336691068585724,-0.4153743529356722,-0.2560157268442243,-0.28519863280062063,-0.7959942525303346,0.07948655400572315,-0.5471656495649958,-0.21467647267864268,-0.6669539888842242,0.16276885529083876,-0.7288655849604775,-0.1963100850144166,-0.05762409495057552,0.11574006365165213,-0.6665176452301977,-0.6848198142536149,-0.5078849482357268,0.9141019472940166,0.34137387628372895,0.15340731223316473,0.6985911744945096,-0.4360440590799429,-0.3007982547334317,-0.2826096324123821,-0.6053522716135111,-0.9049759392162449,-0.44602560092988097,0.11455015106578857,0.08023553268838574,0.016522972451263673,-0.7188926784499943,0.34987034057260646,-0.3152182291619704,-0.9785632066136076,-0.4207794317732772,0.10014692440078996,0.11428866153766382,-0.5137693865478831,0.3142317281753204,0.7746708933994582,-0.7450595783717406,0.46758058545278725,-0.29869118844812004,-0.7349693081353599,-0.28212752742982716,0.26557572961632925,0.7550447872509739,0.5411214358832095,-0.061571989312968256,-1.1980772565049267,-1.345080328426863,0.1973767020736481,-1.5800366978405163,-0.16631085332178752,-1.0312093921429344,0.39285989296420337,0.8703966939922061,0.14358974855411563,0.9304287220011828,-0.5136314715508123,-0.621320535582118,0.2286883140255284,-0.51159140988863,0.17736044681736693,-0.34914705338269686,0.36926186179015946,0.8336429088557309,-0.06250319874427554,0.986226180045852,0.3834603083718134,0.21772173439703135,0.6084185978126682,0.8513551076998668,0.26552648838474674,-0.605270594766915,-0.11370331362620716,-1.3886393044980139,-0.1363362987495891,-0.6122189916870179,-1.452190277782087,0.46104310131866066,0.9265656338026894,1.204416325061523,-0.4035859917002351,0.4843041655326908,0.8536480866052273,1.3302985086103665,0.7691398059217155,0.6922828280265537,-0.11386552668888819,-0.5806529553160967,0.8354370105855456,-0.3074703456674803,0.6413614497091306,0.9531315114522573,0.537818365612641,-0.329867645733801,0.193690001793551,-0.9430820428436673,0.7375075004153937,-0.8070312806406291,-0.22302258002481742,0.6802707603604523,-0.4244908573747996,-1.339783240051279,0.31085859384423475,0.19953684623403786,1.1713968135307145,1.11958848378268,1.7521912539383855,0.8689392718914491,1.4768098248361194,1.0011727701579598,-0.24865795280196576,0.13112414741345482,1.2282657939671038,0.8326962725131415,0.9067788297722825,1.3037859174155437,-0.471395958268189,0.3806843456953241,-0.6216264349127201,-0.8406891307538096,-0.20652469867388504,-0.9517158627339644,0.36130774975366287,0.12364458724621757,0.14844016713026587,0.17623278964821146,-0.7827361755048403,0.31594166563654263,-0.8917717485633392,-0.6529507110422725,0.6685774174975724,-0.46178314062326004,0.027724637854791248,0.19140124969618408,0.5481500952767768,0.5028588909767976,1.2684724786149308,0.27040550650115014,0.5507099729107284,1.3865267213427375,-0.11817381097208449,-0.04171293091642385,-0.08803225876304813,-0.21539941883946626,-0.3392137071449956,-0.602100333560265,0.9272159163888224,-0.37904293203332906,0.4608101315860919,-0.5064600905733458,-0.24635103167451797,0.4131966549985164,0.12792502359021496,0.5361369220716367,-1.0022506822965653,-0.04064398942928024,0.43618255365617814,-0.2218233850271012,-0.3643856224841935,-0.17128119090390373,1.3901574275269866,-0.06805378209382058,-0.02777889475895077,-0.4323889423822632,-0.1637566378693899,-0.8223319467674721,-0.3455958252340962,0.15567404411304167,-0.20575024971906944,1.3071028176502226,-0.5005181945869427,-0.2766861017848604,-0.6751284480676155,0.6807726979858423,0.19347369252466648,-0.5338956917683819,-0.8424766523667041,-0.1592274332775927,-0.7002276991171152,0.6702302293988545,-0.25233784399233544,0.6327884613277828,-0.09960252524599535,0.7439202993550074,0.8240106520470483,0.6417698461326377,-0.2477395516294171,1.5900377726386121,0.08987117412809713,-0.326493197335386,3.0460943778886545E-4,0.8753982212489437,-0.9823550908712448,0.19265613965334116,0.5048960450698347,0.44450721581683617,0.4749228011821964,-0.3104771999993096,-0.2245504719038829,0.6247975826743358,0.37356727758735025,-0.8722063839016914,-0.4903953138640548,0.37942311754267766,-0.8548619467170349,0.49742271271238647,0.2397539607935363,-0.6128945935860819,0.41037386597673686,-0.7807976658887007,0.9067673124242008,0.5532654450246234,0.9905706064958242,0.36827441394251803,-0.2783630991632661,0.04963107319593963,0.5061248319771792,1.2070530762063212,0.9867277961736526,-0.30751319213794676,0.8910335458960591,0.45972212842130356,0.15234747184537162,-0.2552550395344608,-0.32136205065501006,1.2076244496395088,0.07877166341747555,-0.31217149383946197,0.34881287126658583,0.9087298924754986,-0.3854247091924715,-0.9035757655694673,-0.5479348082326775,0.31764943359122677,0.3612838185481053,0.9667496878786984,0.9953901721942674,-0.24980821895574185,-0.10405260608137998,0.03438730407620549,1.097035300770612,0.3157913081412318,1.3103761292096003,0.6217289429767439,1.394470349218908,0.96913832926691,0.992036032141712,-0.18588891293475113,0.9089768775413954,0.18497190902861319,0.3993629971646367,1.2128893197980664,1.3492832804837853,1.507571881273975,0.5852542393957677,0.4001000112161994,0.20391392397755748,0.17407773116224126,0.4916644902002462,0.6260787137488055,0.02671085623510709,0.7727323116420162,0.7459712763159563,0.24114722690612736,-0.8140201279046912,0.6977107115834364,1.1799188902730957,0.4913019029050408,1.2481520936575845,0.5530050773528504,0.5857301099712495,0.002496021028048749,1.143709269346141,0.18040892460965768,0.3470331957158731,0.887510722313524,0.8934114110074819,0.09857908549859125,1.1009160620476686,2.234901062518092,1.6221706853391802,-0.42882698078800785,1.2026353985796496,0.9522099914584976,0.34051491423231073,-0.3815738605724932,-0.9297842588788767,0.593821157434143,0.978196606346621,-0.5632935722225076,-0.3877897314417793,-0.6682496123394281,-0.2937036415729394,0.9895785976086301,0.09677432530984406,-0.19075166290209083,0.10308902100457618,0.6031336559766328,1.3818065846528715,-0.45360983351168044,-0.6090210243612063,1.1098288657337727,1.054291827809204,0.056115409423285655,-0.4107207957251884,0.9201057666665282,0.3300042042887992,1.316350286505701,1.4893398541155074,0.19634894636497838,0.25622158915195153,0.3324579231050833,-0.00479693183630811,0.2854199777971601,0.36508595791117726,0.5510869592426509,-0.258409678315096,0.7300411929200903,0.8434071921378576,-0.9937349307280969,0.9916151506311596,-0.38465153002569974,-0.6020650104722365,0.8018409534739802,-0.3991295060500619,0.856208301533467,0.6736478150161624,0.14285179065166445,1.2424193820523395,0.6645101292315274,0.49145060421944187,-0.04642025199833657,-0.22433423389970833,1.3720596920897092,0.17010320262501682,1.8727236510684804,1.691752024603508,-0.16565173893257268,0.2898454761702455,0.8216721126146215,-0.9946749419179858,0.6550708989729662,0.2194362547316575,-0.3490361043170249,-0.03065615476343972,-0.7745000031495797,0.7298359753001329,-0.6538226606932247,0.8981503974780531,0.6387408975772756,0.6681507699134612,-0.6599794210791898,0.5479435145566608,0.6267713526408618,-0.41931421794856105,0.12374504045187637,0.029634160037097637,-0.9531626094647488,-0.21628879851288893,-1.038644408336267,-0.8756696454541202,1.1680528408285697,0.590152655138543,0.6162082996848288,1.0027619970207322,0.13076637715621797,0.5237347506986905,0.5815412317003944,1.1657323005070706,0.46816043645862443,-0.6013453053849254,-0.3333239978379754,-0.21041594051159299,-0.38085170737432095,-0.6706700161004273,-0.3841600268981704,0.5084717771851777,-0.48274234315116427,-0.38115608649029065,0.7948659221568465,0.12190918650141504,-1.0226526265576217,-0.7634333931994288,-0.7177642227290434,0.49302002370913517,-0.15118782302573933,-0.19890740908435608,0.5095674010838621,-0.005431849135549038,0.41209246614805034,0.7832597075078884,0.9260625644576,0.306303432869402,-0.3915956719980784,1.0126018567337398,0.1439467336666392,-0.1778124581670039,-0.35745233705473783,0.8634297259457724,-0.6818077730403365,0.8550248388640724,-0.2941966622065202,0.6664770283821322,0.7417438845273818,-0.010011452048932482,-0.5347595261434896,0.7538993770428222,-0.8974147844431432,-0.9943743321422301,-0.550332312476225,-0.43175010302909966,0.052858188069241877,0.03869066845650525,-0.48549816370400073,-1.2179934696743122,0.0856249834441245,-0.9995178033480003,0.6417672273183919,0.7449690975077521,-0.8118817999241594,0.4442478081188717,0.5927752342268408,0.8505391763407093,-0.5868237378443447,-0.8038162162355441,0.7155440297319945,-0.5528431144281504,0.21441897690892034,-0.6730297230810913,0.37204907615742444,0.7419357097204735,-0.23431662320312227,0.9581982454892395,-0.017601394451608274,0.5199613430917558,1.025829263296009,0.7717192982411636,-0.040512676689101634,0.0866552451784984,-0.693931619229496,-0.8492080935551568,-0.5930268931351201,-0.9319244644935633,-0.5720549224892219,0.04860725785225506,-0.3623214201924356,1.2078822497975257,-0.23337758189800112,0.8356816798899885,0.13096351567976514,-0.9165585900735388,-0.6513127873881546,0.29543476168776056,-0.8410310236142369,-0.058706848025444194,-0.00748149224855091,-0.4029181865949838,-0.26873377886187133,0.012945000305147447,0.028102792308413706,-0.5230849169009552,0.010300950439109585,-0.22472068751671007,-0.47440016044561534,-0.5375982835934553,-0.6608971595223013,0.7039342570252541,0.30651468449215746,-0.6003116026274932,-0.23783765409246674,0.483188542100439,0.3798330699121313,-0.31969257165689785,-0.1630084314711922,0.13059742942972966,-1.0009552397601136,-0.7797200192072511,-0.6163334598093861,0.4784854232984008,-0.10493028377713169,0.3530782386445174,-0.6338385062910662,-0.16205312403116837,0.20483177078576104,-0.8547134090373947,-0.9260430986832933,-0.36694769065314126,-0.33201218231779983,-0.7899626793906122,0.7777583767420457,0.5718305409005029,0.5097601730101304,0.40051239369392594,-0.43746562024459995,0.5236733529556139,-1.0833763334464632,-0.7624536556488949,1.1033010154865386,0.6649044061675892,-0.9984191988949628,-1.0235995605298602,0.04136234947098932,0.4140323005266678,-1.449505213307834,0.5720362591641128,0.5447050247523717,0.10338651035904278,-0.703250036286414,-0.6595900376498394,0.5776927307932688,-0.8096327364745481,0.09990998169745392,0.4654059172090641,0.2929701841520833,0.3035375658077273,0.2932459038758858,0.46148600240044857,0.7869437555457127,0.6031066736717772,0.20195375268483753,1.450588695272038,-0.5179250136568133,1.2081904615502974,-0.5943237018615757,0.5878145323757706,0.13827730924044326,0.1365572240789786,0.3761693592792126,-0.11279074073057412,0.07511714694063833,0.059301728627440584,-0.11087149629754635,-0.053638605842286635,1.1534282264625222,-0.5229216935449419,0.0438345497810683,0.7297331765498505,-0.46947964523526237,0.20205650900391836,0.8610237376217857,-0.5392129376749775,-0.13293582649947355,-0.9090352525384136,-0.6194047813147039,0.6460656700718714,-0.59235657397597,-0.4174461411306926,0.8122251928628424,-0.43853577198169164,0.20124427909952386,1.1087730687545647,-0.10638471680783047,0.8800456176234894,1.077233118838119,-0.3526660271411533,0.7058389113226001,0.6723133765518362,-0.4531123986627058,-0.6977499643956787,-0.46870674299602566,0.5561079456565744,-0.08844344223022875,-0.5079689247571526,-0.34027611629763005,0.19682488429019343,0.07348275674159446,-0.008444631045687379,-0.3814755800137333,-0.8795759715342311,-0.6524328263546715,-0.9952547706148731,0.10656298269161701,0.21831803368647207,-0.31768447728336174,-0.8417869610596397,-0.663630039651953,-0.39850666034451115,-0.07452656004634033,-0.12097500199492336,0.4395078518658174,1.2268097633286668,0.2468122571587578,0.4493316532886291,0.3717881126808905,0.46299346717023965,-0.48229011693791973,-0.7881527164532677,0.7935159501691134,0.6339442440205807,0.5160489668248114,-0.12689220603582227,0.4637935843606149,0.6904034956728238,-0.6647989667588534,0.24940018190631275,-0.1879030179629908,0.6317559493375,0.591730021286933,0.5055499448518801,0.8912687223470415,-0.281702024220587,-0.48593858814721463,0.91606798525254,-0.2332127742225934,0.5078954515083711,-0.4191357768522409,0.37430942796366085,0.037308874078084475,1.1866638304182022,0.8654491824920775,-0.6928567882695349,-0.5378568916358136,-0.8881240523815142,-0.32033789210356045,0.5274606925495903,0.05148078042174526,0.13646592097342217,0.8870310063664025,0.5736255897443396,-0.7817862062325144,-0.49027602192607816,-0.3950419097977599,-0.4360232454051345,0.7140741659295904,-0.6304638618756786,-0.2773118531154264,-0.5701386550279646,-0.045750738569341864,-0.3783766782046878,-0.7316289627204234,0.35856566257228384,-0.29598928323823914,-0.12699175843493918,-0.5422203462839654,-0.6324297395190607,0.676008766996582,-0.19927296399917957,0.6967675588580675,-0.6220168041254888,-0.5468616399872084,0.13569857097115756,-0.030984914578839593,0.47339560874733827,0.08118152483987269,0.010497694332724024,0.41951847092761,0.4747473314451755,-0.7041232636359839,0.8413506941999427,-0.5681794444306125,0.6154088884755957,-0.40959705951700376,0.42086557341244757,0.9697819732044697,0.0679085600629481,-0.36334232226429153,-0.38417254001264367,0.7839856397814606,-0.15258391027717777,0.15080559946742472,-0.5316761363926535,0.6171526523103067,0.5874316106766039,-0.08200672821781921,0.08724170480237078,-0.4013952180950271,0.9232595333278845,0.07813941836123633,-0.6282525403307205,-0.1551273528638066,-0.47789705083929346,-0.8397405350841739,-0.4116316924319372,0.691722956763013,-0.2590164609791181,0.12943952516561405,0.5494904151353306,0.9786414901422997,0.22159128917289594,0.0031789795156322853,-0.535309412482178],[0.1543100241037474,-0.6783173419453605,-0.8632508003588573,-0.7044332135896716,0.08150520060434596,0.7552604691228049,0.8003049550342611,-0.04399112907617675,-0.8743558329796037,-0.058367239806570215,0.5388148267643538,-0.4057206697062077,-0.9205315572199801,0.6622877673135035,0.11945091430815857,0.7614632369339065,-0.5428705633331152,-0.826082672239397,0.11379170956848705,0.35738587564923785,0.7397680796011619,0.053528515742776284,0.494782455238024,0.90435228883547,0.266009388016484,0.7410358555654453,0.020974189754248584,-0.08023470132814414,-0.3653800714096045,-0.0033184441170188705,0.6356422604972229,-0.05811688657338876,0.7229053940931023,-0.6949179495719922,0.625962383616083,0.10867894220966251,0.7232522627465909,-0.36534650627579873,-0.13249976623553558,-0.9020298060245878,0.9615476707243492,0.9006224531372768,0.1218494474432934,0.7076856564669036,-0.31496271502270984,-0.018220648774730758,-0.939669412772911,-0.6114895717233145,-0.5060840560909144,-0.7943317391038878,0.4542415945126319,-0.36447760642128046,-0.36346582770535263,0.8432125019033749,0.8022285507050337,0.30828387835620963,0.010768112048848089,0.34548841259101093,0.5579241065185288,0.6602631602274751,-0.6347442018091141,-0.19720440503633507,0.07607828780372783,-0.8467213821379628,0.9588272657091795,-0.575150994889848,0.3887031104290518,0.927580868649272,0.7118572565396153,0.7559722831685447,-0.7769770850875078,-0.4506820777398851,-0.24363626358194168,0.4431196646093966,-0.10697360185958155,-0.592953051282636,-0.7579178593495735,-0.28483570950009657,-0.7309361601613475,0.21849179914955413,0.09374744719718198,0.09651886437280788,-0.840445455649202,0.7530898390161425,0.8128089645559975,0.9832385983859997,0.9167456231225781,-0.3159249968451212,-0.9567546332185111,-0.797084891737153,0.8715512437678746,-0.2895709268830681,-0.8027137744476679,-0.472649252018826,-0.48348581257995316,0.7118057080196151,-0.4461072255927991,0.5265480811696618,0.9159744811827009,-0.9031951278149151,0.5453488590142609,0.3944263341934576,1.0008801212411413,-0.288109912585419,0.510731694208208,-0.5236009917199939,0.655096244342151,-0.6985539667354299,0.02320235118406199,-0.7990336139581542,-0.7071173477952761,0.4345738443875351,0.7581013936669398,-0.7655146426863557,-0.66436950515541,-0.8793366244081928,-0.8613952172234124,-0.83428682679592,0.6976997715493428,0.8924194706132472,0.5029349544243286,-0.10635815243859884,-0.2433163504829768,-0.4392437289467243,0.09257675479990653,-0.33366445076340506,-0.5694770075618478,0.07741124661800548,0.3118645960818943,0.6484299679156126,-0.0864134832573422,0.8227502611526738,0.38462332234392826,0.0033181691841606404,0.653182721899233,0.019565992571142044,-0.36637984760495945,-0.004296049777958676,0.8836468205201753,0.6790735845945868,-0.038151011158311876,0.847926207976959,0.4193007108236963,0.8332439711961186,-0.1425931905538937,-0.7667739079294505,0.33350729719241223,-0.36667343333057056,-0.7508669186633411,0.378678424140683,0.5090432064112761,0.6239349936007181,0.7090294532278412,-0.3320915645343316,1.144295095373329,-0.5139870285573512,0.34895363134823154,0.7533799790641206,0.6627603051455898,0.36316112393174865,-0.978813778927299,0.2233941006499506,-0.8910656720017062,-0.04635116076462751,-0.847214140640317,0.7039671022174544,-0.7053150146169652,-0.8662073133009742,-0.27858152607013453,-0.17009430458467056,-0.33660261270155545,0.4362118623216468,-0.6651626984171006,-0.5651477320859308,-0.19979975800027283,0.8332437508353491,0.5274725957331072,-0.762558776864413,-0.4511567667825922,-0.9552528003728267,-0.29327423046471196,-1.0572569697260603,-0.6733431340257258,0.3518874670250367,0.7785827453142117,0.5293382575190221,-0.5338618973121514,-0.32610793317581566,-0.8350071987643669,-0.6045178121487337,-1.088983903034028,0.5395454303474275,0.6589008969061765,-0.16324404264555434,0.21313814954478164,-0.7959965544756792,0.16879648601151517,0.8995128561293056,0.04803179452761603,-0.10202624674354503,-0.7455552544106757,-0.8146637374471353,-0.4949776426225484,0.6046860895788756,-0.27344109840227315,0.13507489200475928,0.31339655720401177,0.47106928493192934,-1.0417201960181164,0.32962812512977746,-0.25457961021649034,-0.7487252374819923,-0.46664255820296113,-0.4261061243370212,0.1947619952542381,0.3802785437245213,-0.7898886234302558,-0.4818698104031946,-0.4832242116595116,-0.414251836514489,-0.5379710809637127,-0.45769756093739067,0.8861950749219938,-0.41382382241261284,0.19692145464528743,-0.2426536564187577,0.8930570711158999,-0.04119215300366985,-0.18360983141471088,0.4879429250094728,-0.9142689443795078,0.25474148109634775,-0.2558952077397292,-0.31959437654715994,0.9291713654400018,0.7271996497055618,0.8974432553921627,-0.6194755109487786,-0.7168021548453073,-0.8101043355892339,-0.35745966497455534,0.9128141175035951,-0.581367888835351,-0.7081228493778551,-0.2587468242928154,-1.0439526919845907,-0.9167596449606655,0.48266329610036435,-0.9334405141859855,-0.3682967414914982,-0.49891445753604885,-0.6726121102477002,-0.3854964107298473,-0.009650036437311124,0.10460721363109274,-0.7147572159446878,0.01824652779795644,-0.05011436396244113,-0.17343902311701787,-0.2817024842465172,-0.5117598566036604,0.6450697814863132,0.018679713120831307,1.0332155735417257,0.6838027386115683,-1.058573501345542,-1.1079206581554812,-0.8452071787021206,0.6256325233102892,0.4476818338370968,-0.24676953553504907,-0.7054170457467576,0.5641855310329634,-0.24959058137604526,0.3316235877573635,0.2818748068105478,-0.5553933596942383,-1.0573843169367751,0.4175537270311092,0.37289682076250946,0.4696256091855129,-0.01426502145624446,0.030875495429426282,0.4189556670156742,1.094824204839812,-0.5269367187056481,-0.3224605247997648,0.6748449886980425,-0.4348962641654676,-0.28899582048712713,1.3002182766820471,-0.21507130436986124,-1.1095298045188347,0.07254805976098126,-0.8128837388521348,-0.8466339664762286,-0.18156846097788995,0.36250503411314144,-0.7883673289635377,0.34824732072251874,-0.5005551039692402,-0.08396247243309578,-0.5839430636912288,-0.6583782251677232,-0.3565895108883639,0.841349342600495,-0.07595067130399276,0.035957545890680336,0.9079606267051543,0.7585185446947513,0.5114813783184378,0.5737682018211253,0.9770705636175203,1.2954887907764776,0.03838364277220112,0.8213010232234211,-0.20047615577782152,0.7393291318954595,-0.17051352003076128,0.2984020231800732,-0.5342159160354543,-1.1273597708459988,-0.20899447438703836,0.5127780631346921,-0.5928503897148225,-0.14113407694344918,-0.2442570023089967,0.6257967824299937,-0.39669596339900354,0.5714784543310022,-0.5386265561878935,-0.6806961878813339,-0.4469985326098041,0.9912778698045411,0.2537356314206064,0.23168863781249383,0.7904110408487508,-0.0014722733996983288,-0.8495413724407652,-0.06229167810957384,-0.27262063370399453,1.0171179656960387,0.4771996678947388,0.20883943069055866,1.4271230234864782,-0.22600247635336002,0.7292985701165052,1.1696746784970262,0.3397048161760487,-0.8674603923209578,-1.400318456635479,-0.7025847561145756,-0.9448959662244291,-0.6071136963402265,0.7610539132599614,0.15274846087865243,1.0528464282298087,0.6573740250212634,-0.8211041508470326,-0.49175723256073306,-0.5578687830843604,-0.03442431381986958,0.2554270972070544,0.6621386369592137,-0.40431027831597866,-0.9494956530030157,-0.35627487707428757,-0.5455144218908929,-0.21855296280280498,-0.07512290988339387,-0.10485971086954263,1.295919023139073,0.8825111169026223,1.1006017779116313,0.07236463884292774,-0.49716407057483714,0.3081767521556657,-1.471309349553721,-0.3524021774058063,-0.9867018290597419,0.42794136227361806,-0.33153085418078354,0.9363625575847776,1.242650457831723,1.0724183779065222,0.219265563373713,-0.40355876774487026,-0.5722124519682912,0.09037694088725576,-0.33348861553267234,0.8628420902965708,-0.5766504913527963,-0.13115343899809573,-0.15976091994267175,-0.5969419707068211,0.0773013303125156,-0.09456510192934407,1.2601305440076362,1.0823872976994373,1.4643109076187164,1.1933521610700468,1.323582450941575,-0.4716407558317605,1.1482575740103018,0.36442413609758717,-0.5705556404270813,-0.8458145912610149,-0.7513762836900678,-0.12186264757812454,0.415713468841122,0.9389845694107309,0.568668256466878,0.9201887201479252,0.6361116867468134,0.23634309967820502,0.5006763870140158,-0.8167807214565755,0.4047559902212247,-0.18735866410533494,0.7262619262123651,-0.3492696874273935,0.015475677853181713,-0.2803847777491144,0.06143799015663504,0.5183887874589087,0.2146073324500865,-0.08474007909003019,0.8753375492012874,0.49901318252015475,0.4599818268193151,0.7127465105336687,0.8804220033084126,0.7819432842860857,-0.5585919588807775,0.8797666436223768,0.44232306179301745,-0.04912339929174132,-0.3199752392545372,0.6865442722144673,1.7531623016250026,0.5554867743597809,0.16625142322843328,-0.46231786127866686,-0.5771869911006643,0.4295971293211783,0.286666246979737,0.3956991682961041,-0.41774549573901026,0.9347199461946101,0.7597222485372193,-0.7773708599159634,0.3363288993249132,1.0372856316960368,-0.289688359674712,1.1571086986369337,0.6498751913482046,1.1656197364876493,0.46511921617481217,0.9432410021234456,0.9702109502447792,0.7539412227232298,0.6923070337094158,-0.4453838820412373,-0.33563035237185074,-0.08250745142940276,-0.16246982861637635,1.3040780222353816,0.9255651743456021,0.9497792146558643,0.4505843998207534,-0.6028869648525178,-0.6312141958520994,0.09773488521279289,-0.12216332799544968,-0.3118040840928052,-0.6186967550022987,0.2458788328095287,0.8638240471479571,0.23063337682261897,0.6945437173408282,0.08288144213475905,0.33940461409204364,1.0569635500934267,1.1049126326255059,0.6043295717309551,1.5766003599504923,-0.036947689945927994,0.6112556922046211,1.0728070086913117,0.04496510122626975,-0.8354740665808907,0.30089475554151857,-0.3342790837572998,1.3321767555792008,1.3392137461270066,0.2114681542060661,1.040940849297464,0.9995135236485511,0.04363167301934143,-0.19353555515512758,0.21133125493111674,-0.3195099611887969,-0.5473088920709659,0.38317784044994185,-0.07598536638730935,0.7046265425247724,-0.4858037408895486,-0.9384145920763128,0.16572877266759503,-0.6333356119572253,0.24813666612121213,0.933999303102516,0.5033575020284312,1.2230600006763812,1.1579940721646749,-0.17270446814852536,-0.345121188356325,0.7759531197632337,-0.46864471508880035,0.04193075360790699,1.4256877147280367,0.31450096775748626,1.1340274389185077,0.39461408899880485,-0.5906489611904537,-0.19851509862655212,0.5116733494975257,0.3997768365087595,-0.9808461653162036,-0.7617351792304989,-0.7880801198305212,-0.9549057511580101,0.6159536663052263,0.7820551299554557,-0.7617026896872037,-0.5859915856355801,0.263792654142055,-0.9971443485434254,-0.0497854185798752,-0.41227209564807765,-0.27675695042755044,0.12754075474059323,-0.10438711750551116,-0.23146390829612473,-0.5333019350133634,-0.40191911871020086,0.24115138403739328,0.9762010255628759,-0.18146308159477287,-0.7144704159764255,0.1238836221594106,0.5845925744584424,0.2852546550541964,0.29415663066766967,0.22695198252579138,0.4511066392892335,0.7596204988435166,-0.34309862337295083,-0.7206780316524667,-0.006585646071048945,0.8436691706631199,-0.594633412941385,0.45249991246323923,-0.5357796387388235,0.42392856809569196,-0.9847352210877225,-0.23435657250895667,0.08995184244999802,0.09189036434675277,0.6649439754655497,0.11444208303350599,-0.8947940595624261,0.25348010747769595,-0.7655870795718732,1.043581651083809,0.5020416943028375,0.4932389582110973,0.35100764263350276,-0.9355168849021096,-0.7865643919244347,-0.6150459328879408,-0.811860382530784,-0.3497217984301307,0.8287272277750862,-0.6363029585678724,-0.24720464795596514,0.9172849586915925,0.4496220347964879,0.31372893551297465,0.9962850426261332,0.5538337520200333,0.7563559867672554,0.4547828940273745,-0.12738738549974307,-0.299083521554619,0.004261015542193638,-1.0103076176311265,-0.5847083965131913,-0.8512317220025019,0.49438242535794097,0.5775568340552742,0.47624313033238913,1.1013086067893176,0.2144768984210558,-0.8723939905723282,0.1976344918133979,-0.9412036719075308,0.24938152071904346,-0.44492713817862495,0.027166370325563988,0.5647722465239466,-0.5828616588084514,0.06664990304317549,-0.9565811563976142,-0.017084992597345115,0.5109617569336475,-0.13014289257916567,0.29118747409760304,-0.19922127896790684,-0.5713072547249783,-0.5500082316101238,-0.998091582111457,-1.3267223374461676,0.2253321548858897,-1.9335381233095152,0.005624618933984602,-0.7693302992501382,0.48063241565249176,-0.060097190030690924,0.2703149299383247,-0.11701277963122367,0.35938289572140003,-0.8814439577840406,-0.8200821550797478,-0.20341256205203637,-0.2752892155348346,0.4232384398254965,-0.17760755360083924,-0.7964721281955649,-0.7099245679308908,-0.086093590121421,-0.6411772315401172,0.36749937737799326,0.5248128709648681,0.6642326115245509,0.47645775295432435,-0.4751042979946592,-0.7528906466895388,0.11553810918952293,-1.1541686045954123,0.24691643509963962,0.5591210557031379,0.38280189493112354,-1.0378555599649508,-0.43585995348088763,-0.730823246325836,-0.8263916272945646,-1.0046553021735518,-0.9823365593463322,1.072966180695978,-0.3863575525388847,0.31684914291813515,-0.6819367231920521,-0.34827937117310626,0.22638313452991335,0.31352945272312577,0.5918735124793448,-0.20985400627242087,0.3694926756185876,-0.12764306818078872,-0.013752823767534362,0.4179396685391854,0.23447495056460288,0.9805806842068592,-0.177092941229259,-0.5058408061592693,-0.49205570553149314,0.6995674054196908,0.11383287376161554,-1.1661360351340697,-0.560453600869398,-1.181847694481196,-1.028693015517136,-0.3902879630015033,-0.7721918502895742,-0.7935332265770931,0.06400839321804454,-0.4173333398325548,0.45138759827176345,0.9882545976634513,0.9805539458979158,0.892672442308997,0.6332851187559453,0.8662461084262207,-0.07749764678267156,-0.08561304278220663,-0.19490406524791756,0.40106287835990984,0.6365510029561647,-0.5588203604367135,-0.27790386359062946,-0.7264986238556825,0.4112642789998202,0.4462832257479441,0.33912663048395747,0.372239376025703,-0.398722362235827,0.579367847444271,-0.9868165652622214,-0.8884487211265977,-0.6996335667406037,-0.8798094470236922,-1.0882926535263868,-0.9358476630760103,-0.18564227670473468,0.9094896959902422,0.29036224368804614,0.895249434976078,-0.8936529257789579,-0.723020371505422,-0.5877479902753444,0.544444034613641,0.15601073180226321,0.8704457369013755,0.6667132162211887,0.282817805285348,0.4489479021722054,0.3236484888795468,0.45452565586813654,0.5882276493832568,0.32787660214635905,0.01647203134324693,-0.9685636694968633,0.09018360019718934,0.5513522783023007,0.7849671189178692,0.010292459785478542,0.08291429685827494,0.03314125630169809,-0.15795180460440722,0.8834554888578309,0.2058598289399308,-0.5030744163330156,-0.14543868206088098,-0.9531447043315212,0.1066559463101013,-0.35816974545145275,-0.3743218358501418,0.9854903818720054,-0.8247027935705505,0.06699024173293613,0.8149838796201705,0.9330729512119593,-0.528514033979705,-0.8171241353236338,-0.6987544776907175,-0.4633563504638205,-0.018393446605597497,-0.4711507366744141,0.4424223525749813,-0.7299133137336269,0.8226099419445094,-0.2235236696000235,-0.8087156478434107,0.6191071817776621,0.8727660923330391,-0.3726341038432162,-0.5579345916283942,0.49619926698580646,0.43824067104942405,0.33686141203067027,0.9206128903845463,0.3120929326927361,0.7395593074775325,0.40277233315743904,0.18663809043025423,0.6568515566353725,0.21193492553738683,-0.1563863051748546,-0.45254725688278397,0.5214495816480391,-0.5270026898493427,0.7138024812556669,0.8924447138332452],[0.9590851735655226,0.5906596888405664,-0.35293124407398047,-0.18524507833562853,0.14877085175744287,-0.7803481049980077,0.9979049834672971,-0.08967240022507794,0.9277959147301833,0.9901411868491188,0.7982056541992886,0.40684354666599565,-0.9644295904284232,-0.272762842336691,-0.8871933256589091,0.05117182235820317,0.5474278820203777,0.9100919809533812,-0.08319927829052287,0.5303926183327703,0.275791443803304,-0.8456514187420441,-0.8051142707694721,-0.39044179537902624,-0.7225640858530495,-0.5588577600282834,-0.39442032058537135,-0.35993930939983354,-0.970592453839868,0.3178143259038033,-0.24178428712766942,-0.8743196223708127,0.3224900202534209,-0.6400502131590153,-0.08179312750261362,-0.3709099449252329,0.46993428085994715,0.8131078849160795,-0.1618803944715735,-0.4973025734414953,-0.9594529110594926,0.5076350251228967,-0.10956116348574754,-0.6881190730803052,0.004810324230448891,-0.057425285522692895,0.07596266245412847,-0.7503987933891563,0.8712540419201957,-0.35314607428919687,0.6316203074355042,-0.5280210447093083,-0.6415606676290087,-0.06642937616248279,-0.40565975365024043,0.32088144416123665,0.6685392703374238,0.4928210041275971,0.016240415819972487,-0.5635909275092181,0.7797694586219375,-0.6680157250403524,-0.8984275372249888,0.12193151748495754,-0.17964439873488347,0.12422116330738979,-0.477036014674526,0.4214199086741564,-0.11195564108878989,-0.8518902332459783,0.9472824800443312,0.8292619710604473,0.02890366873684492,0.40025561413371924,-0.32004511910669137,0.6988418000708374,-0.13862188737134096,0.15328179510912826,-0.7196218738512725,0.6479404853777301,-0.8412795002342804,-0.23492625724479455,-0.7901982671421122,-0.6542367017811357,0.28875883254336454,0.31110128218587096,-0.5248652484020786,-0.47536512399767794,-0.9881047376428287,0.8746166120654585,-0.36191594814291167,0.13794930277954598,0.06395932576505528,-0.2333372444388466,0.04343165091886772,-0.3263745860284822,-0.500925700042074,0.5487660780920094,-0.477081628391828,0.7846419562125256,-0.5156082045138989,0.21931293186520695,0.3184417819535963,0.7897492474372955,-0.5093961888277213,-0.1728371365769577,0.5884673335420538,-0.6112364194401958,-0.5894192420119096,0.9569984515612122,-0.4109074813546987,-0.7690136105153116,-0.419221336222229,0.037722410879868606,0.3064123708372477,0.094063077678877,-0.9702063525955751,0.9850785812379381,0.33877795927349486,-0.09459690653426671,-0.5537534095343073,-0.4156945756052979,0.546642033739395,0.2826000191377288,-0.7742085092706495,-0.9905761955650201,-0.7063387418642059,-1.1007205161498386,0.01758684334975534,0.033991171454644094,0.3808042881422765,-0.42540809163735716,0.7563864471675709,-0.09161349136096275,-0.3673696843571879,0.14038592313807957,-0.9031814109204644,-0.645400351797708,-0.19331927403157997,-0.8817404767165705,0.586338573758225,0.09314889975414076,0.9517867048856758,0.2857523711788504,0.788576119176892,0.08495949322297212,-0.04768838331938467,-0.09527214501419248,0.35113128265887283,-0.47794710893963543,-0.2334725488744978,-0.9130128340618254,-0.8523455811045174,-1.6111080661841455,-1.0937628093369136,-0.8522483487048248,-0.03206486850367413,-0.6498833482382698,0.24197758861109622,0.9344819757656229,-0.3270601429421782,0.53271545946924,-0.2578371524996291,0.26582549788849075,-0.7883356446801659,-0.011491387586186445,-0.25505071005417257,-0.6518241356814746,-0.08096047082538482,0.20137367076986434,-0.48188542757194885,-0.17539044581181315,-0.8651603053194659,0.035653297705004,-0.16108637629776099,0.8269884435121958,0.5829959485937508,0.35748584524312077,0.1507398367535349,-0.09241686660132105,-1.202197290216957,-2.004364375368467,-2.262611802643968,-0.938527846581048,-0.16684665265613827,-0.41480242027793374,-0.3096106315851448,0.33746323536016604,0.46773468287329006,0.482593430801599,0.326563602798408,0.2861563345358501,0.2938869212448762,0.7060646177633876,-0.31579328593679173,-0.9230079687148177,0.9199792709702939,0.782985546893548,-0.07324952600441514,-0.3075993548289407,0.35860838122665606,0.5613173624118656,0.6775764030584976,-0.7981042571061033,0.37479157503274896,0.6361247483741654,-0.6671359168660334,-1.0513013611811388,-0.9779304091969099,-1.860886639140929,-1.2042118274798093,-1.7796542639284134,-0.16123358574792143,-0.8825013000809852,-1.1309174954216739,-0.8306276680648247,-0.18000816764456304,-0.55482359479456,0.31248452768249696,-0.3097135761680855,0.8224075616292509,0.7783377581079023,-0.6752571250748852,0.8218172500959902,0.8960768035172582,-0.28481854258332184,0.9719755440555643,-0.39097569327431114,-0.17859301627477284,-0.19349035813776957,-0.7469503827964233,0.12872639527003835,0.5115384274696566,-0.09631464080032663,-1.4823938803638836,-1.4499039770150237,-0.1279820530375089,-0.7213807752003034,-0.6387706897385321,-1.2725249369959026,0.5207728268385325,-0.650913911160517,0.19543550681339683,-0.7998644908512821,-0.46679391655044683,0.6749568524637487,-0.09046037946137221,-0.689871717680742,0.649570393474583,0.2543466017445243,-0.877847248451115,0.6536544656399408,0.38780253885616434,-0.5423128402395175,0.5224990152377373,0.1479501475959791,-0.35866002702139615,-0.38282981503715063,-0.7377305865660946,0.5837974595369476,0.10568344959496331,-1.2357618291973615,-0.3723885203157269,-0.8101336570955048,-0.5248156919426307,0.30665937889027156,-0.34600503823970397,-0.3342277777144906,-0.9544744601156591,0.1808521112569513,0.7093504227895107,-1.0587529056508196,-1.197044887126653,0.43833566970651056,0.5340546471353794,-0.933655098177724,0.1400966203551831,-0.267868147852871,0.9841266161233959,-0.4168456999436002,0.6493584939527397,0.35800041513435277,-0.37588823492214285,0.4805527310925045,-0.5350834057159306,-0.4811108785807622,-0.374936305574516,0.13090380020221468,0.0980750674033282,-1.0045684047741157,-0.45689529583277244,0.9139771103028226,-0.22306779470943094,0.6651310428270422,0.685139694596148,-0.7729324435046638,0.954400453535339,-0.0011147245942518373,0.7010973380395306,0.3006514441269368,0.2030115858771397,0.5541689197106108,1.0942538141078264,0.26745882522164954,0.4828259219274546,-0.41193085189323864,0.5734315538659012,0.3558873117785373,0.19818115999389874,-0.29867382831221106,0.19438381663796828,0.3304703442961265,0.609082051426955,0.35789255862259767,-0.9886632625177156,-1.052372777791333,-0.008739901659361981,0.4423245167934455,1.2254819951963238,-0.30513442632828697,-0.23416067354330167,-0.6233558812322305,-0.6786825183192483,-1.2917706024543183,-0.03076212945771992,0.07055429080519873,1.4340615485455912,-1.0980785021152761,-0.5052888693029051,-0.3255414404048209,-0.37786376264551724,-0.08714118846593166,-0.9084329429582836,0.7864141578985596,0.6468652512426402,0.5618983648080758,-0.5980324933670311,0.7600258145149784,-0.5560080542920082,-0.5860602552549072,0.6752786776189802,-0.4867134859438614,-0.29191854041959764,0.6796199722162364,0.705708706376691,-0.01991992257473322,-0.5649148515129828,-0.08382479226459003,0.9666767418811331,0.23094341692931916,-0.24771435065038933,-0.8644111363088112,-0.34694200142711334,0.7040520017136814,0.21678616835279807,0.08434628758512935,-0.2525180044156539,0.4908940699089486,-0.4355127001179655,0.026250150996608296,-0.7097075948744146,0.36007572751922506,0.6012691224109226,-0.44965221725949434,-0.37974693592714104,-0.2756459399891036,-0.10425701623978419,-0.6218414163340734,0.22316237188452548,-0.38339551389276283,0.6659058173422947,0.7737383883872083,-0.3675330886342936,-1.2671255749139168,-0.684319669491245,-0.6791700490504146,-0.5619432380427735,-0.23237532296733643,-1.2314328729442945,-0.8366533898141355,0.6330884326932086,-0.6623613873084844,-1.0532046435734554,-0.46714609827907383,-0.37503047255562283,1.3693442773443176,1.0361010295284072,0.888421236135302,-0.07466920864531304,0.9377061315451751,-0.32588792491637414,-0.8254325702228549,0.40389921807673734,0.9607135196685339,0.26868358544967685,-0.060502826602166174,-0.31521376765359016,-0.553894086688836,0.6899486847241852,-0.03291761686904929,-0.21849531896819482,-0.45988890529789517,0.19942008007236509,-0.2095736216871162,-1.106227621851643,-1.1438098173967803,-1.0946636708445037,0.8271387351398347,0.11703746558405681,0.6061517315280789,0.176002523271052,-0.30775948647068574,-0.5112474038467865,-0.10585911477135788,1.4153873318963865,1.4778705515254933,-0.488035971960781,1.0044989612619326,-0.14771193774985808,0.8635651777472524,0.679674250778386,0.545606036569056,-0.9110741092455941,0.43983982938494676,-0.6188356785595874,0.3412577840250909,0.5780056047848754,-0.016491790018315185,1.030635844788118,-0.6924860303064903,-0.30356217872435415,-0.5223891720430065,-0.5202626901585143,-0.08904437587463984,1.0157908617740496,0.34966762333642554,0.6827854978788674,0.6548782644537803,0.8573985897457842,-0.5252517030042664,-1.0342653196231284,0.7888802541422515,-0.3390373140868943,-0.23004061881499144,0.5183852947284676,-0.6062571453402041,-0.3688012890683377,-0.0757861923773322,-0.2915580244598437,0.46291648796297075,0.06754991400775799,-8.016206318975515E-4,0.34913872966383,0.7211553724460738,0.6065591139114995,1.8350518385574803,1.974969493173013,-0.24217812968588492,-0.006757382919400991,1.3486352129251349,0.7794218524328875,0.161731826061877,1.6829073409483686,1.7462966630671843,0.40268377360647667,0.17414642878715828,-0.4272938522655894,-0.581578873086874,0.3465232632507418,-0.08632762885973053,0.3630032987853389,0.24747419057687464,-0.300066408283582,-0.4825584504058356,-0.7175639176892734,0.32406299212966294,0.904298725738667,-0.7708841148568202,-0.105690139343206,-0.17905318612917723,-0.9469730136587756,-0.812037794963768,-0.36047474497605325,0.39530828246964483,0.4697505176601778,1.5798508951358592,1.3253768265739823,0.7507938518789194,1.2303247895131741,1.0472358834257727,1.587324259774817,1.2593161332581926,1.5463330994034827,0.1462892054703354,-0.46963203945590615,0.3121482707452107,-0.886213299367542,-0.5563877753855694,-0.8963655637611632,-0.6578342923792286,0.1767725355833855,0.05463503278356526,0.24339493870914589,-0.512083244945233,0.3383283461884037,-0.9745756757617563,-0.9230027969937767,0.6495976693674119,-0.7327061026276055,0.36320504626463845,-0.5676339895660308,-0.04326841556929269,0.19823253611689068,0.8618744144461512,-0.1645940661234017,0.31747574733370754,1.53857642651361,0.023649869699105566,1.6200231142473536,0.6253299632318056,-0.2792740100964263,-0.09276263523546895,-1.28783582270301,-0.7627747499603172,0.2764416613819462,-0.74528124829616,-1.0254619310203887,0.6006517140128078,-0.9042857587831614,0.7540212163154769,-0.3642872917234642,0.8620214071447061,-0.07552724848867043,0.6679274828000554,0.9268302302616691,0.07338129243703348,-1.0357034688091113,-1.1369716880936187,-0.19190827940822452,-0.3506776345504495,-0.4442101525455271,0.586986519906169,-0.15088382768117226,-0.17551789659427758,-0.030976578295594654,0.21743902731587653,-0.0690314956688226,0.512462894695239,-0.14779905850239258,-0.8341185703837098,-0.9741937575699525,-0.7975980429333405,-0.7841266850963112,-1.1887299789653412,-0.5895408112906967,0.6056752952607505,-0.3434633152355959,-0.3972668023039644,-0.25017444734483,0.1579122659525103,0.8963438694286461,-0.06390629768993072,0.6814507716507524,0.7341164927053493,0.6560937970312706,-0.9233922695540985,0.7402010409851326,-0.07464286895458518,-0.4217603408640543,-0.7019125711525908,-0.3878933140412351,-0.9676088851157517,0.22940542084453483,0.3622178648824906,-0.23126933121510138,1.2628216537418817,0.9531183512789201,-0.9499854681789184,-0.3997323653529422,-1.5816580698185374,0.5162484147863702,0.2843963884215216,-0.1519754473004603,0.698262239930135,-0.08286276235192556,-0.028181064180063914,-0.4035754386164428,-0.7163289694525401,0.23263042501465359,-0.09290910456074264,0.0851978941665484,-0.8251398861123154,0.2065621035730063,-1.218840307486491,-0.48332777070299954,0.10038632958616625,0.34721823064362917,0.3215318688813653,0.21040565695655009,-0.8714687446682392,0.11258890044207331,0.5249926775935686,-0.08244067508007288,0.820860297886739,1.0366296655050733,-0.9693772009547791,-1.3391544334399434,-1.1673725267668755,0.8668876150514582,-0.5835709307613668,-0.053352898023256136,0.3414693058336633,0.8786172943080357,-1.0053584334516195,-0.6634630538047631,0.003547832755819602,-0.8249181674483983,0.007757132401098765,0.5159166008122673,-0.27037302855297746,-0.8471113753056807,-0.3541879390028849,0.5999771256966054,0.16444372685091843,-1.113997176544823,-1.3989335598083323,-1.4604708717180765,-1.448772156321182,-0.1416521525954981,-1.1984099327058968,-0.7943285093800008,-0.6351244828699262,0.7433881464729118,-1.447585474400489,-0.36584281769852456,-0.8232553603499425,-0.17571672520703535,-0.004033399283541731,-0.6968157302753711,-0.39215522294363914,-0.9690769616415503,-0.4015699575334737,0.542788055974212,-0.6623940568169437,0.9068790307703547,-0.5019695118172047,-0.05353134980147829,0.3124216059184666,0.5630680057398335,0.31153057903349435,-0.9042307392391112,-1.2794470102858138,-0.3943321023447091,-0.026055817243643302,-0.9378629813532523,-0.632194638793429,-1.420384319803255,-0.45334520647199816,0.35639190066701787,-0.6612691004423367,0.018174326376812933,-1.6036038489615672,-0.5895578669169789,0.033645953212110565,0.2249854955601174,0.41308732219266486,0.3587397946724969,0.4040766642630033,-0.6968608979647329,-0.42472480217324904,-0.18035424303947134,0.621250130872796,-0.17946928026652298,-0.9609025405307721,-0.3090568808119021,-0.4146186967796383,-0.3160708562627045,-1.111331616391015,-0.09143841500357895,-0.29712310952489024,-0.09228781722733746,-0.6080126961679292,-0.6862542878140807,-0.5840554634054802,-0.5091297610320649,0.1920522100674808,-0.5274935113422224,-0.4910398509227561,0.7514911490904052,-0.12673196625577912,-0.46986179688014607,0.013947992405674615,0.01448720146970324,-0.010253607852095335,-0.6497841315058042,-0.04050172489601005,0.861494188089716,0.4671991640390124,0.3353002886198362,-0.009797465056464727,-0.3967391017592332,0.876472840859984,-0.06533413906236896,-0.9060777656932237,0.20010426851061094,0.5438834820225794,-0.09366817146576933,-0.47887153789444287,-0.2902651408441339,-0.0425369883684191,0.2178808548923374,-1.1348574746513762,-0.24501187590264598,0.9340485266259632,0.5273880447913367,-0.9067173775250328,-0.08449856139509596,-0.40215138856281696,-0.30390523517204365,0.3566802127254466,0.10571907538819247,-0.7912456824476697,0.0587776984881285,0.399626067411589,0.8391799201315235,-0.3169976439745088,-0.7318690283695544,-0.16030727587965155,-0.39581754778560674,-0.017324194963010298,0.5913329181727371,0.5950871579406032,0.17277454224781863,-0.33783162028832725,-0.3526409684577302,-0.625163273108774,0.39995866104423894,0.01885559824608429,-0.30275150897833425,0.29063022080292694,-0.3219644139034355,-0.2427829833364032,-0.4137435099720433,-0.4449107916988832,0.5646784010316727,-1.046070622212032,-0.4654734420183191,-0.24785269087247552,0.6241223321348336,-0.8491568203532021,-0.6798250866431896,-0.14054325655000877,0.4829838679652225,-0.9020602136616733,-0.9351031176804032,0.5273330348733036,0.6213794526681564,-0.7438784091934463,-0.025667189694279058,-0.7832697358073952,0.7025582397769015,-0.08021580604465672,-0.616545124520848,0.9353400411406819,-0.6021306840422971,0.8594340670373618,0.29294296250218765,0.03322286919573916,-0.3326014267443833,-0.04741840645326372,0.004210187742301941,0.7278843236925685,-0.12642186588982812,-0.1295901486501292,0.2808732030755539,0.7291535416314446,-0.7424825164288773,0.5829530920418883,-0.2747170251608191,-0.7200236241462432,-0.806140735978782,-0.43846401198411034,0.7376408208903809,-0.7526484476823032],[0.3583482634201314,-0.4376998470111284,0.16283282120770148,0.5903663029045969,0.712985065232222,-0.9250782105201023,0.5343862434064237,-0.045479442514592794,-0.0422142706135511,-0.4314358266203,-0.6447467341439457,0.3581952382635982,-0.6552368146856546,0.12655104539881434,-0.12189828475318887,-0.9577303277472362,0.2836732261314483,0.1353331905337969,0.5755947341792433,0.1406640760457698,0.7122435755479073,0.31931223983957446,0.32122844005262197,-0.012214437758142349,0.8149305324890079,-0.3974596463963129,0.1938746019514359,0.5995599654484445,-0.6519228139232036,0.030266749901332934,0.7742532503532509,-0.8520648527570145,0.5656746221402227,0.2977553951311902,-0.1808614586482089,0.0944434197975037,-0.46124383976362004,0.3107513515957595,-0.720821039583902,0.05661538015017584,0.522782321512298,0.641426400705386,0.768792097044922,-0.5489143474310267,0.9490648657922546,-0.2546926919858344,0.8016706681205816,-0.5043370949004856,0.6197083754457793,0.3713843065239131,-0.6269842424860919,0.2300423566745291,-0.32548127406306904,0.7167084400090071,-0.200308114266331,0.9096355523703823,0.12937046095375893,-0.41807746769258114,0.12207476773642179,0.3019538797644328,-0.19028923337853973,0.016520362638302144,0.8264423603397495,-0.7652215861084413,0.8589295853371196,0.772796714169612,0.16433803197994493,-0.9272899026268271,-0.7598631363416314,-0.7437577918782996,0.9253423753546404,-0.2883949062188012,-0.9465688085145345,-0.33433046483365136,-0.7853182541911073,-0.8259512391636927,-0.2838127009145501,-0.9825069736558714,0.07689670608947863,-0.24241918050084907,0.2216218629491551,0.546919773536857,-0.9819678212662877,-0.1720002149363582,-0.11614713468349969,-0.8264836815752934,0.4429977782356356,-0.548303448448366,0.27567167520681046,0.1422131876335777,0.4650435819562775,0.07651311416497503,0.3978240738697902,0.38106078086752404,-0.321081594582268,0.7007789529668311,-0.5382425889460505,-1.0283339720753666,-0.020981161594591114,-0.43806930535092037,0.7792276207914522,0.14691763377103886,0.20744380865907905,-0.052572842566361536,0.33636660570583515,0.5495112943278465,-0.4853717268075161,0.3754690849600151,-0.11193349139388269,-0.8579064871254292,0.044398677350374394,0.14278009945854575,-0.3965830658748659,-0.33174825610807335,0.02005494688709842,0.7020528314469532,-0.5410376984733527,-0.740107647569802,-0.5556509205498532,0.7472405731950307,-0.6121169487018594,0.01946393371442884,0.2650704084451666,0.42745274295932584,0.3520534358983325,0.35371246104321435,0.31728993653954846,-0.9726578706313029,-0.898225323562929,0.7581424721268304,0.6654324686723752,-0.31119834360431037,-0.6685194800602281,0.17357316464821382,-0.14654258997815112,-0.7339962308097361,0.04963188462126919,0.2958193098902873,0.8799101483318603,0.08804285772280296,-0.8432946985231038,0.6358372509162866,-0.39164729213734933,0.08992623401885283,0.5067692150507022,-0.6635884235362375,0.6146441868978015,-0.2131313564102848,-0.6939176653935109,-0.3409318557565025,-0.10825236398224569,0.49495057837207646,0.1018796102049089,0.7143836318769988,-0.11091312908778038,-0.4724948979484743,-0.347285903093439,-0.18884024964565727,0.38450348606181317,0.5971288520314194,0.15989193750161204,-0.44751653894208865,-0.8783877567229654,-0.2386336109786585,0.603123223949261,-0.28238307327403733,-0.7633546398908719,-0.28830951444334385,-0.6404536837818615,0.6892694801236086,-0.41229973676254245,-0.041708369548261376,-0.14246549578299178,-0.7655462347925452,-0.04849211115948494,-0.16882985378864537,0.5772782099270193,-0.2679395662637361,1.0993757625291545,0.108577593745401,-0.5523435844897521,-0.7087304645246082,-0.9524675545407418,0.6591026239779231,-0.18198193695030546,-0.7286570404917618,0.4997187576079172,-0.2944656726510629,0.2887083139858125,0.7645781099732226,0.3474196958472225,0.05183755544877697,-0.03163168281883894,0.517103574160516,0.06282114311976449,0.08814346922652842,-0.6719083020942851,0.2210936115198099,-0.2783836655389886,0.899229438286289,-0.032056763317691486,0.4658265034253473,0.8316843161422359,-0.6020017363252796,0.5618416515588242,0.1265379939128698,0.8263457274270862,0.6328838890767667,1.0090551406292314,-0.1315792976991457,0.18774540411799584,-0.532556315283802,0.5169486659476267,0.45523954419174795,-0.6081315620375938,0.04819208981979619,0.27369336578657755,1.141878517233889,1.0065286293169473,0.24559583630161805,-0.7332314510039422,-0.1765784814108756,-0.6929860736129524,-0.6810470704412547,0.004731032692663728,0.5908374548731323,-0.7061095281802141,-0.5667394555753837,0.11517050535302088,-0.9792117796630717,-0.24208966374541271,0.09323303221228145,-0.652643322355615,0.2946197936081837,1.08393676407892,-0.3926959232723233,1.0700753175349629,-0.4264057498548139,1.0108963858651188,-0.7378069466372846,-0.8273837667662352,0.2599904195578008,-0.9862147440742428,0.9249513106326245,0.8475474880180707,-0.12160388654808837,0.04741963854470571,-0.2746218377896367,-0.18698705755297224,-0.08154566620822466,0.7961473007491661,0.3606849379325432,0.7956874690266968,-0.05773062367632669,-0.2749131846244492,-0.8289851454475562,-0.7162318448230973,-1.0072843159315334,0.25111772760550133,-0.19742944172897617,-0.5348469376584791,1.0992424411549062,-0.1242883594428873,0.0636895001305784,0.11514922023339107,0.4120645010821698,0.02527878174033099,0.1393495271152783,-0.1872467403676914,-0.1002288884440346,-0.17241183065722568,-0.11040812179372306,1.119841565759908,0.8105976535132298,1.407954589545221,0.5270407154552108,0.8778845841213969,0.6300458698308556,-0.15422671747124927,0.7519923978700211,-0.25447392998459706,0.8935826326551928,0.5425823434378207,0.914767865284125,-0.06631489754197,-0.04900506470942134,0.6695750840092,-0.7612604009005408,1.1274593461928621,0.4735244122277479,0.6586279815701171,1.104301076320946,1.457615223422067,-0.3548551016007454,-1.1117589333453277,-0.2860309325802142,-1.1447127581580905,0.7769595051785384,1.429474158468898,1.0933004809416327,0.09135992954931567,0.37166303132910256,0.8329968157102481,-0.6086805446761661,0.28805958320482294,-0.8097937155808103,0.29594280816494223,-0.7173453003905244,0.5976354726845869,-0.6544370099717752,0.7670702131760655,0.603508418272172,-0.7318572792160231,0.49869052215754395,0.9775753114543762,-0.286838005536441,0.7961985901461719,0.9792896135813739,1.0568753211865687,1.7691575363017265,1.1873852845088277,0.13714987573781923,-1.079338514353889,-1.4458218146091688,0.6524581494966039,-0.3669103694601107,-0.09924037877185743,-0.17285588262233917,-0.7168387699950416,0.7989402683957024,0.9322637144164475,0.0963503300554908,0.5528644271847465,0.7186402685045282,-0.6862443947779497,-0.44381112871200457,0.4510703833920784,0.5922481895271685,-0.5518815627899019,-0.45577621147575575,0.17327095098241002,0.11381659349303681,-0.24260892746380996,1.2458895009411246,1.1657442744130408,0.7491661358174404,0.7684217469695126,0.25402926286707167,1.5032825015462719,-0.6837859850703253,-0.8980237970980491,-0.41453560590759375,-0.709146630518846,0.5243817728321337,0.42421899308261046,-0.02250716944511147,-0.9028908398590291,-0.07111604484880228,-0.7323749571255875,0.25266418203969254,0.015607880136200252,0.7365399015824696,0.2876045537386664,-0.7575957820626267,-0.47702810906047044,0.7955419540120827,-0.8649262375965112,0.6318910801701445,0.5855152905896059,0.8356501354161193,0.5946978891957819,0.8480397184921123,1.2474253938328281,1.2885474752960833,0.26063175632443497,0.02670561900056732,1.2608147852453433,0.703409855106825,0.5933337834969588,-0.17189408986847082,0.5479826381619088,0.5523374448195748,-0.12204410329054072,0.630098331981567,-0.09156351206733435,0.6214487355947002,0.7909245093276355,-0.4423715135646598,-0.4462679675162757,-0.9072824644950742,0.5929331080224135,0.6000996282722557,-0.23789073016651652,0.6996982630120143,0.6022253502388604,-0.14954714562056448,0.6763342989879297,-0.7222044489153111,-0.7726667890578253,-0.7582818085132486,-0.5609434475994319,0.7484141481572061,-0.3946774739924795,-0.2090725552746981,-0.4927370588166937,-0.030002741957204877,0.22938633163331584,-0.3483812476620914,-0.45084273756761034,-0.4357944435968564,0.10058213404020094,0.8482609147541786,0.5814902482567799,0.2558008226482932,0.8798047407965244,0.357436483967734,0.3638754946464727,-0.44086890785380434,-0.09297649569521295,0.5705943168348944,-0.26708343207211827,0.21354409119260565,0.0978266174764484,-0.5999373291255059,0.7991806540744822,0.24689977195166313,-0.11377653514148751,0.9785602318157555,0.19408241684261926,-0.4510370925810701,1.0243844166569773,0.1194420896520316,0.6173289745593502,0.04515741166758568,0.22504522211604255,0.49681220413835886,0.29880426383902303,1.085928343314485,0.2436288249560436,-0.2867681114457561,0.276169196016706,-0.4369825211172966,0.34696182288075833,0.03674974454878388,-0.07744759337593113,0.49904930451420226,0.10754206379254369,-0.5989851663587875,-0.6992756582940947,-0.8222370535492985,-0.22069700876327378,0.15478365233108643,0.3298032711815255,-0.04100239909244954,0.626037071054432,0.8931139547542722,-0.5200068153584099,0.6660868570446217,0.38563548171180706,0.5400979046488957,-0.021373480278704757,-0.3991320566663246,-0.38523549960147396,0.35823859497179505,1.1330864916969285,-0.1797740359255341,-0.6817488477996269,-0.29553211427555054,0.13385814532366883,0.38567186409710336,0.6381430512954636,-0.9578706700881378,0.20075189543898952,-0.6508896521052121,-0.5303459835729458,-0.6480348084760708,-0.8022850645963717,-0.7384864587646283,-0.17268996479487772,0.262586945336851,0.3194694590257362,-0.545020155034256,0.6436161195032001,0.5498255720768167,0.9244221981084629,1.195967502338414,0.9461671964270415,-0.7639636614322459,0.2576461292474283,-0.6021868831325893,0.4684167685260727,0.8735903924106443,0.5135814388512859,-0.1792535732031495,0.12628382679652198,0.07730083506671874,0.5365922704359878,-0.6428957303082312,-0.43120057913032134,-0.34679110222204595,-0.055509859725110376,0.9675796730653963,0.20112774466818248,-0.4225901353735977,-0.46454073671447094,0.49711201719802856,0.9988343560033689,-0.22329372800510408,0.2204587684635181,-0.5340812445582549,-0.4569523045070599,0.6047840705256531,0.9470958402158092,-0.32906841312798796,-0.2866960271620752,0.3354772835437311,0.2075544298695595,-0.5866556822508359,0.6294493113588965,1.338513001914698,1.075132539193194,0.9836044707979276,-0.5554664533401796,-0.3151765849161576,-0.23990747704122567,-0.10712720940227742,0.8766415162566933,0.47880339180026593,-0.16946158940657083,-0.6440663473689766,0.9340138291769754,-0.26469847220880705,-0.2462809187423225,-0.5365411681376391,-0.9153915019965699,0.26620404535131914,-0.003106503225230183,0.8412573707358452,-0.6600451866178518,-0.6249801797832443,-0.17831653048025825,0.8417971047961835,0.79113910180503,-0.5800593836455075,-0.19675005106745427,-0.42694727005521943,-0.48961128545605775,0.8019948560676802,1.152957038588063,0.4542963983706868,0.7038087982048963,0.5784298941514455,0.18443220185099019,-0.40479327107399576,-0.5977235916422603,-0.3175874892231148,0.9351762618129196,0.02785945659808254,0.8412707022905332,-0.7043094791949387,0.35652846661268267,0.5683442862007944,-0.12131291103093621,-0.5943243146833243,0.06783087481475628,1.0092188409218377,0.6075561827387727,0.8540120909380994,-0.7420609122908087,-1.0134016959561474,0.7277973088550683,-0.5958355950696357,0.5507242002484325,0.5585069683153815,0.7545566274714867,0.550522691311065,0.17188915731961635,0.8826485180291924,0.1815856260558969,0.8509808308362387,0.4443150058811705,0.6148709005215344,-0.1593898401655766,-0.19322289319032324,0.30574003140188244,-0.7556124562845264,-0.3789174580278267,-0.14124595934555106,0.08539597079773054,-0.7432794715292659,0.8477216761793458,-0.7356700796611032,-0.014512863140317725,-0.24813330561573868,-0.34940470852041444,0.9244758416724772,0.909641707091232,0.3467894755895163,-0.4952805864316114,0.5944835550654854,-0.36418359527807503,-0.353620743783627,-0.6284160339119744,0.621888184918633,0.017636551158078426,0.9819221673889574,0.013644637881018959,0.9502376969854169,0.37810394850957363,0.5579108527682847,-0.14049928375047632,0.3274171242578204,-0.5993828043789754,0.9107931703897443,-0.4711629758404903,0.07838785692560335,0.9157962492062997,0.28648026861060916,-0.2917735812489722,-0.042579622341260545,-0.3220705692849825,0.9785813821098909,0.7570065156096307,-0.4152041718364655,-0.0878544468213192,1.1349630544312013,0.5326535684087537,-0.33150027873428956,0.32653896336328675,-0.17903461545113103,-0.4211114469903208,-0.23544285254962102,-0.5723581330582477,0.7010385968037526,0.3950040361212141,-0.672095836269326,-0.5725993508658919,-0.0964167491801234,0.371257785397802,0.21782960172995827,0.4227268852369878,-0.9116550298059505,0.01829664857200809,-0.9922948548758388,-0.5630505328848296,-0.5347640878799635,0.5640219726878822,-0.7119371764519703,0.9973011169186311,-0.7145957735346931,-0.1602633820169374,-0.6313023926747284,-0.6474501625489287,1.0299909379772996,-0.08533254980280244,1.17984280152264,0.5457319676517289,-0.4543960610613677,-0.33455588035889294,0.2491669609548265,-0.32744428478058507,-0.7518308099618659,-0.4041373017676225,-0.8499855833252072,-0.6256024401389254,-0.6670982718473742,-0.6210957979590206,0.5742880516605515,0.18668283255594476,-0.9309861274401694,0.39267452011329357,-0.15900876578940304,0.786213842463487,-0.568954117465797,-0.829061426317343,-0.6673090678057031,-0.6039576166911851,-0.2711091827722985,0.11254851370165059,-0.6964156573917345,0.03612696030618089,-0.04737121847032421,-0.6626291000913609,-0.5284520658597992,-0.29097430827633247,0.3664485441875108,-0.12564680347001222,0.18505936452529362,0.8129062995757804,-0.33712252532244824,0.7094046590847336,0.21826963976839303,-0.4701885757453066,-0.7442178969238805,0.9421006869960686,-0.16953029687077367,0.8650345388991478,0.27815666747472056,-0.8679422896023858,0.12236573414388618,0.3582445626530155,-0.8130117969991246,0.19838646677544025,-0.0674622198370034,0.05581643833495652,-0.46796083959972495,-0.8178695802617756,-0.9952315895689708,0.36686485361595456,0.6039033006690696,0.954682257883587,0.5630054338109786,-0.5419078721729139,-0.002529362598168639,-0.06195891183887889,-0.04728455076005868,0.25572375467222136,0.617710358821873,0.735807760893707,-0.03554957440938206,-0.09054138064167737,-0.10820116872630944,-1.0251730915115906,-0.964746546031429,0.564275463470842,0.791973626988349,0.2686996791276459,0.5246061368121726,0.995402315240576,-0.8360659141880378,-0.8536970355434188,-0.5040368571759879,0.8660752569605968,-0.013106355403940227,-0.3977331780388591,-0.24050089081365844,0.5247468537003992,-0.8843183707261524,0.4599358978465416,0.48386500578482716,0.30978005071517584,-0.7917079489719293,0.3554848002748742,-0.20261574821147493,-0.512831655864667,0.9864199455534521,0.367733766996283,-0.6156287924097601,0.22050879720349792,0.9993781165850739,0.6409757181108425,0.8178488455136914,-0.7007297335699676,0.48384233484489125,-0.6757197465182032,0.272291268138519,-0.7102796956113862,0.5878279433556743,-0.22868053246746767,0.06961515812103447,0.1698926976904882,-0.7553850188002114,0.3094540324879467,-0.6451165722750984,0.002232540963465649,-0.3324272027048816,-0.7311869893896519,0.5013640954671462,-0.05424463804629437,0.6676071900122615,-0.954357083061212,0.9587397315589216,0.14923274018302013,0.34075203826908584,0.6632391183878777,-0.44949311672667375,-0.6393707326709883,-0.43923403239235825,-0.08477256655134369,-0.425706747864564,0.6547094038768295,0.3162383819836172,-0.09668919471914306,-0.8083750831292236],[-0.011931769111714008,-0.1327671715201899,0.5205671446627049,0.11194070612158069,-0.01625290399567647,-0.5731460323908597,-0.7156614241962096,0.7690132203033739,-0.11449501439120535,-0.7891833485864999,-0.19574394313311827,-0.09792272847410088,0.31795898317571036,0.4648269971917103,0.1288830450393208,0.7357773077689862,0.22150107794282858,-0.6077958976243791,-0.7681891016938116,0.7996429869222994,-0.8699340287384911,-0.2188813132386358,-0.02191227706807286,-0.1641151519160724,0.821109188415051,0.5702799493647801,-0.9455600873275931,0.21500401714325545,0.2909801674718253,-0.40614610694821707,0.5518243073501912,0.8119144260591993,0.9952054241144213,-0.6891496328092861,0.15642631064384105,0.3909778453746464,-0.6579763497186555,0.451168083571019,-0.7647021958490186,0.2065560149626997,0.5388432381054407,-0.8000585367114559,0.4954074127027641,-0.25361305890985986,0.0651207849872669,0.7937889904531951,-0.6500109642511482,0.328305013823279,0.28148728890822383,-0.7830148287526348,-0.3566384286621964,0.6064530004055102,-0.01622332425354789,-0.9373600830059663,0.9664931207516998,-0.0484021059792874,0.07193972852228603,-0.43679426093315965,-0.5638843169594128,0.14034718773620256,0.9276551744212213,0.2968565417541835,0.5178318263670654,0.8218965311517381,0.5802355749243948,-0.8948350508863041,-0.8061901866926469,-0.21922570516484427,-0.7322349874067718,-0.36615440398526433,-0.10280873110086192,-0.5108654374401725,-0.20889703120675818,-0.6670074659269307,0.7808597630177848,-0.7503958124146983,-0.8643043873412786,-0.10826324092297351,0.8073012301125916,0.8661842504798496,-0.35568230576500715,-0.41097740593495957,0.45865790413168606,0.655909496029609,-0.28225392338969213,-0.025458903518976506,0.5939709609311123,-0.8955951082065439,0.4722174989054044,-0.4089803924745276,-0.06798573380138073,0.7714484176681446,-0.36298309263833256,-0.8369645554208628,0.30586039135912413,0.35803936487663685,-0.11188915314925017,-0.4025924877430255,-0.6358596897167225,-0.37104138403128334,0.19304930895825237,0.7943957336190247,-0.5788476047528367,0.18903216262789052,-0.5042582629224721,-1.0038516185852582,-0.7352958850016286,0.4567828160777337,-0.49890878123067905,0.96035459673561,0.05430438535734594,0.5844915273807578,0.4019107663656498,0.658614265110526,0.9091299249197826,0.8939998774733735,-0.768145866101287,-0.11557850969280152,0.20009956731661083,-0.5532190842010555,-0.32376146495094654,0.5525725274042489,-0.6753740435936949,0.205289883921503,-0.5527265357376361,-0.2714862581291062,0.3216499199406185,0.13169681271196845,-0.5219286652798796,0.568471612126337,-1.1059447120862718,0.2163986864038567,-0.8620787473045847,-0.4398851623531768,0.34317481892673496,-0.34069031779423525,-0.9654989990795565,0.0622932097631834,-0.8044909921322543,-0.673305991692847,0.1518645171182713,0.8088031014569264,-0.20644122911135443,-0.21447523631384569,-0.2740018291104459,0.9816895129348168,-0.6930503216329017,-0.5645697796347349,-0.5887025454330758,-0.48167342141968933,0.04501189173720453,-0.577327514163352,-1.174408062099266,0.6441340157970686,-1.1102214753720536,-0.36270951269153423,0.22919379575707924,-0.21838431522963758,0.3483174016771283,-0.4139076924730131,0.3569396473240856,-0.10276611552988604,-0.6988003962116607,-0.5575096104689722,-0.3630304185710827,0.35755593376774947,-0.6395726134502497,0.22852265049521003,-0.9429190553752549,-0.7444323884638888,0.24522198385485594,0.7121945897051587,0.5392846118721829,-0.01078330062687077,-0.2049250011621741,0.707607111291349,0.8150603135023634,-0.2575812353113898,-0.43278043564617114,-0.705191466955719,-0.8437488886566216,-1.372260337084403,0.05406941164168556,0.30637265013692994,0.10336905472641461,-0.05192454378243882,0.32051602204042307,0.3216377007239713,0.641731778066449,-0.1516031851897702,-0.67351358468618,0.15460923098292964,0.19399704718066663,0.2908726637502278,0.48824147283368274,-0.5006084970698994,0.38905184389114456,-0.1738229532338139,0.1454971303494861,0.5166586391950166,0.23046567060702364,0.6338483112603701,0.2160639162458347,-0.425417239254994,0.4708061652791699,-0.5364439410578951,-0.3915536829643149,-0.018776772812979188,0.26227572144374994,-1.1879176763738817,-0.33180002541641945,-1.869731345038029,-0.07305902550615032,-0.9935341814024659,-0.30899371353626676,-0.3126879886231818,0.2519155118818966,0.43665251610441813,0.9310756879778244,-0.1770711976047022,-0.27991844332110655,-0.3899512142820152,0.19647888231200059,