{"neuronsPerLayer":[784,70,35,10],"learningRate":0.3,"neuronBiases":[[0.35928186967402775,0.03834090076458285,0.0285518197338257,0.32398374767600924,0.6709664884966811,0.1564029627960103,-0.32581816435392463,-0.44512292618206845,-0.33455925235050143,-0.15513874243681763,0.10123466225636746,-0.39293416206663173,-0.4565543148469221,-0.09045315302737039,-0.12470632565604156,0.3323702346003349,-0.3616653201841602,0.4066958085699246,-0.48911469070673297,0.3665480738081335,0.2091286290775598,0.5595187425718353,-0.4459116154662356,-0.4916459063987758,0.2586848518185437,-0.3962613717238354,-0.033991649902061605,-0.09673038747910451,0.5983059597250024,0.5950438891113949,0.6102778992185518,-0.1423771588580528,0.10316099641776211,-0.2686746162279328,0.23954246296149506,0.24749164936760937,0.26343811838340037,0.1999877856345338,0.4051860374752918,-0.23704689657329026,0.3341957533361327,-0.0444523235805247,0.38134944512580293,0.04191542641989998,-0.1775756092585956,-0.43484733713766943,-0.10140964599964003,-0.10106001307411433,-0.47711980566408835,0.5295779448519817,0.22433092231191598,-0.2568668402609896,0.42479659188914265,0.6946778399296689,-0.2934641320055561,-0.29464064161740344,-0.4403722403764064,-0.08680726524727561,0.5138608210348088,-0.44130134097896623,-0.3544747767690331,-7.673235991882965E-4,-0.2401922535057791,0.41724409324992306,0.007294285303994341,-0.16231824805988027,-0.309779542470479,-0.162994062020144,-0.2888746190640823,0.068188545912647,0.542751040967939,0.5188617258527688,0.5514415557366086,0.05832997671095008,0.05372428175614141,-0.4728371692157429,-0.1372501748081888,-0.2870419138338569,0.592124132069517,-0.21121923977518992,0.3024320873383085,-0.3633393238162368,0.14222338958895342,0.626046991963839,0.16095703527123917,-0.3263111420709002,-0.3643257414701114,-0.3967863975843421,-0.19595778888336868,0.29462660153269926,-0.34932536397885544,0.42973241268731777,-0.06315845655367502,0.48149888993011725,0.25012193707205344,0.6648232748710059,-0.09671861600486265,0.4829370012186751,0.3224624893124921,0.5064733033267392,-0.4057860653336083,0.46844193074052165,0.01824233640417683,-0.3758187074643986,0.3361049839697182,0.3057077460487413,-0.25783855002926814,0.4084330192356259,0.3675183861806691,-0.18261046416300747,0.06473051052485967,-0.4389351820636394,-0.016291793767046814,0.5436222061112375,0.459426308604469,-0.3606540921652637,0.5401747138074509,0.044017623187002086,-0.24946140090159158,0.3927797685804266,-0.1459115148213701,-0.2822094043696942,-0.42630201392792655,0.4952989939742206,0.12803304043064023,0.6030851530509176,0.40537201636328335,0.3766980386289748,0.5435639074316829,0.6364947552351361,-0.1905879220274303,-0.10417860939344414,-0.067371991278387,0.6111922166557042,0.4780324591699543,0.5741960178012768,0.632935317977265,-0.23299365303229352,0.6113980167762028,0.6224688255959663,0.3689204301499147,-0.42179489103219087,-0.4157050029898445,-0.35681799379406776,0.3729794146609664,0.27466579809295866,0.09015603622556878,0.6820907693673599,-0.22778625174374295,-0.26046403473684104,0.4320068511163512,0.2263999315712013,-0.28603969038352006,-0.12859061211011613,0.5466997529573241,0.21196772409372788,0.5889327522757966,-0.31853572255835916,0.303095384773607,0.5026969765120419,0.4338473267496544,-0.2840678557067594,-0.1933486377792642,-0.35599399286680966,-0.24404791104160217,0.45168796813166745,0.07217283145640807,-0.031557379346551784,-0.38007383485194196,0.5076740071492518,0.09327762921164717,0.34517784869484147,-0.12683789297847214,0.047291544168220456,0.24142497000823604,-0.383713589795298,0.4584912780112682,0.21681670143759013,0.4691535030248877,0.05139394868994507,0.0739595373790013,0.4723185157516505,0.5714718546217303,-0.22155774515287274,0.5873066595558871,-0.207521178073521,0.37614134698906887,-0.2880038750069949,0.198350427352167,0.2571360946089516,-0.21211262925689228,0.40168650194508315,0.16552284478701196,0.6912966888422758,0.10337305048093237,0.2620577792145463,0.5733529124730208,-0.36822091969681403,0.543065626311001,0.4212574180695431,0.115737341412253,-0.031421550801721654,-0.08707749363651757,0.5396793025904172,0.4053872172637518,0.24546101059765646,-0.08687845151992912,0.40084339042887707,-0.30711394260878333,-0.2257810255765823,-0.14714386064218737,0.6654660676231816,0.489340602712654,-0.37556038086904614,0.009513149857055203,-0.2941521373538567,0.4346536318301919,0.3955628232995597,0.18734871021265398,-0.09862321924873146,0.638994446194884,0.060424399147875674,0.3850728791030874,0.17711762904385664,-0.15191072393959137,0.2894032410608224,0.2735522508547936,-0.09387088251498366,0.5435013235498471,0.32171355794115675,0.2141356898031893,-0.22767700638614002,0.48711666739907633,0.4453039898067038,0.014905203392545419,0.6043507997352358,-0.14540080140258432,0.0792480624013443,0.12645146597419066,-0.45782362687021455,0.37562461866062613,-0.07756761658621791,-0.07943031925970123,0.18666304571412684,-0.3907494906615051,0.4397701407960275,-0.12543116091470508,-0.3913223908190835,0.6308263417209306,-0.2979097404870961,-0.29931597991600734,0.25788418556560877,0.19239367633488624,-0.12172628234166233,0.314378365768326,-0.28742710060928306,0.4415748954495069,-0.10186928366587622,0.4271183413195144,0.650541097301331,-0.2555058838010804,-0.43806561169526226,0.4785023782534724,-0.2027847360883312,0.256322019404405,-0.33255178576610767,-0.010579476917317476,-0.07912455740397512,-0.3814171689296914,-0.042293509671708585,0.022218913443671107,-0.003986229615933534,-0.46459188652197914,-0.13727071143853148,0.6756401386295763,-0.1554672227687937,-0.20853022676024746,-0.2842255595067117,-0.3783925292424139,-0.3093408615925802,-0.2776292294754355,0.36965175084065216,0.007717665838205878,0.529121614088558,-0.16618065051829606,-0.27895373905401855,0.6036037990182985,0.40731331328067877,0.5889593271144296,-0.0292808668145057,-0.1388731198411472,0.6608302184390051,-0.25622413671749783,-0.0951235100105936,0.587651435695576,-0.38204970074584776,0.00854300931943186,-0.32208100499609316,-0.40154256814031164,-0.2977115451723722,0.048826268466986567,-0.4907938400617775,0.2186374938218264,0.014035833108638318,0.31260012973346607,-0.02360844813516305,0.446625578979876,0.3588622060202171,-0.31941238780294934,-0.2046928285880007,0.37079996391407366,0.3197335906359905,0.6849757069965259,-0.47870338920653577,0.6474001220402517,0.3305680856429706,0.02720696105799003,0.08931879128637266,-0.49770566085355616,0.011825104505286066,-0.25140452635365224,-0.4699336463056139,-0.38906858642387815,-0.13320447311300282,-0.13193903531130963,-0.043236494687173166,-0.05989312419101489,0.21353104138533407,0.39932302665754915,0.4122313899033555,-0.3980291448891613,0.3410242281893294,-0.2045571940319753,0.19822990792304596,-0.22499799774568302,0.1294215085460123,-0.35835170787145,0.27900727088036725,-0.2115319337989538,0.5627240472028112,0.22792395149371003,0.4584102089157631,0.14619141188534757,0.688602563952244,0.48089453233306934,0.4748297016480565,0.5822337729617226,0.24362502892356663,0.22007813844160928,-0.05932052372184515,0.3954124159704373,-0.23663333734202185,0.4266312887558741,-0.4269749570384745,0.5013555023542493,-0.06445484897326259,-0.22674463977110187,-0.3805953134219678,0.6701028683218244,-0.36950556296859527,0.26198092742371115,-0.4221957058899208,0.48405362002591934,0.25696310571062975,0.25209284897494566,-0.15782955710133123,0.6553603359713578,-0.3576046083730766,0.23350636790573132,0.37476785665202705,-0.31633451358223763,-0.07447627207795104,0.21145120163328557,-0.4858905771881802,0.21437297987119475,0.1752749907013692,0.31636715267462057,-0.42789159826455164,0.6744448665977452,-0.38633656603355615,-0.16153752208470928,-0.24347521707065795,-0.3829905825778427,-0.1784845579715883,-0.09056828463565264,-0.4253004921253551,0.29786437747692474,-0.2554564782255472,-0.08562160994316248,-0.36800814166747053,-0.26374442376009216,0.4934580931027738,-0.18496687915519955,0.033257633233990114,0.2791083313830297,-0.15452165185870004,-0.4990943102898312,0.6281271970229783,0.4921854980372451,0.6057744841079815,0.058056019420165694,-0.28923524151688007,0.04344348248744645,0.17604624315133233,0.45571620145999114,-0.30778824192561627,-0.27684615724751516,0.0036139290358049303,0.5990419003166856,-0.2916607267841317,0.462155294340294,0.6480704900285292,-0.41818056026919126,0.1088563046883847,-0.23610225976413185,-0.19628521443983832,0.2960005924026775,0.29274254034456126,-0.44226302427064296,-0.44534202865492967,-0.08451516162821737,0.21289618740242378,0.5102350869531014,-0.18433268812426845,0.5696153029424744,0.667708970742275,-0.10198083760223331,-0.2745171275863275,-0.2425985686615446,0.6297031820841741,0.050047176416786576,0.11051517275639122,0.12652866847024147,0.5312863719924155,-0.2910727495626132,0.025503087499262445,-0.04823795942027981,0.23510185512209836,0.2402329664408661,0.40388353774719943,-0.20460273942282475,0.1613751098332713,0.03555451817300104,-0.3857033786719649,0.6179602476435115,0.527077700233946,0.5093225411230624,-0.379179210958441,-0.3695975769706086,-0.32834757405585413,0.581237783074052,0.6832057835213052,-0.36041334027289984,0.0014650646852530924,0.665437240523677,-0.4904581733392292,-0.4630956444910989,-0.41992948675439756,0.354323828856693,0.48747624491478636,-0.48458713708547807,0.023801939466413846,0.1892839175980645,-0.3287399489275197,0.5739274187426446,0.33211498740341616,0.3523135191861412,-0.20942098732909104,0.6770500293025608,-0.4104608783993246,-0.2081289811314394,0.47329594828035715,-0.4118360034752679,-0.07898822543651807,-0.1869285334264737,-0.06209772308424516,0.4779697571544127,-0.13520843479054823,0.5166336533501936,0.6126492770552376,0.1341843976585354,-0.1529304006102284,0.662788682496938,0.6770009801721955,0.558574852860275,0.09981911658292453,-0.4343444839108074,0.3972227743993725,0.5355402316714486,-0.04165404067786199,0.290385442551398,0.3415915361777354,0.392007374563788,0.40742429789048074,0.32967487553210406,0.5118847812453629,0.6414489290835907,0.21482350984585608,-0.12195771560422047,0.3164790397389371,-0.4846185951652413,-0.4015454953478059,0.4015622675671172,-0.46344196607082633,-0.4662532046202162,0.1182850059699011,0.6175463812420978,0.40060479654228087,0.051128274578448374,0.5665962190210216,-0.34704252797602975,-0.2164774848228731,-0.06120188252576203,0.0500737336465531,0.04214082420523524,-0.4145987625882613,0.22314144628164556,0.014648845395736743,-0.04624707726427918,0.1211196012055652,0.5990478459277253,0.6589273706933012,-0.1964356665798785,0.265642090636396,-0.12759128379906776,-0.3855346676798733,-0.3858883991943217,0.351045049985918,0.15890525547761936,0.34107254175541757,0.5239688328967707,-0.2000247744544253,-0.32318061831249667,0.3927473928245028,0.3287064280723304,0.006418398079639953,0.4196462054882404,-0.4452325742751137,0.4524026861817917,0.4383253525211447,0.07983355939701953,0.03488271068247073,0.3028687723214232,-0.062183769370518394,-0.4819784451262653,0.6114804937574578,0.5555465539398508,0.5333547347023035,0.23270125587537183,-0.10098824301562609,0.3403338590786401,-0.24554324219888835,0.6832589507695728,0.2858921015140502,-0.22761003443330818,-0.14683135940302128,-0.04508100682308869,0.032511237931796444,-0.4277298617318523,0.08772331425339541,0.12714575114091586,0.4869070405903546,0.46253552124370834,0.5124535945074686,-0.38238907954623264,0.3830824866881828,-0.19271944743770436,-0.25578581189073946,-0.47811938647167496,0.13186528238058115,-0.022181174513625057,-0.26076421122605475,0.35452252709719345,0.29663161455393694,0.5820627288856506,-0.2844935771724609,0.020380928973775636,0.06613843819391596,-0.21306877941162894,-0.20555293792742896,0.10531389731026153,0.6941289922232317,-0.30758400480483283,-0.0881792071883003,-0.12626605374816607,0.3702995175567947,0.2827328041056325,0.6614858524753393,0.4958405054637862,0.4196361549105202,-0.11571731790618583,-0.013224198208121485,4.7898896637654786E-4,-0.3029466434722754,0.10194366602974769,0.22296098548392218,0.26010864410664225,0.15168676333082565,-0.11548909491558063,0.3204180031637873,0.5624080116110339,0.5801153605426326,-0.1130997155875696,0.5418054822272178,0.40859326046494127,-0.029790133686355247,-0.14897343581735112,-0.47228376795929444,-0.4984274501754069,-0.2427740932046189,-0.08093490444323953,-0.0360519576011451,-0.15239453682553245,-0.2288175363968925,0.022102159027237445,-0.4402929249757804,0.6931838907267978,0.4494880774935255,0.5539762401217982,0.2597294675906201,0.05439757342850282,0.02119912288590875,0.44440957506109746,-0.23552068055823389,0.06909449174369386,-0.1607839220653567,0.2873254565527815,-0.47874806112173246,0.5126927051238417,0.6441461771007599,0.35954482337138327,-0.024815247239877714,-0.0334521238606964,0.08848194815843702,-0.2181487069432516,0.6328482444424388,0.5133268286533965,-0.2678322356674421,-0.2712883337552794,0.5922628661682692,0.25688472073839796,0.3405478774164573,0.08473524296723034,0.6318586833265263,0.42469059797119013,0.0731114598624365,-0.3247478621522326,-0.07293324742749646,0.30889219418391145,0.6463720431390299,0.36518835916781744,-0.22309687443584075,0.6376584753653829,0.5866408431431684,0.1247110977253395,0.17407813744717837,0.5414847529520836,-0.1416251723342945,-0.39808419957360663,-0.15916437602762623,0.28969262131976603,0.461202633042026,0.42212258512745804,0.07889851985956631,-0.17959687733689883,-0.16634645994516556,-0.24985323303781887,-0.15443086169058678,0.5728091643656432,-0.3159642748201277,0.606205281730789,0.6692043710529236,-0.3463804264373477,-0.2111671193114501,-0.18208265931772577,0.15595795484785102,-0.2699057621617474,0.35640973788649866,0.12015469877398577,0.3158536093050536,0.040136673687706126,-0.2512615554960354,0.5812938751644237,-0.2500748793368266,-0.45454271778939936,0.2862806777625798,0.638719458757284,0.09133089611510303,-0.27313291679057106,-0.06891882888088413,0.3682241915425505,0.5820225919175692,0.23130922343627747,0.6505509111555197,-0.40875068545204846,-0.10728053582579344,-0.4717181314904651,0.009339921455411182,-0.15929576568754716,-0.3423885398574519,0.5188529633892436,0.6191212045313979,-0.33959750044064463,-0.3036133443958554,0.46351499783065475,0.09602982984490172,0.40494768461298736,0.13484973228271746,-0.34432644856664785,0.13292227933049794,-0.1638006723511815,0.21157085409754406,-0.43438870857900597,-0.4114560579700853,0.3792460687711372,-0.1283246228084891,-0.4846842496288088,-0.07188654346600332,-0.09488946058760223,-0.09994259034346958,-0.28239461033380475,-0.08024441759265116,0.5492066003860401,0.13497176565402602,0.5235365177968536,0.1986354341979425,0.15386685754621854,0.029130658418074495,-0.2298806034213592,-0.44443120894807675,-0.15994439333522392,0.6891035116707562,-0.19408046504306353,-0.4106944310958912,-0.032321993446309594,-0.27500978259177067,-0.10483351502448951,-0.11839516286541907,0.5356949113954381,0.5810097079669247,0.2615397601199062,0.11164221264553253,0.5025481512065568,0.49381816497518005,-0.16915188822486943,0.12121165753201602,-0.4258014664680351,0.23904230418099848,-0.032634780975596356,-0.12539372953969963,0.11137591069143937,0.3776855996676899,0.37163219232781175,0.5269841646586473,0.34943731517507226,-0.3972627445134409,0.01808346402412553,0.22244723664642996,0.3035256614510189,0.2124850184356234,-0.4410999657974489,-0.21201705713073615,0.5485191687295385,0.5007055553116411,-0.39395932554092417,0.17184102550522284,-0.482441902103118,0.35507710526679725,0.5264489948958391,0.49483830292772146,0.6547319758768968,0.19383214647827907,0.2459801414371805,0.5405076501679449,0.2868078458274793,0.14683843372171712,0.2556391198594812,-0.39507191886250187,0.045677123186778745,0.5009697081973175,0.5492684224804383,-0.34050439052232356,0.47749458675047807,0.6807983973188485],[0.06293747731953908,0.2804884763989678,0.16047325542294566,-0.39253723958649234,0.4787753330522212,0.009931199524623482,-0.02782114738939313,-0.2691699031658386,-0.410599001482616,-0.0933304363230333,0.8847655860965271,0.059854080606005014,0.49200483710483256,0.2698899323084059,-0.27717648254092003,1.169730998441216,-0.45061627009710487,-0.0693275130115676,0.1476260573986788,1.068941640618399,-0.24735066271821227,0.6136070407745162,0.6376555578907235,1.0097253637407384,-0.040576491260658716,0.0041896633712252326,-0.3666860747119164,0.0795999928708082,-0.28303487440496183,0.3477515102612355,-0.23449063360557554,-0.1485882395505715,-0.07635523458859957,0.4023918496944509,0.7114700431086712,-0.10234190351685386,0.5451008537142373,0.7982296583719388,-0.19675672033840208,0.36039648527752544,0.2648558271813117,-0.3553253399032519,0.7437804840999576,-0.10540338410155643,0.4248904037559772,-1.1517470684347926,-0.5440520078542038,0.5237582486240718,-0.5944968587724265,0.7811482149889678,-0.4241377161201853,-0.3133646401910963,-0.29073231268469685,-0.4140695546366637,0.14432829176898374,0.49400471894185943,-0.8402561000676758,-0.18276188656779782,-0.7917317780632728,0.3049410777588277,-0.1437442624114386,-0.2656317512253408,0.2755787997911373,-0.30113601992117606,-1.4574957268774187,-0.6257236571829201,0.2196850927520672,0.20451567711419397,0.06824579317587603,0.6209912101620939],[-0.1086964962245783,-0.9716609066432342,-0.44780759220903,-0.6369642450433468,-0.12267787493274421,-0.34641860508164846,-1.0621604347752809,-0.7713670366890342,-0.10979008077670913,0.7014781542239614,0.719103082859095,-0.8768743624833145,-0.5481529223040825,-0.5363294689092548,0.0584554244602128,-0.6470790645846296,0.1413680309454745,-1.012616764282439,0.4190941377549918,0.23845942365263137,-0.3658678428820473,-0.208147986999754,-1.692413112672127,-1.2085120630518158,-0.6329684205071514,-0.3924007583596437,-0.40659331364482515,-0.20341041668419266,-0.04266273070825575,-1.0625530254092905,0.19282776932942994,-0.04593355378873008,-1.1887561829093378,-0.2665213735392934,-0.20047423629456437],[-4.530721206272074,-2.0317047750300326,-3.898696157309703,-2.481740846754048,-2.5450311720634984,-1.1374755036719628,-3.243617320481237,-3.2254823241866726,-0.8968424189313841,-1.275590509712387]],"networkWeights":[null,[[0.6031861276818485,0.6294797026291946,0.6312633607424806,0.08107053465692007,0.9643163156993154,-0.4497380088491035,0.837310778109276,-0.5170136712244912,0.23815296168786676,0.12497639122128582,-0.07115999434556249,0.6185988605961256,1.2036528228542072,1.17313712704559,0.893492895193904,0.18289099439816636,-0.5794734287648945,0.8408650037788096,0.6590601461389988,1.1522328273364704,0.11690296168517592,0.2896455874370351,1.0791317068475845,0.9068319408428355,-0.16732939693362242,-0.11149616789293729,-0.6163029945821309,-0.5333192982554898,0.661695230655614,0.9423696055711769,1.1828652332346732,-0.7250627035519756,-0.6984567347141734,0.41479821466219774,-0.4063671452468653,-0.1338452321242901,0.43704367296921837,0.003935878277909858,0.7350801429471756,1.2128708547204912,0.48328426014593023,0.5497587476304503,0.6560695509909548,0.7525930639531467,1.0673382645391452,-0.542454104335506,1.044475257745425,-0.0696685839607799,0.08990794469512844,0.07429486076873976,1.001950982917917,0.15298239315127354,0.7440738859776418,-0.4564297308447494,-0.586135012736874,-0.27797762306043233,-0.5280170318706024,-0.3646293202409953,1.056841690971276,-0.12454724190722063,0.16425415389955667,0.5286903268933402,-0.526348197398777,-0.48754142529908245,0.6270925332016438,0.06937014271943466,-0.8354488307046097,-0.2527112053528685,0.45864967718545346,0.07623259625101479,-0.832535140486053,0.443723517117364,-0.4509778895540653,-0.18731360354831372,-0.5780730116549372,0.493005207835967,-0.9500350221541978,-0.5431608975192187,-0.39406542204359546,-0.7722684351404867,-0.2586036842929075,-0.47279281209098084,0.7323333732457525,-0.08161565556895675,0.9641696806239345,-0.19958778951364936,0.5068970520795101,0.30882555171195175,-0.43132273911504054,1.049787451029028,-0.40861811883206994,0.550766294180481,0.7167205866593966,0.5618524665236135,1.2465055263218896,0.793445153858638,1.1840792629099346,0.7451776214351864,0.8340964995714314,1.3189840557739165,-0.7297526285653325,-0.3121619321350895,-0.4451694885146228,-0.8030274004230686,0.5319285791555296,-0.5811706492945999,-0.20714761799356968,-0.1264954762186742,0.3541216830978223,-0.11975238909220023,-0.5396394270377552,-0.11400897436851959,-0.6929851381092959,-0.5795359747231797,-0.1057178121421836,0.8577088175160278,0.5285090149588109,0.31338927688129736,0.3696360372165039,0.6692477579526425,0.6529367095972103,1.0016211036964386,1.2387247922030582,2.1722030624898867,2.8952467404329707,2.092008184554986,1.484041492164353,1.7969139626931,0.4115377953072469,0.7040683015733588,0.08842962180813697,0.5811817644030588,-0.0897339185257144,-0.12164139230843173,0.27752825549270704,0.3576165386959798,-0.7248953596762814,-0.4385063582582504,0.40878311299607656,-0.6881487813378381,0.7899333182120373,-0.4329173029227173,0.2768567486492978,-0.43469784351452295,-0.2545852886560017,0.9140010151409282,0.25053678470982277,1.7732119499244647,2.393965988257263,2.7288256502265567,1.811839169287585,3.7884335353354195,3.581687885150162,2.470725447753856,2.2830936414494105,0.901058553236509,-0.2477928300114127,-0.8934455120238066,-0.6498683126366241,-0.6067650529646674,0.5372404529296784,0.17171167419853456,0.617412113938903,-0.031209246250843443,1.0814947281971277,0.017797609209750622,-0.10390951467497422,-0.5629598682642577,0.0034607051530339277,-0.03148222141332776,0.8247446448570349,-0.1832303864782598,0.0473815710249827,0.31125242686998034,1.3870702476908516,2.4508335113673,1.7062497969861805,1.9580985880797994,2.0454654972141673,2.4381788867951015,2.819157654411061,3.0501376428059666,2.034140318049282,0.002836053623166457,-1.4788411593649462,-1.0693162362135216,-0.20541078259539522,0.7509782517751955,0.5677678819603571,-0.06381637910454768,-1.060897302656528,-0.6181822768121308,-0.19532709618451985,0.13235639317293363,1.24875564187819,0.6979785473402965,0.14183410640171645,0.029759184700529916,-0.1806220587404701,1.2594549685243417,0.7977982219810117,1.0537977330871202,1.7900271989043952,1.3308190926187082,1.1474412589784018,0.5249438143465659,-0.5854352053836491,-0.753352861261378,-0.11543266319731897,1.3158588070695731,0.7341834680357024,0.2907879020112574,-0.5027978964305849,1.03413947009059,0.3756217907518822,0.9419332765500583,2.0898580336303354,-0.10915178673213341,-1.7798379748540551,-0.5759456853253486,0.8042385563635008,1.3424718696138747,-0.44252349205360164,0.04106060455434885,-0.574798833957768,0.5560796692801947,0.014000788896104609,0.34826879679712736,0.8083587910788931,1.7775726262193112,0.3309380813252252,0.4651750608626671,-1.3045448670605808,-0.8396552233028869,-3.4221646376719534,-4.038824371885818,-1.6776085529901386,-1.953809302849615,0.12204357546708118,1.7885287950589668,1.3068349584938561,1.3277986515561602,1.3745304635408313,1.3034127247114347,-0.2668216659779835,0.07957266771645581,-2.4061283987888746,-1.1621556087014917,0.20117512750994074,0.6847665539639862,0.29692550575367743,-0.04208279916193473,-0.7502329760502503,-0.0680176945542373,0.8732850605917684,0.17311626402843208,1.127678612156701,-0.3381838771493706,-0.1236945602793523,-1.595623414725297,-3.453655131620787,-5.050752255828348,-5.641135250455007,-7.050664676414132,-5.676163293425533,-3.510275029639093,1.2730061287492749,4.0806827867477775,3.465710669579765,0.825700011531452,0.21976926507930478,-0.20822830823282532,-1.7982831693294108,-1.6491740806927822,-1.4236870605766307,-1.6869340370432038,0.7218017466229736,-0.46209146748931834,-0.0027446906656245036,0.9950726154221885,0.7266332637384102,1.0803814108671668,0.46814609776185506,0.46318433254400154,-0.42358420973831484,0.05674928521404647,-0.7034281123964907,-3.907949703225683,-4.100460282084662,-7.291483083877342,-6.456984338983113,-8.932450705342935,-7.165759339468664,-1.451832957363235,4.453838850003971,5.741291425263408,5.038630158168749,0.8972414371075791,0.5487735382114262,-0.581413773504247,-2.538636149434009,-3.65053318472947,-2.546468615367015,-2.2087670742512127,-0.006370267391590731,0.2250094245376118,0.750142150734593,0.08658642290828228,0.7452226652467232,0.15639200525806624,0.3770538066567768,0.22615260276365812,0.07992324035537658,-0.7623797464947772,-2.076736630576144,-4.776669112148687,-6.557590627609346,-6.787178567342514,-7.47908329847971,-6.896100394909114,-5.32210290120772,1.336279391540057,6.614116391507606,8.549506258364389,2.9800918339831357,0.6043323570993373,-0.38947842520090153,-1.5769218417689006,-3.16356838994449,-3.335892953081788,-3.508303396475756,-1.2578455491854579,0.10220017954679972,0.3549520217507858,0.36148120270855755,0.4176523088713368,0.6402130903396169,0.5949242208600504,0.9971192507598188,1.0532727428342445,-0.5090590452916139,-0.21607559943967888,-2.8894696013772783,-3.5133645450722084,-5.086478317433958,-4.696472994119004,-2.9189864135757078,-3.0573434460076605,-1.6028016306149766,2.7233431055518653,9.157480529778036,7.328978685414346,2.4585781961181765,-1.4155735065544743,-1.849131191496369,-1.507245320369628,-3.3779550420519384,-3.0869134045883646,-2.6412870077169237,-1.7301109018549163,0.34823981247554187,0.17919781108765365,0.7666148751522474,0.99255158037249,-0.11703969850148835,0.17713867232787317,0.9970166625633472,1.126592816114963,-0.3753040022075603,-1.1399900261730826,-2.376960043371626,-3.2297216365644927,-1.2147801771455506,-1.6653734653439083,-1.5038229064766884,-2.020757374058826,-0.47114339647832915,5.762678185085716,8.21230595820919,4.791704400248702,-0.06534840602708668,-1.7910864013375594,-1.1660901553181995,-0.27281780312833204,-2.36237395674467,-2.9826093292447458,-3.0567312502494888,-1.304438990741737,-0.8895751193501702,0.44553779221010076,0.5266485047323474,-0.47879570436676805,0.027218984416986117,-0.3539501037289606,-0.09847103046382347,0.25200116462053734,-0.021146115036586692,-0.7261811272091627,-2.5064371008971884,-3.2713599496061767,-1.9487299206571762,0.029965574083375607,-0.8011029324522367,-1.2721891049419738,1.6860046318426973,6.12879978935653,6.731920317476398,1.9695868612507728,-2.4057403722974873,-1.772199531707307,1.0791456409130817,-0.3678817049440471,-0.33328989535947895,-0.8465962004035074,-3.0778027935492545,-2.9241892408671166,-0.8095414821419182,0.23532558814036186,-0.04113815691518332,0.22281635074180117,0.37927496640965125,-0.7610073338914604,0.6488225769129882,0.36988271074867957,-0.6598411076186426,-1.304354763529588,-1.512698341734894,-3.110009959643049,-2.1868866202809585,-2.601569319905956,-1.9626078073429531,-2.793801239037555,-0.5315795531667891,3.275536501445176,4.096423490830048,-0.5753593511750883,-3.0555073475235015,-0.9509704169823371,0.3823053838550749,0.44746932419806434,1.5242024661806757,0.13508433168309547,-1.2116232091443997,-2.2553258197547787,-0.26833955184059627,0.23812450786162398,0.1899908335663656,-0.18596773430507263,0.5133358849949182,0.22074356487270563,0.21870773538221627,1.450492790873267,0.6578704363800544,0.06835794476533229,-1.9491959980867801,-2.3261489538745033,-4.422382864188333,-4.647911372399859,-5.1315978282571795,-5.481849814442147,-3.1700544967856175,1.6896817603549381,2.0801142327587145,-2.5587410369539554,-3.6414084796852193,-1.8571133451288548,0.9966440037288191,1.6073830681130086,0.17478924262028192,0.5132894711407358,-1.0616631105920298,-1.4740162184393053,-0.5734910312940237,1.101055030246365,0.9547466183224543,0.610657176550771,-0.08973314500332527,0.12587987930706418,1.3690668615990165,1.287114758086477,-0.06733740943153498,0.07948497365235953,-1.116238669156817,-2.8920957193629766,-4.60731174161935,-6.506343832469085,-7.779093973091778,-6.922242805637946,-3.6583484966464304,0.5359957522204244,-0.4065293727684091,-3.2259567932833093,-3.3425330522409222,-1.0756644406573843,0.5834911056768577,2.4795518974106834,1.7458457497150053,0.8119787943419913,0.6097179062873237,0.17504997479390924,-0.8431293522183302,0.67442237627997,-0.24613815283865265,1.213066264113899,-0.5145284714128402,-0.7082007916131582,-0.517247637270686,0.40799125583346607,2.15002399528193,0.30076185429659663,-0.3107652635878519,-2.592498077766286,-3.8771130777823486,-5.962897757762477,-7.0435035938894694,-5.178369772235569,-3.568814126065823,-0.4653646371354066,-0.4754777936038484,-1.171771947386252,-2.375620682968228,0.8567258455499633,0.8798563993999705,0.6717082036863946,1.5010973052381202,0.6598739307732745,1.451686883745966,0.8616083099414732,0.21829812197792797,0.8695789871480244,0.6077024011307096,1.008917685627637,-0.17648899135549861,-0.5014082706905372,0.910904305920189,1.0212659184772706,1.5431412217711098,0.2094019570495902,0.14841786888145822,-0.2981735876897061,-2.7029749809562533,-3.791230914267705,-3.891449810841425,-2.4813984332696872,-2.042931511676937,-1.51349956857997,-0.11718350039285486,-1.1802146303804342,-0.37589738053381566,-0.05565287216048005,0.2644265187768197,2.5257147270367963,1.137900353204173,0.3673133916627794,1.232146367854976,0.06284288253879994,-0.4835720925563433,-0.6248202336604424,0.4177175454760485,-0.3174843969694577,0.28924414244278623,0.2645145672859956,-0.032810656646642664,0.7055849171188796,1.584440727770699,2.132788177247717,0.8180494479219046,0.553809218148406,-0.17479116966936042,-0.11575319097470424,-0.9699953108065952,-2.2259008264946214,-1.1143173728590234,-0.9588334871063755,-0.3392273642869697,0.02128863947947059,1.4630086990078475,0.6910640949482423,1.0634854193961616,1.3914181463464224,1.9445069835073272,-0.15990285952256067,0.8783904657166149,0.32094553769754963,1.0680177157707365,1.1504710389476591,0.807347738577963,1.1264317610029482,0.13005665485402335,-0.30279575736916636,1.3811982498797668,1.9196905976298055,1.944008091115233,3.2101567337292995,1.748382642984731,1.6039737956127693,2.0093047685304417,1.8115618768918302,1.2065263813928262,-0.4843524391656756,-1.7268936799949075,-0.4560626274506853,-0.5236863374383034,0.579335593963325,1.8196120630519301,1.436583050306295,-0.3019635726653587,0.4721517577348895,0.4674951510987792,0.4131671085624321,0.15929778628438035,0.07727481280941163,-0.5110672043007173,0.613144576486229,-0.2166088622682787,-0.4163979271777301,0.8976458728376974,-0.6941960699411117,1.3418563298471349,1.6720284368727256,1.293649874632969,1.7700995797603472,4.008129783240038,3.9298021909652476,2.4930047373511104,2.8945881887783123,1.0988404151292221,0.3911573993552814,-0.9990781202702936,-1.5871690847959001,0.03298143325187141,0.30971980469077337,0.5961277755553046,1.0330676910006642,0.17052611663082926,0.25320393032408967,-1.1385129845258777,-0.055803240287868476,-0.8493693122550894,0.17014373256493662,0.17028529567389783,0.7012524153138656,0.5308367794054617,-0.13467612931863007,-0.6809147038262043,1.1888573129013535,-0.47915682034489876,1.5708990747215403,2.0895185520765454,1.5612469346385274,3.669175153960863,3.6272996325752875,3.2752669164884747,2.2244996469304628,1.6058212109027656,0.12015406735214439,0.4135031055444957,-0.8539979994825282,-0.2386852934033958,1.5224527335810132,1.4076792331300045,0.8463839655415929,0.2316464095641169,-0.443073688738811,-0.8611221981192203,0.15083314894702,0.08764022751296494,-0.4301366367429528,0.030345916303261198,0.6822132509073301,0.5103432004385152,0.3639002381495096,0.8861346294506213,0.526634918002386,0.7127724568751049,0.9418556578196772,0.5490158605017111,0.5065255500379195,1.455134683944296,1.5520423348579797,1.4089087210164815,2.176133512815925,1.4791411422520404,1.2786102013063259,-0.7706742966229789,-1.147804364931782,-0.6311599440482981,-0.6743218842838422,-1.0418041353562282,-0.43303854700487127,-0.16603925912529374,0.3036708010200736,-0.8796999132691464,0.8497761189323282,-0.26076529985831826,0.5071372766756655,1.03241965734684,0.11251763504205009,1.0163058677120504,0.7683619001680199,1.0548053341089416,-0.4220184094361769,0.6077942631607255,0.2601552401326224,0.8999590215882985,0.12217020814163669,0.6460656151790228,0.9570466028831393,-0.41004561205737583,0.0489548030755502,0.050615432660315575,0.6544839595738934,0.8144239946148105,0.002197967417889824,-0.9558138553098396,-1.0407698567254784,-1.3320900328573175,-1.003666756794218,-0.6868754268281964,-0.9110265483659791,0.6116629816898694,0.5147979667373256,0.6477742291509833,1.0030600223353532,1.2002247817512754,-0.13071230864993905,0.5944126464959715,-0.4496045477091684,0.9944297888319864,1.1727027624156399,0.9133616836794601,0.7431344487019432,-0.4847518816889686,0.4877796607506003,-0.6824172769011853,0.29246566635842147,-0.364335752804052,-0.09310943724607233,0.2489787674402122,-0.19313348439258882,0.6085227010000667,-0.7323367830847322,-0.006281369636863405,0.394754585903032,-0.03934039355263429,-0.45329267518297417,0.005739771890145069,0.3491560336323539,0.09486667484188034,0.3269304257578684,0.7587561134149966,0.44407298151286995,0.340159613194945,-0.0640462856114641,1.1541833792318272,-0.7129246923159719,0.3109611055201152,1.0280537466785826,0.12800032121382213,0.4591174736269443,0.5522129629190632,-0.22437121023297268,-0.718781278732639,0.8382583718305675,0.4155489815858439,-0.10033937227528834,-0.670472105186754,0.40225225614714905,0.9768221256421606,0.6123373945079505,-0.5630271912073938,-0.6531937664928981,0.9217561181212683,0.9554642328494698,0.27158004986735623,0.9916736025636492,0.9271284359185051,0.8320261481730181,0.10823248670898572,0.6013945437308651,-0.6873035133252173,1.0642064771562267,0.3613686066044091,0.863274741622445],[0.025085665304003045,0.05266308447454875,0.17960009142323627,0.5262625161531685,0.5004501099454394,0.04385313053082859,0.3731627835532864,0.7405218629088054,0.9355559120007867,-0.5864795651784981,-0.3561511453531551,0.4381924246836026,-0.5825981865628715,-0.5840950992578746,0.7595955131055444,-0.07919537159506615,-0.5448187669133592,0.24741986272763494,0.6562049157378659,-0.6556112766678138,-0.7494850604590418,0.5906387373222427,0.5017494509713198,0.6995540253387761,-0.0189333580288763,-0.1737434833714026,-0.01591808821568025,0.43616052545055267,-0.072317443353173,-0.7660660242551786,0.9182371882746644,-0.4533880196862611,-0.17597931332766278,1.1297944422412944,0.098994317507556,0.07662728660754368,0.4069307417669165,1.0685789949802826,0.21393276357835223,-0.23577005393158154,-0.09923938458996404,0.05352062679589104,0.6563756872738629,-0.1798965418269595,0.6763935577442379,0.8308101608399893,0.8049006158822485,0.46826635276708006,-0.5241409019306552,-0.49129800543484,0.06125591847249528,-0.08714052603017075,1.1193059247091177,-0.11168447388273522,1.1393165204595486,0.3707689776255741,0.791388849219726,0.13992844081696582,-0.6857959549208804,-0.5930288230628915,-0.23071369750692777,0.8129116308806565,0.7627134545935588,0.041428774996611926,0.6454834650927784,0.39661058051485376,0.907663998195175,0.2925642911277091,0.21350920589868522,-0.5832623976769075,-0.6901791707931281,0.06431357782405847,-0.3911364057823233,0.6811434017637915,0.4429543713548497,0.5083784569906122,0.40286232118776355,0.8995364789047869,0.712065046910142,1.0201440189716129,-0.20316457958997144,-0.04172461494663998,0.16490294684144152,0.6962235411650758,-0.4422416992620266,-0.7144067914742075,1.0389782733722486,0.9419271558928805,-0.8044126609655429,1.0283617320165273,-0.6007763720745881,0.9687017377339496,-0.6873656831851002,-0.688598700695953,-0.644200590719733,0.051623938949863876,0.0030956712790084938,-0.5359774398870667,-1.4017196226603266,-0.13023605244732303,-0.8826024461864572,-0.29468134886272535,-0.07035338317876154,-1.2357991425044745,0.6575621708280005,0.23888500150342126,-0.5689602937121266,-0.20714465283631692,-0.04416413084657767,-0.5075275846235414,0.1695239247007561,0.7572571208664348,-0.11107101845818312,-0.03926129946275656,0.6618372794993727,0.849189925144784,-0.7526973759028999,0.35508234531058197,-0.6714756842551709,0.6255714494677322,0.7114883369605651,-0.6003926495096332,-1.3101157488428843,-0.20877776381091734,-1.9280624909019426,-0.13127186935380097,-1.329780736795499,-0.17868608496060095,-1.8829337628288416,-1.4599949721396932,0.33983210718751616,0.44897377138457306,0.10195716253079862,-0.2317088849423821,0.9090458401719144,0.1830890841788762,0.4897229887055413,-0.029273174961317792,0.2345139660329474,0.9895007893932652,0.026682821171087924,-0.7507246267816238,-0.46563386681648034,-0.07917250334080778,0.453918164119007,0.9642438034391559,-0.5656211378650976,0.7875031528371713,0.15070010277552273,-0.5399350092354972,-1.7374377659685505,-0.45145934078678784,-1.4972681991092647,-0.4269605894049605,-0.5271781006442862,-0.9902891353121855,-0.6548282775153104,-1.398971025308284,-0.6973565463033197,-0.2963034640570057,0.4721399642063412,1.1372125487954943,0.1939696222848855,0.9058028973747564,1.043362251559486,1.0463101919324196,-0.5229084972900686,0.7854500179557533,0.9697294540801812,1.115285728920301,-0.18347831341827872,-0.6443871618882197,0.9280222042314821,0.8360542669257569,-0.9049435572754575,-0.8880600754928581,0.013992048799331072,-0.30234406285397464,-0.03544083244672578,-0.6520212506504673,-0.15267338532338307,-0.5290048728836543,-0.8339846538917828,0.3685425631700605,-0.448826377302961,0.30120236373613324,0.9549778073160823,0.25199764950131853,-0.11727701468878238,0.8032554135763286,0.7206586544709915,0.5661628754859613,1.0744009325344992,-0.6248867321108518,0.8364294500444445,0.47019567291250824,1.0350707143703295,1.0646582364255186,-0.6615409423378711,1.0622812300126103,0.4695831528532434,0.31422774876548204,-0.08502743099401655,0.14166124761167082,-0.13280149522094012,-0.4786621038688735,0.4613661929640806,0.27757222442621443,0.7238543026245514,0.405379711787985,-0.21584956206483263,-0.3567723672666771,-0.7271289532633204,1.189027876652046,1.170443569799706,-0.1314903136037123,0.5865731204464653,-0.0047245340605152055,0.5979973532142248,0.7688509125448857,1.554420147698428,-0.06935627529511025,0.21452918420352177,-0.055959574182642885,-0.7068687580651494,-0.6040038060397689,0.8397206420529828,0.8968300690075266,1.000786499449601,1.1952417172689311,0.16567710363490035,-0.8687369744660177,-0.6580030492398542,0.5205183141465103,0.58944718467356,-0.7903024071884176,1.2564708925653396,0.673504373600191,-0.292939346484394,0.3503859522930452,0.8128827828542947,0.8507322823550999,-0.18228175802386154,0.6567804012493637,0.33900061597614745,-0.5164375741688408,0.7550923370734268,-0.20334085990349335,1.423068327707376,0.7132192587618162,-0.1726156387063523,0.966940624100561,0.22767534730880257,0.4787011539336539,0.12559742333828627,0.7097017438929775,0.30758894288662514,0.3746354692351953,1.0377829753334562,-0.585247647625115,0.8905323292940714,1.2114395674083147,0.029381840153383038,1.0051973226771362,0.3698505859478827,-0.3219985507209766,0.18829561448152307,1.2324413120216977,0.4478486513274321,0.5991065092542815,1.1064953885141104,0.5251896530405722,0.50338523056146,1.093357390840814,-0.164637358847248,-0.10207980927706539,0.3730379593433915,-0.592723789874204,-0.2753447882630743,0.3659495001210669,-0.72951416764906,0.8936478950343484,-0.6122582800568722,0.14981647664653955,0.9004355838077059,1.0928054605334956,0.1347584391724603,0.6715808123317115,0.5093933699102617,1.4510993151578206,1.1204764084825998,0.08995116200786236,0.18026629593771865,-0.6510541529699605,0.8694123211765293,0.9158750119409739,0.521432539701564,-0.1294577834715144,1.2525501630041305,-0.22080585995783963,0.48526098822693314,-0.7671008287274176,0.19848176506200058,-0.1801593489816091,-0.011218506732715367,0.6738639113856797,-0.14977353613247613,-0.1639282062007842,-0.40377972257287575,-0.39089543171158403,-0.11752414431497647,-0.2620042926986657,1.315866207360471,0.8030568597123616,1.2224894860830164,0.13236392821178897,-0.363656902321207,1.5735655996146052,-0.1469651951018787,0.11462128182583713,-0.34968571230394563,1.2853333573371488,2.2174106230929165,2.421307681942193,1.743862431959232,-0.007579409207194295,0.05354634628524684,0.9377366234188192,-0.9121929835314658,0.2308888348492286,-0.49093017082787244,-0.011601678605190293,0.4857250189734911,-0.01634868063921888,1.1354503059484793,0.04526477181048298,0.7383821157252602,0.5307415476962667,0.5590020094211299,-0.1507130194511347,0.4590764767699677,-0.5422131892953129,0.5627214621403357,0.16006306191841332,1.264044406737908,0.686949753963135,0.754160121618999,0.4209080082695557,1.6490644825326157,2.6113709481834015,3.0184943119122805,2.197405429106983,1.667356582111559,1.5024657106366381,0.9173604583526925,0.6936487812099756,0.1529229041277262,-1.0760479812925834,-0.8072275212829261,-0.9623595595863307,-0.1492435022631391,0.5622708518676629,1.0441594535317917,1.1018598008706018,-0.8005316446244032,-0.0018054113366379806,0.29817031171631997,0.5623822749825388,0.19928672652226775,-0.47634643277950955,0.4906974267934127,0.1310584172869212,0.35609151704522646,0.4635783404393501,0.17546466337851263,0.3377254749965816,1.334722793758172,2.645383766205534,3.5563954639537876,2.3840033210284304,1.3374817998808375,1.4040704144051313,0.5859877907674031,0.291957746521062,-0.0807843696728788,-1.1782369867562683,-1.7396687165532763,-1.0651634044029337,-0.23941857845278974,-0.35479047845964107,0.19232756164402198,-0.5822890710362827,0.2687288930991906,1.0364500678401574,0.5486279575925432,0.3915195488448055,-0.22804341035716427,0.17973823715611661,-0.17195649958431483,-0.49741621561500393,0.2743178750140534,0.3291125301806391,-1.32149997687211,-0.5611733643414416,1.8118949043000865,2.081645996905614,1.5987677595799064,2.320857190512038,1.740842676983343,0.1358329599539411,0.9033240825002337,1.013010226695719,-0.9931543135104307,-0.9264561423942475,-0.7865621049706436,-1.3281636395765481,0.6134120180388464,0.9981189359423336,0.5432814712016952,1.101621563894084,0.763096060976691,0.05662962472656645,1.083989476814658,0.2222063625369038,0.961753609172447,-0.8019246605692844,0.27331424391687315,-1.255265446052777,-0.3039467259300334,-2.100333095717486,-1.9319248144539256,-0.7997142646560247,1.4911891205850465,0.504373613916721,1.0813119902198027,0.43131661723170894,1.312180284336232,0.48130698234745245,0.09717069959780596,0.11837034383079147,-1.3120687435789735,-0.6878241593380521,-0.9896848750659373,-1.2864425377307696,-0.5431042003958928,-0.8946081135192211,-0.46251126628233846,-0.10837672017423855,0.3148392123633877,0.7701050057847497,-0.304851974855926,-0.4892739004075303,-0.26453809411181994,-0.889946152589942,-1.8120805141232852,-2.197445048441897,-1.1119080649272461,-1.98592993084941,-2.38129588881514,-0.346912826694934,0.9811700431451083,0.6059806758065198,1.0136391470086286,0.06302509708120957,0.9909756633810123,0.9779424988422619,0.07040757197559808,-1.0804451932201697,-1.1501147346219025,-1.6911306753499977,-0.04913445457406877,-0.4590819186963071,-0.9197021882339086,0.37726221715411656,-0.6955201450609129,-0.31320380560294747,0.20084476162547985,0.07500003140247201,-0.6760970718107827,0.010882447007248806,-0.97071839402632,-0.568874901127906,-1.0904042721575085,-0.7547287422998696,-2.6056378873350003,-1.458159249156526,-0.5544708350651473,0.09915930625245793,-0.6279748551646318,-0.10457353762411985,0.8820927649353129,1.116608892115512,-0.7052927223142506,0.8151203066996887,-0.8542846724771581,-1.5927443486513075,-1.0091697411395675,-1.2589280156227658,-1.270282667263233,-0.24618655405173123,-0.22117162110313385,0.3127712365291551,1.1426709752635316,-0.5398276202251233,-0.4971007041352571,-0.4957114674629579,-0.7757772584786787,1.2054979243634407,0.5954005987730161,-0.5611483217174867,-1.474642604402815,-2.0508880973226424,-1.657530675908918,-1.9219139675172157,-2.245619997858407,-0.6417540441104649,-0.6318496315202179,-0.558341575524836,0.5570735909119439,0.06279532194433411,0.42682563337833485,-1.8126710785976616,-0.3812519898369854,-1.0939732531624846,-0.3157281250198312,0.026378916353797882,-1.5828740140885331,0.12867148513782803,-1.03530538157952,-0.5956275944881696,0.6988755964350368,0.17656285721516954,0.6249443820854533,-0.375280978965739,0.2780905571175257,1.1142165024753548,-0.21075494260916813,-0.9336833105570707,-0.8374456668022131,-0.9542270601737848,-1.3214312722059771,-2.6144487372241714,-2.080969827813279,-2.5667058430283967,-2.00763430744984,-0.05080387174429181,-0.6879213163274179,-1.5794261867655246,-1.7742828161531585,-1.7750713061679861,-0.4843164251255814,-2.10818247589541,-0.25802526715454416,-1.6689602228355673,-0.20003811952312783,-1.000253887337013,0.23589140413005505,0.46550864478130327,-0.5901358439716685,1.0395060487083303,-0.12919289633143594,-0.4561686237594405,0.3803387535616098,-0.45903218457410416,-0.5095920589722777,-0.05088633761275515,-0.050325837115402235,-0.7475747190436098,-0.9754111078961488,-1.1819543765563578,-2.539909620229492,-2.2097789623563453,-1.2600933231936773,-1.583678485868518,-0.9162334246348172,-1.0443013196924416,-0.9509214773019798,-2.1775548986380637,-1.5979459062250085,-1.7541463153063828,-1.6059302281138332,-0.3596475620325047,0.3217800415932007,-1.384245404032234,-0.5799454765197667,-0.7428732230403211,0.05003967522150403,0.07116765331010973,-0.10853357901655755,-0.5990173546998971,0.5864981750766943,-0.1515562937541427,0.9767457138067561,0.07170564897026238,-0.8323259768828367,-1.0052493979369403,-0.9667986743310503,0.31958225763690057,-0.35990148594733046,-0.8855283361554536,-0.3342303768115141,-1.7581115060827572,-0.02328767125088855,-0.31591305924057284,-0.9973616297569821,-0.41092238732079517,-0.12458776925537787,-0.9702167885056778,-0.9501711699820635,-0.755549392365164,-1.097279528200138,0.3712889384702539,0.4421624619080981,0.22310572403102377,0.6262495625964447,-0.3996474958366433,-0.6374988690446018,0.27460430577108635,1.0311357860625112,0.7171438775720026,0.7259385112084926,0.9208152551724831,-0.4276045662127899,0.35800772078776444,0.05677115919617771,0.00774832934461397,0.3337277355216503,-0.42940721623678857,0.5052198805765323,0.5840103321515226,1.2615174426293987,0.2752158978993426,0.05946838556552212,0.5573349915021848,0.7641605719421249,0.9267358237396199,0.4313957532224791,-0.870300440579215,-0.9937872486135747,0.5888172686871359,-0.2980994552825458,0.5538272021886115,0.8991027433569968,0.783991675140632,-0.7580980993009808,-0.40595399323013753,-0.6956897751636334,0.3233656493771492,-0.3082284011206712,0.46625832702649445,0.09902991404982107,0.6062566077593644,-0.34031042258433275,0.30260032446840035,0.1647645793301759,2.1813661322244413,1.1696107592627103,0.4136148843263937,0.4391275200289596,1.7222878983070276,0.033704821144521765,1.6027601560876303,1.32566075046232,0.4569782944217899,-0.0040486405062710494,-0.7430165412036412,0.6585364311042641,0.472630265927732,0.8060688447600827,1.0081797950795364,0.43422858670373865,0.7453776401826183,0.37616192919623764,0.5581163523766464,-0.4631191073635005,0.14623250087803322,0.7910258296691673,0.24481824786152367,0.8695218476733049,-0.5382219910710452,1.2838390475540713,1.216326012134055,1.7459214291779674,0.8035700526188977,1.3794531521056748,0.8976865214024082,0.5094564803174947,0.9791816968656334,0.13730098454459658,0.0915353098858587,0.9395179582595595,0.7562281654641136,1.2231150988598547,0.7750330721231624,1.0681288174001287,0.04332449296039134,0.2732361326533351,-0.12584828990882876,0.013678948421491878,-0.6669659752576048,0.08818968597260562,-0.4344732044775703,0.5187869206144192,-0.5904721092829616,-0.07352418621134453,-0.06605953094873233,0.8488882925416844,0.054603420285643446,-0.5096679900906429,0.4042336728013144,1.457588429104889,0.41805510006117086,0.06714625865617603,1.0191894828121668,0.45127933561664535,0.030232372618491484,-0.08370259364568243,0.5772683683684897,0.8390705038253816,-0.4658051019949045,0.5739647383376071,-0.09032334175881883,-0.07443430702627246,0.6793648754716667,-0.8050146104318656,0.8240404354890176,0.19663364672543568,-0.15891411226182045,-0.3220611178067648,0.005307465026819104,-0.12720828098501696,0.9224745624426739,-0.1894011641588285,-0.21309227686162974,0.5407357383565851,1.1496634051389254,-0.7527183079768898,1.060438240240513,0.4142885246333728,0.9132010231996611,0.5661162550674765,0.9268403365370067,-0.4338246192335934,0.42080852773939204,0.06512580450607108,1.1683434610433745,1.262600372419905,-0.13516368538138934,0.2966868534108121,0.9227835854170557,-0.2631389332217806,-0.24192052772855482,1.0750856876155797,-0.2536298746904351,0.10776207921931438,-0.6813759995687011,0.5031581505916002,0.08290715998610862,0.2372906407133964,0.9467906262776872,-0.37715772702177874,0.2095098065373412,0.6551056316002783,1.0720418515177634,0.9538204392562585,0.30358455124494976,0.0023609178678158254,-0.5881233069435892,-0.45407934742553363,0.10749520699357948,0.7658228502510593,0.7497071167552521,-0.26651187408800087,-0.05410509043844522,-0.04048176324113576,1.150132363779414,1.1330850988623176,0.02532350838306433,0.21865044028240005,-0.3232033798794783,0.397427122074473,-0.013278948083827588,0.7594793584883374,-0.6843750937301342],[-0.3617248707676373,0.7630790537821163,1.0769060268725366,-0.07777268394292743,1.28569483758265,0.2360979960383431,1.1231053730184828,0.40941843324997085,0.12113453770591862,0.5140675602044503,0.26413881541332945,0.2915104225786907,-0.322461374840713,0.41513978293223175,0.1977120775958197,0.5896177479094588,0.08431808403597436,0.8469266850554419,-0.4196135408833718,-0.18923806309883198,0.823818987853216,-0.3625210655617332,-0.505559508967846,0.1208767469226836,-0.4777520078454776,1.2590985173036902,1.2505415844192458,1.2279851335152598,-0.3765695069076849,0.0031883967333882096,0.5033560563141636,1.164009712830272,0.4759277130595393,0.07405159112754404,1.0424891024429574,-0.42017009094629415,1.2933111804761575,0.5084541256319896,0.6409690084115452,0.14185175006528283,1.3258859664868867,0.7381982475688892,0.3400336289799604,-0.05820218911024739,0.4405967603155962,0.37300378703279036,0.6261899279760504,0.7435073236766045,0.28746580179639436,-0.0951462546610783,-0.09609797778051793,-0.02152870620685987,-0.1713120575514577,1.0062028654577493,-0.6519475846783743,0.4026119588112776,0.15646294627286814,0.8694884579276464,1.1275323545334603,-0.18575498730647813,-0.3828406020034796,1.178249401511298,0.4638680796007968,1.3239378905167034,0.5975629733181094,0.8923448814881383,-0.2585242527964728,1.0625072764140246,-0.024348512549480374,0.0065330901994526125,0.08251822854567493,0.07126186716183901,1.3282364465973282,1.0205002596996595,0.6137607833102849,0.48001658283718734,1.4735432184897248,-0.07779066985101644,-0.22152404527306108,0.8529768321081302,0.6254690665010876,-0.2524113120585678,-0.04260262465926284,-0.5113276365445625,-0.4196189791120654,0.7067723299722516,1.2392139881299964,0.36172071151961105,0.9052280549033856,-0.054859747987159736,-0.19565486899566345,0.4416341273202331,-0.6998483393965018,-0.15500026387453858,-0.6259941434709372,-0.5651795005187747,0.14682434495244184,0.5619210855386211,-0.4998248684613958,1.286921952610776,0.6646059864664006,0.2293135143994491,0.26258886631218387,1.4411076249570962,1.579745918459443,-0.1091278785160301,0.5751715497905764,1.2611293740931206,-0.28992396959608724,0.929125515630789,0.6455401994463749,1.0052121907970075,0.4292785089437302,0.02035184249793706,1.3010197477144383,0.05287208870053868,0.9248620385599003,0.3007046348942187,-0.19647692295019878,-0.7510772701322304,0.46554913235326706,-1.004704700786775,-1.838294311658995,-0.9146750479642929,-2.905902910556826,-1.489761767608525,-1.2763882861866525,-1.6650770922111477,0.0982062819465604,0.44799044465552623,1.0643983459783135,0.9392831650543535,1.0194741825017921,1.0561835441782603,2.246383052686252,0.9130717652346686,0.5509177492475121,0.6611322651880759,0.410598484247334,-0.5099851718646575,0.3650235790119491,-0.6231754827992638,0.09435945363304131,-0.20285117588981091,0.6932218257530713,-0.133724674113137,-0.3845597349477,0.2764046790472415,-2.153719357633144,-2.612077168446482,-2.8213735710838352,-2.33204041148174,-3.3691932283347934,-3.7099055090251705,-3.4019085679665086,-4.493350190541608,-3.426763351090732,-1.5937854264287845,-0.06916176483118545,1.1164505371169913,2.338067847664212,1.3196324640200008,2.5250134275982328,2.3698021864273078,1.1907867047043554,-0.37495844966125563,0.7774604595856281,1.1492322181984105,0.7331966913864035,-0.3957239933604822,0.05728395884597322,0.4229307155974679,0.5505561778748076,0.5354699550658404,-1.260088425435625,-1.4012169579129965,-2.1101908650164094,-1.8177052589530356,-2.8178132577622796,-3.522796648572002,-3.5761685046778715,-3.44496617467033,-3.54907787356486,-5.501867796168123,-3.5934881593153642,-3.721259377093065,-2.048491983257637,-0.7942823362547132,0.7440553689636163,1.4404852500799956,2.669229920499687,1.233945780410207,1.446453810192269,-0.06932570116615967,-0.5705697368415343,0.816817566857528,0.04633136991731949,1.2273484912083203,-0.3893586841261315,-0.1560486257662377,-0.0240058357397913,0.20061660593877775,-0.6336881172227559,-1.3397080534516066,0.021635142335250383,-0.06107080199158814,-1.8583498230323794,-0.8879137022238749,-1.518622328432952,-2.6741113233229528,-2.7201370443018145,-2.926917434666937,-4.391388972778909,-3.627420575925206,-1.3801572736819239,-2.1985905539910062,-1.2627158940942538,-0.9910480611849121,1.2109624049998082,0.7506891447049795,1.3544172941162322,1.7449296874653724,-0.024946761677750427,0.5158152362128707,0.3762761220825016,0.8466426171854133,-0.5051536814677563,1.1119049705766648,-0.3470949414928434,-0.6391290152435866,0.2398619526713443,0.02263943235497342,0.5103125404283306,0.03820096823880249,0.6052632905252571,-0.05885265333017242,-0.6471569470139531,-1.2958361706301178,-0.259446860937819,-1.8481086730593792,-1.9337320914643041,-1.920889572071599,-3.152857448977793,-2.691796886381659,-1.2639012378012886,-2.159867593920926,-0.6848864270884321,1.6016729085525483,0.4103863888631185,-0.018804240957391617,0.22897173611686675,0.8329780945217582,0.7493011339216945,0.79993811875595,1.0031124257370647,-0.4358717626947461,0.46209338988407994,0.15433730977470247,0.21471029381496404,1.7391286287926906,1.9777331953080628,2.0859953427204356,1.0070879370080368,1.1502168425866057,2.074574239005761,1.059219639943904,1.3524622616518869,-0.9174144696827694,-1.8579704268006583,-2.1383872735944256,-2.071069181576444,-3.5886799315367313,-3.717120662768325,-3.150269156699104,-1.7337305751946042,0.14564757928476058,0.6278325101773496,0.04961315629896279,-0.5083955529939927,0.4657675522264464,1.1845332455815645,0.14155006392278202,0.5845679386967773,-0.33324220083961664,0.9355423063541967,0.6319435036846718,1.5878425268153467,1.1125040783915439,2.2659484835266994,2.3553457234601285,3.2436518287156173,2.1324222877113566,2.6942556052438222,1.194845925279466,0.8256412158438072,0.24147801005168865,-1.9189903361651905,-3.3330164017668067,-3.382846156211806,-3.065643289095851,-3.2725686899693276,-3.3786631598597765,-2.865481633415364,-1.1690506865797972,0.16999849355556712,0.5803796985916251,0.982241345999452,0.2724841006700385,0.005468189969870085,-0.459201918865202,0.8514599156620503,-0.09992555907142198,0.9441817242605761,0.31302625039335075,0.7619677423789527,2.977072790260179,1.8262667285902294,3.2818136183763755,3.72528780304699,2.071428013465094,1.9211762288464904,1.1612459099321224,2.7192711889415113,1.5202460497834034,-0.9247914623849645,-2.132517238025709,-1.1851867216038239,-1.8540585918885433,-3.685900361189052,-2.0300246982779346,-2.3515921974400933,-1.1422596358981194,-0.6101027371034751,-0.6589622055270561,0.9721920345035122,0.40338018551131843,-0.520764247578309,0.11567344079023663,1.0565688702246314,-0.04330757431196399,1.105419187090172,1.8079189263724798,1.2422543190445636,1.4944443524793771,2.7349503041470786,2.999580477905481,2.045348313710247,3.2965022934148345,0.7880395002374948,0.7634753250924646,2.2071792235919165,1.8536255555759436,1.0678245986533526,-0.6113995541592884,-0.9336720326858052,-1.3682513600474722,-1.7711115196284204,-1.8768948627187403,-1.297649258019467,-0.5084201656062143,-0.24484085566345,0.26093092568893217,0.9736736522920897,-0.4913116359723561,0.6901428663694823,0.7274958453996196,1.3147067594423443,1.0885686148147944,1.2787476272411076,-0.07245758357529794,1.3226801990513222,2.3326794042940073,2.584698070704881,2.1774830638084914,2.7399366833299457,0.9235850449537817,0.12426098947200383,0.9258268537074829,2.400412644908934,1.5736620390067446,0.30780341741013684,-0.47113687040824215,-0.2403174848602753,0.22957253149771883,-1.0448024333612491,-0.8982406989046801,0.38545156751012055,0.19111047076626542,0.33803442503259595,-0.22477904546224026,0.39834689451939564,-0.5445081194245197,-0.13461155741706715,-0.3542363019017227,0.206280895865559,-0.0461957243696486,1.377541226025233,0.4203422413384334,0.4553760310741225,1.2494894835654178,0.08846578362362666,1.3329521254063366,-0.05937053090354051,0.1872655795364675,-1.5400439920298106,0.1679815119211005,2.383822636462633,2.072327179864163,-0.15992374954021596,0.8469829974909405,0.8523789323899513,-0.12601400408078683,0.264938017876016,-0.39014085529673226,0.5613538846875613,0.7563627194748167,0.6281732058830364,0.26507743588072186,-0.31325305129478415,1.1564153747493868,1.100233158557378,0.7977402635634051,-0.393959135712596,-0.29399847152421965,0.7036290893795301,0.2057259668269382,0.3445284049056268,-0.31595788712532236,-0.7259845512332723,-0.8718238790792175,-1.2414719617611314,-0.3679597337626833,-1.3710402470849425,1.5612739959678745,2.750789119507867,2.2539191860494587,-0.02977265319517749,0.012944465158075388,-0.7895946070891026,0.21107010998849712,-0.07048521794770829,1.0625165950811517,0.4021081652342384,0.21308544658345302,-0.592047556955887,0.6589688090799272,0.06340426676914195,-0.5949091001055096,0.6082214352228603,0.0127863755838161,0.9490316053587644,-0.782660446669843,-0.93867575336285,-1.5514822739104532,-1.1884853717585744,-2.1763562606203135,-2.5956678201029573,-2.4951110952649818,-1.0920464334542517,-0.5205976396656258,-0.6899986423353945,1.620084951960672,1.3206237181781493,1.372599409134601,-0.7876385761316255,0.01985935566063581,-0.9979263728475398,-0.7761819064089284,0.4659078071821744,-0.5644686937906362,-0.284524354179239,-0.8258479399682522,-0.6427143092835723,0.7726232872456419,0.5273689299624553,0.7992331391652805,1.22147712969764,0.9447302691820819,0.034770389756461816,-0.6289352116830462,-0.7343883452433659,-2.2248818793858627,-2.595383927033931,-2.1128438261739135,-1.5886350853643851,-1.6251502924544596,-1.0569621806181209,-1.3191778950122948,0.41852620138775193,2.5087975023810407,2.030671876773286,0.10231925054796294,-1.8946163000550817,-2.1613346482261275,-1.3206170656922582,-1.745411356885416,-1.061216683876822,-0.35035621558046215,-0.8197337784817974,0.2907050242858039,0.29176736697206923,0.18369065990249853,0.8132839011717482,0.7850498940252285,0.933499715881467,-0.5614384060273719,0.800488648792279,0.4390901649516851,-0.8288431416146586,-1.8255204428723728,-2.491244552295948,-2.245725007257384,-1.5210832753267816,-1.2275319337454556,-0.3021862892447137,-1.203626232767134,1.3495839911451133,1.3345003974028493,1.3289108622056507,0.1775831679954286,-1.288272541475689,-2.3855636445393413,-0.5582851529663889,-1.2078837896312113,-1.5500712539404577,-0.9770290043840981,-1.4798214606445197,-0.46938577252926855,0.08141676120928464,-0.3532638186162662,-0.0373432292359252,0.1264694386959191,-0.2482535472874806,1.1695043189467285,0.2769313110793689,0.7042982913881989,-1.3651344421640184,-1.9639567269822853,-2.1470840852821027,-3.1724559841817683,-1.841435474136207,-1.5388633233674263,-2.2059011527180705,0.9527444215474288,0.9002704506749771,1.4469340595539975,1.1926772102645915,-0.10901814398278938,-1.5846672412345109,-2.0519065890413724,-2.144330042515355,-1.4909994662587576,-0.12594542732413422,-1.6876554488865299,-0.7914898305822758,-0.9401488258397267,-0.9152529835322988,-0.6543566928500031,0.425196949800498,0.8080785035966876,1.0381461693814151,0.3866191934962309,1.1433283170154365,-0.20708126385369363,-1.9024259915116843,-2.848898867997547,-3.034511290459462,-2.8927885894080867,-2.09712232963637,-1.8998985484087472,-0.458289605052444,-0.25896458383616705,1.5728061023644702,1.4172611083181768,1.245760425719283,0.8067024307154427,0.4285572903343256,-0.925084958254383,-0.8164677630791043,-1.8619793115913683,-1.4629159277294048,-1.9817942374914501,-1.9484282897968261,-1.6613116207886887,-0.543679816378689,-0.7842836276960534,0.87688795351663,-0.5285993685780579,0.9225606101609056,-0.4316492193363551,1.1110785798921101,0.2653970699319189,0.03633863487119539,-1.4434353887435292,-1.7196685677444818,-1.1561047733000256,-2.4362524455167516,-1.0176641374843092,-0.3042347858881744,-0.17386523926888722,1.6775171266986806,1.4825313273985745,1.9654792693109937,0.04389939757827956,-0.0038372181315087747,-1.2911345944922714,-2.125565623203416,-2.34717760131229,-2.1003699086855234,-1.795740597514534,-1.7112936569660255,-0.550192080379071,-0.045301767578867794,0.4340727925676583,0.800787688495084,0.2927320013303893,0.1086070901973933,0.624149650406528,0.8888245724845476,0.8136892480815744,0.38527173609468873,-1.7955745351635086,-1.260565046719048,-1.694386882852313,-0.8661756669802753,-1.6061618366504327,-0.9490919283510452,-0.6341702040444752,-1.8253418904239807,-0.5297762947429406,0.10640848766329984,-0.17718583110366362,-1.0901244922841968,-0.114798898376423,-0.33050690202272587,-0.2964197079664747,0.1355879140724842,-1.4025058460228497,0.36170503964101314,-0.5757047374104982,0.4242271903173979,0.508043304110725,0.46207610482383826,0.9610592077521269,0.6826651549888877,0.08251190093506619,0.8400172841041864,-0.1639399134221055,0.9854043724626671,-0.1772452979768342,-1.2673419410760254,-1.2223554833830246,-0.9071051330526604,-1.196169277557791,0.08899599178270665,-2.2217094034823153,-1.1746944488814555,-1.5013924728839385,-0.45590262330380854,-0.3687099616861402,0.6132613868536746,1.0153402023862543,-0.01448036829116341,0.33431469827888916,0.9401221706204802,-0.5115363920569022,0.652454920118938,0.5564238258531076,-0.6602840826828886,1.1804720760735952,0.9859107781081806,1.1178869783462584,0.18129050384934267,-0.4317275258024051,-0.4612052674135682,-0.1903176410012639,1.1767617874830942,-0.05934577493689369,-0.3095026332795823,0.1508434017135048,0.7886545742472556,0.1936906246016954,0.21626260080629275,-1.2353806662119347,0.012262417581219686,-1.403572124908818,0.6341747536490251,0.48074967289404863,0.6053265481129765,-0.5416296059221902,0.724096296297142,-0.3953852953958782,0.7637042473392579,1.2436569114406792,0.155167702160717,0.4715982783878001,0.4911830920152386,0.7795436289950817,0.052535810962770026,0.3594062862330362,0.29284723147057373,0.3961474071608237,0.6437626776789188,1.146957771429016,0.9409349972664118,-0.6510828827448746,-0.012677718923281615,-0.3829812562343576,1.1137207007765149,1.4540990650709555,-0.5621417370915405,0.6709003448253635,1.281662657694274,0.14502851308440848,0.5246541347603818,0.9910338801886108,0.9394953693129151,0.43523856033907815,0.03993889162292788,0.46055121001077415,-0.40309682031862804,1.2795496336969563,1.0549520523519664,-0.6116443839633056,-0.45436029195878996,1.0772043070219304,1.3063032514792892,0.4245725432824501,0.11671002111036241,-0.13520650501544593,0.5051469626680644,0.21083751731544328,1.219075805885876,-0.4097174045102282,-0.05149640080286177,0.19157078351575416,-0.009325191146875085,0.09175362482993311,-0.5063787173616869,1.328124679106483,0.4413148900463747,0.780482599666838,0.903876820530951,0.39986479473887154,0.1140335983863406,1.1224623193348795,0.9557883130182556,0.6718825931128344,-0.2104112476541366,-0.5002845116031553,0.1325269572005474,-0.2985058457666126,-0.23600950583529035,-0.5212111514684518,0.6486226116617905,-0.24425864383631815,-0.11049515206781273,0.3410391585809472,0.9248529583998283,0.9906478171678131,0.298879033851634,1.302272212406494,1.198328546219693,0.9452062733367107,0.14552400968360205,0.2628893833354164,-0.007325780442443549,-0.30865106866236675,1.023552771677987,-0.5851428585091646,1.064731655148493,0.8688153377174176,0.6967410119452061,0.46871610918000595,1.3340389709425415,-0.3240288656634992,-0.5309057005324448,-0.5152520758827382,0.8670279311902404,-0.3253430680475324,0.16376670338346663,0.039304413030053685,0.6358056332961507,0.08399800634494123],[0.18136168750839618,0.40926731376258246,0.37939716997769307,0.7202042182928492,0.9457684941345252,0.6758965650968867,0.35335854406593686,-0.6484991629659449,0.38102468886244606,0.2391323876452288,0.33930192154368705,-0.023123625017875904,-0.9156636569497432,-0.5999182727082889,0.10049683458353083,0.3023909778713013,0.23063054700397476,-0.12202462271215687,0.9716583460052008,-0.5701921589216092,-0.0066855448693692665,0.5111480934733814,0.32217022683490343,0.689226445610756,-0.11484129753272955,0.08352173805637751,-0.4680340566924274,-0.23085932166526715,0.7400657191422382,-0.8868910268907682,-0.28252447846106205,0.7235751851601728,-0.8946832850671735,-0.43404073417992917,0.7750566364862511,-0.9058481405831664,0.9252153758174686,0.14844335503691805,0.7019362282929107,0.6056425193145958,0.5708875158895608,-0.9172625767304704,-0.39021256878061783,-0.3232124576378662,-0.4926937704307928,0.08477318952010503,0.363553718724068,0.33378793415308067,0.18741363426019578,0.6409405386436297,-0.6416334848418923,-0.9777862821824469,-0.8753553470673854,0.6192216720114285,0.5898214921525573,0.2836408553612469,0.5188631199250777,-0.24755023991705385,-0.12194169574679023,0.29662156181529514,0.297104187751946,0.5957655011157543,-0.12637479774083113,-0.12276294020812396,-0.020658269921036664,-0.8126496645999731,0.30318210614709223,-0.3072863857937933,0.3908101301577284,0.8309222348877253,-0.1942953938059626,0.16235062257166097,0.9163908014153996,-0.8292911476641961,-0.33495275791269297,0.8030276058579067,0.7284531112384064,-0.956741098578765,-0.23809122113871267,0.6227633827145329,0.21921940093563394,-0.5314206534878332,-0.8516689988567805,0.5721373885029615,-0.27171187863440255,0.5814874487055706,-0.2080141589045084,-0.961380158637606,0.583325723405077,-0.6929650934471183,0.2396160600752723,-0.10442769158554673,0.4532430194440643,-0.8531029131657774,0.21923508701830008,-0.281076790034544,-0.9335796720468421,-0.4280205721827272,-0.4706252365809493,0.44013727424335397,-0.5440793539089301,0.20564751272556678,0.9574102999394195,-0.07505390725969217,0.06673295869538894,0.23297528086994768,-0.5775379112546677,-0.2478171407531727,0.2996463472375287,0.28661789569826734,0.05527556857830926,0.8070071228377129,0.3579238117022779,0.43724821170398437,0.5145149752013419,-0.7759034921058091,-0.3622707767805859,-0.14360828205260445,-0.5304968610716091,-0.3312994848667891,0.3092749523161081,-0.7821839003945245,-0.10519768299714527,-0.007389503831193615,0.2375487775902689,-0.026216333571904962,0.5857017339924577,0.890573544639093,-0.06686311362212682,-0.7344379648707301,0.132562549427086,0.3379948032858809,-0.16945352246490583,-0.5851231298656295,0.486265329378858,-0.6769861695463629,0.8825231724118281,0.704657665586647,0.20200566255532587,0.6504751538287615,-0.8336942406002521,-0.5416071245698799,0.4688642666532546,0.46760889191725585,0.03367814399996356,0.3167554465975261,0.10334215080644285,0.5367346710560792,-0.8411042043081068,0.039012144151572385,0.8394589399954664,0.2805598334017014,0.7937489162087805,0.1678004648048424,-0.5530346547729258,-0.8555817975168661,-0.4875292260370469,-0.5423429322576435,0.4754676131971699,-0.09091084745031022,0.76435917035078,0.07969841651522208,0.7521409174874046,0.2662880194301882,-0.29961079030927124,0.3409141400122964,0.16372370911847953,-0.8296014510898683,0.8723507770884218,0.8674405113882508,0.6972086322361618,0.2786365578082598,-0.329664965506811,-0.9600320048404987,-0.7736091219981266,-0.8850444676583102,-0.361125981984015,-0.1623933459152846,-0.8698489672357914,-0.46866508510270216,0.19689866464479958,0.19158903032030206,-0.5449008185733237,0.4876079382765713,0.6945138682200196,0.45058987309793114,0.04962509057602789,0.2138434839200322,-0.7728469985064027,0.6092235357483579,0.8453868453090817,-0.5965957831568289,0.17928336544352896,0.6079888702961921,-0.6700423694700572,0.2764160496298563,-0.9014577992406718,-0.8154870482869497,0.11372928956963563,0.030018709527232543,-0.864742843702678,0.4932078928694918,0.4454905420115532,-0.5052098294615075,0.05143680502731154,0.05589160636461818,-0.4158472217056111,0.6763252469914154,0.5942403627204946,-0.539945537179327,-0.023065014841999104,0.24385549415690225,-0.11238695257155445,0.6786206467730393,0.36747029471067405,0.021314838785762184,-0.5842398604029684,-0.14365568619981425,-0.8789028325776265,0.03849049453561192,0.1642367876676425,-0.9817767476459324,0.38322429033732547,0.8443254474880785,-0.46006788333622745,0.24265428229783345,-0.04067066700982862,-0.6036587164677368,-0.21206608650428788,0.5472039096404163,0.21985939183766517,-0.9268703999363094,-0.2010084915661724,0.9874155466825754,-0.199194550817683,-0.839472275348626,-0.5498325151830615,0.27907637851869704,0.3642108430869232,0.482612952587926,-0.08592741195375189,-0.3562828371202052,-0.7111380951841723,-0.22844003561524195,0.7177972988418954,-0.514071604837526,-0.22812089043836833,-0.16547621474353624,0.7929488272435922,0.06290764740664345,0.5636492387161663,-0.3950864519601245,0.19434725588048363,-0.6857631667282508,0.30022622520499664,-0.21023002600355362,-0.22728900915216715,-0.3051438684434124,0.22955274488567942,-0.07370676568742167,-0.36351309470725535,0.011428521346319349,0.035396084747049555,-0.5578084168560229,-0.040592271718163105,0.029922574056535978,0.4018705492896494,0.562481661817022,-0.5896435778755166,0.9368679447234918,0.9870694653444843,0.75165261234423,-0.7352918723062105,-0.3949206154612151,-0.43892770267341685,0.8176987766246693,-0.8467118261877166,-0.9425360359742514,-0.8249413430019275,-0.28110675024634885,-0.7119820134823064,-0.4650806092518306,-0.507195626402821,0.7285831778671662,0.03086782019998364,0.12047321379092878,-0.39082412315278187,-0.38362492525605096,0.6800775369825274,0.011402913663216156,-0.9279851076271484,0.23740689586585315,-0.5080550451837508,-0.7820471538669629,-0.811395366989542,0.11056383765174237,0.11941067707488971,0.7167752815293107,0.14199992114371254,0.335062572104038,-0.1231607384372394,-0.08787449528977967,-0.9954781170650481,0.5781212128556916,0.5359039502625367,0.596485626457952,-0.7566024923938807,0.7430965800746901,0.7671715863005184,-0.37392988253556736,0.054496384585669355,0.419946460533564,0.6807853510530115,0.914328544404111,-0.5475145152547051,-0.7768645087917142,-0.520500267510036,-0.49203546424221045,0.9070918900439612,-0.24624122151546887,0.7515357506980729,0.08943445709501213,-0.8947996788087577,0.07175251992148268,0.560991479376098,-0.5532252214259588,0.29227036135771456,0.24694200188241464,-0.8658114359066634,-0.7887922114340885,0.6483301148293974,-0.11001347592963648,-0.2982683552276694,-0.5490098844781387,0.13022488171958516,0.4135707846573442,-0.1000332843178291,-0.3314991358742943,-0.6642602278603106,-0.8791384603405836,-0.12953503539359554,-0.9568061694787333,-0.9866712349150435,0.24296383474409666,-0.745828943010344,0.9104804402436852,0.13360204430360015,0.5703695530172376,0.1859652592961536,0.9493012009838252,0.6621648391610034,0.42867434935503385,-0.5133471256116949,0.7002731539612544,-0.5152439349633078,0.34781814825185214,0.29519556275260816,-0.2913406711835779,0.35815361544153185,0.07149631434876196,-0.3648030896454351,0.8676432736973531,-0.765182789974524,-0.6704677362331315,-0.3555398971942063,0.3698877575720989,0.780474597491126,-0.9371879085053444,0.38170768570055275,-0.06084549237179807,0.48076353444358927,-0.22144055094475154,-0.36582827083457303,-0.893818588567051,-0.5639999996140843,0.16087382630972452,-0.5199644735168107,0.6932352315274215,-0.39782850240602774,0.10829091008853767,0.9027908248714335,-0.21631241871335793,6.952402613452877E-4,-0.09933235401090215,0.20871118078134177,-0.9924588980734398,-0.7578205197508289,-0.5611152731505714,0.739780874827938,-0.7050009141312689,0.6855834437899244,0.21783076530271694,-0.01285191352314969,0.8951007663234418,-0.6070944182348715,-0.1168694505592426,-0.1241941051855132,0.7583431436002847,-0.8985180484351997,-0.8366457361522447,0.9191939968014982,-0.6405361398424064,0.5576833025450976,-0.6558030159814612,0.7131115114515238,0.3884888301653818,-0.3461436130278976,-0.5580680416887231,0.2282709382723116,0.7986372789906783,-0.9785097039660702,-0.305378481957896,-0.7725910384023031,0.15772458641443138,-0.026881814527948092,0.17821026872807144,-0.643846942901721,-0.43748725186893694,-0.8732905795637638,-0.009364812584295133,-0.5570723431158556,0.8932016254385391,-0.7044206162833709,-0.3978494158390097,0.7195118741910606,-0.51180688617349,-0.24911399862871983,0.8236779168229205,-0.021542205836348954,-0.8163622997641796,0.5012507369738055,-0.8319461592162306,-0.07662922408759083,-0.020686489909442746,0.784058919020356,0.31070056323862133,0.39287548958022084,-0.41437782014153896,-0.3946234403723292,-0.25583875457539423,-0.5714093647454483,0.4942237030074692,-0.1486555663990239,0.8668803068163393,-0.1557521304541344,0.478322175350744,-0.6514454083271083,-0.7199384927130161,0.3311723797454331,-0.14323927093319117,-0.030854550754445646,0.21844539626844447,0.8168149274712305,0.14650034185442576,-0.17709632687950858,-0.22251032755452513,-0.532909559353998,-0.5284544930472843,-0.45612642280451354,0.8867330821095559,-0.5578324597573461,0.3934931002910774,-0.3111745605110109,-0.15210770679562596,-0.636162280941325,-0.2675807244940523,0.3131548923880978,0.5662666096454088,0.1845841982018815,-0.6891168095878801,-0.028009732027176777,-0.2762332896862862,-0.7298694048712324,-0.3116124188107166,-0.4097631997343987,0.5413012365655839,-0.6960741627499614,-0.6113272661385548,0.9066802093924021,-0.03501270442791704,-0.20459212622010503,0.3169447286334229,-0.48771127808364034,-0.29934344043355754,0.01728245408218413,-0.26225188823518153,0.9240640548368478,-0.2103597514254221,0.4018094115459213,0.4407223164400287,0.5927158175796121,0.21294002320250474,0.6875800078010839,-0.46450791731521246,-0.7946390828456362,-0.7435126617270652,-0.7006888250410256,0.6702075529267232,-0.6869579654636946,-0.5513812491594888,-0.025860954849292708,0.4542557033195222,-0.13935712758265986,0.1617891614036684,-0.09893889962749856,-0.6714877180086842,-0.004678817110356085,-0.822849842004168,-0.741770589542051,0.20621914203291744,0.2080764657314108,0.9634400931107014,0.48728848355017323,0.8265578286660111,-0.2436502020206055,-0.3273576901828482,-0.6853634062322257,-0.0293041447990152,0.19736300752046146,-0.44077421101850445,0.1938774151787946,-0.5864154418818884,-0.2343822189521006,0.7460281349811668,0.5374768581610766,0.8388504773604426,0.4529997491530777,0.23266034757023468,0.970972527671088,-0.24152462974027172,0.5790260211777046,0.29703368458140966,0.6435797554920439,-0.9949996473377173,0.9559391890503629,-0.43010631423002443,-0.3905039095359434,0.283786114508065,-0.20534394076288567,-0.5527472452217649,0.21433156780242205,-0.1192684254186562,0.8784789373237971,0.7119984103447146,0.5343822121596002,-0.251636580550575,0.8185569795281298,-0.15592746999084417,0.9857944472682234,-0.15036389383323862,0.5743029002023655,-0.28464321390236047,0.424558103620259,-0.03703281857493425,-0.041649983438325086,-0.819353080471747,0.2436365699479236,0.836242575796116,-0.770946590756512,0.3744364223467439,0.35002592225920354,0.13305643224208433,-0.37370628817250995,-0.49652751074623724,-0.7996834540962259,-0.6199847195908489,0.17398776429144328,0.29788196369540315,-0.4872053827944196,0.7391857399617695,-0.0904277628437129,-0.5874265820054293,-0.21213075065405018,0.45495292340593196,0.40168558042251445,-0.40058414585414076,-0.7283857217382772,-0.5676623292864484,-0.7415819406587815,-0.3241886050468076,0.6784942747773389,0.6661988990982305,-0.7519350007038097,-0.018395900353764337,0.5429352518785886,-0.1408006824011118,-0.4500400946000632,0.3646679093711891,-0.02762073546214184,0.06340990332297411,-0.23409046756157284,0.5389467549761591,0.21365422971120598,0.8707620060344864,-0.7185001075046784,0.05487075129155995,0.3995169952614557,0.25286045176292604,0.821861052999021,-0.8523348480269238,0.7494881987833455,0.09253593762455763,-0.8198906831845453,0.19796207675153663,-0.5489234935533097,-0.9908067622874773,0.39051449230445967,0.6973322318560019,-0.4382942086601944,0.2521890663340082,0.9464708544670459,0.19447117956144594,-0.7122640122248208,0.060407838338001514,-0.943468741402038,0.015841541423906726,-0.7034591135112169,-0.7803749850215744,0.3908462036797524,-0.7578766486025984,-0.18061615268916,-0.7338054789093458,-0.7429440065496437,-0.1824683619020388,0.700553675134605,-0.7463731926741212,0.7804558804697046,-0.4133976364033464,0.8758404236102119,0.8889317153372788,0.25983402988551463,0.48439520993900814,0.1665165622742957,-0.6572819385262001,0.5843686269277959,0.1727348725523289,-0.20041707549925358,0.13299387360010556,-0.620230441013491,0.9912931541838639,0.588715057008849,-0.9064608995423606,0.3842197820812762,0.27894161137880713,-0.6610800106336199,0.6219361265126313,0.4142002820691632,0.7906353596316631,0.678711839099736,-0.8527740379697727,0.2622555896036162,-0.7355089040853746,-0.6977428796409627,0.1029105441306912,0.8935016159242292,-0.9710453142573473,0.3830856874914071,-0.4566620016815696,-0.6313719914888267,0.9321619666365782,-0.2302052267258561,-0.026863829295316426,0.05851577325131213,-0.1476606824187456,0.5130440305167742,-0.01698890256343832,-0.04906891058376999,-0.39576924735003455,0.2768892879431488,0.8568437343108359,0.09860468462535561,-0.8763315942564103,-0.8055786225308876,0.39919026395569995,0.5732620649393777,-0.5279925366077138,-0.13601500941733136,0.9591888819013484,-0.293062636632322,0.44248175514215915,0.3616367408847998,0.8732637176992363,-0.14847099532981375,-0.6783046360735095,-0.6292582062451774,0.35635951292287854,-0.5991347408606333,0.7053956445416383,-0.17171787526174292,0.24263644028999612,0.3879679911469577,-0.834478975040384,-0.15295696862420777,0.93102605798712,0.64498883399927,0.07040928191594573,-0.8816495857248838,-0.609289511076085,-0.8116662051493786,-0.14793937705863383,-0.5475262104653806,0.12963224215852173,-0.7331870260828526,-0.36880138796504286,-0.3166116875401302,-0.3273819396689491,-0.6520928434813376,-0.7297141444885961,-0.2240723050562676,-0.7178493178949078,0.20501572382246058,0.6387742108265155,0.6402858021724731,-0.5971651682268075,0.22362333966644238,-0.8371758607412244,0.900544610202331,-0.37253251782598845,-0.9397069769778043,-0.43148672090457285,-0.3465339768460765,-0.14325763205433698,-0.12738134987776836,-0.8481404120686662,-0.8675412594735075,-0.22862808643610327,0.4783101881348371,-0.1370571380238287,-0.9034344143691446,0.7282706321101908,0.006033223388782534,-0.9656499496272049,-0.23828923733454738,0.7618948361296801,-0.13081072994698806,-0.3228911126977373,0.13786824398459852,-0.501264778994456,0.22452174914350095,0.9258455590997575,-0.25347925679486977,-0.518595989485541,-0.5308856135185588,-0.5643768669646411,-0.13295835871929698,-0.3497731384863615,0.7840422310381157,-0.6849686871208781,-0.3038413906593922,-0.4536130869443402,0.25206971611826456,-0.4718833596325866,-0.894875691043337,-0.8243668079848565,-0.34504751620990864,-0.39650840679980764,-0.9609181589242359,-0.5870205808888111,-0.2997499682891262,0.9612795291613083,-0.9727181424027976,-0.6710746713531167,0.1311305224473406,0.20093280973478073,0.7595501304574799,-0.11640860649467366,-0.05867642132327343,0.2891598588901769,-0.7670732601985781,0.061439937990868054,-0.25309019181414455,-0.25493532192710994,0.5837395060145004,-0.2911722099069792,-0.7406256259167813,0.6405640970535987,0.3942405459664932,-0.9113520691039124,-0.24069888703327383,-0.48303436758252405,-7.61920614921119E-4,0.48069942263360993,0.4879500104205217,-0.8351297139749132],[-0.8612682756716863,0.05512152943961718,0.9753192657802021,-0.3561500992636397,1.012095733286545,0.5339388218514718,0.31453093352524886,-0.2622303214967021,-0.8317342560400103,-0.38724317476938697,0.05225992144602598,0.029661324490191973,0.8900388200195971,-0.08814573409618602,-0.12570837942177213,0.117484305242664,-0.42758196455956177,0.1825591665060347,-0.6464678652201925,-0.0913874708291618,0.1298619132182144,-0.5205791108876254,-0.034200927651236473,-0.3033784442533807,-0.9643705813775112,0.9120008078241082,-0.815341069959012,-0.34121957009706816,0.5075208359920979,0.7582702832694745,-0.03651043100983961,-0.26326670887860704,-0.10401395738753491,0.5982104558631746,0.4904219421017236,-0.23350153613575053,-0.43534117233247127,0.8059635776866193,0.7385763251544178,-0.8053717283748383,-0.002792440990537671,0.3454963387409924,0.12308232315516818,-0.11845949500636042,-0.348568565581578,-0.04761375280537859,0.10183055787452969,-0.42098895895400507,-0.5899523134529363,0.7509332228354072,-0.3641378887334594,-0.31596197924740144,0.5522090742246877,-0.8354035967996538,-0.5707822822513664,-0.04419196870190399,-0.08196322102270037,-0.409457417316587,0.2885682074525061,-0.880378314895991,0.7903469018599685,0.2861464811796364,-0.492788051752771,-0.42870096320346013,0.8747202612986587,-1.003777656838092,0.9080447558970632,-0.6411964553353761,-0.180646763240867,0.6423705797029851,-1.084476112717316,-0.3793613447504637,-0.3987158127970793,0.6998821139716132,0.3804395721486642,-0.38997369974901663,0.441811441179884,-0.21632024314148315,-0.4780586400077351,-0.25996461689181793,-0.8708979350014021,0.8817195978269498,-0.6814860093899966,-0.6453657434540356,0.3498355010708427,0.20220373298624356,0.4794958592809291,-0.33050737026376464,0.05021039072171264,-0.8550603074874771,-0.3985325029530563,0.8297196909546912,0.40896525022460856,0.8652788540589506,-0.8059640358018423,-0.8980020374273691,-0.6743235898146661,-0.26384259183357306,0.2054221843383503,-0.7711395554246346,0.5238225512771496,0.4582496302160455,-1.1554903079175223,0.36538751735164615,-0.2955878637852705,-1.0003748004732604,-0.7428073734762168,0.08280832363725102,0.0551330454624416,0.5464817200834985,0.2904958639649115,-0.5364257982417135,-0.10414644855118765,0.3204635550333633,0.5089563571699526,-0.5689108618209815,0.6463035103353426,-0.3854328263644367,0.8143494906946955,-0.630714801772437,-0.6711752507254866,-0.11210640932720756,-0.5001195979406992,-0.26909282169021825,0.4978186111986844,0.9023010406992213,-0.5946289163756419,0.7076243955135509,0.0826361599081356,-0.9943711235314183,-0.5575917302814443,-0.3455018130785986,-0.8273629357746164,-0.12004553745346339,-0.7339040267885427,0.2080741965896197,0.819703841217524,0.49588486948083305,0.9801416097791601,0.7421247064480755,-0.3438872373716746,-0.9021474377817373,0.8414940052197226,-0.8789323048912081,-0.9063055407386277,0.6011089467078486,0.7623533501695584,-0.24332943048910938,0.4261343601742226,1.3799876196301393,-0.5010461019865575,-0.4187993096844563,0.38558005803991663,0.5614103231708018,0.11954545497889825,0.9158571359915838,-0.8909327844686796,0.45205619819603743,0.38263551310439886,-0.10775114743595968,-0.49337566615076894,0.4701538665299489,0.002846338437585363,-0.7212631863165505,0.040344855173502114,0.1455827376727659,-0.9897222798686431,0.04324564608453302,-0.3035247823884011,-0.18083583608359255,0.10204552268675326,-0.01041170162005557,-0.06173600662029421,0.2414869583246749,0.2716607969490484,1.2810835676975252,0.4280468743881914,0.4974041488701895,0.8457199730911071,-0.3794674737764143,0.23744771768853018,0.13988357697931872,0.5046765644195456,0.4857568862341988,0.5358737847790515,0.4858809264587174,-0.38028102874823144,1.002502227719582,-0.7775170632228872,-0.5966632974174303,0.25616944278106546,0.6269489929867142,-1.0508430295155902,0.2349970248281433,0.7820966830504614,0.9180956532595383,-0.13542225088018597,-0.2372760164136764,0.4954536629278569,-0.16984618974873075,0.5663280246488311,0.620151547859357,0.8662746259807679,0.4507891886992509,-0.6400821519907541,-0.2842809575129761,-0.9346790406384493,-0.641689344173827,0.03859596344386636,0.6703782822957335,-0.6531717038466085,-1.0448846095967594,-0.7189942402032767,-0.03910198094249761,0.13185922337513833,-0.665875529877816,0.3351691577287278,0.27778341648078864,0.3571188783000291,-0.5696151721089465,-0.8147154814189824,0.04158617564107639,0.8216721563785084,-0.2988695299510955,-0.5688974064227212,-0.7208022453669967,-0.49996658226237856,-0.16967414356512375,-0.385265479613986,0.8437415077722277,-0.8667888166495489,-0.6379365189533613,0.26033609196158336,-0.7342720651537803,0.3635352407805119,0.012634476072839124,-1.1983378568160388,-0.7545070726359744,-0.19294573625231812,-1.6337058565360394,0.0771216293735563,0.6257912707051904,-0.43334459351648225,-0.1571771327143963,1.2401263838738437,0.7156167834036823,1.0386143859088035,-0.07599222994472565,-0.6901934163899569,0.5744426450575116,-0.060935906048413487,-0.5929830539788671,0.1272963246400789,-0.7120674071412202,0.36877216416116665,0.48889853313707904,-0.7802284512163661,-0.8362358728681766,-0.13531289252332832,-0.11204502942000756,-0.8087801230124344,-0.45352309868465934,-1.1105109915457747,-0.29808307432125586,-0.7776325090737727,-1.333449716480165,-1.4438209285969907,-1.359539632857062,-0.3905100310120965,-0.16159405031159743,0.8021115185835742,1.1905528288086944,1.1248002602290854,0.11011883534841475,0.39981059599699426,-0.3327847955922285,0.08457488293678013,-0.6465637570104593,-0.357536067661828,0.7916712449925927,-0.7787150674406174,0.6240106311292863,0.14878226561030505,0.6561757797533716,-0.7437966581499766,-0.47402725118246747,-0.7805118379936313,-1.0532732300135406,-1.0662236072638276,0.15770543941102008,-0.1398938697930585,-1.0619084974947406,-1.2000616861921558,-0.561571270735643,-0.8053502300517256,-0.20531464971862043,-1.0446487802172764,0.9076636741575722,0.6918359577212163,0.5722405944238781,1.2405928483331,0.9402953086210044,1.0522732508564074,0.18317406092444266,0.6095011299313134,0.48355574421362946,-0.6796539526691598,0.750621722198693,0.7197767866778327,-0.4042389156563249,0.7977688905918929,-0.7781066112350519,-0.27541455204476417,-0.18856783869625154,0.8881603087006003,0.3743798179362947,0.06698036153827198,-0.5639277887783931,-0.8214249997690478,-0.09421123852878861,-1.5940859171696398,-2.1443210081210022,-0.5806922893176671,-1.364498582985827,1.0189336673809295,1.152359229369091,1.0711281384176492,0.44695919857833616,1.8279882270016319,0.5364843390521389,-0.4890036121953813,-0.5703927457070086,0.34088574595843013,-0.04482647850804549,-0.4501773656617008,-0.7066509553164659,-0.24461142573429465,0.22141193086675098,0.22498789841532937,0.6749034281810086,0.14242808877126997,-0.950344312434359,-0.7721452885363644,-0.6035397925346225,0.6135353791551348,-0.6019445797814603,-0.5843318775464582,0.17570833441863662,-1.0570090650830382,-1.8434918584607778,-1.106976158032396,-0.09297421420894743,1.8617598358632867,2.3415404794226435,2.4061191443953,0.9370264797233585,-0.39203265787691355,-0.283963204286023,-0.22066114503186562,0.39255138603311385,-0.45691032753984184,0.759330503026411,0.42944875760921614,-0.7081100838611052,-0.44707947218575067,0.5325540557297052,-0.47049136680619297,-0.9067514786014321,0.7424532992217114,0.5433839649148843,0.9514616322971055,1.2350077372161654,0.589483121851626,0.5176598319891893,-0.03299401012447706,0.25457036846734604,-0.5783358849246657,-0.3872021528454818,-0.8868923186709347,-0.5284170689493737,1.9363941296766094,2.073756437577327,1.0700188996417592,0.2803061179154868,-0.3202727880703541,-1.0695689230829368,0.02744175450985642,-0.4978124557424594,0.5679063544132648,-0.44861155416157517,-0.013677514173071375,-0.10032582018126225,0.15808066846737656,0.14812931872792454,-0.9006565362459376,0.4567049631532782,-0.7936936054010267,0.6211629243767803,-0.09804616660715489,1.715071940616208,0.2369373915559644,1.4340258835162032,1.4478914290541038,1.2611263158432326,1.165708865916819,0.3442120652067212,1.2498533533844154,0.702032208720938,1.9010056714186956,0.9662469600076309,1.7220452410649465,1.063047989550738,-0.5919874759722741,-0.970090070422548,-1.0401256345126504,-0.7173084289542042,0.5442279572261142,-0.48347757512791095,0.16033061742275756,-0.5197086039396265,-0.6237844574597754,-0.7679015458902672,0.4025129066577159,0.7410108799241603,0.978849522806809,-0.20630740276598225,1.6210052830756951,0.6238434272547849,0.880347507568053,1.9996524393776196,1.5809925193840562,2.0579425732650742,3.0191815051071984,1.9266336917305151,1.8177033042800737,1.2981809711511598,2.9428012006917013,2.828645021230367,0.9413423778968587,0.0034660031837961845,-0.2471000842849958,-1.431517861251435,0.29019660163372846,0.06584816515817433,-0.9273428392827694,0.42598348193545804,0.7420460561662529,0.4986975970170925,-0.9793222776659783,0.5917595509874692,-0.4890552512685717,0.31001502573499984,0.4145158000620017,1.4260528764222402,0.7565274195755215,0.718081355699356,2.283908587520268,1.077479745182346,2.012728964489863,2.748015905292514,2.377953800499226,2.4450038537036836,0.9917540093890809,1.296227334578457,2.1893981280978596,2.8137044925646224,0.3732742351542524,0.1337575504831517,-0.7797692046452269,-0.10118353160070451,-0.83652812856897,0.43241419362699357,0.5861120362731286,-0.157452184492274,0.9834944371874239,-0.4693413497430581,-0.3076571219637969,-0.5059378912081448,-0.2872366289528827,0.7212345294704168,0.25747865561957445,0.4943983334570369,0.9962226466398623,0.21732438555700503,1.1576820718812344,0.15619636394143885,2.2344009264691107,0.8248467428016987,2.091189415652847,1.5908788790507593,0.7840370524172442,2.928481303587336,1.9675580810200668,0.9810501156338006,1.0511200672934835,-0.3836170217846741,-1.209735303687673,-1.4726288636859841,-0.6088850547466532,-0.36777282790061583,0.380776362556357,-0.526928810420881,0.251387752984453,0.1348963152308374,0.8539698529744058,-0.7346188191003452,0.3463242791550807,0.4887195166295975,0.12608120757079438,0.9791820186436853,1.053155208855936,0.15874638590860793,1.1020165175037635,1.196544878779761,1.2100969163098538,0.8678936281651117,0.740179381118575,-0.3895926207148278,1.5683539311015289,0.680249889417673,1.0199898178057232,0.29453226363322826,-0.35204950719566624,0.097946087827373,-0.5974862434376472,0.6350123961534048,0.6657441820251888,1.0238099293511733,-0.17255210835002543,-0.10380554472647378,-0.5987169753942324,0.8575947616785353,-0.04392180397743409,-0.592174676711168,-0.6204437650544663,0.40244513320685954,0.24760981621704276,-0.5452150937875229,-0.27657799208963596,0.7609904812018142,-0.08180731374264837,-1.1714870796711776,0.2507571892424855,-1.0773174899413982,-0.6979464861190525,0.21526383632673546,0.6665444187558109,0.22677332555253776,0.37001328420759366,0.08971792502851883,0.30742677714777267,-0.3317060903118303,-0.9684614907740056,0.8531287931135487,1.1061551652223054,-0.11053111351995962,0.03613590219760275,0.901453634753134,-0.5692828889605206,-0.8877893279254668,0.7908610033397496,0.4239996218775836,-0.21584654122789174,-0.8151633699857759,0.7318243639185557,0.8304771556206142,0.7792297375071869,-0.661776661236103,0.05407830400027316,-1.4382439231556632,-1.0062829980549655,-0.9501683320039204,-0.7399289555672619,-2.2607202923626124,-0.28104221813022556,-1.605796489393366,-1.508453370774153,-1.155742786391431,-1.118442843925335,0.2310673513814492,-0.35149435806928475,-0.41969966956529503,0.12996432121983392,0.21849420457076857,0.8298308590577455,0.5743980806495844,0.3079023399947292,0.11185330556076441,-0.8908823915433955,-0.019826384478180133,-0.9007634395456491,-0.3171295733630609,0.9942100875065133,1.1198440770820373,-0.3259941436059741,0.3685817546800853,-0.4195092445705085,-1.1311507254184634,-1.7924178118251701,-1.2452581526495996,-2.0322880411398767,-1.4260931362835911,-1.0485169113149286,-1.0526030096670755,-1.390257616980762,-0.22077473535756226,0.9800551579504184,-0.6457586500286309,0.6454725729359717,-0.4918569270079332,-0.13373079428751025,0.8050507432105618,-0.6116916607723305,-0.10800611424579892,-0.6005838461729952,0.3239653076054194,0.8429065843504957,0.42399133475995565,-0.9759863547930041,0.7676908436641692,1.074002797633066,-0.26159747206633516,-0.7847641975181145,0.01699752610820785,-1.1667194988450278,-0.4025171018634613,-0.14980928242140246,-0.43834630709834616,-1.6679696896232505,-1.5027964541186316,-0.7141447090806885,-0.9826730362196586,-0.818094420986608,-0.29961971023036355,-0.6243650293566763,-0.0067249700028339295,-0.5327341561271087,0.8849986109099776,0.2831147872922453,-0.5726516264857788,-0.1022222994625642,0.2978603338304029,0.06994401578974277,-0.7652566692097099,1.0038593755249745,-0.004362241083796714,-0.13557911400394934,0.5927903475795477,-0.7883426376098274,-0.2906056538291787,-0.49841115783332035,-0.6451149720124691,-1.4163682512421374,-0.3316261665175992,-0.3568452807632969,-0.44536656115468587,0.3649044613476956,-1.1475425763141724,-0.9333254352354677,-0.5968453077664763,0.08303144273306602,0.9024574997924936,0.6573634701145427,-0.31447047659014976,-0.519307764331203,0.9013159956776747,0.5121054607748576,0.24726497057201144,0.7338730122477921,-0.7822949179979652,-0.2636502822022752,-0.5408976115343491,-0.4939826824349401,-0.6920556006610654,-0.6751771976326683,-0.06681089492757782,0.7930261271450416,0.08867872649036133,-0.2528113444406669,-0.405069073141683,-0.18844653524298202,0.7564274782511113,-0.1438451670498855,0.16040736770367467,0.11700160281310822,-1.0125968466094029,-0.4577011216175714,0.40018801705134616,-0.5370904158539146,0.183552397384104,-0.4940110997367544,0.25748181847428914,0.026215158152479837,0.7608772452129893,-0.31301021246118826,1.0050120795945563,0.6191519255507277,-0.1889158500135479,-0.4509320914808434,-0.6825421311256601,-0.22817785072712454,0.856221005096651,-0.26438700441229535,0.9268158306121489,0.6370789538863397,-0.7769953823464062,0.6936663864399117,-0.8985569488284094,0.8163332760172958,-0.9839348812377984,-0.4080789424387096,-0.8790782641540698,-0.5055745506220147,-0.5436896468332078,-0.6249327826517801,-0.5143073973328461,-0.33806142935001027,0.34119473951889295,-0.33067446275932905,-0.11032611690784022,-0.17709798494514561,0.4592601885389894,0.06094462271356153,-0.9514842443696991,0.7387008801082791,-0.4377920110612563,-0.9856200874083499,0.16057762777845686,-0.9711625377746016,0.46925124039179256,-0.6024378357377498,-0.6306842811461657,0.9365442685105887,-0.6917507133643419,0.6721629333763861,-0.15898060108068113,0.6742936149271691,-0.37682091140452045,-0.3908517961471374,0.36719923900118,-0.05608900552879477,0.619986200559267,-0.4778886192921139,0.607558157086411,0.8411918791627226,-1.0327635971080564,0.04825982697077169,0.40353108919543534,0.9918002492787785,-0.887517429320573,0.47315716555577253,-0.6481866500131956,-0.48866175712360066,0.4527619620842559,0.5869077034466001,0.7266975530784796,-0.3087360952109772,-0.3435249974147565,-0.6789557517083042,-0.9386597545757798,0.6181027645590403,0.29408808695253374,0.9928253855641583,0.19720558053228543,-0.5571239649676981,0.08488417675093625,-0.8213907773106818,0.898916816469647,0.6287400633309949,0.026498269916598236,-0.28481104506257804,-0.8280969375258194,0.133195818519191,0.436020812647649,-0.8597601417774781,0.6424044368694792,0.7479186577382185,0.9566233031802283,0.5137467087070313,0.5646041950895178,-0.7482112885600245,-0.9850440641168683,-0.5297023907563607,0.793367624788663],[-0.8949114288922584,0.7773372021063074,0.887961585331176,-0.6732749427776377,-0.07107641054701222,0.6708559698122238,-0.03153792798582711,0.18784121594432016,0.5149946043090503,-0.02813631443175528,0.43243458350386316,-0.07382317708801459,-1.0195144167055898,-0.4484785337640657,-0.7463944478524185,0.8717179994923978,-0.14656397894605735,0.061334872008487244,-0.3936962592837972,0.8031920071953715,-0.9788882284034139,0.5728278778697928,0.1692371642408024,-1.0190746896831497,0.6338834534888862,0.9321594297525337,0.3558216134473741,0.2549302218036284,0.5696190675640866,-0.8302848456427931,0.8502434182419292,-0.40645223345530207,0.622637688248098,0.9509807806418873,0.6563209156788323,0.5351991853376987,0.18557043847544083,-0.7668021760316462,-0.24008770080295083,0.7925804655422616,-0.11788408725487604,-0.9412248504711995,0.4686350427580623,0.5045865222148195,0.3005988006869495,0.6940692277010725,0.4731634805889781,-0.49531745945509476,0.8438729920743315,0.25891783837737425,0.8326829528527846,-0.6475041508009424,0.5420760175165198,0.38637482565710063,0.13345998587583505,-0.12519404871385006,0.529352667103894,0.43362007738570724,0.34749448551346346,0.46795614869149077,-0.9731422073473073,0.42907250811103353,0.1519540382523115,-0.47332550407635016,-0.4377193641021516,0.9289731557738541,-0.19080760173626637,-0.9661234054647208,0.3832133554583544,0.7683923319894416,0.09173848405906294,-0.4915612004223696,-0.8767157031444807,-0.10039942416979199,0.2591325220277297,-0.589369122997707,0.034633670625506124,-0.80526898127886,0.38025705805080007,0.2926256492651562,-0.5435764154579734,-0.18682555391063463,0.24562874190007286,0.9273372046303319,0.42916283220413426,0.24352723527741685,-0.4937632930155359,0.4550875352806219,-0.023218956902558652,-1.0231065692975845,0.3170949477503645,0.8960278218437996,-0.2112882769062695,-0.40751175634726033,0.7825639373386126,-0.24669638290370607,-0.11791530651394579,-0.1942460508397106,6.65074353897638E-4,-1.0498193227150432,0.17198394935717082,0.25815774353867665,-0.9527408366399304,-0.11249543306418143,0.004858995651762109,0.45593008999957557,0.05873793047632137,0.3060700679898159,0.38033668075797233,0.26410540110023173,-0.3907983613714643,0.027348239843867223,0.0369100381863399,-0.5480635669850467,-0.2246225506629125,0.4014487102993982,-1.0178371246091906,0.49939594614111177,0.05386212861573753,0.6312543378023043,0.5336496265635368,-0.8006244781324632,0.09729533867245067,0.8034480682405631,-0.9752688073395441,0.5129516875352802,-0.6040180436601426,0.6215075579637339,-0.8029381367341064,0.7648484151201695,0.47602133251552614,0.6845002306731874,-0.18363001406382612,-0.676881803473858,-0.17624339892490404,0.29310801494360766,0.06044970921326271,-0.6463540421478114,-0.00146886349119659,-0.25894313365963756,0.9665332661878345,-0.2461579042961922,-0.6369799903342832,0.7710076236589495,-1.007699259144449,0.7203704537139635,0.5240789046251392,0.478697144027462,0.2347563844148165,0.8754544986582399,-0.46368133535851597,-0.7900378616591187,0.40736982253853765,0.13007542685695955,0.5402336388395875,-0.06392235752367409,-0.06948887407553994,-0.5240591779722521,-0.21460415682697037,0.030380341118359466,0.7113870959784787,0.6791348145617447,0.3980798425770972,0.1743034716683202,-0.5006007959772727,-0.36923891564621925,-0.6317680833428883,-0.014367771124197449,-0.5890325724165806,-0.463799548813328,-0.303694907409896,0.7528138607360282,-0.5547854457296794,-0.06886224014723626,-0.5025873265994347,0.3798823067583039,0.9133825000726059,-0.1977021601649338,-0.598171864074064,-0.7980937123098435,-0.5431215387469538,0.07917983655441765,0.5982181232502715,0.26340676958599896,-0.47069682406723556,-0.8803703584348797,-0.574995183325831,0.48763980861246314,-0.16924074633551478,-0.7259351899576607,-0.9700921289793049,0.050178130878791444,-0.5297779047657754,-0.03335703958219728,-0.47243172961501495,0.4833796729146838,-0.880508134728889,-0.8603501648338404,0.13373795198334104,0.3334446031229472,0.3825379031261621,0.4476402186025837,0.1812358356484311,0.7475427646247771,0.5144122980344205,-0.30399221606415605,-0.9615478392552547,-0.6033986902064535,0.9065539627324064,-0.4983571645117333,-0.019330297907614372,-0.07184481075173796,-0.6410590028179944,0.35177014654177263,0.752439275787422,0.593578625267193,-0.48361561568275235,0.39860934394265274,-0.2821903930756923,-0.7682478147939005,-0.8486499682108352,-0.4814382381972969,0.24926209487080397,0.05209829856484029,-0.9220453250686209,-0.7372687752171462,-0.1403457401177414,0.5032182040002199,0.9161735096320796,0.6529783127933706,-0.19502048379182763,-0.005942560677076823,-0.6323628907531313,0.6865080396910834,0.3722740246340164,-0.18488367272374687,-0.8008032049973631,-0.9299053649200686,-0.9615961055258148,0.510546603023431,-0.09062990177095008,0.40656024499781607,0.43246756471460973,0.044550001553843796,0.7969774360174268,0.3979249948200191,0.598018989198983,-0.7131857184940177,-0.3107334960351034,-0.31033985891665933,0.00945849472036744,-0.08778599186989881,-0.7884201688086945,-0.32308734061831634,0.07322651264377206,0.7324973020356833,-0.7905439254827333,