var correct = 0;
var wrong = 0;

$('#load')
		.mousedown(
				function(e) {
					document.getElementById("notification1").innerHTML = "If you have saved a network from previous exercise, You can simply paste your network into the text area below.";
				});

$('#create')
		.mousedown(
				function(e) {
					document.getElementById("notification1").innerHTML = "Constructing a random network. Please wait...";
					var xmlhttp = new XMLHttpRequest(); // new HttpRequest
					// instance
					xmlhttp.open("GET", "/network");
					xmlhttp.onreadystatechange = function() {
						if (this.readyState == 4 && this.status == 200) {
							document.getElementById("notification1").innerHTML = "Network created. You can see the network in text area.";
							document.getElementById("networkJson").value = this.responseText;
						}
					};
					xmlhttp.send();
				});

$('#measure')
		.mousedown(
				function(e) {
					if (document.getElementById("networkJson").value != '') {
						turnOffTrain();
						document.getElementById("notification3").innerHTML = "Running MNIST test data on the network. Please wait...";
						var xmlhttp = new XMLHttpRequest(); // new HttpRequest
						// instance
						xmlhttp.open("POST", "/network/score");
						xmlhttp.setRequestHeader("Content-Type",
								"application/json");
						xmlhttp.onreadystatechange = function() {
							if (this.readyState == 4 && this.status == 200) {
								correct = 0;
								wrong = 0;
								var jsonResponse = JSON
										.parse(this.responseText);
								myLoop(jsonResponse, jsonResponse.length - 1);
							}
						};
						xmlhttp
								.send(document.getElementById("networkJson").value);
					} else {
						document.getElementById("notification3").innerHTML = "You dont have any network. Please try creating a random network.";
					}
				});

$('#default')
		.mousedown(
				function(e) {
					document.getElementById("networkJson").value = '{"neuronsPerLayer":[784,70,35,10],"learningRate":0.002,"neuronBiases":[[0.2820387273225561,0.4202015120070093,0.06728358440221893,-0.2911386895512169,-0.3878852939794756,-0.39939750099799576,-0.37696341554356766,0.06366428737209384,0.38585526807500314,0.19020298958389237,0.4173537980025551,0.015360900423016743,0.5943590754041503,0.647117493864853,0.4794592468288613,0.5315850976910932,0.5694277106787164,-0.4054760221819577,0.6302385293212016,0.6116411340704184,0.5041509573386049,0.10481720132932226,0.6761815896320023,0.06962973296058617,-0.3903911204418577,0.2360263369026273,-0.11305327036829904,0.16709812672611457,0.2518196922029814,-0.47726975276823297,0.20985333420021068,-0.2386855334519925,0.028295979080833367,0.5233140563657508,-0.16640391878532557,0.12862746532383362,0.54630633432016,0.4125195159894527,0.2599574661903872,0.20323075400733615,-0.34482565933324516,-0.41714874457895756,-0.023720281554196088,-0.35998839971712676,0.4626803147796261,0.2805100417131743,0.5429419427551061,0.26602197916060766,0.43086651883442895,0.0511342204176487,0.019072300262518382,-0.4715294787311932,0.3992801982029067,0.2077391441450639,0.546209711235744,0.0779921438429374,0.12392389650729019,0.6578542893494415,0.3936135074014102,0.04431264413440017,-0.152084107294495,0.03896678390715458,0.24040473949354801,-0.3327162830450121,0.1350990372575821,-0.18901018951629955,-0.2712940663776362,0.13962423556623815,-0.09943000135536273,-0.4584167601716595,-0.23156852363536368,0.5985625424301142,0.4623353279030936,0.49476397612838763,0.3083652386753988,0.3719339719377469,0.31603555705898423,0.19535173414812823,0.3096450400255165,0.2401469412938516,-8.77703996639001E-5,-0.10859332186799925,0.4667600954900999,-0.18120901428379227,0.4699279280932471,0.1739235822217463,0.21764993720507142,-0.20248131609443798,0.24518308318081228,0.2376572844827901,-0.03152101425976195,0.4891932552046505,0.6115080513730222,0.5790632690075896,0.03014467361447648,-0.45084675527849866,-0.013656669101557384,-0.2730536147463436,0.32256185012037897,0.6178040919395424,0.15075491697045063,0.48852096637668896,0.24924981713218608,0.6206070246098192,0.044666484784764315,0.5681935234885764,0.2787339067672894,0.5278942878402018,-0.4008756351842962,0.6784900991612064,0.09075666847943109,0.5327988189463064,0.24464531933000455,-0.38784122847775826,0.2542789199665021,0.6489473635064642,-0.11256786045757516,0.18158728622701514,-0.2992652106429915,0.06042306452955348,-0.11452415779593633,0.4562856064228924,-0.2600101326336831,0.37486536353148026,0.28429814874895265,0.14129220190248926,0.23793505104048707,-0.36356743624291765,0.08732161908317482,-0.1610278327905758,-0.3663659356778163,-0.4512872793075646,0.03859011094364906,-0.27621496726426653,0.12042619412440791,-0.16147211170466147,0.6857957648974604,-0.1657908925080333,0.1493705416018959,-0.14006437405462246,-0.4306965393101127,0.34811883351356476,0.43490241177878797,0.3935913484397332,0.24809827591282063,0.45752090266959045,-0.34844304140803894,0.1399947926555104,-0.2736847051123287,-0.004335730240152547,0.4070991336051065,-0.3639975110011865,-0.3157539224527515,-0.4058514875900351,0.0613839287018475,0.24234836355548617,0.3454500234294502,0.45976448874063325,0.1317548711422537,0.25577316777198755,0.6268334891570964,-0.13958937588681852,-0.41522645263184577,-0.3072766415172271,-0.3787060908595834,0.2965372038623514,0.46055636469449945,-0.12756061690909354,-0.34723972494263383,-0.4908188275514582,0.6099805805006873,0.3956122951595703,-0.2788039023440215,0.5377620652962847,-0.15349538462963846,0.4706474326370045,0.12036504559642358,-0.009579272764905555,-0.276667119744924,0.18293317543032506,0.36389377812222456,0.12679016031676082,0.24313942645439135,0.2333719008110785,0.09540143682941438,0.6776986847954942,0.29154915516813085,0.29078999672142836,-0.4138012733150999,0.33841368936420513,-0.34294027492362855,0.008702994282529963,0.3392946627375437,-0.4283553313426299,-0.44092854273741716,-0.24972877882107913,-0.37881688494847354,0.5436330457704464,-0.34782261335239417,0.5461407676976335,-0.1668843907427059,-0.10873425607400006,-0.2911504613785313,0.37822408644522554,0.5113015052864016,0.3802588713004921,0.004141841969495075,0.5383335893012202,0.6107104485167001,-0.03593244384051664,0.23501514635383902,-0.4460583727331592,0.37988720816610555,-0.3097134967972031,-0.1966268373380135,-0.19580153108259157,-0.42557720944908906,0.5259165802154979,0.07588336374857008,-0.1322992878932427,-0.015540064804053677,-0.11501957037427529,0.6051410031647553,0.249360767917007,0.4668463598348588,0.24158118756947966,-0.14428151460732996,0.22708786560586913,-0.12471751647916823,-0.1013937325601082,0.3251270681366166,-0.06014927413740517,0.2720452407273495,-0.2431112019604193,-0.31629774175270337,0.5070507250916088,0.3826041437902209,0.5917475842811006,0.47890822422582136,-0.07500566760040345,0.6196795092911587,0.09343681547755112,0.2585415383637354,0.5296127155814794,0.5560278996583896,0.5651452666081813,0.4637982558425108,0.5454359164994826,0.2654735548636561,0.6967947832341339,-0.27284665277560066,-0.34081186119114737,-0.32056072114710066,0.24499681817532704,-0.3185145892719239,0.26223031242919104,0.6214647389693002,0.34913519967791506,0.645864261162044,-5.645157638773934E-4,0.48493414800992385,0.20065310295861194,-0.20009670314144185,-0.4570583741342725,0.2094698827031577,-0.34276938266915047,-0.30743762287753706,-0.3224137440697508,0.2891831592174766,0.35565010469090685,-0.2472271602592752,0.6406864327079504,-0.1887931721545581,0.5267543317889538,0.27823842165529045,0.2021868997483638,-0.22432992211968267,-0.1469869170655691,0.37525244142521785,0.4020588899800325,-0.41149096330685664,-0.46617756401676835,-0.2936456194913707,0.5801912945817065,0.6462417266696718,0.03577070678585059,-0.12586581559414378,-0.06012497188529092,-0.2529298012928465,0.004714429720262925,0.02847676109462982,0.379341383164874,-0.3345931264807943,0.10361669813500973,0.031023409484119857,0.10667394540961661,-0.1828431820983467,-0.4852897415948106,-0.3553883060295332,0.6217733614951595,0.12082173584550904,0.5066563956989649,0.1369390369109723,0.004913468987826741,0.32472599047297124,-0.1830192705122854,-0.2033198968110681,0.094786921902698,-0.3766005621047689,0.637175709167529,0.3567725589117301,0.46979736826640783,0.1263859442633386,0.11246951133963046,0.4035696241619795,0.564715120808039,-0.1295189513063617,0.4803702233691729,0.5220427063375688,0.3606721948838353,-0.21836317328166038,-0.32829648888735674,-0.4137984742864624,-0.12016767849562265,0.2955055643188207,0.5849715373435307,-0.1496163807982906,0.1969307546238105,0.03582941128114936,0.11946979158152715,-0.4689504972804515,0.24823779194176376,0.22761647091702375,-0.18529121401601606,-0.20979609170616115,0.374360061768892,0.38727887807658135,0.3932958324620781,0.0405483009685611,0.4766521664517088,-0.3153576137062238,0.24154238443309006,0.48895399953666197,0.6978710049389185,0.6119715444640574,0.48667132303098226,-0.18117062855338045,0.05606477160225176,0.022889032046332303,0.041608005479209065,-0.31656039574632444,-0.13345261290700539,0.019301674490434295,0.38794849717309854,0.641221220636776,0.08016890889285111,-0.032819492070971346,-0.04519230397336016,-0.48938162379371597,-0.15304810044420497,0.31227630540667706,0.12585879535191624,0.25595198484275117,0.6825226921478129,-0.35541322827010086,-0.031013669357747187,0.6373175717472546,-0.02937369170299553,0.22562512193164908,-0.06741703702364821,-0.23350852508567427,-0.22162701170685184,0.34527544834199164,0.38963017414047885,0.6073100689916238,0.6917234749095245,0.415253271723525,-0.1646872280090007,-0.05702946769162737,0.5970799967906995,0.03392500541818344,0.15602563498058397,0.40418630307185033,0.04070882132103826,0.1724742868525465,0.6872411622386099,-0.3888850481961946,-0.20892008193323908,0.5351368381476516,-0.03518468775613037,-0.4715403209856524,-0.289931470121208,0.23646096003214556,0.5489186228533525,-0.032868393831668175,0.20732302269161607,0.6162841677903745,0.06188926597288169,-0.21265738302715936,-0.39203784957294097,-0.12164856125018236,-0.1690865582815752,-0.2330158556756532,0.3071251706738991,-0.10876526675606918,-0.3364515919957556,-0.10436864538042478,-0.3842430313979789,-0.46955208780215674,0.10871286540595293,0.2384959430153324,0.120369565125095,0.3683850998126995,0.4678780414248679,0.48613640214961473,-0.014618255621342668,0.13394587834167526,-0.17919660334057153,0.46471754940965126,0.3199966555476331,-0.03355608685909933,0.21726897328424788,-0.17190350246234193,0.5124373807303986,0.278630927931951,-0.03913305896915953,0.2869964287535529,0.10271991377504741,0.22140178836912872,-0.22697669219915062,0.452013395596753,0.12100174698617938,-0.2920190119055376,-0.42496919378466186,0.4761863707393347,-0.13809571976943164,0.3081251892979078,0.662982943721969,0.3793450613167385,-0.003933613381114698,0.06311113217728137,-0.42489113527774147,-0.17956619456341633,0.5385455310337217,0.20001171045632415,0.3631178562529781,0.555494931837569,0.49954282578814246,0.03899888954867725,0.07877155261957447,-0.12202092911391027,0.23628749773175495,0.09014462647897703,0.07401199946071435,0.3845342006272835,0.4057752378355075,0.4264272424912928,-0.4124181012384542,-0.35659037607584965,-0.2135849763831001,0.2973836478323775,0.45318406155876156,0.3640954945348084,0.09249781484447339,0.013082734266504525,-0.18616462653431903,-0.12419695141777332,0.44875997285624747,0.18082998869284683,0.6641807033433655,-0.08112548716259765,-0.17682606773087484,-0.38275332878356083,-0.13285902543378914,-0.06280299437848352,0.03445775618250391,-0.31389716199110956,-0.39662026429485564,0.431177793316906,0.15665448320791953,0.6275162618322876,-0.1883190804025598,0.2898241116578508,0.036492038059570464,0.2468648299303826,-0.3345591066925749,-0.23304617284453588,-0.17990682535853647,0.3219938097668399,0.30508663919577106,0.10054866791906725,0.6539649549607676,-0.33496599303110575,0.5083413474319882,-0.30425492922318875,-0.1189438824927172,-0.2596190264068856,-0.2701315505855362,0.10094327179374607,0.49603042920737683,-0.10688001169944594,0.5789338564818574,-0.09700162853322108,0.5547632972944283,0.5824159510068072,0.12833641028529974,-0.44855749162493774,0.051428167285522575,0.14212143424442192,0.45996481337097417,0.5931712207886659,0.08239931961579339,0.3060908237918505,-0.04805006392416189,0.4580111740133531,-0.09044438583531605,-0.3615773107989946,-5.102961595597755E-4,-0.0179284774996345,0.616431080025861,-0.3009132307450436,-0.06396636224565438,0.08976481022643912,0.6190155508835244,-0.14687311816147308,0.6836236730252983,-0.3231318272401638,-0.05113034580590653,0.29686445491471425,-0.48920324252493574,-0.05402015201054344,0.5695767231553834,-0.07273694811281078,-0.18643559861284198,0.042210076740930136,-0.18158595123901178,0.5208472416848418,-0.1404060472425061,-0.3790692615781148,0.5834852150812075,-0.2836951941535375,0.5478250141587222,0.3508909977938319,0.6324144397927867,-0.28986529990821,0.035364727587480216,-0.48500790591003573,0.2020636785606732,-0.02256190221226767,-0.22938562259263517,-0.38250209202439533,-0.46040802410203063,0.3201839485372455,0.44618908035915106,0.6404425285085324,-0.24646359034912985,0.32301525310737345,0.04730253168590892,0.3134802271443985,0.68945324677845,0.06189595157716499,-0.4791031463598752,-0.32959155842209586,-0.2119827874099397,0.6636333767950868,-0.17209162502105863,0.6620772707556486,0.014336199235610692,-0.3454548812873205,-0.3343317069058459,0.47938496604092207,0.5655981053207644,0.16427402267375457,0.35954746214187094,-0.08845803589393036,-0.42997413931570627,0.5659886711122506,0.5225633631285098,0.12377134815985846,-0.21652395137150393,0.03694197013265821,-0.33122286911126825,0.48509747261151903,-0.029123678610886106,-0.18640594582446202,-0.15908275386600534,-0.08914129810526206,0.22805508217814363,-0.00675943404439816,0.6747767589410605,-0.3939347381599267,0.1553777020447754,-6.784124452067775E-4,-0.22746054334416627,0.1047071862653357,-0.26203815471367087,0.08032100390885943,-0.40569970019102836,0.49660112065732775,0.41810437016012203,0.25239990634781007,-0.09834561818670573,-0.48264937435530353,-0.2360885723823961,-0.4763567767920951,0.2993388928760644,0.3484772588739121,0.14398285470600913,0.053031483425905024,0.6205203306191043,-0.06623451144402542,-0.4886385885862471,0.09998571806157552,-0.2115690991046918,0.16434787999981637,-0.01918349967266053,0.2105662425864917,-0.03833514118695619,0.01904216425417249,0.5518916315893536,0.26414201987889674,0.6325570006943038,0.267935473247936,0.4860043896875885,-0.03041981407483929,-0.30232612792647845,-0.3438041092412829,0.2892466480552822,0.15274102810816081,-0.2434424717947773,-0.41842433651442895,0.38339222791702565,0.31729691100637514,-0.3805281638726295,-0.03694523600126498,-0.23402076555607615,0.6886290138783662,0.41700989137245204,0.2695578722169826,0.266192422689959,-0.13421062067816875,0.00403078437631077,0.13666244101717562,-0.0033683101568486307,-0.4907494650025138,-0.2624963992595793,0.4456994226597202,-0.11808888351290675,-0.017600590715754705,0.18244547838239766,-0.22636697051948257,-0.28660717826270365,-0.05753399398859843,0.46225004284098703,-0.056409595417301894,0.23521948503459555,0.14181263969557423,0.619312259839063,0.014895499278607782,0.5101679521446749,0.3532431171744862,-0.1110353375880806,0.04794726277451333,0.4447069243655076,-0.42677409056367765,0.6143492444130587,-0.4367346322584207,0.47099964315804943,-0.11534010926083921,0.4419594742878582,-0.014488138453909671,-0.010546479038628098,-0.02395474470952358,-0.3628049526032626,-0.07771899680091504,-0.3312236938770424,0.5166568634583955,0.24638259645935057,0.47393431994192303,0.4813593827162246,-0.42244846376239986,-0.19367612068938916,-0.2952579608714042,0.4201666678218874,0.06597545951204309,0.3645430917099094,-0.2729235315883357,0.19916834140988116,0.30597130498133873,0.12301417457353148,0.15938743137263034,-0.11728303714376159,-0.14927923305258067,-0.34474209232564745,0.015173890810554092,0.12012336303385607,-0.24760953745302478,-0.22869136391607897,-0.03584925098067576,0.4800491206370393,0.6429855762089844,0.11715926531325105,-0.021706230950998162,-0.3148084746559866,-0.10505171010480152,0.49490292141426684,-0.3655699205656314,0.341096717828698,0.4329736345673395,0.27689902636653785,-0.20847380078317773,0.4337955502961197,0.05874913310451679,-0.43809962039461264,0.1948098966399069,0.6393166517323701,0.6280591806584159,0.08318827355204672,-0.21965377667546854,-0.056010043625580985,0.6849293986543576,-0.07162926518506252,0.26267296196207357,-0.18218609552009907,0.010220757646554945,0.26760942979404356,-0.2154154058256259,-0.38598129775965606,0.38231732311591815,-0.2883502049991207,-0.4078610286467054,0.1863168439052142,0.47528637816305297,-0.16686202098375297,-0.33055592059065186,-0.27880738977109837,0.2351230933165327,0.18431807295369107,0.6267681345400868,-0.12405938128126598,-0.32257218398355003,0.4313121608459184,0.4819993848377764,-0.1059767645161766,-0.35990346011418584,-0.20020466472683668,-0.09053319726616466,-0.16232375415644124,0.0023413392249511666,0.2889870669740501,0.05161786965025661,0.633551245741599,0.6465903468179028,-0.3395107919976337,-0.1019673762597601,0.6705425988517986,-0.007447492624589214,0.24561173503564993,-0.06726114353506046,0.6198065944635576,-0.32703416991516454,0.5394346488786121,0.034777101164131796,0.3653390831144271,0.648282553495297,0.3619658018656041,0.0884484674191588,0.43933811423197744,-0.22722078100532422,0.6663623702105137,0.618662634214002,-0.45006351623533986,0.5273136247548915,0.6612938202557914,0.013288245218890382,-0.33025023159409606,0.12418535921897023,0.18913338890952924,0.5283916376413407,-0.4779568090570779,0.6672906793477431,0.6637744179770109,0.09373446354197768,-0.24281846336017232],[0.11367984167546931,0.5238471215719747,0.14356700365369457,0.25658739849352324,-0.14453747258755884,-0.12395835640264448,-0.2935602371340855,0.22099214647181603,0.5036396555379525,0.2910551658574518,-0.4743858686095682,-0.13528246183690765,0.6548866137805589,0.4922880522002496,-0.36230544683993715,0.03199257671434278,0.010532049934611478,0.6780628773112586,0.15462551377846817,-0.2824629867624683,0.16896813373063407,0.6780946611956491,-0.017999636205222862,0.6734169962855002,0.4432099941111715,-0.2891276136417544,-0.22109021940196438,0.47890746965428527,-0.36993536386069575,0.6857840377735254,0.3836283095122673,0.5585312737353381,0.08930778334247139,-0.3351936285573384,-0.006026431782325603,-0.14070602099127225,0.3438904000428821,-0.02890681932260663,0.5095401128529392,-0.4965515117601638,-0.08847781530667914,0.46588136567953037,-0.09537554657867368,-0.4021142574745429,0.20395106810965977,-0.24435656897199615,-0.2233577883929722,-0.0722101763863884,0.437634860865147,0.4498062921619332,-0.25816627863720165,0.5867274424396275,-0.3580777470575586,0.6603243680761742,-0.44619830822557854,0.07895986732040584,0.07451992191305143,0.5692044879445314,0.35107645176637475,0.314332163889981,-0.44506926171075234,-0.4922841771956966,0.3337255827234935,0.15649387719309774,-0.16640074699512775,0.4513604442249265,0.2515757206646203,-0.22949856277440725,0.6077779079796456,-0.2816348338109986],[-0.31196170298264164,0.09540544587798984,0.41409160661357525,0.029628814095609683,-0.2579906312824053,0.09383827403923957,0.6667751814883486,0.21312133164710648,-0.21286580327269242,0.42866958122920157,0.4007249613069509,0.0236792093767648,0.9023012404744123,-0.3912616489218359,-0.11855891336227688,0.393973172852806,0.6923660270143769,0.7332520586784,-0.44586202473381464,0.29041350791845594,0.6756210675085765,0.40911172301342774,0.3678547984321022,-0.4818355527386004,-0.4324744213234879,-0.7299221910999893,-0.3546575908501055,-0.41586693681001413,-0.30998979446356156,-0.4464465595148165,-0.5347249715172294,-0.2310090693528551,0.5883196503010626,0.3577114258106619,0.10737034522749794],[-0.7635448361364455,-0.4563701530978031,-0.7558828591203381,-1.7569950062784727,-0.5796983179484803,-0.5538973655633793,-1.2301724090250037,-1.1464128716091289,-1.1832551096719464,-0.2963834348601488]],"networkWeights":[null,[[0.00710021529477789,0.5593878957451774,0.6243657031724521,-0.3238753696880301,-0.9318413949164246,-0.792625859266127,0.28507153512961003,0.3050650195066815,0.10361444954813104,-0.7511612068266549,-0.015331329556015127,-0.9416086744612333,-0.5932679700397445,-0.7379122776737898,-0.3411497558408304,-0.4146193749968744,-0.15318081445836063,-0.5533764487290249,0.5423698733232938,0.43464892519544795,-0.2227646276347941,-0.6607471211925366,-0.5328386095265611,-0.5840089864213756,0.21417626759192987,-0.8497731945953506,0.5541888561777271,0.258189719830735,0.7728685774796269,-0.4028355511622592,-0.5063287912935923,-0.7186392314354275,0.34194860955467954,0.9992729616527353,0.5093756282519398,-0.6555369075262772,-0.7149072773397176,0.09947502980327846,-0.6793294427245624,0.6842042363873481,0.07376691970171166,0.5366201634482543,0.8786427494567155,-0.6252371431375926,0.6635678342479336,0.37618834358082737,0.7334614038932368,0.3199351869499175,-0.20861454626298503,0.9761658925820303,0.5249292005717879,0.15698630454875948,-0.7330327038174811,0.6790240406864132,-0.74862596394768,-0.8686461506569756,-0.4708167780471244,-0.6278582112530562,0.08325570233704127,-0.00930251686042416,0.297647868176556,0.729297576494443,0.04955497326207087,0.09961429001436942,0.7780875820368703,-0.8660353156837038,-0.926507403604887,-0.05657083333887112,0.335245400333079,0.6006360477374726,0.5411769559237954,-0.14534086792816053,0.6733576057617241,0.8387973981078247,-0.08425872944965614,-0.42433636882012477,0.43243623531457454,0.2740670222092416,-0.06163789387163939,-0.09965865342543456,0.8846922309713549,-0.3360249777370013,-0.7560912526845138,-0.36805491045887306,0.5791527190665209,0.8982344306217085,-0.6027311873985013,0.9852521493929798,-0.7441222527492851,-0.32852211451757,-0.5060715469886019,0.2531761634643057,-0.649380599537082,0.42725568782447043,-0.9439331706631818,-0.037626938564805666,0.3621376608944445,0.8800088414895187,-0.726247578288116,-0.20724112887820545,-0.21008374244185032,0.28885141285095084,-0.5029470655685329,-0.6469407137179327,-1.0686035988029083,-0.3645415500885952,-0.06180657080434373,0.8657491756415683,0.1875716482130749,-0.7572904473117604,-0.021306802529547753,-0.48035311909673295,0.20785471131410693,-0.27311442300971867,0.8872886125546788,0.8695679870229284,0.2462915415140537,-0.12153316287842639,-0.4614083429988479,-0.3572624603343904,0.4584912880104137,0.6359255424654128,-0.2213764215648798,-0.5876123644587488,0.7332408667568622,-0.16377221836558356,0.016330090850177392,-1.1130121773457862,-0.23538154791236707,-0.5544780236856096,-0.08192412979048874,0.0400079330567731,0.8576635471019671,-0.5374292761852855,0.885104540492145,-0.7005587713998075,0.3913036515270051,0.42653525041278956,0.3514461420876155,-0.5554324004255149,0.8037837312594711,0.7302993407960849,-0.10835672183870637,0.591163846770416,-0.28262274383615216,0.595015080805739,0.8482891637247142,-0.6681419097166216,1.0931636052111107,1.0548319293628443,0.8313079066714908,-0.4954095392751198,1.265730671469606,1.3222064758875287,1.0436420244068159,0.9885487070556868,-0.4453672372129676,-0.10837212061369474,0.4830126372327872,0.9592931722146636,0.4989708204212663,0.47231751068407457,-0.025137768580463692,0.6878702085502747,-0.452973897028841,-0.25109195194174133,0.7702477327662501,-0.6202055878191473,-0.25988021263538186,-0.19252663141391935,0.343305356172745,0.06893021888662516,-0.5707337804536768,0.368431183580366,-0.5921915702673828,0.9109876195283483,0.318672761927873,-0.13843946243261326,0.3909382800920147,1.6338649745821052,0.22510016607396863,1.0523265937794897,-0.6643355352373982,-0.8219728797574826,-0.19215136902447721,-1.086144028006237,1.0215432700143154,0.6865100781091736,0.8846566555597416,0.9165030797747717,0.22772368859216818,0.6471247781616588,-0.09061521532352927,1.0467152509805102,-0.7005678572345335,-0.686636136124681,0.5716653605644944,0.8418851807535952,-0.6301367550219029,-0.7628470008954313,-0.5200961179296902,0.8371970294462608,0.46893467769558445,0.7263987666026485,0.27310252396142704,0.7055897415215057,0.696189911450796,-0.5349451121322528,0.1953581877993835,0.3982581196023582,0.04294399676626822,-0.05962401527247589,-1.1637217292367408,-0.28542366452956214,0.11455971084606294,-0.2454337467154253,0.7823009015053423,0.021995065440488053,1.1370545919313073,1.0967825928002066,-0.007827304216631385,0.8891278191297558,0.7564241000020115,-0.09534715988955124,0.9724377940075344,0.5270824995490073,0.7402765819951168,-0.4753139841105306,0.20060374739653794,-0.6099077241443787,-0.39965720855942016,0.7753963811901066,-0.3251066754225378,0.14977003161151664,0.9833157713500643,-0.47912151747149656,0.6762012780748814,-0.695273582344806,-0.4077702309766753,0.4787546053655467,-0.28740193207645615,-0.35215791740830094,-0.9805832884013393,1.0001387041071812,-0.04183069925124109,1.2018556045841762,0.598636506481812,1.3457953608324968,1.4928583423921613,0.8531846229625409,0.816865694942453,-0.36972568425679975,-0.10445357059306816,0.5411965937513026,0.6357444348356517,0.006850157175136146,-0.615176408550812,0.9079748542052865,0.135329005030779,1.3199201464799573,1.1071285846530365,-0.068519069820553,0.07690703887182847,0.8429430096087638,0.6310618919577233,-0.6591650003873272,-0.8687455975840377,-1.085715365840598,-0.31491239025183526,-0.4399319272572303,-0.15673220591972406,0.40898139224834207,-0.07693158147021298,0.41110064862005985,0.5483050917446841,1.1290304519338792,1.1225203236868808,0.4089519445982856,0.49671120569818206,-0.8425066790563956,-0.3188769231528214,0.31328753560205663,-0.47516203077945013,0.4333540546711551,0.9743532381514228,-0.22578971661654823,0.2246650860638948,-0.3927133750537519,0.029092720742549788,0.5604510215219257,-0.39220086890311484,-0.7973089631080692,-0.014253252478736734,0.02698601405904706,-0.9118806742158375,0.2011748571684191,-1.227832296823875,-0.4260740149088649,-0.6375026375116646,0.17620028364952411,-0.24738692808309623,-0.3372332513026689,0.3672320116829327,-0.008068210324824302,1.3049712368193747,-0.7213411278267249,0.7699074838008159,0.8948673786183718,-0.7302847608880911,-0.14596172263248722,-0.6829412444135667,0.9091935535620816,-0.141601705302874,-0.5268032995885353,-0.6008752897509644,0.10018465432519069,0.5065629728628674,0.09752288332083844,-0.8896039086422404,0.34711109236673937,0.4654983445929123,-0.5420193729928933,0.12097473094373487,-1.1658282442866772,-1.1300284234219293,-0.24546911791722423,-0.46103453038129744,0.06785181194256833,-1.4059063745249591,-0.03048156588777249,-0.3295291980104134,-0.4658052051201251,1.1915319796667014,0.208981911181929,0.17887971583167622,-0.7256557602372258,0.29769290481604305,-0.8723984941672328,-0.45756891148547335,-0.8167091079137999,0.5000422807812549,-0.1279161966082265,-0.6684043124215033,-1.4605570489007602,0.10165220402453061,0.2339191237891349,0.8636660745772164,1.5474846203377646,0.6714207598906774,1.073771765134582,0.804041161673372,0.6302784767910969,-0.11334876587509549,0.23270542955311796,-1.1160231670394036,-1.3541273531225555,-0.7763972691309621,-0.14824670243645643,-1.0039973394341317,0.5032510310956961,0.5203646221105463,-0.756707538284775,0.5619538271576229,-0.19992369636130447,0.6578595551504645,0.20822961938846096,-0.2770852470795951,0.08081158545619113,-0.5981797844343175,-0.26897285942335747,-0.48158563477644123,-0.8539881894659678,-0.31899374645920253,0.023524010817359005,0.05396253578827333,1.8284684805506957,1.0913887032699956,1.394278143693682,1.2121495068745496,0.5446250645482227,-0.11699353145167103,-0.19284796437160734,-0.82706969162955,-0.9130132659791037,-1.1258124517692008,0.1414829100114677,-0.6015549381386542,-0.18649810639400907,-0.016412009095776548,-0.7990233747768974,-0.3667362085624674,-0.28147723615061193,0.10259866662944628,0.7910321563903884,0.3923083119496134,0.4419185805535967,-0.49219896936647867,0.4357123349554742,-0.9140847536554668,-1.493141076612914,-0.8842727458416948,0.48088870777499315,0.598039406836289,0.22960567902236298,1.2407442667807544,0.7195202990990217,0.5845921817877473,-0.6607048280736268,-0.6598449170631512,-0.4599118421859002,-1.299527625308221,-0.8471798760921941,-0.3278267561406124,-1.174690041875155,-0.026698295354342386,0.39664182681406046,0.008098485944811624,-0.7605381347487701,-0.23284806161007948,-0.7155016875576592,-0.3514713556791533,0.7217721424954494,0.9554709136599859,-0.26097858662103934,-0.02255683364625388,0.31449199197875816,0.0656322157664421,0.11534775192144861,-0.4503783768288231,0.0012339178844432655,-0.6131082071547501,0.16427134282575123,1.4520669285955294,0.7661217802194482,0.3342728237219656,-0.3024866598615213,0.45580714055084454,-0.8849817336368179,-1.6122164902738942,-1.3488855052289286,-1.5219251446164939,-0.5486916956236133,0.5026967308402731,1.2380111743243696,0.45600018328267783,0.9086623280914695,0.8879166054785981,0.876683344281713,0.9107779788528864,0.965916637516053,0.2160501009666316,0.40936751689622264,-0.5137824383909728,0.22849562836944645,0.2510667321255426,-1.5495335243286006,-0.39836254278644023,-1.4059472483533197,-0.11999753066717996,1.1084717005549092,0.6976647184921265,0.6106511989919348,-0.587409598409569,-0.08270742038362504,-0.379836164637001,-1.2872024455037148,-1.5288993217412625,-1.7288888623261864,-0.6725377988151215,0.9276544325345706,1.4170151194189184,0.24719072709938522,0.3508464560790686,0.4103405785134736,-0.37641255751046865,-0.465891637020078,-0.9483639742595449,0.8847830043470544,-0.5755543403363397,0.9089400560710995,0.1840719834712447,0.051521136033377136,-0.8439612959080349,-0.4291089052918784,-0.6095119736067731,0.9283532425923579,-0.5221225310122674,1.2462031729773453,-0.357242158204357,-0.3399451513402078,-0.16519201528794591,-1.2788489731543549,0.19036034568445825,-0.4622964344567215,0.3288484900495871,0.804112431696784,0.7991630628644057,1.1077517366471552,0.6343821705606498,1.1646233434160156,0.8915769094157698,0.16549866550795045,0.3297304044215133,0.4670699018708153,-0.22753236333892587,0.821417123498954,-0.1531780640039762,-0.16439787350819388,0.15784504317722178,0.8240639029255304,0.6950500186511441,1.0242405057188306,0.5965764236994502,-0.05634649244149438,0.2201629369679694,0.8289543597881538,-0.2793032350908261,-0.42847278766538527,-0.5071406203770222,-1.4982828175708107,-0.874081300058621,0.999973822085583,-0.663431603969642,-0.7758770153258442,-0.8275460442476776,-0.9857450460105069,1.3602180987630172,-0.21643265365746633,-0.5307347662319855,0.45081300105886424,0.4458859919899969,0.7689710284977957,0.709438564241978,0.8211634947141533,-0.7923370869710388,0.5893760365448086,0.7176221381170269,0.6026519806391437,-0.452240156564685,-0.2986529205186556,1.047954843826305,1.1022102633451358,1.2480985440514465,0.5525065582116594,0.38001397486939564,-1.210722141683872,-0.6319921646011036,0.2608123455723005,-0.7737520535036044,-0.10090604574238234,1.0329583737095698,0.6877467180532668,0.3191261450691243,-0.6672063406594912,0.036157173817149814,0.06203275248118321,0.06239491825529211,-0.08147485103487592,0.30384439180506073,-0.1231887842160759,0.7127094157196019,0.8215351212447178,-0.24050499901714417,0.17526663808797993,-0.42537135618016275,0.8976509641523897,0.46943228615559235,0.29922486571976975,1.2187065911511779,1.0982144253692998,0.33207034536238045,-0.46811586155522705,-0.6068136632874634,-1.0868180226321644,-1.1852491133330656,-1.084085150855099,0.8058533895244662,1.3518522604546597,0.24496962024560956,0.7756434613831831,0.7764647976464856,-0.08918814559542651,0.06964429881341729,-0.43692906160818856,0.6459762724254967,0.08197483780674635,-0.04461226401234438,0.465362636720095,0.795432033257115,0.8433062680836516,-0.3328293895615524,-0.8243913188954547,-0.10453327604621775,-0.29710720789733924,0.6930717051720665,1.3213767149425049,0.09658739703151287,-0.2674044420510122,1.0680887066564797,-1.1264383809517755,-0.6308563961526023,-1.3464436737463235,1.0067952199490688,-0.5339581569443946,1.022170655478623,0.23701724665456864,1.5655767216975742,0.6475182362967077,0.789629947512303,-0.48246464061177813,-0.3670866413194801,-0.6271668321396282,-0.17481084207678518,-0.6549736311232929,0.7535355181355027,0.014083366900060804,0.032991675257016295,-0.4004340590861022,0.36337090118006576,0.5861711783455997,1.0556704336157552,1.2118778832009944,0.03296386940192569,1.2812249976580836,1.1998471766055336,0.9438370072101213,-0.546807269185845,-0.20662267396818013,-0.15664583687099676,-0.6059547805495319,-0.6156781237742349,-0.2157446372281049,0.11143746996911734,-0.08828951288218714,0.9989171563533247,0.8884752573946341,0.5629340697488426,1.1180945706676306,0.2306593959542531,0.06145816233751645,-0.8895406652153603,0.04956353256661772,-0.6167015334707998,-0.11155857732342936,0.3745982917723307,0.5115318182227058,0.7973689429629086,0.6815242807596062,-0.16108489752992747,-0.5933073243318447,1.239695734666322,0.03872109399490147,0.928820534326738,-0.31668182270409834,0.5726976829190565,0.9669107225387823,-0.6235862919983617,1.0594360614912524,0.38302321533481204,-0.16933151533017185,0.2815002117375261,0.5745263732841033,0.9233535274484271,0.3995714877710964,1.1404336600760427,0.7532557458516111,-0.7500754434843009,0.8488482523764033,-0.07034728198045549,0.7441515744897139,0.1102277309219314,0.7749207306378103,0.19846376378441022,-0.6199015638862475,0.09993401777581572,-0.5017180954691423,-0.0941336266032985,0.7563819352383879,-0.7839627157989799,0.3224613042374999,-0.30458602157903775,-0.5694775059967768,1.3722068537353007,1.0532839814046215,0.9205690442701172,1.4973741847607405,0.8904518574287178,0.3126043189010287,-0.8472372097779985,-0.6597980077936905,-0.005340483406187954,0.34276030745940217,-0.052901247698979977,0.2200379437340359,0.6437405663440571,-0.9116543596249813,-0.040653295372087596,0.4910647316186872,-0.2892316528348615,-0.8869034252401187,-0.5015573606828032,-0.09115220630318355,0.6499601511589272,0.9355082194927086,-0.357731592994901,-0.9490474877581788,0.20632989672520005,0.6432434375971027,-0.846077111373621,-0.1838594940676799,-0.27068871203759415,-0.928651420863567,0.026528854017086295,-0.9796513358647427,-0.9971905989798315,-0.3782293284640993,-0.21079396428660052,0.2586625731465329,0.08757120173839393,0.8384977280024192,-0.9222684203091136,-0.7782406315639009,0.3430007881360657,-0.4850257178017767,-0.013151024505022427,-0.05147564641545532,0.9332411706655566,0.6670566796465054,-0.16584386538403484,-0.09057464381645741,-0.4979385483225742,-0.49266105026838325,0.4257213872412347,-1.0655438301945035,0.2559265655725334,0.12925998031987776,-1.1200960567813294,0.31451323360274014,-0.6338286715136113,-0.9447008449302398,0.7991635815853366,-0.6182913949095467,-0.8434229659914665,0.6730603603484971,-0.25406991805166884,-0.07378458240193113,-0.463251110037649,-0.152364111912859,0.25297645502975924,0.35685265029420554,0.5627375745653734,-0.8886666194567624,-0.9974851427540667,-0.1503776034351365,-0.11342344102663482,0.532584776263691,-0.3917410550200293,0.34224540508458223,-0.011369919373391824,0.25313717232226285,0.3955308659685264,-0.7609524245354471,0.7686404803673417,0.22429995179124576,-0.2191605088562388,-0.29305490254757016,-0.4217223497890437,0.3454399088571602,-0.6492734235968657,-0.4173391535305725,0.44809698398623443,0.14570745633849116,0.9755680420507802,0.5746122377733741,-0.1299955141240788,-0.4933417181859047,-0.7991273651741219,0.19542551631000382,-0.6378669553823784,0.46702196884908953,-0.04011100849022298,-0.0865372446796493,0.4567390102467619,-0.267843317155005],[-0.14635131554258107,-0.6446860238767556,-0.6925173399885853,-0.33983423354739073,0.5885159920112197,-0.9432739016380733,0.14945969986277352,0.7194724065046294,-0.3247752263624988,0.4222213199914078,-0.9142348387418433,0.2676682250585909,0.7546030048904435,-0.35320252638463856,0.2709228361810345,-0.752826199566198,0.4075714443422138,0.2377575262434508,-0.5386937993691598,-0.0676388438937876,-0.8881651443772098,0.47145466982579043,-0.8845193311971511,0.2162366811969083,0.1268204560695676,-0.3705038715976101,0.7527795951503726,-0.9092017849118477,-0.47994032102402184,0.1812153733703321,0.1163180102132173,-0.04630466431667424,-0.7076501859243429,0.2139867027382507,0.8370402452690118,-0.8335252651126034,-0.3782454604998952,-0.6352026946093897,0.7593526870938667,0.8815827124398329,-0.4297464364626972,0.23293730666191723,-0.15961378334717824,-0.4074076660973015,0.3979548952868323,-0.082188262528872,-0.22398949475448995,-0.8572917717490152,-0.42647188031541355,0.6352794619232635,0.4197201776103686,0.6399669587272638,0.41827576955826906,0.3473911075988896,0.6726716916575928,-0.6856241996979606,0.24362211186060234,-0.8629252039253774,0.5578025476764354,-0.9246517725667618,-0.03229733670928092,-0.38103677137690495,0.10988688601250912,0.7666421118779094,0.9550962859473704,0.5778544916068346,-0.6290459027365332,-0.8770304698622724,0.5799420408951919,-0.47056346948533684,0.1794447712720645,0.7638650808816088,-0.023575520539658397,-0.0042437664447602715,-0.7665183254839049,-0.11372224823428796,-0.25493969172788605,-0.7672561626467979,0.2400811009577886,0.17272441044313658,-0.04568483417070016,0.14604929775211084,-0.04565927410972592,0.10790524961125936,0.7646084854194455,0.04457429905674859,-0.2728142086669645,-0.9970983295357398,-0.3573089427370301,0.7365254567199265,0.04844711244913229,-0.48929425885772687,0.5188890143854776,-0.925370183066116,0.12180239439823988,0.07740964613474391,-0.5806237767054175,-0.269590385986919,0.16611279122576175,-0.41017775567438863,-0.5484656559994417,0.9566915157543805,0.68773363417394,2.0752491148571682E-4,0.1746841587326912,-0.027148631227811453,-0.8109930090447791,-0.9188436487198492,-0.464848047822498,-0.03272104664034248,0.5401946545535752,0.7749796150834929,0.5277310636838104,0.14686546621118168,0.36973775186096325,-0.4539163469092311,0.9629708376156261,-0.8018196969345053,0.737729496963584,0.3113071781512061,0.8836692674613014,-0.8115351234636415,-0.28501881431312703,-0.20550121449521044,0.7325609161483353,-0.11755578047507395,0.15883546575660595,0.006532177530659164,-0.19126430331877656,0.3900360682698914,0.543841804382312,-0.4479558886255756,-0.7075917735512448,-0.28662266231232586,-0.0951931052799279,-0.30811387205472035,-0.5631630137052202,-0.8641661224974313,-0.26495758410620773,0.030432858296851384,0.5559927337837558,0.04648790227295341,-0.4418083249132285,0.8565035095460835,-0.8753404428665148,-0.8027160087198648,-0.9682871290302382,-0.2945886734455486,-0.763643029035726,0.7320599046820527,-0.318324161513828,0.9308242078186745,-0.001454299749103317,0.5518216772185941,0.20838363921430125,0.17579503376520228,-0.29364208053025953,-0.8380876577924778,0.8615528714348528,0.10992090902600937,0.008086233413344409,-0.5836923780605868,0.23057947898609155,-0.31526912329826234,-0.9219571206368345,0.6486562441805476,-0.5313611497671623,-0.26312808512334507,-0.5667642044874637,0.3231675829248346,-0.7492272996423215,-0.3193925610970461,-0.020686973711316687,-0.43298271535891575,0.6204599802667079,0.8665107444850709,-0.5617530977646796,-0.8524244065193928,0.5257981464523578,0.09822293186100138,-0.42251198968534565,0.23539226610087208,-0.2371586646948873,1.4311217644968446,-0.3185351010129734,0.4273838955830889,-0.3367007239102445,-0.6655169519704827,0.022191775527524917,0.7411724871705688,0.1738125213977098,1.1912651689311684,1.2399143307204343,-0.15485555166997228,0.022312914529407545,-0.05633227891718874,-0.8378262973980564,0.31089720757258343,-0.0319051818290516,-0.14107732955338625,-0.29746126755952507,-0.1847105393358596,-1.1032826982837964,0.05948028527751305,-0.09452252875781621,-0.45389129061894434,-0.1118325255806566,0.37764059486909574,0.019365545618429444,-0.1370949377920104,1.546281503338972,-0.6235375252324351,-0.07943703259839918,-1.1612633754139432,-1.2465579946082586,-1.1481512272434682,-0.3139235871675684,-0.5714983495956855,-0.7484112374333105,1.162078928842517,1.1876184628575945,-0.8271232278678378,-0.29605731850396616,0.9449618735656313,-0.21616996687997286,0.03562318047784269,0.35011741963882337,0.7223755934281035,0.38816496283422863,0.21970344880254386,-1.0373519976974497,-0.5894668703465797,-0.7058835470718867,-0.8760522495632341,0.6923659160901724,-0.5940871267351068,-0.01863170820423339,0.46380142547902825,0.41436710884490247,-0.30574912142903254,-0.08985947673131696,-0.9193803276410215,0.22434582341160178,0.49831740961688875,-1.004521868872838,0.45965964180185237,0.7402017602721875,1.274439940415129,0.6366476191004398,-0.677280640681999,-0.317343863064245,0.16468672155314087,0.9509518179911877,0.4765368693514995,-0.9183351947215472,0.07240451537511879,-0.5849060164523493,0.7920798397575604,-0.6586611623157861,-0.15059941775804891,0.2500309894939431,0.7101849733760599,0.43100539986623343,-0.3720605538982599,1.1481813467070547,-0.19849812641278533,0.955739815152822,0.057993690882606024,-0.495508577542058,-1.7137652167977624,-0.060015133235785535,0.30495497853004044,0.24346369801226195,-0.38312765210190786,0.3464317522808616,-0.19755056143867405,0.9441493179747426,0.5737648035748277,-0.041932457283048175,-0.6716985978279528,-0.8578971633738196,0.25416687607419103,-0.4350732397272139,0.6159671257338655,-0.7994111668005672,-0.7671822169278685,-0.8171736659074295,0.17178717830530693,-0.7300957085826256,0.6928488348952425,1.0248232944268405,-0.18137818367430167,0.948509005524608,0.8973696926394412,0.291240578405043,-0.7293419748115152,-0.9411436094157278,-0.43620841406421235,-1.5477867556884657,-1.334910278981731,-1.5721688286548596,-0.08201015917122711,0.4534237438960594,0.5498726128827034,0.20536181289047764,0.7259786929851367,-0.7334499056232388,0.82749144252497,0.8847828903351623,0.37332669360596904,-0.2743522431280175,0.8359113299268085,-0.781532784024469,-0.9436172535683028,-0.9764392901387439,0.5107888509812283,-0.08719247670770462,-0.27750491901738644,-0.1006601313826574,1.3514100071907467,1.99205412005766,0.20439048723054945,0.3711746887590246,0.0296916461381272,-0.9178022740521334,-0.05218622541299062,-0.05710314202659723,-1.0983335227282516,-1.3472473697387026,-0.02289052764109864,-0.7701206815808098,0.7288824695567523,-0.4872562916000911,-0.24671062597502263,-0.031120976340072617,-0.641804658823057,-0.7749282527397598,0.9284073042072746,-0.155459508790223,0.520853891193695,-0.35666506898676,-0.5365679750943158,0.1916133516436654,0.29241659422180216,-0.5657497298227573,-0.3579527208623191,0.5872022323047293,0.5102326796868136,1.3479730830956527,1.73487699614529,-0.06755609395167413,-0.28472498165748694,0.1428144918788744,0.41591721244815194,-1.73649353316638,0.32238689795797526,-1.0697735290300479,-0.518530986086017,-0.020531964095786143,-0.47602767751689584,0.23445847879178122,-0.8620253532217805,-0.4400080596379915,-0.4022339556511205,0.7378934319323294,0.6231642562218807,-0.4400274455821641,0.9287857000241062,0.7394067865267044,0.6559897345937913,-0.9029208528008068,-0.43373438144996584,0.003101498152676416,1.5998106655635902,1.3898390314918723,1.6696641756314303,0.06755066040192792,0.4380773988090302,0.3052501657999124,0.25244902959275106,-0.9145222756574695,0.5789858573647976,-0.1871188488598216,-0.6908286251087876,0.4985907200517607,0.707156932356296,-0.9786212368619684,-0.5185063350885956,-0.859947970656882,0.6022807002948061,-0.5250099087164407,-0.7689906889984099,-0.3837755957544635,-0.4110224604997219,-0.30799175406487805,-0.39981973780780755,0.274246926361036,0.2822254084561452,-0.6349365833350783,-0.7959659687519649,0.2834829976332923,1.3859617433235198,1.516935669815244,1.4829728169576726,0.5137516585511981,1.0842503894194,-0.8731918260421305,-0.5625725160899359,-0.8429671699253333,0.3300967327274091,-0.5930930039134209,0.6440566117170606,-0.32478877615211554,0.9928581710367578,-0.47949434405193947,-1.0159476220875021,0.550752236926547,0.8569220503118734,-0.6117804271340496,0.6997180704628494,-0.19089937521304304,0.3338938563831695,-0.019349198603211,-0.40598035713849406,0.016177576995432985,-0.875288147555119,0.6030335823911067,-0.520487332664494,0.5801869901122707,1.2139156336824855,0.44276897532950393,0.8010042142033118,0.14714876173935057,0.33234930945814695,0.17049878789940792,0.07537968072522779,0.5521014895215424,0.2128583300289704,0.7555446721455307,1.2834378118547722,0.8706927260372993,0.3899464092771052,0.518350628751846,-1.0022711902823727,-0.28940540045310204,-0.4780390927687025,0.31515161662895363,-0.8676324867220035,-0.2024930760161951,0.6100020072959251,0.08205689883849376,0.22850820116117773,-0.7654818016703537,0.2555037628902984,-0.7375409839942061,-0.753937449753677,-0.5269616530978419,-0.0698096954375755,0.530279090800977,1.0007716881082254,0.36606510142428983,-0.29943945811293327,-1.2375431825376453,0.025150342143818564,-0.17256561302168974,0.3685098659364422,0.8093743432476943,-0.1956697548780812,0.07945859704889363,-0.6722778258093267,-0.02640456824207544,-1.190778781409173,-0.7429892695629822,-0.4450455114485487,-0.684394391216546,-0.8201415105368711,-0.5961718204550104,-0.3144975539356318,-1.0191296026570784,-0.07509912114418411,-0.20650176594084602,-0.6918820439122042,-1.1618196476054876,-1.2725378810021049,-0.8322084049265966,-0.5343200069513765,-0.13378369680211133,0.11994430368801533,0.150216450557334,-0.48611248472421703,0.12709929296477848,0.06158957345288631,0.10345218298440635,0.41555843337844633,0.6920721587337639,0.6690975611555886,-0.0701613281252041,-1.0382082976539262,-0.3558478347944593,-0.7522977792687374,0.462524493171335,-0.5857979721717743,-0.38975689606061825,0.8842324004502119,0.02469669495418496,0.052003298052432215,-0.9790816227695702,-0.9928246917233017,0.09920993480498018,0.6497488895960314,-0.32856992361604087,-0.7229037255668801,-1.1016289333117046,0.7527624331279172,0.8883070327861655,0.20552654729321035,0.21720863049028688,-0.39575467031596956,0.4255089621871566,-0.3512518443228167,1.0565651345263118,0.5226475027252638,1.1490293409412407,-0.3957199484128042,0.35417341201478963,-0.3362037363196819,-0.8657670990873066,1.0354258498551439,0.3004331204769331,-0.5893286323105613,-0.21522058662835644,-0.42902481324826813,0.8587014672615225,-0.6113115588149791,0.4886131830395443,0.38883891781861335,0.12853725354803494,0.7389232759875927,-0.6634578687853033,-0.35757278382940644,-0.8545673507479893,0.09596714130729084,-0.2863262753289924,0.20118624276928335,0.6866695458040981,0.02586230935080897,0.8333768912400757,1.146800556885819,-0.24109573390411246,1.2147454975969194,-0.190899780413322,0.8540318766449941,-0.6627423064070567,0.5479772324621196,0.2959287332468966,-0.4748873857821098,-0.5122124734083777,-0.851891915435331,0.1145735071601922,-0.6509545596507206,0.06959096035450463,-0.3971796255748646,0.6315659889856658,-0.5238769598183213,-0.9956194421988582,0.6762591366868855,-1.0686122874420094,0.2997908343904194,-0.5446909593405598,0.5397889144243869,0.42929591951198154,0.6985024684727491,1.0946339802263625,1.1673847345545552,1.065183061702904,0.9825630633178936,0.8010335679276055,1.2764285703415241,0.0012137052196331205,0.5102672794273593,-0.313242515406589,-0.13373682161277733,-1.0341087254946613,0.3774073746608837,-0.05729467433470956,0.752799397825859,-0.9626621529318032,0.1262689735617104,-0.6178081575243357,0.09693806877178117,0.4598087930876729,-0.3725986534584485,0.35345030447042397,-1.160708208053677,0.12888726206547194,0.011588596114169614,0.792913990469613,0.7872736907598828,0.2884535244023825,0.06306926369707153,0.9405434490405441,0.5540979300573398,0.7077381189214849,-0.15897934134163752,0.8891081086234139,0.22109392858759297,-0.29641871201415604,0.7716113769821057,0.2242305206482515,0.9631346308871481,0.6035945322447358,-0.1512108025154134,-0.10544343380403928,-0.15150041869348754,-0.3496482439886302,-0.008164583835977623,-0.6475319645439788,-0.40758884725397904,-0.6789691171470064,0.5884250873169916,-0.5707332581058419,-0.9482439796934228,-0.9546598590245736,-0.8144161396651598,-0.6907583180262731,0.25924203799665824,-0.5154996024437484,0.3614899494716032,-0.43312518035475106,-0.40398055628427343,0.8995024022073552,0.7410314850742367,0.2539204240347373,0.36023004786125945,-0.5353794002547253,-0.35700857317028095,-0.09750797319378073,0.05627606545680843,-0.5628581121344273,0.5676651286625418,-0.3895387360780079,-0.5732063908561772,0.6284234864245919,0.5037032712479697,0.48473736585847194,0.6383666619586479,-0.6225301325325863,-0.8313234024727848,0.41458302179388967,-0.7665045849890167,-0.7317069152879454,0.798419482722228,0.45846359151338506,0.4865457394860681,0.4868078600214282,0.11437590823734282,-1.058655826278233,0.7505514396188544,-0.5408208389879818,0.34230108106937274,0.6762864453345822,0.6495255599501278,0.5538456104207657,-0.24192266610881008,0.5978762482505672,0.04486352485472233,0.4800321716857337,-0.12073662886915244,0.9207477600722928,0.0670347153717973,-0.030545585096449335,-0.2314977935447795,0.4882263239092397,-0.5447815397449363,0.7053931128090165,0.2895732162591273,-0.14685239882624873,0.6973742874201366,0.790035113167935,0.862233431101951,0.6490793800283495,-0.025963220368518766,-0.32508478808196156,-0.6455353496413759,0.659194737546283,0.9706596064714164,-0.5845231751636322,0.4550642772761609,0.7278498858466489,0.28513400852717763,0.923966780479763,0.5273535904681498,-0.46627607291189804,-0.20368291702604163,-0.5831236148310316,-0.06284672490399973,0.24211012396202947,-0.14297808429656889,0.43335467200950384,-0.7600167119698313,0.2717781077287562,0.9571095684418978,0.2219766692523928,0.004890205150925904,0.5584173190056455,0.2444340083997666,-0.2596903686650017,-0.18074935213547116,0.2260471486376369,0.5802109991941717,-0.3262186685592313,0.5131053852078865,-0.9602091268400686,-0.020420877507064315,-0.8559334957780922,-0.7943368393459678,-0.07845346980757566,0.12244239175208847,0.4323709719336255,-0.7278309534859793,0.1761006176338972,-0.6092592855068529,-0.8198098673823352,0.18752499731442931,0.5196507996037639,-0.7742888392202592,0.132008962124748,0.8922650441711326,0.7696711725448067,0.6825267341509249,0.9048653395784074,-0.41312547905142727,0.3568351551004772,0.42458972240902754,-0.29531796654662335,0.5217354278886239,-0.9310544026746551,-0.8473763377262881,0.7861256385526689,-0.9937739724753162,-0.9620174398083743,-0.6345664863147374,-0.5534003025621022,-0.09552663231749316,-0.33932830668563496,-0.9178933160469199,0.3285393054282299,-0.24951494265570345,-0.5411158290378584,0.39493735175984185,0.7086873209642368,-0.8552011432088166,-0.45263695276664073,0.7194642537872029,0.49086728812501734,-0.16016401615092324,-0.6268556690168494,-0.06548375677095475,0.5912472573646583,-0.5550893243034993,0.742604409557305,0.6309253486657392,-0.0037500894297425986,-0.272968812879949,-0.09042343243734419,-0.9624495246757327,-0.046899786258996726,0.009294523091656163,0.555626781825582,-0.20182129295891657,0.9675325283056372,-0.5539459856522098,-0.9363218065877633,-0.9368460919810575,0.6311789271950321,0.6485438984543557,-0.1607176890991526,0.19770008060145008,0.7621807908712668,0.008320375220379983,-0.5766111258345925,-0.8270731029339233,0.77055056825064,-0.42021059074947154],[0.6113673216771505,-0.3082780485771355,-0.9806057911305175,-0.1051916372379389,-0.5666284903976744,0.5573090066152779,-0.6725517410452244,0.95262863504246,-0.45845513293486184,0.8902043846084289,-0.8433890318290576,-0.06943988640701959,0.11030381256652265,0.25783243563068753,-0.08747090701121919,0.12332223146163468,0.0814940257565051,-0.10817216673796115,-0.07018924358997847,0.4096871560970021,-0.35660227854330806,0.11686458030429603,-0.8236517381256208,0.14857565821176077,-0.7982912312197974,-0.1253822577230599,-0.5133724772410415,0.8227824651272475,0.7822344836795561,0.7987297502464343,-0.7782109960312755,0.9770225879514869,0.7992224509315888,0.6813608059425244,0.6497040983117331,-0.9694572329907084,0.4247368098391628,-0.6378984873387925,0.07277689232774787,-0.5589453096724076,0.4490155256554347,0.13375357377055969,0.7491397343804431,-0.7286802682953191,-0.6547159502393953,-0.5886320258305674,0.8614653772926525,0.7674880238072123,0.702087498782919,-0.666844237836656,-0.23160533774620348,0.8104729360985681,0.43488988260895733,-0.8545092536591339,0.40351348807207676,0.35772660826243885,0.4775008960538487,0.5789680405228632,-0.9702127364395565,-0.49481349715151923,0.3506840462179527,-0.4559598847677216,-0.7093136516285373,-0.03085049804506719,0.8405750284321418,-0.7612242857040834,-0.6399362877976772,-0.6617502120924155,-0.011095805436409156,0.8125051186434433,-0.9742559243390976,0.15895842930783644,0.15188446100605543,-0.39429931167236626,0.22166843159493982,-0.4242242445253588,0.5055077855805311,0.8108123117391945,-0.9340688791220096,-0.9377753423729626,0.1229151918909763,-0.7411230221263108,0.3038452258787854,-0.4387674548920517,0.37842077403505936,-0.6643207797328172,0.2876543178994888,-0.3999622951993378,-0.2230082140615553,0.5634228876839757,0.3457084950547018,0.8329701745366715,-0.575194201448152,0.29535375009999143,-0.8052820400287526,-0.011657725691635375,-0.6699834842639644,-0.7561238043150186,0.5691223744395261,0.6002317384909917,0.6332540067582129,-0.9036377301797465,0.8434676184991508,0.7381727718433294,0.39359069931928736,-0.006514688248322832,0.49194762661098107,-0.3580684065301039,0.6629990685089642,-0.17252358511428856,-0.5524218562104637,-0.9836519868815616,0.31718800895501764,0.2162430579568395,-0.6007920777843039,0.61662912741719,-0.9257064130151083,0.722247768785384,0.2658278714795412,0.7069148730134793,-0.2276814992902179,0.5922614695307972,0.8847586410640165,-0.8552429416823459,-0.7835139606474171,-0.19832570292799206,0.8828529519431604,0.44267246258295057,-0.8507220693515722,-0.841670329509743,-0.6592594257994375,-1.0559722487613572,0.10198380010774492,0.85852354599054,0.3752644874115209,0.1520338018045742,0.9275961682848891,0.667756392414748,-0.46455834003426966,0.24614294231377398,-0.5938799217523172,0.6123980449339497,-0.9559993728282775,-0.2732685816688954,-0.44081134639486863,0.6735634308251613,-0.5014845648930852,0.35020490348124667,0.7726562583607263,-0.3840447359389675,-0.2522955744039884,0.9888734888977341,-0.17069534140532241,-0.8877448133191471,0.2403098181338809,-1.1398135547461006,-1.3068844236418706,-0.9728000093540349,0.5922032537823152,-1.0399890114830765,-0.9313973389429564,0.1976417598132665,-0.9977578449368284,0.3407173893908861,0.29984872456309464,0.7372377814807147,0.07928062983088975,-0.20378849841802033,0.030666958716991877,0.6536734282578649,-0.7059906302280208,-0.5395066352221515,-0.4099799110030998,-0.5597165168029019,-0.16724120591753802,0.09205040891898383,-0.5413706435085306,1.1571524645496192,0.3262318639582605,0.15877314835534817,0.439453256173192,0.3469090469961872,-0.8361613972514822,0.6010093950277857,-0.3544862541144973,-1.181755626553827,-0.9791174710016212,0.8267903124233282,0.29428778045880843,0.3015427496537499,0.017960758811231693,-0.19737440823856475,0.2105757850910291,-0.03991686745556132,0.38648728458411047,0.8253273696062929,0.6839460558978313,0.4233421534256692,0.9714999302438609,-0.7560613650259038,0.2309896844110322,0.6653514061404886,0.4611229702544113,0.6780817504637522,0.8614160368868111,0.3018091027828789,0.185286988489583,-0.1400616610959674,0.6616186560069637,-0.04153603814087141,0.245792212650241,-0.3979093085044617,-0.6477469282158448,-0.022811982569068086,-0.6841636139835519,0.8863695010612583,0.6569483980861274,-0.4883775709071024,-0.6423791696864954,0.2664377687952971,0.17110312597542596,-0.3503398610030601,0.6155623955624364,0.8947694517684354,-0.01027276012597581,0.28738965419753126,0.8221419858449698,0.2665422531010898,-0.2857975267686198,-0.707375192346161,0.5712376015429926,-0.49748618019372676,0.051710632093123966,0.34346700507431754,0.8047593858705292,0.2846447564221622,-0.09467795274850153,-0.36069384732382026,-0.5150906804545293,-0.4590385464476496,0.32251623344868147,-0.18499602701727103,-1.3722144287158764,-1.0925492658463054,-0.2081210713176447,0.08617500421056533,0.45308937976222485,-0.16472172326583495,-0.04410025289050582,-0.760173641869492,0.6633099215688197,0.18629975461872084,0.8175128395442233,0.1721649052161987,-0.9157339108119184,-0.4006434615871634,0.19952599125631898,-0.26799815552910033,-0.5642358905676662,0.10223134762369686,-0.3322754502347319,1.0537814315233511,1.0718240685852352,0.37484435250726733,-0.6455918852514063,0.0064620474165623075,-1.0638351503198251,-0.44476044742338977,-0.35249637908033704,0.6745913963920069,0.15200946913821037,-0.14293217774171924,0.7181956482769966,-0.828797932540749,-0.6767088852072645,-0.22306614186182105,0.7468601674919279,0.9562192999593556,-0.5762483309532324,0.8830702883389189,-0.8635953832200592,-0.24131633279279935,-0.8238421182699067,0.3932379545872967,0.03220930391516482,0.027046422406842092,-0.9710207290117366,-0.7341401986152216,0.3031335744189951,-0.3154911708974608,0.23803887296328352,-1.3821783887432553,-0.7429939047625,-0.9999470778254487,-0.4996634825780894,-0.13344824347498394,0.9717548588876027,-0.416843409679494,-0.2883194669397617,-0.5582222851560004,-0.6400438329150817,0.24185276558802002,-1.2717120622229645,-1.187129703877389,0.9248340707723964,0.6391820430740737,0.8491186022860652,-0.38527315656087074,-0.8110135248488742,0.39664142429599847,0.5270100551173765,-0.7739638189091206,0.4897683776938788,0.4732799905618632,-0.41218562128823055,0.1986280356064306,-0.6836450403111568,-0.810280265039379,-0.22651277712541576,-0.49734569089099245,0.3860511522504291,-0.5692332291835611,0.5860686908423833,1.181032714403769,0.5689788515347532,0.21280220832788777,-0.3058826051379259,-0.0730203589204728,-0.062480289723918184,0.017020293717069066,-0.1178585455392862,-1.0884493770118326,-0.9621017191641397,-0.07784600535389949,0.3790892777047034,-0.9382200935851314,0.6816041647707494,-0.9685066772716796,-0.8764152859313428,0.7718001660112526,0.24399974908571656,0.19898927733701158,-0.013277067975601669,-0.16078440987136863,-0.7318838726679286,0.48088251894560247,-0.6001770679908781,0.43863296080125913,-0.07696023748598085,0.8058058018019162,0.4452423362015666,-0.06682557366009355,0.7142973436788241,0.9192042265538509,-0.8357497763037813,-1.106356975742757,-0.013411455047907209,-0.6526104648937672,-1.0143597118869374,0.20324616064734757,-0.23171751959430117,0.7321650751288103,0.16497716996405262,0.5233553399099775,0.9972609842175795,0.6502411880473833,0.13683259375894125,0.24623163261794412,0.7306197719730522,-0.5249248520650391,-1.0387319667444046,-0.4059682698177045,-1.2303811369730848,0.2552999115665501,-0.9769424821432359,-0.21052317331103257,0.7288779477842282,-0.6993781242411063,-0.5931193792120881,0.9692100143607199,1.1787403097501001,-0.4023183429425072,-0.20448217214739015,-0.6396088915988978,0.42329089968811545,-0.30390247788707186,-0.5577584656417478,-0.8461979079044294,0.3737761717236928,0.7937909169628916,-0.46925567864422113,-0.46019691970622656,-0.0699517371826821,0.630909038796424,0.6924842155481565,-0.7045638110193497,-0.0857175318571528,-0.3320725451168144,-0.33053010801237326,0.6611825287260732,-1.4423047655307373,-0.4295474523203025,-1.2071440307352106,-1.742512020827199,-0.43757220084451426,-0.04127969582544076,-0.8621390707349842,0.7948896662436171,0.5278795158216479,0.3345814743220478,-0.8783331718360935,-1.119302918746944,-0.37916551842768287,-1.24546246890755,-0.3533282407894568,0.24461544672159824,-1.0253361170617776,-0.8243132953314983,0.9824873046730875,-0.32999317545923956,0.12195102993191753,-0.04743520940013855,-0.8513903919819764,0.8604733132331336,-0.18823479079848368,0.7587632840238956,0.4967780138241852,-1.1556713840269162,-0.3201425949901341,0.056708263556099904,-0.4528513565126187,-0.04264029758359306,0.35707856228073476,0.4250395364742378,0.4221982797721881,-0.1483631299990905,0.03426464553805747,-0.06520203172463852,-0.20514255217292182,-0.39665673796918943,-0.20960425637670776,-1.0108092026651463,0.3675254691574804,-0.7942250969249859,-1.012769307557686,-0.44936645824606836,-0.1993992267062322,0.7698637660467145,-0.747972542131986,0.4840095574593017,-0.5925620654644955,0.47733650621968976,0.8300838751241907,-0.3719656660250431,-0.9624802527804636,-0.7340750434890166,-1.2636943400425416,-1.397368165554972,-1.1022741961810065,-0.48589446741192627,0.50994581646568,0.4810514940608523,1.7414096620966273,0.2551226167241913,0.13657785128333985,0.5639815026705797,-0.1618562711969968,-0.6870757704157213,0.2778530686427321,0.779458649700709,-0.7642689152113963,0.19041753730886773,-0.5502236907025052,-0.18493928691457948,-0.9294899763968838,0.9044509392764388,0.08459148739309352,0.5156054449640683,-0.5889294380755778,-0.6176880469244391,0.5313789134375032,-0.2392098397628643,0.2578165564776354,0.0872525530060845,-1.06348564384493,0.0607852390252212,0.01926246246043527,0.2137598562042997,1.3760257360212924,0.11719862857479883,0.2723360334210826,0.9212932106680953,0.19633716843611435,0.40206057030592,-0.815209817342862,-1.202726713212095,-0.31785454534812174,0.4757619587674325,-0.4722894800101184,-0.9929725318535351,0.8327100100549614,0.04225341444142034,-0.5985550825053338,-0.5071995086817133,-0.27283236602723404,0.33363592855358254,-0.8716931088426595,-0.7329988619310921,-0.9850555596090074,0.3079224298052036,0.30724801368382904,0.5961393542029435,0.017206947453529582,-1.214490718245251,-0.9159464130304809,0.23781083466758723,-0.15914551493669157,1.083478104536075,0.3835598411805511,0.15708414768411855,0.27819048454986933,0.022311151148551235,0.14747040928686075,-0.904685085384828,0.007418255761504427,-1.1938243530160952,-0.9831215528379696,0.132088177289877,-0.6729293327160535,-0.2661656742229545,-0.16865400854476437,-0.5516312142389286,-0.11937249791090276,-0.040531397804625335,0.9513621611009558,0.8022926142655198,0.6832326375933961,-0.7583862928035278,-1.114462679086915,-1.120933161299364,0.258956967594996,-0.4685032436935231,-1.3285672212414392,-0.5271400767488399,0.38603440217262797,-0.7700169606173136,-0.9065370888798705,-0.7567405057031054,-0.2364562066247967,-1.4003876912992428,-0.23170904720985755,0.3237253294480012,0.29176384037405406,-0.28008880674508646,-1.0196056770827746,-0.11765960107660584,0.04991339968949507,-0.29355587170671327,0.34045084997502967,-0.05248574294779816,-0.5169414304218274,0.1842021273921146,-0.21888036841661287,-0.4675496475478405,-0.1809362727027333,-0.580924810898562,-0.9693116463356799,-0.5644257498151528,0.602590920753404,0.4028777253236082,-0.14809163276022905,0.18588578325245136,0.35607761756635475,0.25729419837680645,-1.202233444358157,-0.6772285100235784,-1.1830160586909089,-0.8604962568887022,0.9402455871402726,0.07455759011292255,0.5635675242726579,0.42683564200505897,-0.5556477273468875,-0.7909060725583956,0.721123448202049,0.7106625938935441,-0.06040174286418792,0.9710005180156063,-0.04444451098315194,-0.2715757312471965,-0.37480944074799805,-0.3002853193899955,0.8945779857026402,0.10588277721967809,-0.813311202514663,-0.008521840307867977,0.9657520702041991,-0.9639148898327579,-1.2372753912379229,0.3291393727744653,-0.02339458248835526,-0.8748208616193337,0.07503828820317503,0.7111029809920751,-0.4153773665468315,-0.5196202561644914,0.04547224428771413,0.5291499351174925,0.2874599641555057,0.21207767111985534,0.07835840390558203,0.4181928062822816,0.9827828423507283,-0.025683767863384502,0.8567904934527686,0.021997367027652315,-0.747733398485473,-0.2598215171389213,0.8365907245389753,0.478002489060587,-0.4839968190045381,-1.0279566337816486,-0.35172807929123695,0.3227007758319722,-0.15438073914170822,-1.0947715824052338,0.09776027796372876,-0.9770728583143089,-0.44511035323109677,-0.8361318423461804,-0.8208045850976385,0.8166225339467774,-0.5531090771909217,-0.13047563573351012,0.7897983093110026,0.5147943730162371,-0.042302524303897145,0.9336757910744886,0.07863632923554986,0.3860839403178084,-0.2309386867969176,-0.8895342236993036,-0.5092907428278152,0.322658617563387,0.09866656627998704,-0.0829052480451895,-0.27593304681328473,0.6980372083387816,-0.1618888448853426,0.8614683577025752,-0.8306902414551315,0.02658866231471416,-0.5827803042588634,-1.0196208224231513,-1.0443422868001082,-0.22430714373363927,0.47878903978620097,-0.3099137821867168,-0.48243254489399306,-0.4930153414583937,0.9588195783242894,0.9754449848795439,0.209716060097382,-0.19649402252751166,0.6121178950510113,0.276885538416285,0.1222455436906883,0.795802277197351,-0.863803359718279,0.7042550714091833,0.8273099771053056,0.398122986975201,0.17116864951161426,0.2982717185605748,0.04432464969070571,-0.19838238826333518,0.09732578838969638,0.34328873902954926,-0.5107785203142806,-0.15039646482903346,0.41353133562774885,-0.24156668703054454,-0.8920409830916634,-0.44066357788976435,0.6072694159283567,0.2167598117216861,-0.7681626184480592,-0.14374829704613243,0.740389679770445,-0.38240336279539366,0.5570447791180804,-0.7406475315636879,0.12472803575269424,-0.47490666620959826,-0.704860812564449,-0.3530610973328422,0.27749626070494987,-0.7330546297051282,0.47715007482292543,-0.7500128970814277,-0.4721698640555252,-0.7812338447066833,-0.15910084307676065,-0.37518346132905234,0.06190573163300973,0.8529405731980713,0.9786549935244762,-0.04674079325771166,0.9372827004201479,-0.46121128117301574,-0.9088973878667916,-0.2618049420593358,0.5036436553933992,1.1978080754165519,-0.19482343571670407,-0.27764924014147757,0.6569429415755801,-0.4523819518675507,-0.02096101137840527,-0.41384620841506264,-0.9075189217859347,0.7416191954037396,-0.5318512739442892,-0.34546079012579217,0.31323356458184115,0.8478989011074252,0.3774309860346512,-0.7016264633074443,-0.6559555237905765,-0.9456858982444611,-0.7488743527520199,0.5728407642043192,-0.01302924473452139,0.24892034826368517,-0.9270044211532473,-1.0130400742648085,-0.7754408762056574,-0.1988500650563486,-0.5034176913375047,-0.8805868913936967,0.5498310849316518,-0.8829871648353158,0.27171849788141733,0.2795120128800512,-0.31696536868210234,0.8859116027443505,-0.17784252054706912,-0.8693405490205185,-0.44862590553479137,-0.5392315816911651,0.5468762817380877,0.5658888101417485,-0.29758669746894806,-0.31762261377169176,0.21993102056153346,0.9379910405736487,-0.06124497271476792,-0.7938263203353202,-0.7624526246412069,0.13324895870295483,-0.41585866286464257,-0.20670029063103942,0.41606375679444535,0.42935137819700525,0.40667347791908515,0.9411975925270629,0.6915406627113262,0.9802524832457855,-0.562111369313506,-0.9382306572165806,-0.3875534681621666,0.923778998249881,-0.806826140151992,-0.056502970021092926,0.43558513328295273,0.2888974977839012,0.8390357067749971,0.29322451673845107,-0.47893042903333183,-0.7383677766846808,-0.8483501085469889,-0.9945149973322644,0.8777382426672313,-0.09289856174887778],[-0.8041340871755263,0.2857458267518813,-0.27329388015969314,-0.1231411789895025,0.2713939087524291,0.07857063289668109,0.9519959691641171,0.5817334964581211,0.3697440217692536,0.7759785648196744,0.8047643005185656,-0.8181173722918167,0.9373137465908055,-0.8652878636623575,-0.04191790070588697,0.7669028183054092,-0.2519147330160578,-0.11079214478359534,0.9474469094428666,-0.8046856907518365,-0.996418938437323,0.008954081998431507,0.9058446157546445,-0.09035944062105283,0.394758744784268,0.5229065372071875,0.5047994622328233,-0.2906781512232266,0.7921655356006616,0.6558937346756728,0.35074042283146634,0.942217693683963,-0.5251865600651473,0.656713331110069,0.7364032900632842,0.8664680353032179,0.3648782218146631,-0.8551159194793816,-0.3901212306581787,-0.9620015934093102,0.6033511325366417,0.0530755394996619,0.8808063777953541,0.4879977493352338,-0.021453336405816106,-0.613628834184631,0.9188379060372996,0.23883440877687637,0.29244049968134195,0.6788665870383952,0.48397827496021184,-0.9461144723842417,-0.7662425435040354,-0.893441884232834,0.5701857256085379,0.05670706216424226,-0.8627805364980992,0.3706484508237464,-0.11232192965320009,-0.45978166976283874,0.5421088651522676,0.9250676492869092,-0.43283840391851813,0.6477453153943857,0.9428240891554485,0.30992775706111997,-0.686682584316378,0.20816923949205596,-0.2041866426085647,0.11511236400136138,0.7565193891696925,-0.3577554396877238,-0.642912493578863,0.5933213626751982,0.10703786535106749,0.3757166611841911,0.6975811825295405,-0.4825811107950688,0.5610411950422265,0.392106671816105,0.6317605500141972,0.0418222314523784,-0.13563235493671333,0.7185730811685349,0.61233011445499,0.12725312354542884,-0.4158001254471919,-0.7558489326918416,-0.14349691936476328,-0.2342035431719209,0.9676400226880526,-0.24827160428969575,0.9445852145825943,-0.2782777305525725,-0.42610215075915775,-0.7511425126935544,-0.06405980825370255,0.07912243938563322,-1.1268571575852695,-1.0971028072080764,-0.16495438611592808,-0.6745109217355248,0.5701052300497558,0.5310691092622286,-0.7125946914305111,-0.6110971861041242,-0.9990472535392185,-0.8132230275876765,0.19644778715410272,-0.3995261008352042,-0.5223165389104574,0.2640368636710426,0.5648003777640747,0.10426388083387716,0.8200416398961086,-0.2560959324605156,-0.10203931985541155,0.5212739998080206,-0.4363738017432686,-0.9642194786439768,-0.2792524989879241,-0.4674540610928728,0.1964608410985458,0.12236504202525368,-1.0248046913516002,0.30844577282026386,-0.505970232691696,0.18228306232102698,-1.4381127788317913,-0.8807925932500312,-0.5339469949530417,-1.0433663081355027,0.43110443132061405,-0.9370587759490695,-0.09283354895764961,-0.7195187439329601,0.15104507163212855,-0.14690897117765478,0.901419904561521,0.9772650443489685,0.5703802482403704,-0.49330804039077125,-0.963820648914642,0.36047616864490556,-0.553221707832084,0.22524714024116263,-1.0234851395241193,-0.5280884808446563,-1.3749877605166803,0.3371274092288123,0.28852293212900926,0.2912320454703048,-0.7242183198778778,-0.49590883977310785,-1.5202752215334467,0.0654182161557375,-0.9406113865550012,-1.3863391084647079,-0.07014282158857592,0.11219131527358357,-0.3014699501857845,-0.878891268562533,0.8692559422806587,0.315154470001226,0.7758222971630527,-0.5640023045958006,0.7413136080389326,0.702940465368581,0.7209152746381422,0.27393569144926655,-0.5005755352204636,0.8978315906313019,-0.5317534018290233,0.8438459283417362,-1.254577050939069,0.18618107498486733,-0.6102494308934303,-0.7068072396657439,-1.2834668301820085,-0.1996447981821492,1.1027360202212972,1.1351175469168178,0.5809052609302108,0.9844074467784826,0.9597905877142968,0.15944655290869522,-0.2035215557491988,-0.603070479638794,-0.5371958105956839,-0.7278288547442185,-0.7249077638069019,-0.7311853930790284,0.3651333943635869,-0.5417823980077747,-0.9433895897101586,-0.45463528642663,-0.8741437004034303,-0.2705659075204909,0.3160174573928589,0.275803699225985,0.13328796265135034,-0.23488510048014946,-0.33610681957049704,-0.5927131451325562,-0.44113975414063983,-0.6082599024941931,-0.4111931934533762,0.4603729619984787,0.970472782766422,0.8183424942657472,1.3510761069252086,1.1298326741866507,0.6475823916714183,2.0099497391586714,0.5249349077345217,0.2937427269043887,-0.2763642790833932,0.48269905278486397,-0.5011516160325338,-0.011542097812493763,0.7543310029977016,0.45036412069390386,0.05740086980481229,0.198804062538055,-0.5645689192114933,0.9560013343695399,0.11284565797661698,-0.4878137682059506,0.7676596928110903,0.5072056982839356,-0.6564338448921558,-0.7005741621149648,0.3724199482966945,-1.3532518594715925,-0.4254356315965073,-0.20760521510724564,0.925600846883139,0.4298189013637047,0.14642146573031467,0.22426387862088176,1.4176294438775334,0.5275257035122574,1.3954467836113404,-1.1085073162023895,1.0114013973075635,-0.10100066470869722,-0.6308084335819494,-1.1324092928404472,-0.12997773720941902,-0.6623898672760911,-0.29022247016196456,-0.7678229096759004,0.9999194501322833,0.3826987500261921,0.055879698850712194,0.014467853840989848,0.4160091304075979,-1.0708222532293803,-0.0659468399036055,0.31848800441129715,-0.6608157183590704,0.5851492642952589,0.6267230674929426,-0.46481753746824084,-0.13914953700673943,0.3055427219799919,1.0715884877262944,0.6661804092982807,-0.12317065237073291,-0.7105020147341273,-0.8897396551833141,-1.6055026147335796,0.6186311110628758,0.914533035199867,-1.283912504020458,-1.5343958080671611,0.3724723923604435,0.5337538946553619,-0.7829615735342635,0.8475256676245884,-0.7263904717786478,-0.5239447205243078,0.29627796880312957,0.5643395964279009,0.43091945673868826,-0.6663471820600997,-0.7961258347129087,0.3309105979743971,-0.2746180097203701,0.1630103335872885,-0.5874715033255881,-0.302158423646929,0.4020235639601689,-0.6044210123020658,-0.5364183293234146,0.26419699254191037,-0.4614387689576121,-0.07307392177178877,-1.6120241706503324,0.47030211372327063,-0.6927755608360029,-0.7645162678037246,-0.1435524707295943,0.6019907661740237,0.761391668158464,-0.9946280277302773,0.9521461087316724,0.6000133389188158,0.2536638166095848,-0.5784265345969558,-0.6197082189681363,-0.3164446215948699,1.1599991001039482,-0.6344082678615939,0.7658317771525855,-0.08963129902634129,0.9883444023028451,0.7419628207504148,-0.802579695106912,0.1655416435394667,-0.7573696424136382,-1.0258288784893184,-0.8050492844870686,0.12580722154545446,-0.45953177471627843,-0.4704723733628285,-0.9328903608145122,-0.5549436832574904,0.45334783450825844,-0.2590143115276129,0.17126067209718385,-1.038759969161511,-0.9369914555760898,0.14309856162364043,0.7356066298047721,0.23237761719146968,0.11325782043510757,0.5572482866470767,0.044094569753860925,-0.6919127412903144,1.2435071606372063,1.314120059689114,1.2886137783281129,0.1820498244998968,0.6854948816948883,1.1108141385650097,0.732365361528223,0.09426506171927447,-0.5228462846604479,-0.39599564922552877,0.6473095950564951,0.05888996669575219,-0.5188768749026134,-0.008198585688363383,-0.5875432262184759,-0.4122439941617132,1.159994931627672,0.5695396667032859,-1.071509795730511,0.591758967185378,-0.8525463881318462,0.03147888129541756,0.19318945383944486,-0.2812686722378708,-0.255024186523241,-0.32202140395074264,-0.09186722277813383,-0.009420852630215356,-0.053988777338551806,0.20074621241432686,0.6069726713395225,0.9601854389052524,1.3807445822702766,-0.4155152905840804,0.33847486987734676,-1.0917948912975932,-0.46074077330439994,0.3722528924828345,0.9695164244542122,0.30482923547055335,0.05453570394638159,0.15095406771566194,-0.19661235136230645,1.036819544445711,0.696289061528844,0.02465403005191216,-0.6877896398965873,0.4613983155126627,0.3327902059806029,-0.2782235260029364,0.3796829254551407,0.1590506955843909,-0.3253548516169438,0.500396959445196,0.42482532359570346,0.7402549021870751,0.2334097216120317,1.0496275845741523,0.16998970373774372,0.6468737303029584,-0.11914674685193713,-0.5801466074206815,0.587410513556859,0.2979411232404898,0.1163526085235196,1.874536598988081,1.8307190381325282,-0.08677118902204295,0.4804504393081795,-0.021427250407638522,0.361822303940465,-0.08988103607824341,-0.09016103209910073,-0.7489609539242785,-0.14898707290362742,-1.1267941842722364,-0.5398693591537155,-0.15779453853708025,0.5547644851064595,-0.647610883611907,-0.26264479229242743,-0.6070585550133737,-0.8534793157527882,-0.48091788644817435,0.12371381997996501,0.009441540517849149,0.3098750519666757,0.2927039536557623,1.0606260453708005,1.0869191363388064,0.8522490965283818,1.182669762635647,0.15242697598355695,0.3417827196221003,-0.005032481177862354,0.39902763986936446,1.0570579724548224,1.2843792164033039,1.2431783123660474,-0.5837196163231553,-1.0563837319782179,-0.33618077645708716,-1.3045373120636272,-0.8811887273963417,-0.8684834986903156,0.5247192540477338,-0.7245231435506561,0.4401124621621942,0.026609969397483283,-0.011860789380997355,-0.5915726406205402,-0.8981482438550149,-0.47697050611933367,-1.1483335191370838,-0.5847772816696246,-0.4798901137009913,1.3096503940874185,0.2758009062469762,0.3495966034920504,-0.6550602176015139,0.7805657750554047,1.1823660749413873,0.7034567919656272,1.0693450235614048,1.8132402335072249,-0.2902894154962513,0.30261348637869623,0.5480228869674331,0.15864951364420699,-0.96223172667063,-0.9720003779379198,-1.122242886365145,-0.09539857348262273,-0.49131082226333345,0.32172085494550834,0.022189564891712872,0.9341719225401854,0.4916984694554435,-0.2093812381503016,0.9689351826843169,-1.041609930603817,0.25103603168246913,-0.8514392955946705,-0.8188901350105262,-0.4956014057909834,-0.5601047086037784,0.11332082266057872,-0.44024624361897946,-0.21399236776256567,0.15557291893825223,-0.3565606139655435,0.2134023104816567,1.0855314020755737,-0.9969981390450383,-0.5519548734927032,-1.0881005453656625,-0.6351701520858191,-0.20629612289634489,-0.3115847579060178,-1.2482196788708484,-0.7505807040256036,-0.6955232127496875,-0.10309130582470602,-0.1532297560151637,0.5923040318671231,0.3843716650652039,-0.8028766660715371,0.6441920745614111,-0.9907520296641892,-1.5583401703297672,-1.826364052391863,-0.9426539484190927,-0.38760743878439524,-1.8574464586014476,-1.4085474539369331,-2.0588790738763567,-1.1651981633754924,0.17441997420843458,-0.38810431830994063,-0.4272414359814906,-0.6079443146215245,-0.39136432120596754,0.11083616691412576,-1.3863808307090335,-1.3146918607534865,-1.1931181049145836,0.2604740455360416,-0.8148145341025858,-0.07606517408952997,0.34458188432007025,0.7404873745041448,-0.2462686368497391,-0.28824024251889435,0.7878277396462282,-0.14196102607627814,-0.35586152471398147,-0.23126449329135942,-0.6495024168312995,-1.1396137263219361,-1.3942208547314852,-1.095359223885597,-2.240922935447492,-2.3842877762597796,-1.5099199817657405,-1.4418921709816717,0.4472976773943229,0.20186310654693046,-1.1050327766335617,-0.9219473615886249,0.678102897951365,-0.7541656284268452,-0.49762626867122556,-1.1181148664117777,-0.4323617511146026,-0.9857071648749519,0.059651422016216454,0.5757375194483445,-0.3966557807642048,0.9135287728592442,0.13121237282501946,0.6780055311118851,-0.9760324051598455,0.29067924659872146,0.5975148673232553,-0.9111518245721165,-1.0585816418363292,-0.033016188362390175,-1.210829612239521,-2.0493866320909606,-1.79699412164918,-1.6719469882126206,-1.4006114692574096,-0.48879912261095637,-1.4610214679602156,-0.41725619485532184,-1.143914393189675,-0.8634122565400462,-0.8462936060517766,-1.1371575202240687,0.19381963871434524,-0.07212244485614529,-0.1544639954113316,-0.4581436220059624,0.0575281887827091,-0.3042531604826025,-0.22406206319170008,0.027851722712148114,-0.11866335761001316,-0.17519348857264827,0.8455119969850134,-0.7059490326948686,0.8271735876807494,-0.3566867563624046,-0.9580449505653261,0.19935961038399047,-0.6104553283923367,-1.0705266212029425,-1.5285759577433569,-0.307065761222898,-0.168658828327693,-0.9321886127995519,-0.5522258969450689,-0.8672223534433835,-0.7250909961849734,0.5626910297429929,-0.4761331269280977,-0.8822840346426373,0.22957654618510506,0.34046214509524564,-0.6682819160795713,0.13533722247613036,0.7486251369089953,-0.4520475520872883,0.5104021766793347,0.6309805342049272,-0.630182340221253,-0.9515566476723412,-0.5509377082922255,0.6867102912408098,0.9161585120126008,-0.8204378618253046,0.5603302219878028,0.0027437622143708187,-0.7612629746667221,0.09134655143644424,-0.10138653970267941,0.8129174290196124,-0.8058987470361916,-1.2737396000050802,-0.19178371836483551,-0.04346608021975094,-1.1373870765549674,0.7206951237709263,0.702883564594544,-0.7958314675819332,1.266807581882141,0.09918306816150571,-0.5512782064688688,0.5218914348090075,-0.26865685813929785,-0.9202191946727803,-0.7244738828288666,-0.163154572755931,0.5800026958809377,-0.6425294417862033,0.7056015819430443,0.155241220504807,0.303313004176605,-0.5457847826837039,-0.0026193827386031443,0.16434154089560646,0.5690558531795537,-0.6862597210037079,-0.13591680004528003,-0.9388332135908435,0.08333256885724266,-0.8739353280633623,-0.7794659031708254,-0.6735634393379698,-1.0119133031194902,-1.0443670447561362,-0.11839286919247588,1.3434184148356778,-0.3444908924615271,-0.5422801943047896,1.0125769940976288,-0.8105082927053843,-0.3967649444457096,-0.5976006404257016,-0.45841593581901396,0.9603467487238161,0.4406667006268967,0.572065864244262,-0.9478637723679386,0.6912860304529475,-0.48037683904596523,0.5672747981852757,-0.9083772520120325,1.0124836782785922,-0.3365606452994537,0.675420757408533,-0.7602443658619221,-0.8457374182929189,0.23205681737372763,-0.5318355330296531,-0.34672255970540655,-0.2236216948556712,-1.049242281653657,-0.14196890766044074,-0.35854742207241125,0.9368954774022474,1.0731724251800658,-0.26975536946526657,0.24765487708477824,-0.515829507365892,0.20035678739511678,0.301683448463701,0.4583049954965492,-0.38125071203890126,0.7598988664927506,0.19366238708183037,0.18582477540317033,0.7602448293159361,-0.8389519839698525,-0.6672577677729452,0.4101171350653718,-0.10660134688727321,0.2955171921574963,0.021837558765458703,-0.3615623263073241,-0.6988653924403802,0.8019715218532624,-0.3593843706093905,-0.0021390141734076527,0.11865656551693933,-0.08069602615148402,0.8971139903153726,1.3338637406014975,0.8813696835111985,0.8365992469888479,1.033259878456933,0.3680894568822138,-0.0855328125092004,0.45947740990589503,-0.8753533041187084,0.6382331472073388,-0.09321275901105608,-0.5219451013318106,0.45969428291489667,-0.9133236528241839,0.7793481193938365,-0.9228209590981508,-0.4342040319900621,0.8713385197830155,-0.4738441516829808,0.6307042112921778,0.5582336835360363,-0.2753205618501041,-0.041297704259297484,-0.2384950388074366,0.479630886217485,0.09756601776519096,-0.6393241881774154,-0.5992902589810823,-0.6193681224803224,0.3260069769046386,0.8490509738965574,0.8314796423641355,0.03246469225933566,0.4674367426859973,0.6466940730231734,-0.6878361729994006,0.784491282033392,-0.3037839740436634,-0.440101357116615,0.8581175996049957,-0.22007123834373843,0.9671384749222023,-0.0787534675400563,0.8136919755442042,-0.0360399509116644,-0.38003619643180303,-0.723622654197477,0.6057336746833475,-0.2477996736491618,-0.5277040912086003,0.6762644538737648,-0.48362958890855046,-0.9515816625599537,-0.6907325291941817,0.07561662582855445,-0.2799260363951943,0.827579020503548,-0.9694387210236163,-0.5648803796743128,1.0343786248429865,0.46148559474396383,-0.9402939148562874,-0.4546519736851047,0.3780009353039011,0.8550308189341242,-0.6152689418713819,0.4609961169261234,0.8358876172437797],[-0.8800030338316553,0.5066671747853715,0.3698311964334271,-0.7015998084143522,-0.8162433551503074,-0.6850877505855675,0.15728843335896525,-0.5463192793331983,0.5611055736357935,0.616997654822977,-0.3506595507691501,-0.043871148896851286,0.8393084994274819,0.9401581180465861,-0.3850826526307445,-0.5306553770686095,-0.00428029074422831,0.8651651919200423,0.30722609786602106,-0.8432263131535556,0.8423206276845163,-0.4063395974281756,0.28130887939833116,-0.6496594435197229,-0.19158340878625668,0.7107186151156144,0.5008416989210867,0.0433712496772376,-0.5456230501884225,-0.8233613115863772,0.3350638059643598,0.582622050483957,0.6034416156645523,0.46637829472311426,-0.062008604514856736,0.45970547082335306,-0.22274056781555107,-0.5256665085959283,-0.21201866023217303,0.5800472049534847,0.8040604308644498,-0.6908082204873616,0.44806433422794073,0.13265031342678743,-0.3226643332324389,0.41651060827990344,0.8562816042984254,-0.08855633974687321,-0.08201894058464884,0.646466717345341,0.31736582768493854,0.09901711767069199,0.26634034197916256,0.7435060009474981,0.6399844509418395,0.9972469397465618,-0.8447769704958279,-0.404272760610908,-0.7400451281322475,-0.4283910856998203,0.1770435179551741,-0.9210768852668024,-0.360900726116325,-0.2903183479208058,-0.5117103891583689,-0.2571405969878765,0.0211119520120808,-0.0015095110230256518,0.6739500999233792,-0.15974931693686428,0.20814096301256002,0.34965490724990445,0.024390223095248846,-0.9130811810269164,0.8528926434165586,0.9150485643982728,-0.09506010989340584,-0.8395846419479339,-0.6484766511305414,-0.02316412136123083,-0.6731572407843412,0.8408813389607702,-0.9545092051972339,-0.38969072333493004,0.11507635015382611,-0.3218605424770955,0.9893583873947296,-0.015240617029855194,0.38992634624513023,0.9704321433817301,0.757707803999548,-0.2135183840208615,-0.3375230189260162,-0.759879102986246,-0.7490039120522503,-0.326159053454136,-0.12427541353740172,0.0120084669639061,-0.08422647516315908,0.9094479404369266,0.35830153246524743,-0.7665194722020727,-0.48608114320030604,-0.5062163815453841,0.6522569820891636,-0.6396288364106285,-0.44134014358808943,-0.3408412098737815,0.06536572368432063,0.7152579797411923,0.38858838184833244,0.537303315580733,0.5206315101705925,-0.15313997133437973,-0.8043116023303662,-0.9798408141990895,0.44295623382786087,0.6362812439118511,0.9086808542904535,0.5892810317067573,-0.852994248258577,-0.09988674162740475,-0.6997626273319149,0.0937821263592606,-0.38915915601274786,0.013416501588044659,-0.9382117114766663,0.18996477381969015,-0.33809797985361284,-1.1935115114281283,0.6623329322710219,-0.11912389516253624,-0.544605660586944,0.5683062333229285,0.5814440959539193,-0.8204464021802963,-0.5969728706229654,0.17693181978135225,0.7899507859350763,0.9075788500961952,0.5013753549344406,-0.2186686619377387,0.06955302788421602,-0.9879131387837882,0.22826444148969074,-0.6241934478121786,0.35299171937266965,-0.2543958045225649,0.43856200360063635,0.08948216509655958,-1.3036725940915317,0.3215467769956022,-0.4372148269045977,0.06904152795379072,-0.882456353149727,-0.46116064056522427,-0.5728964312712315,-0.46214613121939385,-0.585296142467099,0.5324089841409839,-0.669590059198043,-0.5861587549268368,-0.7276770000075162,0.9002196094660044,1.0780405033230438,0.28344356282384886,-0.4952921732210978,-0.2744905744950221,0.3710548766409214,-0.9462468177515748,0.2608701338369593,0.034886860250704456,0.5048681696588917,-0.6191258167830913,0.14451295636868783,0.3788589510671843,0.31616009764881375,-0.08509006181759143,-0.9990193048884226,0.44984521358394475,0.6915956365805852,-0.19584460345156526,0.08454302600478211,-0.6158348774969284,-0.07050976404516497,-0.6911454813735443,-0.03741890184464962,0.3141837161410968,0.8628224230739503,0.9961384433520362,0.9578572850801346,-0.1609436423012992,1.0614372081151997,0.8554214798708926,-0.9012942366317183,0.6356517506603745,-0.13843406169088027,0.5710418840925423,0.5492403792432953,-0.05522050846080551,-0.4790860619024112,0.6738913309406559,-0.6898822305320238,-0.7162229535476344,-0.08625348139409583,0.7171048028987939,-0.4807563468424669,-0.6766676100432556,0.8456222498669842,-0.7316706460629946,0.03414925019056876,-1.3289486423617243,-0.5978441439179463,-0.2558449541593462,0.41504864723434576,-0.3091973793542368,-0.3380674085735952,0.7243375754147171,0.035755839267778526,0.9153356253027232,-0.14279613524452425,0.09959004144320206,-0.9010888421541188,-0.14698636276734794,0.6180150331578621,-0.9335625536947979,0.9262698217962334,-0.5207327978424133,0.03267568245615809,-0.09042638745130846,0.5082270353828049,0.023560504523410748,0.4101419165855324,0.12864540481089892,0.46955566289875833,-0.3667896100382842,-0.23753852073311726,-0.7898333531808005,-0.5480390635447782,-1.088456958897391,-1.2630085743128177,0.29325527503605525,-0.3366152307911516,0.3205440194118467,-0.5779619479623388,0.3621185443716647,-0.953641005515568,-0.48107667185560715,-0.2294045403690783,0.6964492098245963,-0.8901067767994774,0.8514027539256235,-0.7196368952803521,0.6315707622762913,0.9058681753225748,0.6672144654145609,0.5337031058762393,-0.27802458771971456,-0.4938191624925656,-0.6109626095257045,-0.8525132317376114,0.1355686039985447,-0.5908501756604377,0.04832460442286823,-0.28187675955383007,0.3614269202717263,-0.6553339193224594,-0.7136874002313933,-1.1551983525849012,0.39137849765512406,-0.5672488942770004,-1.1313953330709157,-0.5049979246821762,-0.049473452766333074,0.78962795238679,0.08648450710226438,0.3490929685171205,-0.6363848217568743,0.17762151210484875,0.8721366731511372,0.7209601960731149,0.22805231441216522,-0.398766040406141,-0.8354033493673457,-0.6906553280499879,-0.16188077067278409,0.7413796472615303,-0.3002236714113556,-0.09780267364403293,-0.09836466780247317,-0.7741425136550463,-0.3184832375619649,-0.24326153518437796,-0.5696055225427986,-0.38400436750695977,-1.1216376528853975,0.67079275888263,-0.5440412086860698,-1.2654543139012704,-0.5399290500192653,-0.9831807034023256,-1.035111761418208,0.5126756884594331,-0.28247152946540355,-0.2175322707641972,-0.7444046738556015,0.026757211152611832,-0.49229481191672936,0.43956073498275017,-0.8076410355509591,0.903291807452186,-0.9949485286138973,-0.6934333118594225,0.7649923801209499,-0.14748500335665166,0.5414909231754772,-0.8290134469565595,0.8174272069009214,-0.3578094434992102,-0.10507439052853458,0.9122799423276187,-0.8265180317541285,0.4487230663050893,0.031230722876868178,-0.9933437957711742,-0.4039324604021442,-0.5395479640736659,-0.6573534918561691,0.04249182547961352,-0.2235044818090428,0.3605421620410573,-1.0995911859257026,-0.3178038398776946,-0.5752992811912573,0.19182369215601197,0.4275085636354574,-0.26433259669923737,0.7896074192908976,0.5273035030964266,-0.26510074125064503,-0.11064349717386678,0.670604212173832,-0.08135444308065241,0.8401293384172072,-0.17495018184323252,-0.46396470611009555,0.10476589591108858,1.4895090773396469,0.09526285892287346,-0.6247171847646189,1.2538172540339718,0.6304168292060857,-0.5889651200823532,0.03674174458527826,-0.5982181672915032,-0.6962318229412284,-0.21218809498888316,0.12321116752013378,-0.09731161418269833,-0.6415852022874388,-0.011368572034779617,0.5728266234692636,-0.5154084883592351,-0.11294473041910824,-0.9146007041959578,0.6960872584938953,0.4270974238139872,0.6353719918368852,-0.5877890198580151,0.39128189853146983,-0.2114601570981569,0.5126052608485555,1.1956171364220203,0.4005165471127031,1.0049011937415622,0.9751910259459458,-0.47260737740464437,1.2351548352717587,2.0330513864653885,1.767237749275726,0.36416288151653725,0.6947135088304479,0.07920448884533775,0.7398197621265729,-0.7646827489444435,-0.5824777445691797,-1.027027731368918,0.31403372987103073,-0.7398303419537856,-0.485692508458819,0.6281634230672765,-0.1161768495793929,0.14390323761682144,0.5318931922022526,0.7993509605172602,0.6662526367294869,-0.7988670509680371,1.057356772407777,1.4771327230761155,0.8417522736840135,1.200924922721504,0.994061182767029,0.7081082574971609,-0.2870037138742104,0.13536078398308068,1.8088227281065545,2.290024575501057,1.901000617429565,1.0228325607280626,0.5030504338314553,-0.6474595229305743,0.6561326448611732,-0.2502424870160447,-0.5678636675044374,-0.9451225020355726,-0.9959150989769058,0.6878584723348695,-0.9970786703405291,0.5133815540762388,-0.27278189507404194,0.9760276373108597,0.7380491288074938,-0.3837571434295872,-0.6868208202330072,0.39721131954869754,0.5742520297951185,1.5652694990864335,1.6526657014810782,0.5818707900168383,0.2381520762418877,0.4407769621251796,0.28181185956636556,1.6145644278920614,0.6977427045961494,1.133428943912986,1.4392548782673493,1.9276043195841368,1.385807713347001,0.018828170004426617,0.030264239602598043,-0.20819147714993927,1.225807719678426,0.04053977706411068,-0.37964973622778014,0.1185833596203709,-0.8047556625117247,-0.387431735239233,-0.5955511879902755,0.48712507240605046,-0.26019023181958745,-0.5609192726016073,0.9345289071606843,0.42799604656624046,-0.5736862639552843,1.1582903842405616,0.5193303960679292,1.6311482271129985,0.11170294439772536,0.17488917802544962,0.9077174480871545,-0.010343569876326559,0.9507568448173679,1.7612534337524095,0.8217632463639304,0.5755702416195256,-0.6697652868327447,0.3387007710258833,0.3939608385246322,-0.21865374541064,0.5944255250381896,0.6215074441970414,-0.8039020392376082,0.7432481874177961,0.3218324281574252,0.3117850047247137,-0.5883159237482642,0.5824868465467581,0.2102071153310167,-0.7028123304245021,0.43317518795535304,0.2635677992125696,-0.8334038897704203,-0.729053631958104,0.8421390920595393,-0.0832997527838534,1.2919260186109798,0.3659624586552427,1.1508294010183258,0.25048956143626294,2.0441946177521184,1.0028084885242647,1.124229643222704,-0.3907762494171123,-0.023747846794835853,-0.6324331717295396,-1.160622462891445,-0.5672225462243605,0.9396841290260198,0.34669967482714265,0.6180152821293505,0.6689916505221447,-0.23543340337289254,0.9689547281154739,0.6985316150598746,0.3283545732730807,0.0037567951231045455,-0.8365096189682467,-0.7990865933815895,-1.2337811809304708,-1.4816225398815182,-0.42810237345672253,-0.15273917131369188,1.3680867772761474,0.4510068837863783,0.6160126920501852,0.8355189933502722,0.17471482318832557,0.6367458113460803,0.15582324120633326,0.5257500854646379,-0.4026245579438499,-0.30504808716562803,0.4083554465392596,-0.9492466061508015,0.42775714758424094,-0.9483500239972102,0.4056312461312669,-0.5331282139181037,-0.7084312585260417,0.624698048853403,-0.5208061140042078,-0.9600139171334091,-0.683314615315036,0.8658498901844669,-0.29578429782888566,-1.0839603095256567,-0.22009011279735935,-1.2193999634921218,0.005663730649552815,0.5998274272920439,0.8315001967264251,-0.15526576928104424,0.8137726531891216,-0.17479325971846119,-0.24109048480155645,0.23116057541720839,-0.5476873618473665,-1.379532105311298,-0.85304679899255,1.049639104145941,-0.15864823837070696,-0.524579953275944,0.6929858630514718,0.819181962372618,0.5336191476054283,0.6757117445893001,-0.7457894454298343,-0.16401945779302762,-0.677333543447805,0.5035091581522702,-0.43657868733621874,0.1958520766108527,-0.6545513253266202,-0.5817637538617098,-0.4177663062152773,0.17124512460619248,-1.3966012956583767,-0.18848462251224998,-0.4745716655199041,-0.7457520631837548,0.12018436875932824,0.27755997401931853,-1.0458675845650498,-1.5670455715756475,0.1796650617365668,0.1786344566085667,0.44396076141930846,-0.19210497086391984,-0.534720742697687,-0.07880335846386484,0.655912476969548,-0.8228411165056851,0.3742800153253521,0.5494961302911242,0.11298449755937556,-0.8409299885915026,0.506966464103166,0.719923484211831,0.5597860984370833,-0.057901024200644254,0.8137290617601547,-0.14401098445177804,0.06286636289641429,-0.6817957115279945,-0.5316564398779099,-0.3214786273003016,-0.7786311845737336,-0.8951297928021564,-1.2941965482314421,-0.9265414558013884,-0.8472786240209859,-0.8572323099978842,-1.0612743820542925,0.2696154834772927,0.08834482241771068,1.1438144497040115,1.4102005954242027,0.6575419294744183,-0.16097192990044476,-0.7796070266562861,0.3207470247332001,-0.6699901126992333,-0.8364443946137665,0.11167860549567553,-0.6286272254747982,0.39531153650212847,0.611358803208196,0.3470153676412986,0.7691544703334365,0.5884037335672181,-0.8084995321029544,-0.6572786255002928,-0.12379439859298574,-0.324305925713136,0.08763434125763654,-0.8921187701695814,-0.27386261683473445,0.22753103918413953,0.40098033063031235,0.15887879913760564,-0.3654705118405956,0.41081549943294415,-0.8944816306378357,0.029113834608369218,0.5753501324617236,0.178406602555676,-0.18965782376089982,-0.7933589403745476,-0.5016889700574503,-0.5894064830705598,0.5334433817910075,-0.16978269171288438,-0.9857502199962694,0.917132809349677,-0.7355542161731479,0.15596435566970834,0.5143605910283195,0.2661370682805007,-0.3597778923419491,0.19080829400476756,0.0744420285321925,-0.8651158395082489,0.3551836390700795,-0.9132420917933457,-0.28268209543759576,-0.38143827702725935,-0.6408883562379625,-0.21108889469352832,-0.03795718825023799,-0.09664320738158268,0.6508750769858073,-0.45904061868669427,0.21237833939367048,0.11453332193793271,-0.18705141144736165,-0.9503934900265874,-0.24067513659232956,-0.09451323847772725,0.7799048700919237,1.9115476484654698E-4,0.04968757798937586,-0.9887160867529023,0.49684714118982143,-0.8649933174536282,-0.06030591166344225,0.2667344026325418,0.763077172929442,-0.9103208656424041,0.9709146708936194,0.795996673517249,0.018308012652518843,0.05712770464250423,-0.18347472501283776,-0.7131819989236415,0.6209116361190816,-0.10212269514671135,-1.260406916630395,-0.4098219962015499,0.6023693318209387,0.38156209879735686,0.7514005409294455,-0.5597779491809779,0.7902069796387907,-0.77270116393637,0.7818514397409736,-0.2789601104194474,-0.6238974252025299,-0.3855956962414669,-0.4020969987845848,0.19784434456427835,0.4043449802082504,-0.3126996689469017,-0.6401506097925063,0.6162836512875698,0.8078705722714663,0.9804172219778086,0.27780191201336096,0.4750438133156242,0.08214427271986115,-0.5355362404992864,0.7744743574813823,-0.8445500617830645,0.42898257424358144,0.045898773466045525,-0.18005740237874707,-0.19639207604532932,-1.1053342340675891,-0.6999830332865851,-0.7926152469360187,0.6375980060861001,-0.830475382078899,-0.5994012359749671,-0.31362795908684543,0.5202357467996799,-0.06210525709764384,0.6047370614910627,0.6568873082644482,-0.7282359680880939,0.3586828169703955,-0.007356988616856741,0.5179770631499192,-0.10941778902701826,-0.1443706284925687,-0.45106608238582746,0.15809435392310783,-0.38801673051425123,-0.052130023252535566,0.5867822071470709,-0.9223084850222588,-0.3776418827905049,0.8147927165931101,0.1421165039466063,-0.37238925866182454,-0.06456993395319156,0.07612587999385205,-0.03292559327903744,-0.48219772584961257,-0.4204914074949062,-0.5065035566778432,-0.648074373147648,-0.1715082480690777,0.3272410143490758,-0.5065067103474656,0.6016339759292528,0.65790270464925,0.20076646203308335,-0.9555549188229293,-0.5830786244575132,0.8928419446643319,-0.696585389377572,0.08253987700265664,0.505090275362595,-0.6512116543688595,0.2625589905225111,0.9084531433985437,0.6534102630496237,0.11188946320054691,0.6614822276056618,-0.9819010052118796,0.43898445838264344,-0.14441166111402132,-0.30925792895173615,0.42062083901320474,0.9876826253866262,-0.2165673684722812,0.026115679281476546,0.8576145741349135,0.39731668534759723,-0.0485628262518696,-0.20067076474277115,0.4612353841739474,0.5080468622307328,0.5974640639723976,-0.31374402714242944],[0.4013877097842893,-0.05200187418784452,0.4629035187871495,-0.1809298320974957,0.7845601903145358,-0.7887131163548029,-0.20220661424117936,0.9671011718479694,0.8968400675427122,0.4565924825030052,-0.5282923767053236,-0.40822172870123463,0.043863493289372224,0.030222899907268896,-0.18187068711319676,-4.960959447339874E-4,-0.2442577743754757,0.471006904404041,0.5470846963659457,-0.6132196722930758,-0.07518439391419451,-0.5059528765613812,-0.6780435996350416,0.9219671020667344,0.5640327245669419,-0.04587266115191779,-0.8849618498342224,0.1740326937631358,-0.6945895169229355,-0.888166804699581,-0.7057148134777693,-0.8228197959037267,0.5021544475733339,-0.339788813013695,0.5441043060288808,0.21124162765904897,0.8546689913806038,0.9170556864670976,-0.8140817139964536,-0.018748271024681795,0.8498247712042519,0.3476807578234087,0.2396307134124276,0.295627613809027,0.9844918187650014,-0.8447021844365203,0.6550065597084185,-0.42910412575585455,0.7384866697304442,-0.9391137381168062,0.542375908539823,0.531924967660887,0.5687241028519525,0.5917104782968541,0.9449578357118888,-0.6698641976959216,0.8155025635964663,0.2074011156358453,-0.27950738633681693,-0.031820580861716685,0.343494708275518,0.41478467798712715,0.4377606328554493,-0.6019139513768901,-0.015845650978183468,-0.3425880223590907,0.843957607217835,0.9509058442116343,-0.5971080167745657,-0.7870003969395785,-0.578209233382261,0.8593818614825064,0.8835120749683664,0.5917654204733942,0.8311609267151236,0.5635319965838722,-0.2930866190074976,-0.9990904117013508,-0.38687359636592245,0.11878016703282523,0.27222812629590054,0.32523814931091755,0.45216199493650056,-0.08684993696448218,-0.004366530644045463,0.7712319523908007,0.469544203121645,-0.4383915225742294,0.9803379464314015,-0.16842045299924213,0.5913402632840783,0.8767593168384238,-0.9159953386344166,0.5494949314741452,0.8360628418174365,-0.8985995013635117,0.5930639265189819,0.196575912180167,0.534641176474048,-0.2718432443626648,0.8592937891511256,-0.5662241375449757,0.9821550667267027,-0.23552192848686912,0.5603589380998389,0.7280285941925857,0.6008614759500384,0.41367292719503845,-0.06389102070789199,-0.4455894249625234,0.4238198472309127,0.577826667965192,-0.31029764379426883,-0.05783016075976999,-0.13044297743672884,0.11689412464367989,-0.49817670590850643,0.555585262358558,0.007105549749592195,-0.1362379516292642,-0.6914383527864325,-0.8115529712168963,0.35709843488761234,0.4912304989221089,0.9892358798072297,-0.6377477820351931,0.05430597520335161,-0.11574148579283883,0.2371104908557525,1.0450387380898793,-0.5899192925216343,